FANN_FLO_2.1
num_layers=3
learning_rate=0.700000
connection_rate=1.000000
network_type=0
learning_momentum=0.000000
training_algorithm=2
train_error_function=1
train_stop_function=1
cascade_output_change_fraction=0.010000
quickprop_decay=-0.000100
quickprop_mu=1.750000
rprop_increase_factor=1.200000
rprop_decrease_factor=0.500000
rprop_delta_min=0.000000
rprop_delta_max=50.000000
rprop_delta_zero=0.100000
cascade_output_stagnation_epochs=12
cascade_candidate_change_fraction=0.010000
cascade_candidate_stagnation_epochs=12
cascade_max_out_epochs=150
cascade_min_out_epochs=50
cascade_max_cand_epochs=150
cascade_min_cand_epochs=50
cascade_num_candidate_groups=2
bit_fail_limit=1.00000000000000005551e-01
cascade_candidate_limit=1.00000000000000000000e+03
cascade_weight_multiplier=4.00000000000000022204e-01
cascade_activation_functions_count=10
cascade_activation_functions=3 5 7 8 10 11 14 15 16 17 
cascade_activation_steepnesses_count=4
cascade_activation_steepnesses=2.50000000000000000000e-01 5.00000000000000000000e-01 7.50000000000000000000e-01 1.00000000000000000000e+00 
layer_sizes=9 4 2 
scale_included=0
neurons (num_inputs, activation_function, activation_steepness)=(0, 0, 0.00000000000000000000e+00) (0, 0, 0.00000000000000000000e+00) (0, 0, 0.00000000000000000000e+00) (0, 0, 0.00000000000000000000e+00) (0, 0, 0.00000000000000000000e+00) (0, 0, 0.00000000000000000000e+00) (0, 0, 0.00000000000000000000e+00) (0, 0, 0.00000000000000000000e+00) (0, 0, 0.00000000000000000000e+00) (9, 6, 5.00000000000000000000e-01) (9, 6, 5.00000000000000000000e-01) (9, 6, 5.00000000000000000000e-01) (0, 6, 0.00000000000000000000e+00) (4, 4, 5.00000000000000000000e-01) (0, 4, 0.00000000000000000000e+00) 
connections (connected_to_neuron, weight)=(0, 7.45370235766079769490e+00) (1, 7.43281081253296171951e+00) (2, 1.60182060727766772956e+00) (3, -8.44547958028849343748e+00) (4, 7.63260622081532336125e+00) (5, 1.50000000000000000000e+03) (6, -4.58818862869718557818e+00) (7, -4.77716207260941327917e+00) (8, -3.48680737351799097112e+00) (0, 9.79669754916639767828e+00) (1, -4.54620486705206827693e-01) (2, 1.27164877123409549853e+01) (3, 3.54783256047155903801e+00) (4, -4.96271116886763230536e-01) (5, 1.50000000000000000000e+03) (6, -3.93514754465925342686e+00) (7, 5.37071724354736623752e+00) (8, -5.23958544701666006915e+00) (0, 4.68403817345703821218e+00) (1, -1.49893404081356402457e+03) (2, 1.29079999079704271026e+03) (3, 1.43831999749183682979e+03) (4, -1.49710827905469159305e+03) (5, -1.50000000000000000000e+03) (6, 2.22471102133887121965e+00) (7, -5.37567079997255259372e+00) (8, 1.50000000000000000000e+03) (9, 2.99396804547176431655e+00) (10, 4.73272427744051782383e+00) (11, -2.21283465448476412973e+00) (12, -2.30771834981511547724e+00) 
