FANN_FLO_2.1
num_layers=3
learning_rate=0.700000
connection_rate=1.000000
network_type=0
learning_momentum=0.000000
training_algorithm=2
train_error_function=1
train_stop_function=1
cascade_output_change_fraction=0.010000
quickprop_decay=-0.000100
quickprop_mu=1.750000
rprop_increase_factor=1.200000
rprop_decrease_factor=0.500000
rprop_delta_min=0.000000
rprop_delta_max=50.000000
rprop_delta_zero=0.100000
cascade_output_stagnation_epochs=12
cascade_candidate_change_fraction=0.010000
cascade_candidate_stagnation_epochs=12
cascade_max_out_epochs=150
cascade_min_out_epochs=50
cascade_max_cand_epochs=150
cascade_min_cand_epochs=50
cascade_num_candidate_groups=2
bit_fail_limit=1.00000000000000005551e-01
cascade_candidate_limit=1.00000000000000000000e+03
cascade_weight_multiplier=4.00000000000000022204e-01
cascade_activation_functions_count=10
cascade_activation_functions=3 5 7 8 10 11 14 15 16 17 
cascade_activation_steepnesses_count=4
cascade_activation_steepnesses=2.50000000000000000000e-01 5.00000000000000000000e-01 7.50000000000000000000e-01 1.00000000000000000000e+00 
layer_sizes=14 11 2 
scale_included=0
neurons (num_inputs, activation_function, activation_steepness)=(0, 0, 0.00000000000000000000e+00) (0, 0, 0.00000000000000000000e+00) (0, 0, 0.00000000000000000000e+00) (0, 0, 0.00000000000000000000e+00) (0, 0, 0.00000000000000000000e+00) (0, 0, 0.00000000000000000000e+00) (0, 0, 0.00000000000000000000e+00) (0, 0, 0.00000000000000000000e+00) (0, 0, 0.00000000000000000000e+00) (0, 0, 0.00000000000000000000e+00) (0, 0, 0.00000000000000000000e+00) (0, 0, 0.00000000000000000000e+00) (0, 0, 0.00000000000000000000e+00) (0, 0, 0.00000000000000000000e+00) (14, 6, 5.00000000000000000000e-01) (14, 6, 5.00000000000000000000e-01) (14, 6, 5.00000000000000000000e-01) (14, 6, 5.00000000000000000000e-01) (14, 6, 5.00000000000000000000e-01) (14, 6, 5.00000000000000000000e-01) (14, 6, 5.00000000000000000000e-01) (14, 6, 5.00000000000000000000e-01) (14, 6, 5.00000000000000000000e-01) (14, 6, 5.00000000000000000000e-01) (0, 6, 0.00000000000000000000e+00) (11, 6, 5.00000000000000000000e-01) (0, 6, 0.00000000000000000000e+00) 
connections (connected_to_neuron, weight)=(0, -5.95928748337484659459e-01) (1, 3.86887464338078690407e-01) (2, 4.31582823061480713722e-01) (3, 5.67083228045239806647e-01) (4, 3.90692453497185898659e-01) (5, 3.45173964603556004960e+00) (6, 5.27203541158526634014e-01) (7, 2.83131109482312792736e-01) (8, 3.94853921002475694024e+00) (9, -1.31117545635616398331e-02) (10, 6.98412363895686505444e-01) (11, -2.59777912433717450558e-01) (12, 3.38769077654065675631e+00) (13, -2.52339907630917292813e-01) (0, -1.23010688930946313069e-02) (1, -1.86787257116777127841e-01) (2, -2.38610016327840457340e-01) (3, -1.67048962932569239337e-01) (4, -1.67775171023351404864e-01) (5, -1.85775741376649650149e+00) (6, -1.31490196988750640550e-01) (7, -9.58758773348381693191e-02) (8, 2.86856215934083391694e-01) (9, 3.99567194947366421953e-02) (10, -1.61806724222553516279e-01) (11, -2.09871717323617361373e-02) (12, -5.56787004252932038462e-01) (13, -1.02747629527291148288e-01) (0, 3.14896329305355618389e-02) (1, -1.55345353225605220526e-01) (2, -5.44948754109307667570e-02) (3, -1.76190967599289149970e-01) (4, -1.45437336454527110785e-01) (5, -2.82934359254411293971e-01) (6, 4.97334598500502340218e-03) (7, 2.62418328617444296391e-01) (8, -1.76035130890687119276e+00) (9, 6.62005189272945188117e-02) (10, -1.39529050717647883778e-02) (11, -7.35423908054883418428e-02) (12, -1.24924566020690819279e+00) (13, 9.03555328366241971259e-04) (0, -4.34061006469051546830e-01) (1, -1.63908698959944282292e-01) (2, -1.54676922960875068425e-01) (3, -2.19242082341311067539e-01) (4, -2.87007370396254124501e-01) (5, -2.56168847479836614411e+00) (6, -2.11045825503518358346e-01) (7, 3.64458132399896050924e-02) (8, 1.78664016221863192868e+02) (9, -1.42148536857651774934e-01) (10, -1.25676171551142440430e-01) (11, -1.85697080502994660289e-01) (12, 6.84501859113811832458e+01) (13, -2.83750800386490253935e-01) (0, -1.10976539973539640727e+01) (1, -1.67930585758973627275e-01) (2, -2.44496559219647829897e-01) (3, -2.41241609173108523256e-01) (4, -3.39912844317247053727e-01) (5, 2.51458126698178929814e+00) (6, -1.50429693419191101711e-01) (7, -1.00100289356554295050e-01) (8, 6.34779119447656459130e+00) (9, -1.12182257761816436825e-01) (10, 6.91666708342523861575e-01) (11, 9.26747566535948141819e-02) (12, 4.98900769331756954728e+00) (13, -4.28495947009010347273e+00) (0, 2.30449511668865507363e-02) (1, -2.15758520806621084676e-01) (2, -2.79516983474086155859e-01) (3, -1.53841647947619925008e-01) (4, -2.53860044921229766057e-01) (5, -1.89745615181373139535e+00) (6, -2.02175904021431152024e-01) (7, -1.21886520547574983553e-01) (8, 7.13755803698023716386e-01) (9, -1.34035740266293640355e-01) (10, -3.12997212354072795737e-01) (11, -1.19098405193238901512e-01) (12, 1.01029198809756623478e-02) (13, -1.12405642066439478977e-01) (0, 2.04794371840622602132e-01) (1, 6.08867969944772768898e-01) (2, 6.81335237458047693337e-01) (3, 6.56355936661062400184e-01) (4, 6.04098614886102724952e-01) (5, 3.99528365726255607626e+00) (6, 2.65224742280056269284e-01) (7, -5.97697277043367281024e-01) (8, 4.60888247597446376602e+00) (9, 1.12577021401851079530e-01) (10, 6.04124904940628315586e-01) (11, -4.11525447528075682957e-01) (12, 4.21062131942482587021e+00) (13, -1.13135412203191387803e+00) (0, -3.56202958717269715927e-02) (1, 4.20163444889737336396e-01) (2, 3.50701130641652314424e-01) (3, 3.24689216626836030244e-01) (4, 2.87519097043229310273e-01) (5, 3.14326198238301799393e+02) (6, 4.67744077444939676536e-01) (7, 1.81043522308284465794e-01) (8, -5.78757347629107687936e+00) (9, 3.27454008900797455262e-01) (10, 3.70454541757665234414e-01) (11, 5.06663107316413618975e-01) (12, -6.27387518049351289307e+00) (13, 7.21256627302630293208e-01) (0, 1.18002260949344295327e-01) (1, -1.78226959661367645449e-01) (2, -3.63406657732755974943e-02) (3, -9.29768800295622255270e-02) (4, -1.41687565252903241442e-01) (5, -4.48758902055648434271e+00) (6, -2.37168426200425781769e-02) (7, -5.68171138044057475597e-03) (8, -2.52327742880624039667e-01) (9, 2.54659236217742064590e-02) (10, -1.98705115407884699841e-02) (11, 1.32082497546199377492e-02) (12, -5.19336077443807941911e-01) (13, -8.81840676621388486200e-02) (0, 2.12725441374149282225e-01) (1, 4.17125138083927371468e-01) (2, 3.13981557826034762826e-01) (3, 3.41469342450134494271e-01) (4, 3.74818446675770022836e-01) (5, 3.14406269039381072616e+02) (6, 4.50564219031358792478e-01) (7, 4.22450284382095531122e-01) (8, -6.06008527604382774001e+00) (9, 4.68015103507090968193e-01) (10, 2.64781946576437332563e-01) (11, 6.55876598934172605482e-01) (12, -6.18491212073004259508e+00) (13, 9.88614863789826325835e-01) (14, -1.89107402378689976041e-01) (15, -1.38169815982634336393e-01) (16, -1.47901135635915448319e-01) (17, 7.09810127871361884466e-01) (18, 6.17486748668443108379e-01) (19, -1.78703706192887529225e-01) (20, -1.53447179990227833279e-01) (21, 4.26950790775298349988e-01) (22, -9.95183877682220691119e-02) (23, 4.57803481114386789930e-01) (24, 2.77895862288041806121e-01) 
