FANN_FLO_2.1
num_layers=3
learning_rate=0.700000
connection_rate=1.000000
network_type=0
learning_momentum=0.000000
training_algorithm=2
train_error_function=1
train_stop_function=1
cascade_output_change_fraction=0.010000
quickprop_decay=-0.000100
quickprop_mu=1.750000
rprop_increase_factor=1.200000
rprop_decrease_factor=0.500000
rprop_delta_min=0.000000
rprop_delta_max=50.000000
rprop_delta_zero=0.100000
cascade_output_stagnation_epochs=12
cascade_candidate_change_fraction=0.010000
cascade_candidate_stagnation_epochs=12
cascade_max_out_epochs=150
cascade_min_out_epochs=50
cascade_max_cand_epochs=150
cascade_min_cand_epochs=50
cascade_num_candidate_groups=2
bit_fail_limit=1.00000000000000005551e-01
cascade_candidate_limit=1.00000000000000000000e+03
cascade_weight_multiplier=4.00000000000000022204e-01
cascade_activation_functions_count=10
cascade_activation_functions=3 5 7 8 10 11 14 15 16 17 
cascade_activation_steepnesses_count=4
cascade_activation_steepnesses=2.50000000000000000000e-01 5.00000000000000000000e-01 7.50000000000000000000e-01 1.00000000000000000000e+00 
layer_sizes=9 4 2 
scale_included=0
neurons (num_inputs, activation_function, activation_steepness)=(0, 0, 0.00000000000000000000e+00) (0, 0, 0.00000000000000000000e+00) (0, 0, 0.00000000000000000000e+00) (0, 0, 0.00000000000000000000e+00) (0, 0, 0.00000000000000000000e+00) (0, 0, 0.00000000000000000000e+00) (0, 0, 0.00000000000000000000e+00) (0, 0, 0.00000000000000000000e+00) (0, 0, 0.00000000000000000000e+00) (9, 6, 5.00000000000000000000e-01) (9, 6, 5.00000000000000000000e-01) (9, 6, 5.00000000000000000000e-01) (0, 6, 0.00000000000000000000e+00) (4, 4, 5.00000000000000000000e-01) (0, 4, 0.00000000000000000000e+00) 
connections (connected_to_neuron, weight)=(0, -2.96114312607069374295e+00) (1, -2.41152439682888086736e+00) (2, 1.02113042378416185585e+01) (3, -1.20258143493429852100e+01) (4, -2.19084549909790826661e+00) (5, -1.46603236561634489021e+01) (6, 2.46380069923686839672e+00) (7, 9.69061379988035120903e+00) (8, 6.05736429838744983023e-01) (0, 4.78724153409724095809e+00) (1, -8.75226253920917018903e-01) (2, 1.39788308990460983239e+01) (3, -3.41883690578653443026e+00) (4, -3.93583460880030377993e-01) (5, -2.03942501865134451222e+00) (6, -3.25541403890807279353e+00) (7, 4.11739980005359171855e+01) (8, -2.62968757628812177529e+00) (0, 9.35286009344413749034e-01) (1, 3.80404094029358841311e+00) (2, -4.09004799386130013517e+00) (3, -1.45284009499804884769e+01) (4, 3.70394627545169896621e+00) (5, 4.17294088577811894680e+00) (6, -3.11165006313024861129e+00) (7, -1.25255111026757098847e-01) (8, -2.11975871559358104435e+01) (9, -4.24559919755345660519e+00) (10, 5.00123162194387838042e+00) (11, 2.79509846851030507864e+00) (12, -1.43137718105378786149e+00) 
