FANN_FLO_2.1
num_layers=3
learning_rate=0.700000
connection_rate=1.000000
network_type=0
learning_momentum=0.000000
training_algorithm=2
train_error_function=1
train_stop_function=1
cascade_output_change_fraction=0.010000
quickprop_decay=-0.000100
quickprop_mu=1.750000
rprop_increase_factor=1.200000
rprop_decrease_factor=0.500000
rprop_delta_min=0.000000
rprop_delta_max=50.000000
rprop_delta_zero=0.100000
cascade_output_stagnation_epochs=12
cascade_candidate_change_fraction=0.010000
cascade_candidate_stagnation_epochs=12
cascade_max_out_epochs=150
cascade_min_out_epochs=50
cascade_max_cand_epochs=150
cascade_min_cand_epochs=50
cascade_num_candidate_groups=2
bit_fail_limit=1.00000000000000005551e-01
cascade_candidate_limit=1.00000000000000000000e+03
cascade_weight_multiplier=4.00000000000000022204e-01
cascade_activation_functions_count=10
cascade_activation_functions=3 5 7 8 10 11 14 15 16 17 
cascade_activation_steepnesses_count=4
cascade_activation_steepnesses=2.50000000000000000000e-01 5.00000000000000000000e-01 7.50000000000000000000e-01 1.00000000000000000000e+00 
layer_sizes=7 4 2 
scale_included=0
neurons (num_inputs, activation_function, activation_steepness)=(0, 0, 0.00000000000000000000e+00) (0, 0, 0.00000000000000000000e+00) (0, 0, 0.00000000000000000000e+00) (0, 0, 0.00000000000000000000e+00) (0, 0, 0.00000000000000000000e+00) (0, 0, 0.00000000000000000000e+00) (0, 0, 0.00000000000000000000e+00) (7, 6, 5.00000000000000000000e-01) (7, 6, 5.00000000000000000000e-01) (7, 6, 5.00000000000000000000e-01) (0, 6, 0.00000000000000000000e+00) (4, 4, 5.00000000000000000000e-01) (0, 4, 0.00000000000000000000e+00) 
connections (connected_to_neuron, weight)=(0, 2.29648790076759112821e+00) (1, 1.52233629153067573370e+00) (2, 1.50000000000000000000e+03) (3, 5.29545747731043192630e+00) (4, 7.83659184786220919250e+00) (5, 7.88493759309670938507e+00) (6, -2.34004163364313289009e+00) (0, 1.48462321779642669739e+00) (1, 1.10732249645776370528e+00) (2, 1.50000000000000000000e+03) (3, -4.95208929014984589045e-01) (4, -2.20738868433052770612e+00) (5, -2.08471220333694429172e+00) (6, -1.62624495025076232224e+00) (0, -2.02124281205667033490e+00) (1, -1.70542588325101074354e+00) (2, 3.16813784554662504434e+02) (3, 2.12061839463074619516e+00) (4, 1.97057024720677853580e+00) (5, 2.11758449253167224668e+00) (6, 2.16005668012379725695e+00) (7, 3.46404141342177052110e+00) (8, 2.45771688148180587064e+01) (9, -5.34497607049635803378e+00) (10, -1.44419831378428642488e+00) 
