FANN_FLO_2.1
num_layers=3
learning_rate=0.700000
connection_rate=1.000000
network_type=0
learning_momentum=0.000000
training_algorithm=2
train_error_function=1
train_stop_function=1
cascade_output_change_fraction=0.010000
quickprop_decay=-0.000100
quickprop_mu=1.750000
rprop_increase_factor=1.200000
rprop_decrease_factor=0.500000
rprop_delta_min=0.000000
rprop_delta_max=50.000000
rprop_delta_zero=0.100000
cascade_output_stagnation_epochs=12
cascade_candidate_change_fraction=0.010000
cascade_candidate_stagnation_epochs=12
cascade_max_out_epochs=150
cascade_min_out_epochs=50
cascade_max_cand_epochs=150
cascade_min_cand_epochs=50
cascade_num_candidate_groups=2
bit_fail_limit=1.00000000000000005551e-01
cascade_candidate_limit=1.00000000000000000000e+03
cascade_weight_multiplier=4.00000000000000022204e-01
cascade_activation_functions_count=10
cascade_activation_functions=3 5 7 8 10 11 14 15 16 17 
cascade_activation_steepnesses_count=4
cascade_activation_steepnesses=2.50000000000000000000e-01 5.00000000000000000000e-01 7.50000000000000000000e-01 1.00000000000000000000e+00 
layer_sizes=12 11 2 
scale_included=0
neurons (num_inputs, activation_function, activation_steepness)=(0, 0, 0.00000000000000000000e+00) (0, 0, 0.00000000000000000000e+00) (0, 0, 0.00000000000000000000e+00) (0, 0, 0.00000000000000000000e+00) (0, 0, 0.00000000000000000000e+00) (0, 0, 0.00000000000000000000e+00) (0, 0, 0.00000000000000000000e+00) (0, 0, 0.00000000000000000000e+00) (0, 0, 0.00000000000000000000e+00) (0, 0, 0.00000000000000000000e+00) (0, 0, 0.00000000000000000000e+00) (0, 0, 0.00000000000000000000e+00) (12, 6, 5.00000000000000000000e-01) (12, 6, 5.00000000000000000000e-01) (12, 6, 5.00000000000000000000e-01) (12, 6, 5.00000000000000000000e-01) (12, 6, 5.00000000000000000000e-01) (12, 6, 5.00000000000000000000e-01) (12, 6, 5.00000000000000000000e-01) (12, 6, 5.00000000000000000000e-01) (12, 6, 5.00000000000000000000e-01) (12, 6, 5.00000000000000000000e-01) (0, 6, 0.00000000000000000000e+00) (11, 6, 5.00000000000000000000e-01) (0, 6, 0.00000000000000000000e+00) 
connections (connected_to_neuron, weight)=(0, 2.16409106248539213901e-02) (1, 4.42321914381990852205e-02) (2, -4.86952681891908156775e-02) (3, -7.86857885174741811252e-02) (4, 2.83315572090158292184e-02) (5, -1.64999800224762616097e+00) (6, 1.53483437654200804978e-01) (7, 9.27232170107384207070e-02) (8, -8.83050700996055226710e+00) (9, -1.39764880821184721976e-02) (10, 1.73098497854325322765e-01) (11, -1.32699696984395609095e-02) (0, 1.59280344868531553715e+00) (1, 6.05550748927906612451e-01) (2, 6.77281764967754940088e-01) (3, 7.91648005767181861536e-01) (4, 7.55545189304665076868e-01) (5, 2.02490059488772988772e+00) (6, 2.36441490520155683797e+00) (7, -1.60350556635183882914e-01) (8, 2.05291817103505858100e+00) (9, 5.03149362777256969892e-01) (10, -3.21535038760822289294e-01) (11, 1.47951906578420655514e+00) (0, 4.88928391001006434902e-02) (1, -4.53341138354191944271e-02) (2, 1.58452707537760292822e-02) (3, -5.54128196826825514254e-02) (4, 2.90906149157633270308e-02) (5, -3.93641399905803601733e-01) (6, -7.24919363932800209227e-01) (7, 6.06525195167417286238e-04) (8, -1.72615297916174914583e-01) (9, 1.73636586343445503688e-01) (10, -2.45308450371871274165e-02) (11, -4.45657468806502504721e-02) (0, -5.30100370567626599794e-01) (1, -2.50237390837478590466e-01) (2, -3.89195427737045240857e-01) (3, -3.95452309838342619397e-01) (4, -2.54568130216407728650e-01) (5, 8.33275936665993866015e-01) (6, 2.25069247757424406586e+00) (7, 2.52856662220314110101e-01) (8, 1.63144364607738956430e+00) (9, 1.64528705664416866061e-02) (10, 1.51703848921558692719e-01) (11, -1.41314063092645181285e+00) (0, 1.56737190499362166740e+00) (1, 3.40598642745677526733e-01) (2, 2.93146110990706976196e-01) (3, 3.01941983321372564575e-01) (4, 4.16770115414325292846e-01) (5, 3.98329614406974741314e+01) (6, -3.38917645141112711116e+00) (7, 1.62380629874496862364e-01) (8, 9.23482763807787137011e+01) (9, 4.20375642407027405589e-01) (10, 2.37345084688696555952e-01) (11, 3.84085253383457780885e-01) (0, 2.41294816228471420416e+00) (1, 7.45365062592215799064e-01) (2, 6.91138813135810270438e-01) (3, 6.72017710147090330253e-01) (4, 6.37790473041720762382e-01) (5, 4.07873195335169924647e+00) (6, 4.44340202111954862829e+00) (7, 5.21937791199251432950e-01) (8, 3.69876612491700473839e+00) (9, 6.65805838250368653419e-01) (10, -2.96936671248596184558e-01) (11, -4.37402125986200929209e-01) (0, 5.94196537161919668968e-01) (1, 3.23705360241666573184e-01) (2, 3.79694573529496925968e-01) (3, 4.00796823151841896671e-01) (4, 2.79982171901002663272e-01) (5, -2.60485275778131164515e+00) (6, 1.30780499078140280744e+02) (7, 4.95039590160732900781e-01) (8, -3.78718102048635651968e+00) (9, 8.15694108297140618724e-01) (10, 6.86879564118517360605e-01) (11, 2.48362728730575604841e-01) (0, -6.85050552935946521771e-01) (1, -2.42601650881738573062e-01) (2, -4.03923700678319841373e-01) (3, -2.57497864890069871890e-01) (4, -3.28867699134321123111e-01) (5, 7.46422294152998433425e-01) (6, 2.26550109866946458581e+00) (7, 1.05955785481870456977e-01) (8, 8.47095569844673712545e-01) (9, -9.90523427818938706491e-02) (10, -6.16325212694162558047e-02) (11, -3.94754712441862332106e-01) (0, -5.03250244783512767910e-01) (1, 6.01412107311163235401e-01) (2, 6.66391265653047737416e-01) (3, 6.80859965346727546986e-01) (4, 5.81555982194814968800e-01) (5, 2.37573921369549134752e+00) (6, 3.00537874843093977262e+00) (7, 6.19123882145646176056e-01) (8, 2.40380366597453765110e+00) (9, 5.46803581093335044905e-01) (10, -2.53312635234516136951e-01) (11, 1.20442253914106656154e+00) (0, 1.64723683589618925815e-02) (1, 4.99816852755556456644e-02) (2, -3.48956902377595273856e-02) (3, -6.29848820023527211642e-02) (4, -1.72760245256414098070e-02) (5, -2.88982424063244147661e+00) (6, 1.81322016717512940476e-01) (7, -9.87412974353825412255e-02) (8, -3.61429960059497457081e+00) (9, -1.33366148738570611254e-01) (10, -1.29481315552656753298e-02) (11, 1.39331339422215427781e-01) (12, -2.14972300557011941624e-01) (13, -2.28432900933715793412e-01) (14, -2.08784643770618116854e-01) (15, 8.64984912508432124412e-01) (16, 1.07568289539356376494e+00) (17, -2.90660652178525713563e-01) (18, 7.67014198494593291144e-01) (19, 7.36974160953133283769e-01) (20, -1.96106794732571587669e-01) (21, -1.52348123558318032655e-01) (22, 4.41472910172802657236e-01) 
