FANN_FLO_2.1
num_layers=3
learning_rate=0.700000
connection_rate=1.000000
network_type=0
learning_momentum=0.000000
training_algorithm=2
train_error_function=1
train_stop_function=1
cascade_output_change_fraction=0.010000
quickprop_decay=-0.000100
quickprop_mu=1.750000
rprop_increase_factor=1.200000
rprop_decrease_factor=0.500000
rprop_delta_min=0.000000
rprop_delta_max=50.000000
rprop_delta_zero=0.100000
cascade_output_stagnation_epochs=12
cascade_candidate_change_fraction=0.010000
cascade_candidate_stagnation_epochs=12
cascade_max_out_epochs=150
cascade_min_out_epochs=50
cascade_max_cand_epochs=150
cascade_min_cand_epochs=50
cascade_num_candidate_groups=2
bit_fail_limit=1.00000000000000005551e-01
cascade_candidate_limit=1.00000000000000000000e+03
cascade_weight_multiplier=4.00000000000000022204e-01
cascade_activation_functions_count=10
cascade_activation_functions=3 5 7 8 10 11 14 15 16 17 
cascade_activation_steepnesses_count=4
cascade_activation_steepnesses=2.50000000000000000000e-01 5.00000000000000000000e-01 7.50000000000000000000e-01 1.00000000000000000000e+00 
layer_sizes=9 4 2 
scale_included=0
neurons (num_inputs, activation_function, activation_steepness)=(0, 0, 0.00000000000000000000e+00) (0, 0, 0.00000000000000000000e+00) (0, 0, 0.00000000000000000000e+00) (0, 0, 0.00000000000000000000e+00) (0, 0, 0.00000000000000000000e+00) (0, 0, 0.00000000000000000000e+00) (0, 0, 0.00000000000000000000e+00) (0, 0, 0.00000000000000000000e+00) (0, 0, 0.00000000000000000000e+00) (9, 6, 5.00000000000000000000e-01) (9, 6, 5.00000000000000000000e-01) (9, 6, 5.00000000000000000000e-01) (0, 6, 0.00000000000000000000e+00) (4, 4, 5.00000000000000000000e-01) (0, 4, 0.00000000000000000000e+00) 
connections (connected_to_neuron, weight)=(0, 1.03769596219736048859e+00) (1, 7.45506245006845813528e-01) (2, 8.29474172372081763882e-01) (3, 8.06457431355798171069e-01) (4, 3.50599587755908670417e+00) (5, 6.03295603575527694673e-01) (6, -1.11509206325791400405e-02) (7, 5.89114360248456536695e-01) (8, -5.74684194401229642146e-01) (0, 5.00691664632489041864e-01) (1, 1.11718672539514929376e+00) (2, 1.85554151090745333974e+00) (3, 8.76340481562003392746e-01) (4, 4.54240700517803686065e-01) (5, 1.30708978217160365354e+00) (6, 7.48989946381976162693e-02) (7, 1.23039965782081361922e+00) (8, -1.36007832728221811358e+00) (0, 5.86081940638842535662e+00) (1, 3.42810991606679626997e+00) (2, -3.94246490267522764483e+00) (3, -1.78497128398875437583e+00) (4, -2.62180647015866741256e+00) (5, 4.33916491554986638590e+00) (6, -1.26019118892430181944e+00) (7, 3.39563214421105419305e+00) (8, -2.99548861045558645344e+00) (9, 8.24065293076770011282e+00) (10, 1.12132689784642298747e+01) (11, 7.39456902164169616043e+00) (12, -1.26293877071461735362e+00) 
