FANN_FLO_2.1
num_layers=3
learning_rate=0.700000
connection_rate=1.000000
network_type=0
learning_momentum=0.000000
training_algorithm=2
train_error_function=1
train_stop_function=1
cascade_output_change_fraction=0.010000
quickprop_decay=-0.000100
quickprop_mu=1.750000
rprop_increase_factor=1.200000
rprop_decrease_factor=0.500000
rprop_delta_min=0.000000
rprop_delta_max=50.000000
rprop_delta_zero=0.100000
cascade_output_stagnation_epochs=12
cascade_candidate_change_fraction=0.010000
cascade_candidate_stagnation_epochs=12
cascade_max_out_epochs=150
cascade_min_out_epochs=50
cascade_max_cand_epochs=150
cascade_min_cand_epochs=50
cascade_num_candidate_groups=2
bit_fail_limit=1.00000000000000005551e-01
cascade_candidate_limit=1.00000000000000000000e+03
cascade_weight_multiplier=4.00000000000000022204e-01
cascade_activation_functions_count=10
cascade_activation_functions=3 5 7 8 10 11 14 15 16 17 
cascade_activation_steepnesses_count=4
cascade_activation_steepnesses=2.50000000000000000000e-01 5.00000000000000000000e-01 7.50000000000000000000e-01 1.00000000000000000000e+00 
layer_sizes=18 11 2 
scale_included=0
neurons (num_inputs, activation_function, activation_steepness)=(0, 0, 0.00000000000000000000e+00) (0, 0, 0.00000000000000000000e+00) (0, 0, 0.00000000000000000000e+00) (0, 0, 0.00000000000000000000e+00) (0, 0, 0.00000000000000000000e+00) (0, 0, 0.00000000000000000000e+00) (0, 0, 0.00000000000000000000e+00) (0, 0, 0.00000000000000000000e+00) (0, 0, 0.00000000000000000000e+00) (0, 0, 0.00000000000000000000e+00) (0, 0, 0.00000000000000000000e+00) (0, 0, 0.00000000000000000000e+00) (0, 0, 0.00000000000000000000e+00) (0, 0, 0.00000000000000000000e+00) (0, 0, 0.00000000000000000000e+00) (0, 0, 0.00000000000000000000e+00) (0, 0, 0.00000000000000000000e+00) (0, 0, 0.00000000000000000000e+00) (18, 6, 5.00000000000000000000e-01) (18, 6, 5.00000000000000000000e-01) (18, 6, 5.00000000000000000000e-01) (18, 6, 5.00000000000000000000e-01) (18, 6, 5.00000000000000000000e-01) (18, 6, 5.00000000000000000000e-01) (18, 6, 5.00000000000000000000e-01) (18, 6, 5.00000000000000000000e-01) (18, 6, 5.00000000000000000000e-01) (18, 6, 5.00000000000000000000e-01) (0, 6, 0.00000000000000000000e+00) (11, 6, 5.00000000000000000000e-01) (0, 6, 0.00000000000000000000e+00) 
connections (connected_to_neuron, weight)=(0, -1.19959189091688189777e+00) (1, -8.12642520760953196435e-02) (2, -1.07645148644393659487e-01) (3, -2.30385164031928796335e-01) (4, -2.06621317425912692789e-01) (5, 1.46308622620324110808e-02) (6, 1.42702201924231042440e+00) (7, 5.63572174105648415754e-01) (8, 6.34439553970100322822e-01) (9, 3.20333154143517429002e-01) (10, 3.64772709562180663667e-01) (11, 6.00679629896073818962e-01) (12, 2.01219406297644537451e-01) (13, 1.31758313670473103940e+00) (14, 1.66555022983714606788e+00) (15, -1.54991859702808737476e-01) (16, 1.85580871504503686076e+00) (17, -1.53706171343580777489e+00) (0, 4.09604289926990805526e+00) (1, 5.47585310145021875172e-01) (2, 5.56967677279116113453e-01) (3, 5.78871847792269300648e-01) (4, 4.35516549004913822163e-01) (5, 1.14407047155946917094e+00) (6, 5.97233799730247341131e+01) (7, -6.56806119919480924096e+00) (8, 8.24068310434236450668e-01) (9, -2.40000201620880065922e-01) (10, 1.59762291390484811870e-01) (11, 6.92547418727130770222e-02) (12, 9.12511125905826947502e-01) (13, 7.82777201538933375957e-01) (14, 5.83729266718001937875e+00) (15, -3.76284394692063317578e-01) (16, 4.20734785384494074378e+01) (17, 5.50838012128120224631e-01) (0, 6.69933328659029547758e-01) (1, 3.08710553524051412033e-02) (2, -1.50811449361130139879e-01) (3, -5.98765767338718807311e-02) (4, -1.45085514259621045641e-01) (5, -1.79795117855586467082e-01) (6, -1.90161115997974761171e+00) (7, 6.52945135736884108013e+00) (8, 1.77516958336862255841e-02) (9, -2.66087947248639433706e-01) (10, -2.07632734703202176396e-01) (11, 6.71898804374493341385e-02) (12, 1.09709679579514302050e-01) (13, -2.69778896281940117063e+00) (14, -1.02163135273450245144e+00) (15, -2.03187892654592139330e-01) (16, -1.69614147013838700850e+00) (17, 1.85204857848404208509e-01) (0, 6.17017891415867270055e-01) (1, 6.28159403658901771550e-01) (2, 6.92024819410835601019e-01) (3, 6.86045221842323749151e-01) (4, 7.84786715961490966009e-01) (5, 4.89828260622505895494e-01) (6, 1.19698414641815908954e-01) (7, 1.67205223726264828876e+00) (8, 4.47969401416620505163e-01) (9, 6.61768208145480651972e-01) (10, -1.11388906023367172116e-02) (11, 1.50245971957777468830e+00) (12, 8.81238495403092403357e-01) (13, 1.81202558855767914547e-01) (14, 3.34604872049521995248e-01) (15, 8.46680065904440226632e-01) (16, 1.98136547394984319226e-01) (17, 3.24005979493970475147e+00) (0, -3.80006892777874014655e+01) (1, 5.32926951941095072840e-02) (2, 5.87370356019578515605e-02) (3, 2.33152245577417302491e-02) (4, 4.20822834070764539849e-02) (5, 1.23598145650281376895e+00) (6, 3.56706184579166185600e+00) (7, 1.31211686901770496760e+00) (8, 3.59378406798284644186e-01) (9, 8.35203419032800375987e-01) (10, 5.49705946773236697744e-01) (11, -4.43940558729701562068e-01) (12, 2.65663942057797397567e+00) (13, 1.81585723009405275441e+00) (14, 3.05379267510349938775e+00) (15, 2.58731387736271489786e+00) (16, 3.78527560334710733159e+00) (17, -4.70970165497231718632e+00) (0, 7.91158924344545377849e-01) (1, -4.47294459021885804084e-02) (2, 4.89452585302988796290e-02) (3, -1.63494169987042567427e-02) (4, 5.43412074171702175196e-02) (5, -2.25067437347596127628e-01) (6, -9.51153862126361770990e-01) (7, 6.00148080065572120390e+00) (8, -1.15932914980208537359e-01) (9, -3.93145663499058828361e-01) (10, -1.90408755574168225833e-01) (11, 3.26518802765004001465e-02) (12, 2.41578656607445346749e-01) (13, -1.04960564440823533872e+00) (14, -9.88811585305660822875e-01) (15, -1.74459283097213785352e-01) (16, -1.06401228593157748392e+00) (17, 1.26745817290542933664e-01) (0, -2.64809518670707655374e+00) (1, 2.48988175560212993132e-01) (2, 9.65032445084817447345e-02) (3, 2.34820702840066813932e-01) (4, 1.48250551689840193159e-01) (5, 2.96118623865000818451e-01) (6, 2.23574792915891640277e+00) (7, -2.05784739759824475414e+00) (8, -3.56509161382006778407e-02) (9, 2.63544646215176092685e-01) (10, 4.15444986473949354200e-02) (11, -5.24479169962429492280e-01) (12, -5.60148982290863850508e-01) (13, 4.42719193042850278630e+00) (14, 2.01290406465680860038e+00) (15, 4.33293253314110227148e-01) (16, 1.31528635956656114736e+00) (17, -2.82319840026095336682e-01) (0, 7.76142341163992277586e-01) (1, -2.98186806683648636396e-02) (2, -9.71030002181638429715e-02) (3, -1.53986853147040608780e-01) (4, 3.19131942744146843149e-02) (5, -2.11172430500245478235e-01) (6, -9.22636804273673671872e-01) (7, 5.93203414877092782831e+00) (8, -4.94050052204316025861e-01) (9, -2.58408379462765513956e-01) (10, -7.20597325914240499634e-02) (11, -2.30490453785455878810e-02) (12, -1.10022469983064682952e-01) (13, -1.45040918690066811259e+00) (14, -6.14348848489666532480e-01) (15, -1.59013515085273920979e-01) (16, -5.47372920899932058347e-01) (17, -7.45147563761819620165e-02) (0, 3.65252188695363528836e+01) (1, 3.74102971861694111322e-01) (2, 3.42181052426431542290e-01) (3, 4.87683239738080864800e-01) (4, 3.61070069829557305230e-01) (5, 2.55899217068950135534e-01) (6, 2.70424169770100975008e-01) (7, -1.05254141215887244698e+01) (8, -3.33519188446695591388e-01) (9, 4.32853951381065749082e-01) (10, -1.19907817128672516960e-01) (11, 2.89422640482489168523e-01) (12, 1.13234360606103456881e+00) (13, -6.95133069112825352498e-01) (14, -1.49953531598179923279e+00) (15, 2.77340972000998997604e-01) (16, 7.18985132684645034118e-01) (17, 6.22843616833011037848e-01) (0, 1.18936855654667628102e+00) (1, 1.02634986332018440791e+00) (2, 1.06462443461973754744e+00) (3, 1.13330951920111266951e+00) (4, 1.13022824218828765730e+00) (5, 4.94801254950050950487e-01) (6, 5.16254134578880474749e-01) (7, 1.24765065586281442833e+00) (8, 3.33217183289369833776e-01) (9, 6.92364084421973724481e-01) (10, 2.84622280808839667188e-01) (11, 1.42798533270691363484e+00) (12, 7.00302438373825997253e-01) (13, -1.33710413298996605436e-01) (14, 3.18316803904008460702e-01) (15, 7.35335870002092883979e-01) (16, 3.46556315168162765161e-01) (17, 2.77329803075834613324e+00) (18, 5.05137831714478569012e-01) (19, 8.75111562640079276854e-01) (20, 2.17327126820581945088e-01) (21, -5.78067641526139805452e-02) (22, 2.72266386869265630821e-01) (23, 4.13338604523219244058e-01) (24, 4.68629665044104748439e-01) (25, 4.32391141582096572016e-01) (26, -5.68341784099123170648e-01) (27, -7.82923292189516006889e-02) (28, 5.75012491416369009301e-01) 
