FANN_FLO_2.1
num_layers=3
learning_rate=0.700000
connection_rate=1.000000
network_type=0
learning_momentum=0.000000
training_algorithm=2
train_error_function=1
train_stop_function=1
cascade_output_change_fraction=0.010000
quickprop_decay=-0.000100
quickprop_mu=1.750000
rprop_increase_factor=1.200000
rprop_decrease_factor=0.500000
rprop_delta_min=0.000000
rprop_delta_max=50.000000
rprop_delta_zero=0.100000
cascade_output_stagnation_epochs=12
cascade_candidate_change_fraction=0.010000
cascade_candidate_stagnation_epochs=12
cascade_max_out_epochs=150
cascade_min_out_epochs=50
cascade_max_cand_epochs=150
cascade_min_cand_epochs=50
cascade_num_candidate_groups=2
bit_fail_limit=1.00000000000000005551e-01
cascade_candidate_limit=1.00000000000000000000e+03
cascade_weight_multiplier=4.00000000000000022204e-01
cascade_activation_functions_count=10
cascade_activation_functions=3 5 7 8 10 11 14 15 16 17 
cascade_activation_steepnesses_count=4
cascade_activation_steepnesses=2.50000000000000000000e-01 5.00000000000000000000e-01 7.50000000000000000000e-01 1.00000000000000000000e+00 
layer_sizes=10 4 2 
scale_included=0
neurons (num_inputs, activation_function, activation_steepness)=(0, 0, 0.00000000000000000000e+00) (0, 0, 0.00000000000000000000e+00) (0, 0, 0.00000000000000000000e+00) (0, 0, 0.00000000000000000000e+00) (0, 0, 0.00000000000000000000e+00) (0, 0, 0.00000000000000000000e+00) (0, 0, 0.00000000000000000000e+00) (0, 0, 0.00000000000000000000e+00) (0, 0, 0.00000000000000000000e+00) (0, 0, 0.00000000000000000000e+00) (10, 6, 5.00000000000000000000e-01) (10, 6, 5.00000000000000000000e-01) (10, 6, 5.00000000000000000000e-01) (0, 6, 0.00000000000000000000e+00) (4, 4, 5.00000000000000000000e-01) (0, 4, 0.00000000000000000000e+00) 
connections (connected_to_neuron, weight)=(0, 1.96797223023801404196e+00) (1, -2.00933150638268420707e+00) (2, 8.65700182471787482719e-01) (3, -2.82046769893921078776e+00) (4, 1.08031233346847987953e+00) (5, 1.63135458517552311974e+00) (6, -1.49667241407811424381e+00) (7, -1.91074763688533733053e+00) (8, -1.87209131209690959885e+00) (9, 1.67364382027490288252e+00) (0, -1.20209385102136456780e+00) (1, 2.90783354766573776118e+00) (2, 5.39859103784091041989e-03) (3, 2.94977718973773095357e+00) (4, -3.69359324597095861620e-01) (5, -8.10445880601249224462e-01) (6, 1.35937934109122182669e+00) (7, 1.37984803052852100791e+00) (8, 3.03330677869396581059e+00) (9, -1.20954190214617574028e+00) (0, -1.13873159442630156324e-01) (1, 5.60271637903208663545e-01) (2, 1.62378651524478417878e-01) (3, 8.43790413815777240458e-01) (4, 2.39735277738858137964e-01) (5, -1.01635692011814507407e-01) (6, 3.84040978456581250100e-01) (7, 1.54197472975892901914e+00) (8, 5.81045388733251622071e-01) (9, -4.84889428360131824469e-02) (10, -7.67130082158721116059e+00) (11, 1.78135133846239916977e+01) (12, 1.56697730337544000045e-01) (13, -1.11523092558129155449e+00) 
