FANN_FLO_2.1
num_layers=3
learning_rate=0.700000
connection_rate=1.000000
network_type=0
learning_momentum=0.000000
training_algorithm=2
train_error_function=1
train_stop_function=1
cascade_output_change_fraction=0.010000
quickprop_decay=-0.000100
quickprop_mu=1.750000
rprop_increase_factor=1.200000
rprop_decrease_factor=0.500000
rprop_delta_min=0.000000
rprop_delta_max=50.000000
rprop_delta_zero=0.100000
cascade_output_stagnation_epochs=12
cascade_candidate_change_fraction=0.010000
cascade_candidate_stagnation_epochs=12
cascade_max_out_epochs=150
cascade_min_out_epochs=50
cascade_max_cand_epochs=150
cascade_min_cand_epochs=50
cascade_num_candidate_groups=2
bit_fail_limit=1.00000000000000005551e-01
cascade_candidate_limit=1.00000000000000000000e+03
cascade_weight_multiplier=4.00000000000000022204e-01
cascade_activation_functions_count=10
cascade_activation_functions=3 5 7 8 10 11 14 15 16 17 
cascade_activation_steepnesses_count=4
cascade_activation_steepnesses=2.50000000000000000000e-01 5.00000000000000000000e-01 7.50000000000000000000e-01 1.00000000000000000000e+00 
layer_sizes=12 4 2 
scale_included=0
neurons (num_inputs, activation_function, activation_steepness)=(0, 0, 0.00000000000000000000e+00) (0, 0, 0.00000000000000000000e+00) (0, 0, 0.00000000000000000000e+00) (0, 0, 0.00000000000000000000e+00) (0, 0, 0.00000000000000000000e+00) (0, 0, 0.00000000000000000000e+00) (0, 0, 0.00000000000000000000e+00) (0, 0, 0.00000000000000000000e+00) (0, 0, 0.00000000000000000000e+00) (0, 0, 0.00000000000000000000e+00) (0, 0, 0.00000000000000000000e+00) (0, 0, 0.00000000000000000000e+00) (12, 6, 5.00000000000000000000e-01) (12, 6, 5.00000000000000000000e-01) (12, 6, 5.00000000000000000000e-01) (0, 6, 0.00000000000000000000e+00) (4, 4, 5.00000000000000000000e-01) (0, 4, 0.00000000000000000000e+00) 
connections (connected_to_neuron, weight)=(0, -6.60709243328094864012e+00) (1, 1.00000000000000000000e+02) (2, 1.82628557642670918959e+00) (3, 8.69200019854681205089e-01) (4, -3.46704896237738535714e-01) (5, -9.16022484760530497638e-01) (6, 4.36905501009057395390e-01) (7, 4.85720494865213581193e+00) (8, 2.51485572319098071858e+00) (9, 7.19343290088868658749e-01) (10, 2.22687449297168527096e+00) (11, 1.05512283191924272074e+00) (0, -6.34155676543911583920e-01) (1, 1.50000000000000000000e+03) (2, 4.89093465072395758853e+01) (3, 5.59065643304285497805e+00) (4, -4.09712074799823611215e+00) (5, 2.52831770432599656218e+00) (6, 2.61818055180160369488e+00) (7, 5.69981599971754235412e+02) (8, 1.79299279898397259103e+02) (9, 5.88265821364889363032e-01) (10, 4.90528095461067096039e+02) (11, -1.98301469320405643337e+00) (0, -8.40049334959819482549e+00) (1, 1.50000000000000000000e+03) (2, 2.17004610176124490550e+00) (3, -1.88805580146013807230e+00) (4, 2.33364629070972329217e+00) (5, 6.95977618694247901487e-01) (6, -5.65460664408605984121e-01) (7, 2.08953880283180870592e+00) (8, 1.82519945935191385544e+00) (9, 1.83542706278553158228e+00) (10, 2.45936890382016271062e+00) (11, -9.21776108207222888424e-01) (12, -1.24387961518593854748e+01) (13, 7.45319401917486246134e+00) (14, 1.08247501419094103170e+01) (15, -3.68768499757541168282e-01) 
