FANN_FLO_2.1
num_layers=3
learning_rate=0.700000
connection_rate=1.000000
network_type=0
learning_momentum=0.000000
training_algorithm=2
train_error_function=1
train_stop_function=1
cascade_output_change_fraction=0.010000
quickprop_decay=-0.000100
quickprop_mu=1.750000
rprop_increase_factor=1.200000
rprop_decrease_factor=0.500000
rprop_delta_min=0.000000
rprop_delta_max=50.000000
rprop_delta_zero=0.100000
cascade_output_stagnation_epochs=12
cascade_candidate_change_fraction=0.010000
cascade_candidate_stagnation_epochs=12
cascade_max_out_epochs=150
cascade_min_out_epochs=50
cascade_max_cand_epochs=150
cascade_min_cand_epochs=50
cascade_num_candidate_groups=2
bit_fail_limit=1.00000000000000005551e-01
cascade_candidate_limit=1.00000000000000000000e+03
cascade_weight_multiplier=4.00000000000000022204e-01
cascade_activation_functions_count=10
cascade_activation_functions=3 5 7 8 10 11 14 15 16 17 
cascade_activation_steepnesses_count=4
cascade_activation_steepnesses=2.50000000000000000000e-01 5.00000000000000000000e-01 7.50000000000000000000e-01 1.00000000000000000000e+00 
layer_sizes=8 4 2 
scale_included=0
neurons (num_inputs, activation_function, activation_steepness)=(0, 0, 0.00000000000000000000e+00) (0, 0, 0.00000000000000000000e+00) (0, 0, 0.00000000000000000000e+00) (0, 0, 0.00000000000000000000e+00) (0, 0, 0.00000000000000000000e+00) (0, 0, 0.00000000000000000000e+00) (0, 0, 0.00000000000000000000e+00) (0, 0, 0.00000000000000000000e+00) (8, 6, 5.00000000000000000000e-01) (8, 6, 5.00000000000000000000e-01) (8, 6, 5.00000000000000000000e-01) (0, 6, 0.00000000000000000000e+00) (4, 4, 5.00000000000000000000e-01) (0, 4, 0.00000000000000000000e+00) 
connections (connected_to_neuron, weight)=(0, 5.61147017411061455050e+01) (1, 4.95333379069182466736e+00) (2, -2.87031363795121556848e+01) (3, 6.99907135443958949850e+00) (4, 5.04575992442816723127e+00) (5, 6.06589209235634996276e+00) (6, -2.84086933058315374012e+01) (7, -7.14859295057062560375e+00) (0, -1.56207857800757743405e+00) (1, 3.23657761282325452612e+02) (2, 8.30912623091832447386e-01) (3, -4.17148346619321055972e-02) (4, -1.86326722866360361408e+00) (5, -1.18336638827874618407e+00) (6, 1.05064233156213826526e+00) (7, 3.26087324859337313043e+00) (0, 7.73339681397632716653e+01) (1, 3.92909503335592944495e+01) (2, 1.49205119944381749519e+03) (3, -2.30033256374300890457e+02) (4, -2.30655425311764247454e+02) (5, -1.12929502258916528490e+02) (6, 1.48725496149585592320e+03) (7, -7.80153943146416253285e+01) (8, 1.10180742236488971031e+01) (9, -1.61851224373593396422e+01) (10, 1.27092352915669266622e+01) (11, 3.62452528463591897023e-02) 
