FANN_FLO_2.1
num_layers=3
learning_rate=0.700000
connection_rate=1.000000
network_type=0
learning_momentum=0.000000
training_algorithm=2
train_error_function=1
train_stop_function=1
cascade_output_change_fraction=0.010000
quickprop_decay=-0.000100
quickprop_mu=1.750000
rprop_increase_factor=1.200000
rprop_decrease_factor=0.500000
rprop_delta_min=0.000000
rprop_delta_max=50.000000
rprop_delta_zero=0.100000
cascade_output_stagnation_epochs=12
cascade_candidate_change_fraction=0.010000
cascade_candidate_stagnation_epochs=12
cascade_max_out_epochs=150
cascade_min_out_epochs=50
cascade_max_cand_epochs=150
cascade_min_cand_epochs=50
cascade_num_candidate_groups=2
bit_fail_limit=1.00000000000000005551e-01
cascade_candidate_limit=1.00000000000000000000e+03
cascade_weight_multiplier=4.00000000000000022204e-01
cascade_activation_functions_count=10
cascade_activation_functions=3 5 7 8 10 11 14 15 16 17 
cascade_activation_steepnesses_count=4
cascade_activation_steepnesses=2.50000000000000000000e-01 5.00000000000000000000e-01 7.50000000000000000000e-01 1.00000000000000000000e+00 
layer_sizes=6 4 2 
scale_included=0
neurons (num_inputs, activation_function, activation_steepness)=(0, 0, 0.00000000000000000000e+00) (0, 0, 0.00000000000000000000e+00) (0, 0, 0.00000000000000000000e+00) (0, 0, 0.00000000000000000000e+00) (0, 0, 0.00000000000000000000e+00) (0, 0, 0.00000000000000000000e+00) (6, 6, 5.00000000000000000000e-01) (6, 6, 5.00000000000000000000e-01) (6, 6, 5.00000000000000000000e-01) (0, 6, 0.00000000000000000000e+00) (4, 4, 5.00000000000000000000e-01) (0, 4, 0.00000000000000000000e+00) 
connections (connected_to_neuron, weight)=(0, -9.88987546092347891147e+00) (1, 4.35633854342497406353e-01) (2, -2.71633768158750787958e-01) (3, -1.30430137347816521576e+00) (4, 3.52470894309565352387e-01) (5, 1.69313812719517198246e+00) (0, -1.23058618228649496729e+00) (1, -1.41931864867716139855e+00) (2, -1.34989706485559701754e+00) (3, -1.26391484124899067254e+00) (4, -1.40934992119411028888e+00) (5, 1.60051022047502944368e+00) (0, 5.19808997917534298949e+00) (1, 1.67363950368052932793e-01) (2, -4.15117507655965861657e-02) (3, 1.03809256677007311076e+00) (4, 9.92407012319162090686e-02) (5, -6.25939369642098952795e-02) (6, -1.97713700819938154041e+01) (7, -2.08793619893318236791e+02) (8, 8.38938488021403361294e-01) (9, -1.32918921599775141651e+00) 
