FANN_FLO_2.1
num_layers=3
learning_rate=0.700000
connection_rate=1.000000
network_type=0
learning_momentum=0.000000
training_algorithm=2
train_error_function=1
train_stop_function=1
cascade_output_change_fraction=0.010000
quickprop_decay=-0.000100
quickprop_mu=1.750000
rprop_increase_factor=1.200000
rprop_decrease_factor=0.500000
rprop_delta_min=0.000000
rprop_delta_max=50.000000
rprop_delta_zero=0.100000
cascade_output_stagnation_epochs=12
cascade_candidate_change_fraction=0.010000
cascade_candidate_stagnation_epochs=12
cascade_max_out_epochs=150
cascade_min_out_epochs=50
cascade_max_cand_epochs=150
cascade_min_cand_epochs=50
cascade_num_candidate_groups=2
bit_fail_limit=1.00000000000000005551e-01
cascade_candidate_limit=1.00000000000000000000e+03
cascade_weight_multiplier=4.00000000000000022204e-01
cascade_activation_functions_count=10
cascade_activation_functions=3 5 7 8 10 11 14 15 16 17 
cascade_activation_steepnesses_count=4
cascade_activation_steepnesses=2.50000000000000000000e-01 5.00000000000000000000e-01 7.50000000000000000000e-01 1.00000000000000000000e+00 
layer_sizes=6 4 2 
scale_included=0
neurons (num_inputs, activation_function, activation_steepness)=(0, 0, 0.00000000000000000000e+00) (0, 0, 0.00000000000000000000e+00) (0, 0, 0.00000000000000000000e+00) (0, 0, 0.00000000000000000000e+00) (0, 0, 0.00000000000000000000e+00) (0, 0, 0.00000000000000000000e+00) (6, 6, 5.00000000000000000000e-01) (6, 6, 5.00000000000000000000e-01) (6, 6, 5.00000000000000000000e-01) (0, 6, 0.00000000000000000000e+00) (4, 4, 5.00000000000000000000e-01) (0, 4, 0.00000000000000000000e+00) 
connections (connected_to_neuron, weight)=(0, 7.36873928574321723772e+00) (1, 1.57765113399855771981e-01) (2, 3.11240408782308408675e-01) (3, 3.51053954489583930343e-01) (4, 1.50209738755669425236e-01) (5, -2.92632042988264240435e+00) (0, 2.09689014901888681752e-01) (1, -1.07769948063525489168e+00) (2, -9.97952605488498400987e-01) (3, -9.88926587628703335220e-01) (4, -1.10118761373339690834e+00) (5, 7.74880619326046682360e-01) (0, -4.25680195614010159488e+00) (1, -3.13664681872028727749e-01) (2, -4.24878282055601075307e-01) (3, -9.04594160992001738997e-01) (4, 1.92175779046454886512e-01) (5, 1.03930353051523760577e+00) (6, 1.06110369006981937190e+01) (7, -2.20932396363388541261e+01) (8, -1.15952702433583487718e+00) (9, -4.17631326318019446830e+00) 
