FANN_FLO_2.1
num_layers=3
learning_rate=0.700000
connection_rate=1.000000
network_type=0
learning_momentum=0.000000
training_algorithm=2
train_error_function=1
train_stop_function=1
cascade_output_change_fraction=0.010000
quickprop_decay=-0.000100
quickprop_mu=1.750000
rprop_increase_factor=1.200000
rprop_decrease_factor=0.500000
rprop_delta_min=0.000000
rprop_delta_max=50.000000
rprop_delta_zero=0.100000
cascade_output_stagnation_epochs=12
cascade_candidate_change_fraction=0.010000
cascade_candidate_stagnation_epochs=12
cascade_max_out_epochs=150
cascade_min_out_epochs=50
cascade_max_cand_epochs=150
cascade_min_cand_epochs=50
cascade_num_candidate_groups=2
bit_fail_limit=1.00000000000000005551e-01
cascade_candidate_limit=1.00000000000000000000e+03
cascade_weight_multiplier=4.00000000000000022204e-01
cascade_activation_functions_count=10
cascade_activation_functions=3 5 7 8 10 11 14 15 16 17 
cascade_activation_steepnesses_count=4
cascade_activation_steepnesses=2.50000000000000000000e-01 5.00000000000000000000e-01 7.50000000000000000000e-01 1.00000000000000000000e+00 
layer_sizes=27 4 2 
scale_included=0
neurons (num_inputs, activation_function, activation_steepness)=(0, 0, 0.00000000000000000000e+00) (0, 0, 0.00000000000000000000e+00) (0, 0, 0.00000000000000000000e+00) (0, 0, 0.00000000000000000000e+00) (0, 0, 0.00000000000000000000e+00) (0, 0, 0.00000000000000000000e+00) (0, 0, 0.00000000000000000000e+00) (0, 0, 0.00000000000000000000e+00) (0, 0, 0.00000000000000000000e+00) (0, 0, 0.00000000000000000000e+00) (0, 0, 0.00000000000000000000e+00) (0, 0, 0.00000000000000000000e+00) (0, 0, 0.00000000000000000000e+00) (0, 0, 0.00000000000000000000e+00) (0, 0, 0.00000000000000000000e+00) (0, 0, 0.00000000000000000000e+00) (0, 0, 0.00000000000000000000e+00) (0, 0, 0.00000000000000000000e+00) (0, 0, 0.00000000000000000000e+00) (0, 0, 0.00000000000000000000e+00) (0, 0, 0.00000000000000000000e+00) (0, 0, 0.00000000000000000000e+00) (0, 0, 0.00000000000000000000e+00) (0, 0, 0.00000000000000000000e+00) (0, 0, 0.00000000000000000000e+00) (0, 0, 0.00000000000000000000e+00) (0, 0, 0.00000000000000000000e+00) (27, 6, 5.00000000000000000000e-01) (27, 6, 5.00000000000000000000e-01) (27, 6, 5.00000000000000000000e-01) (0, 6, 0.00000000000000000000e+00) (4, 4, 5.00000000000000000000e-01) (0, 4, 0.00000000000000000000e+00) 
connections (connected_to_neuron, weight)=(0, 2.40821695113486056172e+00) (1, 5.39065302006603097595e+00) (2, 1.07283826474764443226e+00) (3, 1.90938704550370563773e+00) (4, 6.02006474792662671369e-01) (5, 1.50000000000000000000e+03) (6, 1.50000000000000000000e+03) (7, 1.50000000000000000000e+03) (8, 1.50000000000000000000e+03) (9, 4.99442856091980913469e-01) (10, 1.63337706498214796369e+00) (11, 8.00626345550541240748e-01) (12, 5.12362484935591000479e-01) (13, 6.04908522929930136947e-01) (14, 1.30780983243743786915e+00) (15, 5.59705999597549963553e-01) (16, 1.59958159262243637677e+00) (17, 5.27522869846348663181e-01) (18, -3.89320126980914171799e-01) (19, 5.87211404215441046262e-01) (20, 7.94695689557920692536e-01) (21, 2.07814640834741104491e-01) (22, 1.50000000000000000000e+03) (23, 1.50000000000000000000e+03) (24, 1.50000000000000000000e+03) (25, 1.08474612909528866922e+00) (26, -2.09944006069624666821e+00) (0, -4.14407733534884314963e+00) (1, 4.07897269856239461205e+02) (2, -4.00608817965499089397e-02) (3, 3.19508503377167629722e-01) (4, -1.55408713094964845425e+00) (5, 1.50000000000000000000e+03) (6, 1.50000000000000000000e+03) (7, 1.50000000000000000000e+03) (8, 1.50000000000000000000e+03) (9, -1.80365357421630290169e+00) (10, 2.92667663148761514336e+00) (11, -5.00792179117678593059e-01) (12, -1.02263237809405338474e+00) (13, -1.34043053473439810475e+00) (14, 3.04016581129310847764e-01) (15, -1.08285415771443105371e+00) (16, 2.35817312100447562528e+00) (17, -1.19351432087985664943e+00) (18, -6.83721642326787470978e+00) (19, -7.87612667411358380321e+00) (20, 1.46315935166301636094e+00) (21, -4.87597275055845447156e+00) (22, 1.50000000000000000000e+03) (23, 1.50000000000000000000e+03) (24, 1.50000000000000000000e+03) (25, 3.99880738474636621138e-01) (26, 2.44388707732565091391e+00) (0, -2.95647193998151003314e+00) (1, 5.43753503296941964607e+00) (2, 1.78898548102134902216e+00) (3, 1.42258741923675180452e+00) (4, 1.98213308827652490152e+00) (5, 1.50000000000000000000e+03) (6, 1.50000000000000000000e+03) (7, 1.50000000000000000000e+03) (8, 1.50000000000000000000e+03) (9, 2.50826341791281759441e+00) (10, 1.63925386710011693481e+01) (11, 1.84492344294062138310e+00) (12, 1.79986687309286463865e+00) (13, 5.86558679524756709789e-01) (14, 1.61400169235940516010e+00) (15, 1.58644626070629368719e+00) (16, 1.56842093732262952699e+01) (17, 1.70584501485931361309e+00) (18, -2.76358011884386645107e+00) (19, -1.07463265540427510558e+00) (20, -2.37334361429790874354e+00) (21, 9.77134504781495438763e-01) (22, 1.50000000000000000000e+03) (23, 1.50000000000000000000e+03) (24, 1.50000000000000000000e+03) (25, 8.62752917807588914911e+00) (26, -1.12006675405133804269e+00) (27, 3.42552351176840872427e+01) (28, -1.90867123503132241069e+01) (29, 1.00699214015164137948e+01) (30, -1.02254547185106048346e+00) 
