FANN_FLO_2.1
num_layers=3
learning_rate=0.700000
connection_rate=1.000000
network_type=0
learning_momentum=0.000000
training_algorithm=2
train_error_function=1
train_stop_function=1
cascade_output_change_fraction=0.010000
quickprop_decay=-0.000100
quickprop_mu=1.750000
rprop_increase_factor=1.200000
rprop_decrease_factor=0.500000
rprop_delta_min=0.000000
rprop_delta_max=50.000000
rprop_delta_zero=0.100000
cascade_output_stagnation_epochs=12
cascade_candidate_change_fraction=0.010000
cascade_candidate_stagnation_epochs=12
cascade_max_out_epochs=150
cascade_min_out_epochs=50
cascade_max_cand_epochs=150
cascade_min_cand_epochs=50
cascade_num_candidate_groups=2
bit_fail_limit=1.00000000000000005551e-01
cascade_candidate_limit=1.00000000000000000000e+03
cascade_weight_multiplier=4.00000000000000022204e-01
cascade_activation_functions_count=10
cascade_activation_functions=3 5 7 8 10 11 14 15 16 17 
cascade_activation_steepnesses_count=4
cascade_activation_steepnesses=2.50000000000000000000e-01 5.00000000000000000000e-01 7.50000000000000000000e-01 1.00000000000000000000e+00 
layer_sizes=36 11 2 
scale_included=0
neurons (num_inputs, activation_function, activation_steepness)=(0, 0, 0.00000000000000000000e+00) (0, 0, 0.00000000000000000000e+00) (0, 0, 0.00000000000000000000e+00) (0, 0, 0.00000000000000000000e+00) (0, 0, 0.00000000000000000000e+00) (0, 0, 0.00000000000000000000e+00) (0, 0, 0.00000000000000000000e+00) (0, 0, 0.00000000000000000000e+00) (0, 0, 0.00000000000000000000e+00) (0, 0, 0.00000000000000000000e+00) (0, 0, 0.00000000000000000000e+00) (0, 0, 0.00000000000000000000e+00) (0, 0, 0.00000000000000000000e+00) (0, 0, 0.00000000000000000000e+00) (0, 0, 0.00000000000000000000e+00) (0, 0, 0.00000000000000000000e+00) (0, 0, 0.00000000000000000000e+00) (0, 0, 0.00000000000000000000e+00) (0, 0, 0.00000000000000000000e+00) (0, 0, 0.00000000000000000000e+00) (0, 0, 0.00000000000000000000e+00) (0, 0, 0.00000000000000000000e+00) (0, 0, 0.00000000000000000000e+00) (0, 0, 0.00000000000000000000e+00) (0, 0, 0.00000000000000000000e+00) (0, 0, 0.00000000000000000000e+00) (0, 0, 0.00000000000000000000e+00) (0, 0, 0.00000000000000000000e+00) (0, 0, 0.00000000000000000000e+00) (0, 0, 0.00000000000000000000e+00) (0, 0, 0.00000000000000000000e+00) (0, 0, 0.00000000000000000000e+00) (0, 0, 0.00000000000000000000e+00) (0, 0, 0.00000000000000000000e+00) (0, 0, 0.00000000000000000000e+00) (0, 0, 0.00000000000000000000e+00) (36, 6, 5.00000000000000000000e-01) (36, 6, 5.00000000000000000000e-01) (36, 6, 5.00000000000000000000e-01) (36, 6, 5.00000000000000000000e-01) (36, 6, 5.00000000000000000000e-01) (36, 6, 5.00000000000000000000e-01) (36, 6, 5.00000000000000000000e-01) (36, 6, 5.00000000000000000000e-01) (36, 6, 5.00000000000000000000e-01) (36, 6, 5.00000000000000000000e-01) (0, 6, 0.00000000000000000000e+00) (11, 6, 5.00000000000000000000e-01) (0, 6, 0.00000000000000000000e+00) 
connections (connected_to_neuron, weight)=(0, -1.08653982553743588824e+01) (1, 1.50780533480637697619e-02) (2, -8.13853437972077015106e-02) (3, -3.68700283539302106628e-02) (4, 4.90905125665658595424e-02) (5, -4.10869253169117779056e-02) (6, 7.77190694108967239373e-01) (7, -7.73571569926807622863e+00) (8, 9.28586513460066820258e-01) (9, -3.63980154659996841815e+01) (10, 8.87604397469061501269e-01) (11, 1.14619514343976303117e+00) (12, 1.06916751734494686055e+00) (13, 1.02254280870287939109e+00) (14, 2.46448547859438260588e+00) (15, 2.38945692950363097751e+00) (16, 1.60122365083820328291e-01) (17, -8.70219494317144404150e-01) (18, -1.86246603503157748261e-01) (19, -3.63093490597370949224e-01) (20, -4.06079722002135601322e-01) (21, 1.29659279609151401047e+00) (22, 7.00182552633351273919e-01) (23, 6.71518490447343130434e-01) (24, 6.98282589422960953129e-01) (25, 5.90972047342571804585e-01) (26, 1.90728563644846715874e+00) (27, 1.44971748180852810783e+00) (28, 2.07757620715865648497e-01) (29, 9.08795474789016899386e-01) (30, -9.79617115648822173180e-02) (31, 1.32347433749646725687e+00) (32, 4.12055260941940948438e-01) (33, 1.46155914180013807302e-01) (34, 4.47762062500670232623e+00) (35, -5.42328564365435639161e-01) (0, -1.21691264474226503722e+01) (1, -1.96483562384577132784e-03) (2, -7.74757025638675433932e-02) (3, -9.38460958996867322668e-02) (4, -1.28479058096752002394e-01) (5, -2.90948243167960862721e-01) (6, -3.70815248288633436680e-01) (7, 4.23993020123010211364e+00) (8, -4.36687800595730257758e-01) (9, -4.32793569383725817978e-01) (10, -3.72058791416193301860e-01) (11, -3.94647234073643882191e-01) (12, -2.81756683879944180848e-01) (13, -3.16884116030746565418e-01) (14, 4.22858272295721981937e-01) (15, 1.30778707603317512209e+00) (16, 1.25043765792997862984e-01) (17, 1.62098744906673447597e-01) (18, -3.05295685956903706249e-01) (19, 1.45922540599776467962e-01) (20, -5.81003135205272802644e-01) (21, 1.40707124283033135903e+00) (22, 1.70839145409678871967e-01) (23, 1.79695164382801891856e-01) (24, 1.82033549954245199576e-01) (25, 2.69793936192851191436e-01) (26, 5.02939298005534607405e-01) (27, -1.54062381114286042413e-03) (28, -6.68037741172754717667e-01) (29, -8.83384006874971122736e-02) (30, 5.11577033704820105520e-01) (31, 1.76153563415853309237e+00) (32, 1.03926939518433836263e+00) (33, 1.90923133274097400758e+00) (34, 1.12878916007350671435e+00) (35, -4.46417213320508432517e-01) (0, 1.53589976695066869894e+01) (1, 6.19507813691922204491e-01) (2, 6.50501267850228326317e-01) (3, 6.41513990104027764794e-01) (4, 5.80630430817433373925e-01) (5, 4.34246115386587874241e+01) (6, -6.26741012210424303097e-02) (7, -6.45667302633115181010e+00) (8, -1.55846458582879421328e+00) (9, -1.01166235736866005901e+00) (10, 3.31640769370479648881e-01) (11, 4.79414345426714239018e-01) (12, 1.78273101411040892084e-02) (13, -7.20346743500421937689e-01) (14, -3.50591859276582429317e-01) (15, 6.44461587833432680839e+00) (16, 1.24771463049967763936e+02) (17, 1.34109489478007102292e+01) (18, 1.08172996635106244412e+01) (19, 6.59691576630955989202e+00) (20, 1.48499999940395355225e+03) (21, 7.15031793022519366332e+01) (22, 5.12207425346710376601e-01) (23, 1.42595989842608417142e+00) (24, 6.31831236479729163591e-01) (25, -9.07189349941478151429e-01) (26, -5.71974468330891938628e-01) (27, 6.14552206352340646411e-01) (28, 1.27947861938826568107e+00) (29, 3.33314319392251978691e-01) (30, -8.11989239500770371150e-02) (31, -2.54546615138011467216e-01) (32, -1.00827079335178737551e+00) (33, -7.38771926495660258283e-01) (34, -2.45604054899378265731e+00) (35, 1.53037845711444475683e+00) (0, -1.04407327646786374231e+01) (1, -2.18893788961659896408e-02) (2, -7.27910326998354104133e-03) (3, -2.88368292359601555153e-02) (4, 5.50049789043177070336e-02) (5, -2.35158709689346143157e-02) (6, 7.46147418797685202385e-01) (7, -7.31867271721537182572e+00) (8, 5.93448185442267850398e-01) (9, 5.77719681667556161919e-01) (10, 6.21579143053518801132e-01) (11, 6.51743570448504394577e-01) (12, 7.89246664271787690126e-01) (13, 6.95363778554137779153e-01) (14, 1.77796103585567233374e+00) (15, 1.96728821240143258997e+00) (16, 5.85701641347609713861e-01) (17, 7.22729892595265543953e-01) (18, 3.10572391804925969361e-02) (19, 9.40377766272912363199e-01) (20, -2.19260805902597805117e-01) (21, 2.08303249837087811613e+00) (22, 1.22173216656631411503e+00) (23, 1.27041841939677180306e+00) (24, 1.22852605987848995106e+00) (25, 4.69311705142746782293e-01) (26, 1.05081931283084539785e+00) (27, 1.29883213267787245293e+00) (28, -1.31943576849749155677e+00) (29, 1.34311747689108118564e+00) (30, -6.30580912663908088600e-02) (31, 5.12624762835190650456e-01) (32, 1.15297957412512051822e-02) (33, 1.10976479407311257042e-01) (34, 3.71743475679182067140e+00) (35, -1.04353012650024251640e-01) (0, -1.12260285575143701209e+01) (1, -1.31675669196759295015e-02) (2, -1.65343278292332841739e-02) (3, -2.40401023272191934066e-02) (4, 2.53962657209718979667e-02) (5, 8.10914698801398214911e-02) (6, 7.64296551173721305794e-01) (7, -7.16208293458553679756e+00) (8, 7.93712242705555182098e-01) (9, 4.08754677761320461826e-01) (10, 8.40948412085629870560e-01) (11, 6.95467190097255105741e-01) (12, 7.05834332979400236319e-01) (13, 8.22474236241422573812e-01) (14, 1.68385269195241504825e+00) (15, 1.45474707855793350397e+00) (16, 1.22387465152434327109e+00) (17, 1.36425580860291839613e+00) (18, 3.30173805165566602859e-01) (19, 1.10096416462474389064e+00) (20, -2.04864498201207806405e-01) (21, 1.40575008453489558313e+00) (22, 2.11161073740506166629e+00) (23, 2.04820976048653013990e+00) (24, 2.06532863289958168451e+00) (25, 2.04534348077110728070e+00) (26, -3.06187125231419887683e-01) (27, 1.97183095371156080766e-01) (28, -2.16112296871979259194e+00) (29, 1.27518358734322712067e+00) (30, -2.63280988127583603919e-01) (31, 6.42387091311193092480e-01) (32, 6.23120101120158143004e-01) (33, -2.12825969956670010830e-02) (34, 2.83388490109975776932e+00) (35, -7.44844979513811233929e-02) (0, 1.16313627005896798039e+01) (1, 6.38145567466183227801e-01) (2, 6.60288588692112266010e-01) (3, 5.99947439123554748797e-01) (4, 6.19316683699055237078e-01) (5, 1.90989681366389452144e+00) (6, 1.55914193996198613412e+00) (7, -1.04079959834514318429e-01) (8, 1.64915596461802249628e+00) (9, 1.60502404934774545175e+00) (10, 1.65769010383726222990e+00) (11, 1.63196301770120832941e+00) (12, 1.57567514869221114715e+00) (13, 1.73811557286909246223e+00) (14, 1.87976165974773534728e+00) (15, 1.97582638836233881463e+00) (16, 1.60320588038169598022e+00) (17, 1.45122771187631105505e+00) (18, 1.74641850577529034183e+00) (19, 1.80023230057252181524e+00) (20, 1.91922581382371060243e+00) (21, 1.95731839633232373998e+00) (22, 1.58205752338391714140e+00) (23, 2.16999811966951128284e+00) (24, 1.65154823288023444583e+00) (25, 5.49754261226758300651e-01) (26, -2.34290931750431336011e-01) (27, 1.19363392719362804151e+00) (28, 8.80151168075836709548e-01) (29, 1.14264555462935146757e+00) (30, 1.43730769804885638585e-01) (31, -4.21093376502929384042e-01) (32, -2.91614264771160258682e-01) (33, -2.96822460286798095463e-01) (34, 1.72680497580811320724e+00) (35, -4.03067306142769155031e+00) (0, 3.62637141422399764679e+01) (1, 5.64015092599520317940e-01) (2, 5.48088940131792656807e-01) (3, 7.12056214261183151315e-01) (4, 6.21435309100279220651e-01) (5, -6.36386909045577597865e-01) (6, -3.80145049257527067876e-01) (7, -1.15162665873466778521e+01) (8, -4.83909683736843565516e-01) (9, -5.05942014382805171913e-01) (10, -4.15009886542027806033e-01) (11, -4.41858891734984493560e-01) (12, -3.42325788002888875550e-01) (13, -3.71379841119666875837e-01) (14, 6.63128726254069156276e-01) (15, 3.54864064024660663677e+00) (16, 2.69042626764833425757e-01) (17, 3.40516448172134333916e-01) (18, -6.21595010482863363777e-01) (19, 2.54150232915562213076e-01) (20, -8.53392721285995525804e-01) (21, 3.48737949434692673378e+00) (22, -3.62598058623328167727e-01) (23, -1.56235822818667324796e-01) (24, -1.18264515145433762866e-01) (25, -8.20026530011408044674e-02) (26, -1.30719158970440785250e-01) (27, -1.54155653882869558835e+00) (28, -1.11698856399781676352e+00) (29, -1.36924054267011352515e+00) (30, 2.28287323883315185213e-01) (31, 7.14754956326706603065e-01) (32, 6.26166654747948858706e-01) (33, 1.91527933219799573195e+00) (34, 4.57455501354403715197e+00) (35, -5.70010002623955736034e-01) (0, 9.69200860527038621228e+00) (1, 5.51397235541636221434e-01) (2, 3.83747601359184065117e-01) (3, 3.89041626303489485039e-01) (4, 5.63720719366366140868e-01) (5, -1.94811209508451788075e+00) (6, 2.43727441272461959443e+02) (7, -6.76351428071392923869e+00) (8, 6.52157078681553414867e+00) (9, 1.35574696402990383604e+02) (10, 1.45559039466476406233e+03) (11, 8.86040516441186809971e+02) (12, 1.10513594537407762175e+01) (13, 1.49222399845504764926e+03) (14, 1.61489641630330176270e+01) (15, 7.07781948316842246527e+00) (16, 5.74484905165662169679e+01) (17, 1.42587594332995681867e+01) (18, -1.88860682687463388163e+00) (19, 4.75935505490285848396e+00) (20, -1.73811790023059375976e+00) (21, 2.02454561474826419953e+02) (22, 2.20932524206833680314e-01) (23, 9.97485356579180915126e-01) (24, -4.38038584784333009936e-02) (25, 4.76334022264976564287e+00) (26, -3.30294467485339415802e-01) (27, 9.45428912667507836964e-01) (28, 1.31448466472137925898e+00) (29, 3.07859926099438019342e-01) (30, -6.82410074669202448838e-01) (31, 2.46223544535228544561e+00) (32, 1.37533358059086596725e+00) (33, 2.09369379129683874652e+00) (34, 1.90673614381771940884e+01) (35, 2.16041949678017308756e+00) (0, -1.31294934547865462804e+01) (1, -1.58045576560750355988e-01) (2, -7.00014696004537945173e-02) (3, -5.55438861730246369319e-02) (4, -7.76190922143606271133e-02) (5, 4.93395825441112767518e-02) (6, 4.95989264911704808014e-01) (7, 2.08968369223130512324e+00) (8, 5.28072445194360917675e-01) (9, 4.74521443395810038623e-01) (10, 4.40422857837158565619e-01) (11, 4.77296136629186573686e-01) (12, 3.53750788337136023998e-01) (13, 4.14268147067069714140e-01) (14, 2.49990149310411607919e-01) (15, -7.74967624125666443291e-02) (16, 4.04922722733602524769e-01) (17, 4.11481792188236605856e-01) (18, 7.63492927745125643524e-02) (19, 3.90264264216934220197e-01) (20, 1.94153944845897846738e-01) (21, -1.87017392842807328446e-01) (22, 1.95717150621306318348e-01) (23, 2.57793961936243709587e-01) (24, 2.04284132507244198251e-01) (25, 8.21653316122409771438e-01) (26, 1.05840020233224629820e+00) (27, -6.15831397587026860285e-02) (28, -5.00010534948038820602e-01) (29, 4.39064176649699086652e-02) (30, 1.06262957558157244975e+00) (31, 1.71041234319651924700e+00) (32, 2.86981009366586015119e+00) (33, 1.38901219724484614737e+00) (34, 2.64969378275434586101e+00) (35, -5.46442919083225842058e-01) (0, -1.10469618847827177888e+01) (1, -2.77316109769308941080e-02) (2, 7.30785778231656107939e-02) (3, -1.48707950048410971616e-02) (4, 3.45752289958036335138e-02) (5, 6.30862315239642396092e-02) (6, 1.15980459424744575259e+00) (7, -8.56689042186323845840e+00) (8, 8.87313865271609159002e-01) (9, -3.73384105420989520496e+00) (10, 1.14572071595508484521e+00) (11, 1.13203422810073095484e+00) (12, 2.13513624460158446539e+00) (13, 1.45176559933524251811e+00) (14, 1.90845928234837458604e+00) (15, 4.63610702403730978727e-01) (16, 1.76573839962676615301e+00) (17, 5.06022386917292066322e-01) (18, 4.40762446822606963892e-03) (19, 5.37517080206068698089e+00) (20, -2.60583873821962741513e-01) (21, -1.33961227552398349872e+03) (22, 3.07985912676272954869e+00) (23, 3.04099471949395372405e+00) (24, 3.02219310728898449270e+00) (25, 3.95989441849230860981e+00) (26, -1.73828099333784669156e+00) (27, 2.76903309163722854969e-01) (28, 8.00880448879835338261e-01) (29, 6.96199210920229960564e-01) (30, -1.05643802962686578217e-01) (31, 2.21236357849968173772e-01) (32, -9.66962313101056708531e-02) (33, 4.77116457336158594771e-02) (34, 1.70712310522005350499e+00) (35, -1.30182998742833649919e-01) (36, -1.75187153610114991487e-02) (37, 9.10463399364093595167e-01) (38, 5.97544564032163827427e-01) (39, -4.53446416865253831840e-02) (40, -6.93791311592314302592e-02) (41, 1.09581413162046992227e+00) (42, -9.67383236804019608357e-01) (43, 6.36887197269515148434e-01) (44, 7.49174963637481372558e-01) (45, -1.86233376025595875197e-03) (46, 1.73274945325207319069e-01) 
