FANN_FLO_2.1
num_layers=3
learning_rate=0.700000
connection_rate=1.000000
network_type=0
learning_momentum=0.000000
training_algorithm=2
train_error_function=1
train_stop_function=1
cascade_output_change_fraction=0.010000
quickprop_decay=-0.000100
quickprop_mu=1.750000
rprop_increase_factor=1.200000
rprop_decrease_factor=0.500000
rprop_delta_min=0.000000
rprop_delta_max=50.000000
rprop_delta_zero=0.100000
cascade_output_stagnation_epochs=12
cascade_candidate_change_fraction=0.010000
cascade_candidate_stagnation_epochs=12
cascade_max_out_epochs=150
cascade_min_out_epochs=50
cascade_max_cand_epochs=150
cascade_min_cand_epochs=50
cascade_num_candidate_groups=2
bit_fail_limit=1.00000000000000005551e-01
cascade_candidate_limit=1.00000000000000000000e+03
cascade_weight_multiplier=4.00000000000000022204e-01
cascade_activation_functions_count=10
cascade_activation_functions=3 5 7 8 10 11 14 15 16 17 
cascade_activation_steepnesses_count=4
cascade_activation_steepnesses=2.50000000000000000000e-01 5.00000000000000000000e-01 7.50000000000000000000e-01 1.00000000000000000000e+00 
layer_sizes=7 4 2 
scale_included=0
neurons (num_inputs, activation_function, activation_steepness)=(0, 0, 0.00000000000000000000e+00) (0, 0, 0.00000000000000000000e+00) (0, 0, 0.00000000000000000000e+00) (0, 0, 0.00000000000000000000e+00) (0, 0, 0.00000000000000000000e+00) (0, 0, 0.00000000000000000000e+00) (0, 0, 0.00000000000000000000e+00) (7, 6, 5.00000000000000000000e-01) (7, 6, 5.00000000000000000000e-01) (7, 6, 5.00000000000000000000e-01) (0, 6, 0.00000000000000000000e+00) (4, 4, 5.00000000000000000000e-01) (0, 4, 0.00000000000000000000e+00) 
connections (connected_to_neuron, weight)=(0, 2.20851909396550860620e+00) (1, 1.45185485891593279995e+00) (2, 7.00757635505810605459e-01) (3, 7.80518421243197146886e-01) (4, 7.13657885171000039293e-01) (5, 8.10566437449203758270e-01) (6, -2.03978726406678356753e+00) (0, -1.49544576332104628413e+00) (1, -6.48578141000506369629e-01) (2, 2.73376299157008020857e-03) (3, -2.05487824806993790716e-01) (4, -1.76106854174077481767e-01) (5, -2.03526429068881693774e-02) (6, 9.79166404946487878291e-01) (0, 2.37171179828546252466e+00) (1, 1.11813610161949683608e+00) (2, 7.41528911264553891591e-01) (3, 7.58241878162390414708e-01) (4, 7.95384391523424438830e-01) (5, 7.75029805507408631193e-01) (6, -2.03544059346979056002e+00) (7, 5.40800049309844510503e+00) (8, -4.04539337734465398455e+00) (9, 2.99831966102606450875e+01) (10, -1.49551946153093195946e+00) 
