FANN_FLO_2.1
num_layers=3
learning_rate=0.700000
connection_rate=1.000000
network_type=0
learning_momentum=0.000000
training_algorithm=2
train_error_function=1
train_stop_function=1
cascade_output_change_fraction=0.010000
quickprop_decay=-0.000100
quickprop_mu=1.750000
rprop_increase_factor=1.200000
rprop_decrease_factor=0.500000
rprop_delta_min=0.000000
rprop_delta_max=50.000000
rprop_delta_zero=0.100000
cascade_output_stagnation_epochs=12
cascade_candidate_change_fraction=0.010000
cascade_candidate_stagnation_epochs=12
cascade_max_out_epochs=150
cascade_min_out_epochs=50
cascade_max_cand_epochs=150
cascade_min_cand_epochs=50
cascade_num_candidate_groups=2
bit_fail_limit=1.00000000000000005551e-01
cascade_candidate_limit=1.00000000000000000000e+03
cascade_weight_multiplier=4.00000000000000022204e-01
cascade_activation_functions_count=10
cascade_activation_functions=3 5 7 8 10 11 14 15 16 17 
cascade_activation_steepnesses_count=4
cascade_activation_steepnesses=2.50000000000000000000e-01 5.00000000000000000000e-01 7.50000000000000000000e-01 1.00000000000000000000e+00 
layer_sizes=14 11 2 
scale_included=0
neurons (num_inputs, activation_function, activation_steepness)=(0, 0, 0.00000000000000000000e+00) (0, 0, 0.00000000000000000000e+00) (0, 0, 0.00000000000000000000e+00) (0, 0, 0.00000000000000000000e+00) (0, 0, 0.00000000000000000000e+00) (0, 0, 0.00000000000000000000e+00) (0, 0, 0.00000000000000000000e+00) (0, 0, 0.00000000000000000000e+00) (0, 0, 0.00000000000000000000e+00) (0, 0, 0.00000000000000000000e+00) (0, 0, 0.00000000000000000000e+00) (0, 0, 0.00000000000000000000e+00) (0, 0, 0.00000000000000000000e+00) (0, 0, 0.00000000000000000000e+00) (14, 6, 5.00000000000000000000e-01) (14, 6, 5.00000000000000000000e-01) (14, 6, 5.00000000000000000000e-01) (14, 6, 5.00000000000000000000e-01) (14, 6, 5.00000000000000000000e-01) (14, 6, 5.00000000000000000000e-01) (14, 6, 5.00000000000000000000e-01) (14, 6, 5.00000000000000000000e-01) (14, 6, 5.00000000000000000000e-01) (14, 6, 5.00000000000000000000e-01) (0, 6, 0.00000000000000000000e+00) (11, 6, 5.00000000000000000000e-01) (0, 6, 0.00000000000000000000e+00) 
connections (connected_to_neuron, weight)=(0, 1.03217903751837547510e+00) (1, 1.33062331121556465252e-01) (2, 4.65584938639327927667e-02) (3, 1.80696500580899449551e-01) (4, 2.69622263723537161639e-02) (5, -5.96374884687501105596e-01) (6, 2.12339247259649699373e-01) (7, 3.51500229846421263780e-01) (8, 1.15634418036776409622e+00) (9, 3.00939413443291836625e-01) (10, 2.56817670296743072456e-01) (11, 2.29556821388818527163e-01) (12, -5.32260949095464508396e-01) (13, 3.84900744558157731356e-02) (0, -5.70744323166253730850e-02) (1, 1.09612241588878522869e+00) (2, 1.12936052881526838298e+00) (3, 1.05237046085643659588e+00) (4, 1.16971788756894956585e+00) (5, 3.98245287604716446950e+00) (6, 3.79548281170743184720e-01) (7, -2.27825750775218516253e+00) (8, 5.56417239705842892050e-01) (9, 6.73376673087233368342e-01) (10, -3.97058392068781174089e+00) (11, 5.72929505412376194329e-01) (12, 2.28345630193510107375e+00) (13, 6.93910659721229672314e-01) (0, -8.36580717881935803648e-03) (1, 1.03364733808088193889e+00) (2, 1.10862910949039350506e+00) (3, 1.21043613009500394817e+00) (4, 1.16756711356687437053e+00) (5, 2.41994151686062419770e+00) (6, 4.28031220771687703763e-01) (7, -2.20041612155318766497e+00) (8, 7.20064948852230268805e-01) (9, 5.52160051251598282818e-01) (10, -4.02388837313689506914e+00) (11, 6.54527869229114322991e-01) (12, 1.64614431275996353499e+00) (13, 7.21427397301528938733e-01) (0, 6.40374819441465437109e+00) (1, 1.99550769961625240612e-01) (2, 2.06626988685876034069e-01) (3, 1.52706555760651729869e-01) (4, 7.40812120206653657029e-02) (5, -1.48805437791709538331e+00) (6, 5.49296969485751596096e+00) (7, 1.15082147810425379220e+01) (8, -4.29486513051675444785e+00) (9, 4.44141298463181577461e+00) (10, -7.73691199927069445108e-02) (11, 4.98112956895675473845e+00) (12, -1.31970552887086900462e+00) (13, 5.03870451836192057016e-01) (0, 4.36178930844910106579e-01) (1, -1.18663707694855624641e-01) (2, -9.81001126979265392070e-02) (3, -1.33571172079888167428e-01) (4, -1.06608333012906064674e-01) (5, 3.31218836268721616989e-01) (6, 2.65271031550174285485e-01) (7, 1.68233905230859848157e-01) (8, 1.19830375602456418171e+00) (9, 1.28939205579457677464e-01) (10, 1.91732750760376130517e-01) (11, 6.75904482938467499054e-02) (12, 4.83563570262779185427e-01) (13, -2.78489167649681040873e-02) (0, 1.22178337149050270094e-01) (1, 1.11302684978693466888e+00) (2, 1.10198813662975769745e+00) (3, 1.07272450239509087311e+00) (4, 1.09029768393486459210e+00) (5, 3.98824928246524956776e+00) (6, 4.37290827778705537554e-01) (7, -2.25501738108277827166e+00) (8, 8.41289121265579531439e-01) (9, 6.17140660803973561954e-01) (10, -3.95231020948328293230e+00) (11, 5.75066480939185886712e-01) (12, 2.26257758835711531020e+00) (13, 1.38486709011456210483e-01) (0, 1.12667089682485843660e+00) (1, 7.21001661228795331926e-02) (2, -1.94732585144381138698e-02) (3, 1.60226073007549874028e-01) (4, -3.71876742366357817063e-03) (5, -4.19457195335024221605e-02) (6, 1.89215329849358543379e-01) (7, 3.32947322427035841130e-01) (8, 8.19524535178969837368e-01) (9, 1.60949379033167749853e-01) (10, 1.10432073182864715077e-01) (11, 3.01435838478860462786e-01) (12, -4.83509505623993862677e-01) (13, 1.25339517836887875957e-01) (0, 8.71660834355512470495e+00) (1, 2.10757952712958440689e-01) (2, 2.04319682501738653091e-01) (3, 3.39191061042731389907e-01) (4, 3.00879393302386444198e-01) (5, -2.24126150968556858700e+00) (6, -7.67514447769751861905e-01) (7, -7.47928328119081053948e-01) (8, -2.57825967480496975881e+00) (9, -8.76547531820405012581e-01) (10, -6.94391608562090922874e-01) (11, -1.04517842090221435569e+00) (12, -2.31377969943836347966e+00) (13, 1.76899571834600344289e+00) (0, 7.17671461470178861930e+00) (1, 3.30649706829545642073e-01) (2, 2.16959218789098268187e-01) (3, 1.99826474596021264052e-01) (4, 2.33952059705016590652e-01) (5, -2.16467416303644188957e+00) (6, -1.34533769184236873251e+00) (7, -5.74786058500363683521e-01) (8, -2.70109655638537793365e+00) (9, -7.16906906447131397897e-01) (10, -3.08835247950985491983e-01) (11, -6.65295323052893183835e-01) (12, -2.44775834786664114873e+00) (13, 2.03330508341070670397e+00) (0, 3.50594850593680229522e+00) (1, 1.53983676692398208097e-01) (2, 1.68896565100105422452e-01) (3, 7.88256767000274499724e-02) (4, 1.65908703466804641202e-01) (5, 1.30544079834685788910e+01) (6, -7.70786685805974314256e-01) (7, -2.25936482116790238184e-01) (8, -3.94514361453733730656e+00) (9, 3.30552603846466994120e-02) (10, 2.24804224759011933577e-01) (11, 1.69261151465399328764e-01) (12, 8.46861868872960421584e+00) (13, 8.83090569227935717755e-01) (14, 4.72500660589667165201e-01) (15, -1.37489216865511576504e-01) (16, -9.53677245392521438783e-02) (17, 4.02436294981745157351e-01) (18, 7.24997294916427614808e-01) (19, -7.33529586734761179789e-02) (20, 4.95525672608802647545e-01) (21, -3.60178642319134212357e-01) (22, -9.02233935073302406593e-01) (23, 5.23901925933733636498e-01) (24, 2.07590278647457493477e-01) 
