FANN_FLO_2.1
num_layers=3
learning_rate=0.700000
connection_rate=1.000000
network_type=0
learning_momentum=0.000000
training_algorithm=2
train_error_function=1
train_stop_function=1
cascade_output_change_fraction=0.010000
quickprop_decay=-0.000100
quickprop_mu=1.750000
rprop_increase_factor=1.200000
rprop_decrease_factor=0.500000
rprop_delta_min=0.000000
rprop_delta_max=50.000000
rprop_delta_zero=0.100000
cascade_output_stagnation_epochs=12
cascade_candidate_change_fraction=0.010000
cascade_candidate_stagnation_epochs=12
cascade_max_out_epochs=150
cascade_min_out_epochs=50
cascade_max_cand_epochs=150
cascade_min_cand_epochs=50
cascade_num_candidate_groups=2
bit_fail_limit=1.00000000000000005551e-01
cascade_candidate_limit=1.00000000000000000000e+03
cascade_weight_multiplier=4.00000000000000022204e-01
cascade_activation_functions_count=10
cascade_activation_functions=3 5 7 8 10 11 14 15 16 17 
cascade_activation_steepnesses_count=4
cascade_activation_steepnesses=2.50000000000000000000e-01 5.00000000000000000000e-01 7.50000000000000000000e-01 1.00000000000000000000e+00 
layer_sizes=15 11 2 
scale_included=0
neurons (num_inputs, activation_function, activation_steepness)=(0, 0, 0.00000000000000000000e+00) (0, 0, 0.00000000000000000000e+00) (0, 0, 0.00000000000000000000e+00) (0, 0, 0.00000000000000000000e+00) (0, 0, 0.00000000000000000000e+00) (0, 0, 0.00000000000000000000e+00) (0, 0, 0.00000000000000000000e+00) (0, 0, 0.00000000000000000000e+00) (0, 0, 0.00000000000000000000e+00) (0, 0, 0.00000000000000000000e+00) (0, 0, 0.00000000000000000000e+00) (0, 0, 0.00000000000000000000e+00) (0, 0, 0.00000000000000000000e+00) (0, 0, 0.00000000000000000000e+00) (0, 0, 0.00000000000000000000e+00) (15, 6, 5.00000000000000000000e-01) (15, 6, 5.00000000000000000000e-01) (15, 6, 5.00000000000000000000e-01) (15, 6, 5.00000000000000000000e-01) (15, 6, 5.00000000000000000000e-01) (15, 6, 5.00000000000000000000e-01) (15, 6, 5.00000000000000000000e-01) (15, 6, 5.00000000000000000000e-01) (15, 6, 5.00000000000000000000e-01) (15, 6, 5.00000000000000000000e-01) (0, 6, 0.00000000000000000000e+00) (11, 6, 5.00000000000000000000e-01) (0, 6, 0.00000000000000000000e+00) 
connections (connected_to_neuron, weight)=(0, 2.71193731109532321089e-01) (1, 1.06450342441354886547e-01) (2, 5.05710252173292920674e-02) (3, 1.81602508373605447956e-02) (4, 5.32684036143172071065e-02) (5, 2.80538269194816725083e-01) (6, 3.15969246726995356411e+00) (7, -8.07941011007611464834e+00) (8, -1.40985662521216470466e-01) (9, 7.05919226719879233656e+00) (10, -1.23276200871329777442e+00) (11, -7.71689635775293147901e-01) (12, -1.48527238189341193042e+00) (13, -5.12708484403979758426e-01) (14, 8.57427764230036248971e-02) (0, -4.46077061582998590783e-01) (1, 1.56171068307052213209e-01) (2, 1.69183313604484214521e-01) (3, 1.34780525919089871900e-01) (4, 5.73426072858674445998e-02) (5, 1.44828464179131426448e+01) (6, 7.97603844690396268646e+00) (7, 6.26600568923613820971e-01) (8, 7.34647143790982615208e-01) (9, -1.18209981554866594422e+01) (10, 2.09017779613880216871e+00) (11, 4.07580694573623425470e+00) (12, 4.48425726592971969353e+01) (13, 6.78999923676062167033e+00) (14, 9.92197857969573826509e-01) (0, 4.11655057478797437032e-01) (1, -1.05844279956111578245e-01) (2, -4.88867147080989106200e-02) (3, -7.32486827485652608472e-02) (4, -5.29213531129450881485e-02) (5, -6.18273658967018399646e-02) (6, -6.06798235706762431607e-02) (7, 7.15945122381059562144e-01) (8, -1.11770888642641577637e-01) (9, 1.76717271333163528091e+00) (10, 2.27192829571928711641e-01) (11, 2.61313388955748626685e-01) (12, 2.06238906751546713370e-01) (13, -7.93261903335924722924e-01) (14, -4.14232700069581405433e-01) (0, -1.71572830438972023792e+00) (1, 6.04538886221045901337e-01) (2, 6.64608603687877108612e-01) (3, 6.04598475964660098114e-01) (4, 5.42151188822383334198e-01) (5, 4.95283759377301269211e+00) (6, 1.22603819854016045099e+01) (7, 5.74707982186381993728e+00) (8, 2.95919777666183936304e-01) (9, 5.57440605511715503440e+00) (10, 1.13771537634409405926e-01) (11, -2.84561650474249727694e+00) (12, 9.49859592633287164176e+00) (13, 3.47399482912550938707e+00) (14, -1.54295973401748121034e+00) (0, -5.94162615624951229165e+00) (1, -9.66906003707933697777e-02) (2, -1.76486966764359543003e-01) (3, -6.68468229526566620757e-02) (4, -1.44758423423199666935e-01) (5, 5.54274612970938718171e-01) (6, 7.06030676008858160131e-01) (7, 8.10400774007164370616e-01) (8, 3.18947144277063748818e-02) (9, 2.67347824416983348428e-01) (10, 2.81784169394675876319e-01) (11, 3.11887550952126890724e-01) (12, 7.31009705337105075706e-01) (13, 4.69687721611578568037e-01) (14, -1.27507173212946178786e+00) (0, 2.71415693152087800222e-01) (1, 3.44503660318136450957e-01) (2, 2.85792504069090125274e-01) (3, 2.21334048178672943008e-01) (4, 2.15747040328264388931e-01) (5, 8.23385241859880157023e-01) (6, -7.05608613821134600386e-01) (7, -2.99387082838144746866e-01) (8, 2.16843585005162264867e-01) (9, 8.23186011917365068058e-02) (10, 2.08868624283945658604e+00) (11, 2.48841348880054435977e-01) (12, -4.64452900451251871061e-01) (13, -6.35319280240198347443e-01) (14, -4.87485834938034989783e-01) (0, -5.32968467924253008761e-01) (1, -6.51510050383970890087e-02) (2, -1.24542250284330677235e-01) (3, -1.53545378693716372265e-01) (4, -7.50829120961592766381e-02) (5, -2.74222322446794862516e-02) (6, 5.18040846677450206315e-01) (7, 7.55566950451274532696e-01) (8, -1.36976623686262538593e-01) (9, 6.38294405163443268059e-01) (10, 2.53174252495144969100e-01) (11, 2.85116081172573032632e-01) (12, 3.17446087693833034482e-01) (13, -9.96622250101397433308e-02) (14, -4.48184240056729188417e-01) (0, 4.29548957481263541519e-03) (1, -1.35481975932584090827e-02) (2, 1.34432142231895257467e-01) (3, 1.02897395942641509126e-01) (4, 4.16612453798786003256e-02) (5, 9.64376045827461059190e-01) (6, -3.46616485036588095614e-01) (7, -2.68025476221899150442e-01) (8, 5.23794443553403515912e-02) (9, -6.58033386576971190962e-01) (10, -1.80572724246491178590e-01) (11, 1.19260074130818738425e-01) (12, -4.48360693186692027545e-01) (13, -2.02580061489887330861e-01) (14, 9.48849722154440633481e-02) (0, 3.26959943363349658796e-01) (1, 7.23552343037466016984e-02) (2, 1.14395582356725117323e-01) (3, 1.79094211437974409895e-01) (4, 1.72961318173680683730e-01) (5, 5.42562669936934693915e-01) (6, 1.22712516233420565470e+00) (7, -1.68303641910516699198e+00) (8, 2.51855218827677085347e-02) (9, -1.20109937718417860708e+01) (10, 1.81671706446043801364e+00) (11, -3.44487228722646088297e-01) (12, 8.98099266512978822163e+00) (13, 1.35756245407934378333e-01) (14, 1.73498243113114736236e-01) (0, 2.48656053283651118369e-01) (1, 2.10521372549824586917e-01) (2, 1.57636033885769660801e-01) (3, 6.97818981042432479045e-02) (4, 1.43629054122261817783e-01) (5, 4.55614888231048620337e-01) (6, -2.07596805953386631671e+00) (7, 3.10926465130655804714e+00) (8, 2.34597920800074938308e-01) (9, 4.57097017166267494126e-01) (10, -1.71508150760940614177e+00) (11, -1.39052679887576990936e+00) (12, 2.58852958266296617751e+00) (13, 6.50878123453061352421e+00) (14, -5.42247649807983331249e-02) (15, 5.78266224265635120361e-01) (16, 8.79666926608646870811e-01) (17, 6.49437929382692291647e-01) (18, -3.88477739589971837741e-01) (19, 6.89669864676786703583e-01) (20, 6.65857232548079602807e-01) (21, 6.33849954858795361368e-01) (22, -6.86894553435481558523e-01) (23, -2.54949889826369902046e-01) (24, 6.16807227153183812440e-01) (25, 1.24117193572434350579e-01) 
