FANN_FLO_2.1
num_layers=3
learning_rate=0.700000
connection_rate=1.000000
network_type=0
learning_momentum=0.000000
training_algorithm=2
train_error_function=1
train_stop_function=1
cascade_output_change_fraction=0.010000
quickprop_decay=-0.000100
quickprop_mu=1.750000
rprop_increase_factor=1.200000
rprop_decrease_factor=0.500000
rprop_delta_min=0.000000
rprop_delta_max=50.000000
rprop_delta_zero=0.100000
cascade_output_stagnation_epochs=12
cascade_candidate_change_fraction=0.010000
cascade_candidate_stagnation_epochs=12
cascade_max_out_epochs=150
cascade_min_out_epochs=50
cascade_max_cand_epochs=150
cascade_min_cand_epochs=50
cascade_num_candidate_groups=2
bit_fail_limit=1.00000000000000005551e-01
cascade_candidate_limit=1.00000000000000000000e+03
cascade_weight_multiplier=4.00000000000000022204e-01
cascade_activation_functions_count=10
cascade_activation_functions=3 5 7 8 10 11 14 15 16 17 
cascade_activation_steepnesses_count=4
cascade_activation_steepnesses=2.50000000000000000000e-01 5.00000000000000000000e-01 7.50000000000000000000e-01 1.00000000000000000000e+00 
layer_sizes=10 4 2 
scale_included=0
neurons (num_inputs, activation_function, activation_steepness)=(0, 0, 0.00000000000000000000e+00) (0, 0, 0.00000000000000000000e+00) (0, 0, 0.00000000000000000000e+00) (0, 0, 0.00000000000000000000e+00) (0, 0, 0.00000000000000000000e+00) (0, 0, 0.00000000000000000000e+00) (0, 0, 0.00000000000000000000e+00) (0, 0, 0.00000000000000000000e+00) (0, 0, 0.00000000000000000000e+00) (0, 0, 0.00000000000000000000e+00) (10, 6, 5.00000000000000000000e-01) (10, 6, 5.00000000000000000000e-01) (10, 6, 5.00000000000000000000e-01) (0, 6, 0.00000000000000000000e+00) (4, 4, 5.00000000000000000000e-01) (0, 4, 0.00000000000000000000e+00) 
connections (connected_to_neuron, weight)=(0, -3.04904866960553722066e+00) (1, 1.36127568165073808970e+00) (2, 2.89021575004866315695e+00) (3, 7.75238099133617297731e-01) (4, -1.21986257047789231622e-01) (5, 1.73710678925721118127e+00) (6, 3.32782075494121698522e-01) (7, 1.44148631473948252157e+00) (8, 1.24850587102517196492e+00) (9, -5.46705780026419119189e-01) (0, -9.30417720468290454505e+00) (1, -4.89559067530868030627e-01) (2, 1.93188031048548580770e+01) (3, -1.35525606440525825391e+00) (4, -1.47788597134095356367e+00) (5, 1.96793817674556281716e+00) (6, 7.28101105160900208269e-01) (7, 1.40474292715956461386e+00) (8, 1.43955628874644303572e+00) (9, -6.75702371652068256580e-01) (0, 3.55950297382708091831e+00) (1, -1.92189063081160926849e+00) (2, -3.07987212023219159018e-01) (3, -2.28987471888523552721e+00) (4, -3.18820652522323433331e+00) (5, -2.57109779482326450406e+00) (6, -1.50836252931024450419e+00) (7, -3.08087930289930644889e+00) (8, -2.55113728495232816584e+00) (9, 2.82445536902155014403e+00) (10, 1.57371831850524124263e+00) (11, 1.99988909569521777776e+00) (12, -2.98646377887381717642e+01) (13, -1.31798732520816974656e+00) 
