FANN_FLO_2.1
num_layers=3
learning_rate=0.700000
connection_rate=1.000000
network_type=0
learning_momentum=0.000000
training_algorithm=2
train_error_function=1
train_stop_function=1
cascade_output_change_fraction=0.010000
quickprop_decay=-0.000100
quickprop_mu=1.750000
rprop_increase_factor=1.200000
rprop_decrease_factor=0.500000
rprop_delta_min=0.000000
rprop_delta_max=50.000000
rprop_delta_zero=0.100000
cascade_output_stagnation_epochs=12
cascade_candidate_change_fraction=0.010000
cascade_candidate_stagnation_epochs=12
cascade_max_out_epochs=150
cascade_min_out_epochs=50
cascade_max_cand_epochs=150
cascade_min_cand_epochs=50
cascade_num_candidate_groups=2
bit_fail_limit=1.00000000000000005551e-01
cascade_candidate_limit=1.00000000000000000000e+03
cascade_weight_multiplier=4.00000000000000022204e-01
cascade_activation_functions_count=10
cascade_activation_functions=3 5 7 8 10 11 14 15 16 17 
cascade_activation_steepnesses_count=4
cascade_activation_steepnesses=2.50000000000000000000e-01 5.00000000000000000000e-01 7.50000000000000000000e-01 1.00000000000000000000e+00 
layer_sizes=19 4 2 
scale_included=0
neurons (num_inputs, activation_function, activation_steepness)=(0, 0, 0.00000000000000000000e+00) (0, 0, 0.00000000000000000000e+00) (0, 0, 0.00000000000000000000e+00) (0, 0, 0.00000000000000000000e+00) (0, 0, 0.00000000000000000000e+00) (0, 0, 0.00000000000000000000e+00) (0, 0, 0.00000000000000000000e+00) (0, 0, 0.00000000000000000000e+00) (0, 0, 0.00000000000000000000e+00) (0, 0, 0.00000000000000000000e+00) (0, 0, 0.00000000000000000000e+00) (0, 0, 0.00000000000000000000e+00) (0, 0, 0.00000000000000000000e+00) (0, 0, 0.00000000000000000000e+00) (0, 0, 0.00000000000000000000e+00) (0, 0, 0.00000000000000000000e+00) (0, 0, 0.00000000000000000000e+00) (0, 0, 0.00000000000000000000e+00) (0, 0, 0.00000000000000000000e+00) (19, 6, 5.00000000000000000000e-01) (19, 6, 5.00000000000000000000e-01) (19, 6, 5.00000000000000000000e-01) (0, 6, 0.00000000000000000000e+00) (4, 4, 5.00000000000000000000e-01) (0, 4, 0.00000000000000000000e+00) 
connections (connected_to_neuron, weight)=(0, 3.15316783396356115077e+01) (1, 2.42157623609024170719e+02) (2, -2.51398471154263170035e+01) (3, 3.86307594285151054692e+01) (4, 1.40570126353199299274e+02) (5, 2.47475247119231084980e+02) (6, 2.44315877214496708802e+02) (7, 1.50000000000000000000e+03) (8, 2.46917972887253483805e+02) (9, 1.50000000000000000000e+03) (10, -2.16046123177232544776e+02) (11, 5.02721330511233066574e+00) (12, -4.94832430898203501357e+00) (13, -3.99438510626824054839e+01) (14, -4.98257044559321027322e+00) (15, 2.43747901233492882511e+02) (16, 2.45703717402637181522e+02) (17, -8.61033756922113013843e+01) (18, 1.91013192031996470455e+00) (0, 1.52426699770011264690e+01) (1, -2.54869639228753097626e+00) (2, -7.35945880861336831913e+00) (3, 1.50000000000000000000e+03) (4, 5.81157006066348014173e-01) (5, -2.21273887316617035026e+00) (6, -2.23608512244116308665e+00) (7, -2.32545909636738068471e+00) (8, -2.26097097928716106452e+00) (9, 1.16730523425406538252e+01) (10, -2.02336771017784045057e+01) (11, 3.03977630514706405052e+01) (12, 2.42167043156771377710e+00) (13, 1.50000000000000000000e+03) (14, 2.22269701049594603504e+00) (15, 7.03568573258897544953e-01) (16, 7.36261632119460829315e-01) (17, -1.32784818579022836360e+01) (18, -1.88843093250222127111e+00) (0, 5.07399638134349899588e+01) (1, -1.93911766138034629137e+01) (2, -1.49007931055337650150e+01) (3, -4.14333522584040370162e+00) (4, -1.80988275092668189359e+01) (5, -1.93505471810521356701e+01) (6, -1.93260603111085131900e+01) (7, -1.93736877921904273592e+01) (8, -1.92835556706586359610e+01) (9, -5.82403368302456758698e+00) (10, 5.13481116926319991478e+00) (11, 7.03083848386840348788e-01) (12, 1.50000000000000000000e+03) (13, -3.99019351132483635070e+01) (14, 1.50000000000000000000e+03) (15, -1.77209810906745879322e+01) (16, -1.74325719022779495049e+01) (17, -1.14276082499533107040e+01) (18, 8.13127813608048377603e+00) (19, -3.92082486371400662506e+00) (20, 5.37600024369452800244e+00) (21, -4.60739972225857119525e+00) (22, 5.97540857766261868100e-01) 
