FANN_FLO_2.1
num_layers=3
learning_rate=0.700000
connection_rate=1.000000
network_type=0
learning_momentum=0.000000
training_algorithm=2
train_error_function=1
train_stop_function=1
cascade_output_change_fraction=0.010000
quickprop_decay=-0.000100
quickprop_mu=1.750000
rprop_increase_factor=1.200000
rprop_decrease_factor=0.500000
rprop_delta_min=0.000000
rprop_delta_max=50.000000
rprop_delta_zero=0.100000
cascade_output_stagnation_epochs=12
cascade_candidate_change_fraction=0.010000
cascade_candidate_stagnation_epochs=12
cascade_max_out_epochs=150
cascade_min_out_epochs=50
cascade_max_cand_epochs=150
cascade_min_cand_epochs=50
cascade_num_candidate_groups=2
bit_fail_limit=1.00000000000000005551e-01
cascade_candidate_limit=1.00000000000000000000e+03
cascade_weight_multiplier=4.00000000000000022204e-01
cascade_activation_functions_count=10
cascade_activation_functions=3 5 7 8 10 11 14 15 16 17 
cascade_activation_steepnesses_count=4
cascade_activation_steepnesses=2.50000000000000000000e-01 5.00000000000000000000e-01 7.50000000000000000000e-01 1.00000000000000000000e+00 
layer_sizes=6 4 2 
scale_included=0
neurons (num_inputs, activation_function, activation_steepness)=(0, 0, 0.00000000000000000000e+00) (0, 0, 0.00000000000000000000e+00) (0, 0, 0.00000000000000000000e+00) (0, 0, 0.00000000000000000000e+00) (0, 0, 0.00000000000000000000e+00) (0, 0, 0.00000000000000000000e+00) (6, 6, 5.00000000000000000000e-01) (6, 6, 5.00000000000000000000e-01) (6, 6, 5.00000000000000000000e-01) (0, 6, 0.00000000000000000000e+00) (4, 4, 5.00000000000000000000e-01) (0, 4, 0.00000000000000000000e+00) 
connections (connected_to_neuron, weight)=(0, 1.12902347731799057584e+01) (1, 2.79206452605640143005e+00) (2, -7.57924113034174418146e+00) (3, -5.08569098046479539654e-01) (4, 2.91757914003049512175e+00) (5, -2.37800209175559507102e+00) (0, -4.55674077908245944712e+00) (1, 3.90179882347492590355e+00) (2, -7.57612122660584930145e+01) (3, 1.21590765153188518077e+00) (4, 5.44447324035153989996e+00) (5, 5.62154300376362225933e+00) (0, -8.22189809008863070616e-02) (1, 4.52948264544143874843e+00) (2, 3.55584296355272133638e+00) (3, -6.88566533926832846646e+01) (4, 5.17586427463756315603e+00) (5, 8.79386792089728608346e+00) (6, 3.66007277296642214992e+01) (7, -1.47983883072162800687e+01) (8, -9.42626619032507484519e+00) (9, -1.46835279390618946849e+01) 
