FANN_FLO_2.1
num_layers=3
learning_rate=0.700000
connection_rate=1.000000
network_type=0
learning_momentum=0.000000
training_algorithm=2
train_error_function=1
train_stop_function=1
cascade_output_change_fraction=0.010000
quickprop_decay=-0.000100
quickprop_mu=1.750000
rprop_increase_factor=1.200000
rprop_decrease_factor=0.500000
rprop_delta_min=0.000000
rprop_delta_max=50.000000
rprop_delta_zero=0.100000
cascade_output_stagnation_epochs=12
cascade_candidate_change_fraction=0.010000
cascade_candidate_stagnation_epochs=12
cascade_max_out_epochs=150
cascade_min_out_epochs=50
cascade_max_cand_epochs=150
cascade_min_cand_epochs=50
cascade_num_candidate_groups=2
bit_fail_limit=1.00000000000000005551e-01
cascade_candidate_limit=1.00000000000000000000e+03
cascade_weight_multiplier=4.00000000000000022204e-01
cascade_activation_functions_count=10
cascade_activation_functions=3 5 7 8 10 11 14 15 16 17 
cascade_activation_steepnesses_count=4
cascade_activation_steepnesses=2.50000000000000000000e-01 5.00000000000000000000e-01 7.50000000000000000000e-01 1.00000000000000000000e+00 
layer_sizes=25 11 2 
scale_included=0
neurons (num_inputs, activation_function, activation_steepness)=(0, 0, 0.00000000000000000000e+00) (0, 0, 0.00000000000000000000e+00) (0, 0, 0.00000000000000000000e+00) (0, 0, 0.00000000000000000000e+00) (0, 0, 0.00000000000000000000e+00) (0, 0, 0.00000000000000000000e+00) (0, 0, 0.00000000000000000000e+00) (0, 0, 0.00000000000000000000e+00) (0, 0, 0.00000000000000000000e+00) (0, 0, 0.00000000000000000000e+00) (0, 0, 0.00000000000000000000e+00) (0, 0, 0.00000000000000000000e+00) (0, 0, 0.00000000000000000000e+00) (0, 0, 0.00000000000000000000e+00) (0, 0, 0.00000000000000000000e+00) (0, 0, 0.00000000000000000000e+00) (0, 0, 0.00000000000000000000e+00) (0, 0, 0.00000000000000000000e+00) (0, 0, 0.00000000000000000000e+00) (0, 0, 0.00000000000000000000e+00) (0, 0, 0.00000000000000000000e+00) (0, 0, 0.00000000000000000000e+00) (0, 0, 0.00000000000000000000e+00) (0, 0, 0.00000000000000000000e+00) (0, 0, 0.00000000000000000000e+00) (25, 6, 5.00000000000000000000e-01) (25, 6, 5.00000000000000000000e-01) (25, 6, 5.00000000000000000000e-01) (25, 6, 5.00000000000000000000e-01) (25, 6, 5.00000000000000000000e-01) (25, 6, 5.00000000000000000000e-01) (25, 6, 5.00000000000000000000e-01) (25, 6, 5.00000000000000000000e-01) (25, 6, 5.00000000000000000000e-01) (25, 6, 5.00000000000000000000e-01) (0, 6, 0.00000000000000000000e+00) (11, 6, 5.00000000000000000000e-01) (0, 6, 0.00000000000000000000e+00) 
connections (connected_to_neuron, weight)=(0, 3.98264966403559750319e+00) (1, 7.77926556638789679088e-02) (2, -2.88958959408684816494e-02) (3, 2.57085226348953456432e-02) (4, 1.39104720192345265861e-01) (5, 4.39783802269203683011e+00) (6, -6.62185060256614055341e-01) (7, -7.55561360254678326953e+00) (8, 1.02107032367933370232e+00) (9, 5.99948948011501115296e-02) (10, 6.76150334156856991363e-01) (11, 9.95853438704815463467e-01) (12, 9.35965720910652554387e-01) (13, 1.21096992430731620338e+00) (14, 2.43008666695337005592e+00) (15, 1.10032064382168903727e+00) (16, -5.65517014604008827483e-01) (17, 1.75421013559140237525e+00) (18, 3.59652212877360621945e+00) (19, 7.46916448610254679608e+00) (20, 4.55290120623428684610e+00) (21, 1.94534880172865332071e+00) (22, 1.85725086387267168675e+00) (23, 1.27960363670526011681e+00) (24, 1.20528350947606965882e+00) (0, 2.86053009823282948787e+01) (1, 3.42526272794692165924e-01) (2, 4.12001059314696382874e-01) (3, 3.43691901227919704986e-01) (4, 3.75044376513449739807e-01) (5, 1.50000000000000000000e+03) (6, 1.04645276829424407339e+01) (7, -9.14787052750656570765e+00) (8, -2.23012220545499424418e+01) (9, 2.26370636015182313816e-01) (10, -1.78418666201030902130e+01) (11, -2.21296237088140443916e+01) (12, -1.90645129449565011726e+01) (13, 1.78541494008260759330e+00) (14, -1.84689302211956132282e+01) (15, 1.48635152239242097494e+03) (16, 1.50000000000000000000e+03) (17, 1.13690103000172371139e+01) (18, 4.72885887637268798045e-01) (19, -9.69137308621388982033e+00) (20, -3.75629277730108790401e-01) (21, -2.03025791149954955017e+01) (22, -2.04214185417685953894e+01) (23, -1.01788308520494985565e+00) (24, 1.17844512152026279495e+01) (0, -4.57342077172039154220e+01) (1, 6.88679253351154735396e-02) (2, 7.26315904802590762111e-04) (3, 1.25491525758451377692e-01) (4, 1.11363347400373111085e-01) (5, -2.30312134805667945159e+00) (6, 6.68419590183676803896e-01) (7, 6.79062436605545549639e+00) (8, 3.34132624273515510538e+00) (9, 4.17421151301054782490e-01) (10, 3.34990514734727806712e+00) (11, 3.34483452441615103368e+00) (12, 3.38572364255048663395e+00) (13, 4.37319228882283717041e+00) (14, 3.93336058446919167864e+00) (15, -1.52245130561827690663e+00) (16, -3.53500922804360451224e+00) (17, 4.28591755111529426614e+00) (18, 8.75354162641662991717e-01) (19, 3.70024044480061720108e+00) (20, 6.96566153542138577492e-01) (21, 3.93276244634629579267e+00) (22, 3.86179334517968531060e+00) (23, -2.92140566615722763189e+00) (24, -7.53050759619241460996e+00) (0, 9.75464750854698414706e-01) (1, 2.46874008924647420082e-01) (2, 2.27921959609668961511e-01) (3, 2.83337880522893603708e-01) (4, 2.30477240533512345300e-01) (5, 1.50000000000000000000e+03) (6, -6.61242521367769064966e+00) (7, -9.24526290505374070960e+00) (8, 4.05578748136512245992e+00) (9, 3.86087872894163020021e-01) (10, 6.88969809729544380161e+00) (11, 3.91151014632730165133e+00) (12, 6.49377677308827472302e+00) (13, 1.50000000000000000000e+03) (14, 8.13296610442003853336e+00) (15, 1.48635152239242097494e+03) (16, 3.78071468317754666444e+00) (17, -3.84706437513613774826e+00) (18, -1.83029921604510703581e+00) (19, -2.38234465128955630320e+00) (20, -1.35940204039929501967e+00) (21, 8.32672999171638394955e+00) (22, 7.36030276898552404674e+00) (23, 5.14753628960034514961e+00) (24, 1.09892675925821414751e+01) (0, 9.27658000998149745442e+00) (1, 4.37882757946330192222e-01) (2, 4.60600718125182273521e-01) (3, 4.27131152912455680504e-01) (4, 5.48676713570432572631e-01) (5, -7.44590030759963905638e+00) (6, 4.28775273253045163813e+00) (7, -1.38209308671590402895e+01) (8, -7.95198855694110662284e+00) (9, -6.48500354117717975333e-02) (10, 8.75297381234778737458e-01) (11, -7.91431212499460912113e+00) (12, 2.26817880362364698854e+00) (13, -1.42803887699332321404e+00) (14, 3.48877168996248343547e+00) (15, 1.24792370491008641764e+00) (16, 5.45378427329837212056e-01) (17, -1.27398581320265318340e+01) (18, -8.78142114591731726136e+00) (19, -6.82394246808078275279e+00) (20, -1.43973411590546440664e+00) (21, 2.59132418083375304363e+00) (22, 2.63636855768697753177e+00) (23, -1.09312392646781275651e+00) (24, 1.10848428760093380419e+01) (0, 3.37626458187973454983e+00) (1, 1.85640732070271374798e-01) (2, 2.33220787962739012356e-01) (3, 2.14609572907750151272e-01) (4, 2.80560599883859507209e-01) (5, 4.78513774321506968334e+00) (6, 3.45785076961909354498e-01) (7, -8.08679562066100210416e+00) (8, 1.50000000000000000000e+03) (9, 2.51757820459966197291e-01) (10, 1.38887242312476473671e+03) (11, 1.50000000000000000000e+03) (12, 1.22228261032174850698e+03) (13, 4.08264282355983088024e+00) (14, 4.25895622024056130783e+00) (15, -1.91861015395125988903e+00) (16, -3.39856031213944875802e+00) (17, 1.50000000000000000000e+03) (18, 1.50000000000000000000e+03) (19, 3.22040120498295445728e+00) (20, 5.80861907823505863036e+00) (21, 1.50000000000000000000e+03) (22, 1.50000000000000000000e+03) (23, -4.12326790671076803818e+00) (24, 4.85319412396139604482e+00) (0, 9.71424240954915596546e+00) (1, 1.80075779217822973255e-01) (2, 5.57557192030993659104e-02) (3, 1.73818163234336686696e-01) (4, 7.05660727206311177984e-02) (5, -1.17945617672378366692e+00) (6, -5.03490305938810944753e-01) (7, -4.95518504084876898474e+00) (8, 2.06407228445909796122e+00) (9, -6.76491510257128392247e-01) (10, -9.50316877692350625573e-01) (11, 2.01831719485693517058e+00) (12, -1.42805932702460358641e+00) (13, -1.29646279616150406078e+00) (14, -2.33986571966280987311e+00) (15, 1.65327861513486884526e+00) (16, -4.74184457454672914078e-01) (17, 2.57319658785251270672e+00) (18, 5.80978817634301503148e+00) (19, -4.26127155017132275283e-01) (20, 9.87161657812413118052e+00) (21, -2.02714370858962134037e+00) (22, -2.05945508849906877558e+00) (23, -1.00416764129091018454e+00) (24, 8.10600299774156374255e-01) (0, 9.54226225163705166210e+00) (1, 2.91838326961603583554e-02) (2, 1.58492972841938140061e-01) (3, 1.56499316683490902191e-01) (4, 1.40169819584568255966e-01) (5, 4.05419593073110107184e+00) (6, 6.85827763944079848990e-01) (7, -5.45158539827491139818e+00) (8, -8.85213705085657776017e-01) (9, 1.27595541144312285553e+00) (10, -1.68416727691173634396e-01) (11, -9.31361696189879295638e-01) (12, -5.50294528962463058708e-02) (13, 7.48119767462144591441e-01) (14, 3.61223433196005139223e-01) (15, 5.69291020289980220781e+00) (16, 3.14402494309224245228e+00) (17, -1.51766291279102349954e+00) (18, 6.21457907237268014633e-01) (19, 2.07482725187462335725e+01) (20, 1.46544275903534981786e+00) (21, 1.34013621776632396720e-01) (22, 1.08050808292638744756e-01) (23, 2.84059261842787158514e+00) (24, -1.39462659117509935047e-02) (0, -5.64960395250152060953e+01) (1, -2.62610589314860448651e-02) (2, -1.16136280183928450316e-01) (3, -6.21474062253406650536e-02) (4, -7.11794843126705295555e-02) (5, -3.51505813687158186198e+00) (6, -1.95452436044902166934e+00) (7, 1.06435162606920030726e+01) (8, 4.48568740745697525085e-01) (9, -2.75889931608923832940e+00) (10, 2.72660851279543425818e-01) (11, 5.27945556570819873876e-01) (12, -3.11698487920887556957e-03) (13, -1.80807646458951176704e+00) (14, -9.52089104930749052791e-01) (15, -5.58500888404611472993e+00) (16, -9.32260363775861655711e+00) (17, 6.56713537010781589487e+00) (18, -1.48637271517145785893e+00) (19, -4.60224611427282237486e+00) (20, -2.43651166753962566958e+00) (21, -1.10142400233928738906e-01) (22, -2.59108283581863274581e-01) (23, -1.63389505397522105667e+00) (24, 1.81446547088016219007e+00) (0, -1.15353654927686495313e+01) (1, -7.16358224707972918166e-02) (2, -1.15047055001868361868e-01) (3, -1.32743845399035387267e-01) (4, -2.37561712819468924540e-02) (5, 5.29879475304369074173e-01) (6, 2.73567874456324966470e-01) (7, 9.05117598405574041998e-01) (8, -1.50000000000000000000e+03) (9, 8.37291131797734122788e-02) (10, 1.06879597342355325829e+00) (11, -1.50000000000000000000e+03) (12, 1.46741281714149951476e+00) (13, 6.35865411071769304208e-01) (14, 2.21870405002922099769e+00) (15, -2.02385268556534203555e+00) (16, -5.08593376265126351221e-01) (17, -1.33435813456191954174e+03) (18, -1.50000000000000000000e+03) (19, -3.09564268532720688817e-03) (20, -1.50000000000000000000e+03) (21, 2.00313493579630952368e+00) (22, 1.96767197260097836953e+00) (23, 9.25009511785687132956e-01) (24, -3.78968902376573435475e-01) (25, -6.91682240855579388850e-01) (26, -1.01954522054413285193e-01) (27, 1.29689648404909241286e+00) (28, -3.62802600386155582601e-01) (29, -2.76397545945370359810e-01) (30, 1.03073763652518257672e+00) (31, -5.79626290309327774075e-01) (32, 1.52539655857134714978e+00) (33, 9.02535173746909613612e-01) (34, -7.83004107106280433648e-01) (35, 8.65842518555338336306e-01) 
