FANN_FLO_2.1
num_layers=3
learning_rate=0.700000
connection_rate=1.000000
network_type=0
learning_momentum=0.000000
training_algorithm=2
train_error_function=1
train_stop_function=1
cascade_output_change_fraction=0.010000
quickprop_decay=-0.000100
quickprop_mu=1.750000
rprop_increase_factor=1.200000
rprop_decrease_factor=0.500000
rprop_delta_min=0.000000
rprop_delta_max=50.000000
rprop_delta_zero=0.100000
cascade_output_stagnation_epochs=12
cascade_candidate_change_fraction=0.010000
cascade_candidate_stagnation_epochs=12
cascade_max_out_epochs=150
cascade_min_out_epochs=50
cascade_max_cand_epochs=150
cascade_min_cand_epochs=50
cascade_num_candidate_groups=2
bit_fail_limit=1.00000000000000005551e-01
cascade_candidate_limit=1.00000000000000000000e+03
cascade_weight_multiplier=4.00000000000000022204e-01
cascade_activation_functions_count=10
cascade_activation_functions=3 5 7 8 10 11 14 15 16 17 
cascade_activation_steepnesses_count=4
cascade_activation_steepnesses=2.50000000000000000000e-01 5.00000000000000000000e-01 7.50000000000000000000e-01 1.00000000000000000000e+00 
layer_sizes=16 4 2 
scale_included=0
neurons (num_inputs, activation_function, activation_steepness)=(0, 0, 0.00000000000000000000e+00) (0, 0, 0.00000000000000000000e+00) (0, 0, 0.00000000000000000000e+00) (0, 0, 0.00000000000000000000e+00) (0, 0, 0.00000000000000000000e+00) (0, 0, 0.00000000000000000000e+00) (0, 0, 0.00000000000000000000e+00) (0, 0, 0.00000000000000000000e+00) (0, 0, 0.00000000000000000000e+00) (0, 0, 0.00000000000000000000e+00) (0, 0, 0.00000000000000000000e+00) (0, 0, 0.00000000000000000000e+00) (0, 0, 0.00000000000000000000e+00) (0, 0, 0.00000000000000000000e+00) (0, 0, 0.00000000000000000000e+00) (0, 0, 0.00000000000000000000e+00) (16, 6, 5.00000000000000000000e-01) (16, 6, 5.00000000000000000000e-01) (16, 6, 5.00000000000000000000e-01) (0, 6, 0.00000000000000000000e+00) (4, 4, 5.00000000000000000000e-01) (0, 4, 0.00000000000000000000e+00) 
connections (connected_to_neuron, weight)=(0, 1.17780209472575609908e+01) (1, 6.31616487826105604819e-02) (2, 9.52454996556574388922e-03) (3, 1.99744263375108949132e-01) (4, -5.52427968742156272342e-01) (5, 1.32964621130123283876e+00) (6, -7.91660979554125399105e-01) (7, -1.91934398716096965565e+00) (8, -3.97342083791382624791e-02) (9, 1.05608658878201766562e+00) (10, -5.27254456376671676310e-01) (11, 2.18653123611105948410e-01) (12, -2.31569993890613168297e-01) (13, -2.35773231758128121172e+00) (14, -3.90567244434289362331e+00) (15, -4.30382633187596896907e-01) (0, -1.16341597369282911956e+00) (1, 2.99029134875665114635e+00) (2, 3.05332121070440498656e+00) (3, 2.88652539590460932573e+00) (4, 3.18080870313937769112e+00) (5, 8.21804497861134963799e-01) (6, 3.72504467053593746328e+00) (7, 2.36361571157699312806e+00) (8, 2.79850873556652546270e+00) (9, 8.52734876652959883359e-01) (10, 3.42376452247926410521e+00) (11, 2.86650210886881273709e+00) (12, 3.19949087032881784864e+00) (13, -1.44799999964237213135e+03) (14, -1.44799999964237213135e+03) (15, -1.98020185329980069611e+00) (0, -3.10117816269257828843e-01) (1, -1.45319483528444148845e+00) (2, -1.47614754803006320572e+00) (3, -1.02387520836271050939e+00) (4, -1.88342334879913719803e+00) (5, -2.62321615708774702469e+00) (6, -1.99086554103793145210e+00) (7, -4.90477291641422308288e+00) (8, -1.97192757365331372554e+00) (9, -2.64020422791936715257e+00) (10, -1.92994583707623612590e+00) (11, -1.10469676764955115900e+00) (12, -1.76090582138930606959e+00) (13, -7.82649233165751567753e+00) (14, -5.02776631304228693864e+00) (15, 4.62419095726272466607e+00) (16, 5.01704219974375362767e+01) (17, 2.08064041351036621563e+01) (18, -3.85999908629073757993e+01) (19, -2.00102259225055645331e+00) 
