FANN_FLO_2.1
num_layers=3
learning_rate=0.700000
connection_rate=1.000000
network_type=0
learning_momentum=0.000000
training_algorithm=2
train_error_function=1
train_stop_function=1
cascade_output_change_fraction=0.010000
quickprop_decay=-0.000100
quickprop_mu=1.750000
rprop_increase_factor=1.200000
rprop_decrease_factor=0.500000
rprop_delta_min=0.000000
rprop_delta_max=50.000000
rprop_delta_zero=0.100000
cascade_output_stagnation_epochs=12
cascade_candidate_change_fraction=0.010000
cascade_candidate_stagnation_epochs=12
cascade_max_out_epochs=150
cascade_min_out_epochs=50
cascade_max_cand_epochs=150
cascade_min_cand_epochs=50
cascade_num_candidate_groups=2
bit_fail_limit=1.00000000000000005551e-01
cascade_candidate_limit=1.00000000000000000000e+03
cascade_weight_multiplier=4.00000000000000022204e-01
cascade_activation_functions_count=10
cascade_activation_functions=3 5 7 8 10 11 14 15 16 17 
cascade_activation_steepnesses_count=4
cascade_activation_steepnesses=2.50000000000000000000e-01 5.00000000000000000000e-01 7.50000000000000000000e-01 1.00000000000000000000e+00 
layer_sizes=14 4 2 
scale_included=0
neurons (num_inputs, activation_function, activation_steepness)=(0, 0, 0.00000000000000000000e+00) (0, 0, 0.00000000000000000000e+00) (0, 0, 0.00000000000000000000e+00) (0, 0, 0.00000000000000000000e+00) (0, 0, 0.00000000000000000000e+00) (0, 0, 0.00000000000000000000e+00) (0, 0, 0.00000000000000000000e+00) (0, 0, 0.00000000000000000000e+00) (0, 0, 0.00000000000000000000e+00) (0, 0, 0.00000000000000000000e+00) (0, 0, 0.00000000000000000000e+00) (0, 0, 0.00000000000000000000e+00) (0, 0, 0.00000000000000000000e+00) (0, 0, 0.00000000000000000000e+00) (14, 6, 5.00000000000000000000e-01) (14, 6, 5.00000000000000000000e-01) (14, 6, 5.00000000000000000000e-01) (0, 6, 0.00000000000000000000e+00) (4, 4, 5.00000000000000000000e-01) (0, 4, 0.00000000000000000000e+00) 
connections (connected_to_neuron, weight)=(0, 8.71509772659432790931e+00) (1, 2.52093249244608053061e+01) (2, 1.38334619901132759878e+03) (3, 8.70043400037643444023e+00) (4, 3.79659381337003809520e+00) (5, -2.68459527661459418368e+00) (6, 1.29736000329971352585e+03) (7, 1.50000000000000000000e+03) (8, 1.45965283632019941251e+03) (9, 1.44465458309431755879e+03) (10, 1.50000000000000000000e+03) (11, -3.33443182423104600431e+00) (12, -3.35474234784550251476e+00) (13, 1.08766900036259595019e+00) (0, 4.91018260843881506617e+01) (1, -7.00442852762054268823e+00) (2, 7.20712003173714244042e+00) (3, -1.48755418644812227313e+01) (4, -1.37807050439534561903e+00) (5, 1.82355974615634721658e+01) (6, -8.89392860765932824485e-01) (7, -1.07199893296188664138e+00) (8, -1.00954579856454773612e+00) (9, -7.86952679250111364340e-01) (10, -8.77001149521929979080e-01) (11, -2.28382721646085196099e-01) (12, -2.62048001380957185091e-01) (13, -9.19947115202951870572e+00) (0, -7.78988996941896272297e-01) (1, 3.38272976778784917329e+00) (2, -3.47580377596658163242e-01) (3, 1.50000000000000000000e+03) (4, 2.42858422717871746954e+00) (5, -1.73858097317148985184e+00) (6, 1.53836823837151270844e+00) (7, 1.60781211364431420030e+00) (8, 1.57865433513097697116e+00) (9, 1.52157580893028487878e+00) (10, 1.52272523311290886028e+00) (11, 1.23684446731983155310e+00) (12, 1.22794561224041642866e+00) (13, -1.43250934594752554752e+00) (14, -1.96670759623718147679e+01) (15, 1.57293023724772424998e+01) (16, 1.88857804347199547124e+01) (17, -1.73385973969826558128e-02) 
