FANN_FLO_2.1
num_layers=3
learning_rate=0.700000
connection_rate=1.000000
network_type=0
learning_momentum=0.000000
training_algorithm=2
train_error_function=1
train_stop_function=1
cascade_output_change_fraction=0.010000
quickprop_decay=-0.000100
quickprop_mu=1.750000
rprop_increase_factor=1.200000
rprop_decrease_factor=0.500000
rprop_delta_min=0.000000
rprop_delta_max=50.000000
rprop_delta_zero=0.100000
cascade_output_stagnation_epochs=12
cascade_candidate_change_fraction=0.010000
cascade_candidate_stagnation_epochs=12
cascade_max_out_epochs=150
cascade_min_out_epochs=50
cascade_max_cand_epochs=150
cascade_min_cand_epochs=50
cascade_num_candidate_groups=2
bit_fail_limit=1.00000000000000005551e-01
cascade_candidate_limit=1.00000000000000000000e+03
cascade_weight_multiplier=4.00000000000000022204e-01
cascade_activation_functions_count=10
cascade_activation_functions=3 5 7 8 10 11 14 15 16 17 
cascade_activation_steepnesses_count=4
cascade_activation_steepnesses=2.50000000000000000000e-01 5.00000000000000000000e-01 7.50000000000000000000e-01 1.00000000000000000000e+00 
layer_sizes=10 11 2 
scale_included=0
neurons (num_inputs, activation_function, activation_steepness)=(0, 0, 0.00000000000000000000e+00) (0, 0, 0.00000000000000000000e+00) (0, 0, 0.00000000000000000000e+00) (0, 0, 0.00000000000000000000e+00) (0, 0, 0.00000000000000000000e+00) (0, 0, 0.00000000000000000000e+00) (0, 0, 0.00000000000000000000e+00) (0, 0, 0.00000000000000000000e+00) (0, 0, 0.00000000000000000000e+00) (0, 0, 0.00000000000000000000e+00) (10, 6, 5.00000000000000000000e-01) (10, 6, 5.00000000000000000000e-01) (10, 6, 5.00000000000000000000e-01) (10, 6, 5.00000000000000000000e-01) (10, 6, 5.00000000000000000000e-01) (10, 6, 5.00000000000000000000e-01) (10, 6, 5.00000000000000000000e-01) (10, 6, 5.00000000000000000000e-01) (10, 6, 5.00000000000000000000e-01) (10, 6, 5.00000000000000000000e-01) (0, 6, 0.00000000000000000000e+00) (11, 6, 5.00000000000000000000e-01) (0, 6, 0.00000000000000000000e+00) 
connections (connected_to_neuron, weight)=(0, -2.50093680632451687007e-01) (1, -6.38501506395077744749e-02) (2, -1.32224747175667317611e-01) (3, -3.38899057454800298195e-02) (4, -8.60976141042447129514e-02) (5, 2.80645534363119897314e-01) (6, -4.67439234643970580318e-01) (7, 1.52805235381597959154e+00) (8, 1.75192043582862222451e-01) (9, -2.91538498818694757908e-01) (0, 8.93521819101237846361e-01) (1, 1.80735934546325777150e-01) (2, 1.45635325482223548788e-01) (3, 1.23642858138416300573e-01) (4, 2.30727862587306847830e-01) (5, 2.42897397859408059606e-01) (6, 8.87748562875720992338e+00) (7, -5.44151139173946951644e+00) (8, -2.78563902240208216554e-01) (9, 9.17247666201714273448e-01) (0, -3.40608571482042044032e-01) (1, -4.57118504162920824552e-02) (2, -5.19418321963442675138e-02) (3, -1.06657502841581208752e-01) (4, -1.58350867819417984173e-01) (5, 2.15882846529869054653e-01) (6, -4.85366378366743178585e-01) (7, 1.54443673524949609543e+00) (8, 1.91739111681479973415e-02) (9, -2.29393187913742663264e-01) (0, -6.76859086471374737926e+00) (1, 5.51303315285145867364e-01) (2, 5.37571448210179436700e-01) (3, 5.38249920431077111260e-01) (4, 5.30154361698329079644e-01) (5, 1.72900452563399031902e+00) (6, 4.80017651136596782635e+02) (7, 1.39002796716875298699e+00) (8, 1.14004034687823785355e+00) (9, 4.02926287318756626288e-01) (0, 7.85863392589446929648e-01) (1, 1.51409565061466161451e-01) (2, 1.93165576607124273023e-01) (3, 2.36659801155463894728e-01) (4, 2.09245851785079733931e-01) (5, -1.04272825442560224118e-01) (6, 8.26264106140091847408e+00) (7, -5.02164818569916526769e+00) (8, 1.56692634891111765016e-01) (9, 8.78035634825736432951e-01) (0, 6.33846080645664056163e-01) (1, 1.75509842776228108807e-01) (2, 2.36152755760122179396e-01) (3, 2.33939948223996996290e-01) (4, 7.92256060172807641262e-02) (5, -2.07304554857087375286e-01) (6, 7.58779245039038841014e+00) (7, -3.25257791978963028967e+00) (8, 2.03638469047431575065e-01) (9, -2.20883875212272873245e-01) (0, 7.51445541873319355908e-01) (1, 1.82655028751937814624e-01) (2, 1.64568692198841043384e-01) (3, 2.36019022515861182088e-01) (4, 2.23550714305488312794e-01) (5, -7.77977875808532726154e-01) (6, 7.66139606451232868523e+00) (7, -2.89070261032236919263e+00) (8, 1.64160485213415890948e-01) (9, -1.86307744822277021601e-01) (0, -2.44200579032144093894e-01) (1, -7.80100236629129445420e-02) (2, -5.55839846824289010585e-02) (3, -2.14033584092737198812e-02) (4, -9.25002033804536855088e-02) (5, 2.09926660296786971038e-01) (6, -5.26039338264933320488e-01) (7, 1.51333627585265695359e+00) (8, 5.46223432970787976110e-03) (9, -3.08394804132856914514e-01) (0, 3.71327588194570168412e+00) (1, 3.22679682734146933143e-01) (2, 4.57505635085240280890e-01) (3, 4.36441755952969467902e-01) (4, 3.19293900492325699592e-01) (5, -6.03327043892307735007e-01) (6, 5.39617946160665429289e+00) (7, -9.74659158408194770118e+00) (8, -1.94170819848402120833e-01) (9, 3.35353762581859171643e-01) (0, -3.40091290953908753636e+00) (1, 2.43141703718448398686e-01) (2, 3.35680745952869230564e-01) (3, 3.66969757192874723728e-01) (4, 2.39141151719833133793e-01) (5, 1.43022124110427334420e-01) (6, -5.63169029104150542508e+00) (7, 7.38540020743011016435e+00) (8, 3.93257443419451069300e-02) (9, 2.34251754307244597353e-01) (10, 6.60243941957743940563e-01) (11, 3.71712118441311023531e-01) (12, 6.90336573965724120683e-01) (13, -1.53100920671067924905e-01) (14, 3.70451348758447707166e-01) (15, 5.97795249327764621761e-01) (16, 3.69219673258546154937e-01) (17, 6.83613909010381770592e-01) (18, -4.41759223745077589385e-01) (19, 1.71344039856820951062e-01) (20, 1.09591211092709125974e-01) 
