FANN_FLO_2.1
num_layers=3
learning_rate=0.700000
connection_rate=1.000000
network_type=0
learning_momentum=0.000000
training_algorithm=2
train_error_function=1
train_stop_function=1
cascade_output_change_fraction=0.010000
quickprop_decay=-0.000100
quickprop_mu=1.750000
rprop_increase_factor=1.200000
rprop_decrease_factor=0.500000
rprop_delta_min=0.000000
rprop_delta_max=50.000000
rprop_delta_zero=0.100000
cascade_output_stagnation_epochs=12
cascade_candidate_change_fraction=0.010000
cascade_candidate_stagnation_epochs=12
cascade_max_out_epochs=150
cascade_min_out_epochs=50
cascade_max_cand_epochs=150
cascade_min_cand_epochs=50
cascade_num_candidate_groups=2
bit_fail_limit=1.00000000000000005551e-01
cascade_candidate_limit=1.00000000000000000000e+03
cascade_weight_multiplier=4.00000000000000022204e-01
cascade_activation_functions_count=10
cascade_activation_functions=3 5 7 8 10 11 14 15 16 17 
cascade_activation_steepnesses_count=4
cascade_activation_steepnesses=2.50000000000000000000e-01 5.00000000000000000000e-01 7.50000000000000000000e-01 1.00000000000000000000e+00 
layer_sizes=28 11 2 
scale_included=0
neurons (num_inputs, activation_function, activation_steepness)=(0, 0, 0.00000000000000000000e+00) (0, 0, 0.00000000000000000000e+00) (0, 0, 0.00000000000000000000e+00) (0, 0, 0.00000000000000000000e+00) (0, 0, 0.00000000000000000000e+00) (0, 0, 0.00000000000000000000e+00) (0, 0, 0.00000000000000000000e+00) (0, 0, 0.00000000000000000000e+00) (0, 0, 0.00000000000000000000e+00) (0, 0, 0.00000000000000000000e+00) (0, 0, 0.00000000000000000000e+00) (0, 0, 0.00000000000000000000e+00) (0, 0, 0.00000000000000000000e+00) (0, 0, 0.00000000000000000000e+00) (0, 0, 0.00000000000000000000e+00) (0, 0, 0.00000000000000000000e+00) (0, 0, 0.00000000000000000000e+00) (0, 0, 0.00000000000000000000e+00) (0, 0, 0.00000000000000000000e+00) (0, 0, 0.00000000000000000000e+00) (0, 0, 0.00000000000000000000e+00) (0, 0, 0.00000000000000000000e+00) (0, 0, 0.00000000000000000000e+00) (0, 0, 0.00000000000000000000e+00) (0, 0, 0.00000000000000000000e+00) (0, 0, 0.00000000000000000000e+00) (0, 0, 0.00000000000000000000e+00) (0, 0, 0.00000000000000000000e+00) (28, 6, 5.00000000000000000000e-01) (28, 6, 5.00000000000000000000e-01) (28, 6, 5.00000000000000000000e-01) (28, 6, 5.00000000000000000000e-01) (28, 6, 5.00000000000000000000e-01) (28, 6, 5.00000000000000000000e-01) (28, 6, 5.00000000000000000000e-01) (28, 6, 5.00000000000000000000e-01) (28, 6, 5.00000000000000000000e-01) (28, 6, 5.00000000000000000000e-01) (0, 6, 0.00000000000000000000e+00) (11, 6, 5.00000000000000000000e-01) (0, 6, 0.00000000000000000000e+00) 
connections (connected_to_neuron, weight)=(0, 1.50000000000000000000e+03) (1, 4.74860526004420246959e-01) (2, 5.24033404269800162645e-01) (3, 5.15404678264245630359e-01) (4, 3.53995613136874276439e-01) (5, -3.99404187273373123546e+00) (6, -1.53108931541457637948e+00) (7, 8.18062521926472300038e+02) (8, -3.60546420372827753908e+01) (9, -6.83445244503640747524e+00) (10, 2.31830334346041944116e+00) (11, 3.98031837074717675939e-01) (12, 8.82630816193432110595e+02) (13, 7.94712471030473599498e-01) (14, -2.49469037221370655288e+02) (15, -5.12204638199773909513e-01) (16, -1.08260868863500503423e+00) (17, -3.95784115132031466544e+00) (18, -1.48362541552837901015e+00) (19, 1.27346109619270975166e+00) (20, -2.16330888191359260730e+00) (21, -1.31748596981734938938e-01) (22, 1.07147423583463741181e+00) (23, -1.51253214960581061632e+00) (24, -3.29931418355646155494e-01) (25, -1.23893137461113456155e+00) (26, -1.59910843903095956087e+00) (27, 1.00681240494327273183e+00) (0, -1.89263329426884681084e+01) (1, 8.10369793385192493940e-02) (2, -1.82203016579882376251e-03) (3, -5.26843797355963996965e-02) (4, 8.84232111870516916674e-03) (5, 6.15534720716496286386e-01) (6, 2.94584734140611426145e-01) (7, -1.10317420077639205545e+00) (8, 2.29123073417988187828e+00) (9, -5.43009732573079606510e-01) (10, -1.55487483581027419177e+00) (11, -1.12623809248229944657e+00) (12, -1.01345703414423837785e+00) (13, 1.02123371356131742438e+00) (14, 1.25154678564473309521e+00) (15, 2.42550780974849472527e-01) (16, 1.40822973429185904770e+00) (17, 1.01934188185707919061e+00) (18, 3.30796759928046968380e-01) (19, 9.17795391238610425155e-01) (20, 3.55308899635898067793e-01) (21, 3.88779995046384219126e-01) (22, 3.51478975176333807706e-01) (23, 4.80478877407442661607e-01) (24, 1.21613930208898116114e-01) (25, -1.62260377646602527157e+00) (26, 1.93373751266830040674e-01) (27, -1.27696930277973419443e+00) (0, -2.54171301298828815618e+01) (1, 8.72533787941914829034e-02) (2, -5.04514480972311218920e-02) (3, 6.78864140963537365803e-02) (4, 4.17554845070822050479e-02) (5, 1.19198878249640705107e-01) (6, 2.02064573580371054096e-01) (7, 1.33931252101042375102e+00) (8, 7.79846882298355126295e+00) (9, 7.78972178785911850696e+00) (10, -1.86783802203621540627e+00) (11, 2.20472875987807709341e-01) (12, 9.07010577302978932002e-02) (13, 1.58021348577483822240e+00) (14, 4.10511234258872148573e-01) (15, 8.83252729605093073184e-02) (16, 6.61488397714621978452e-01) (17, 1.03789059302906139237e+00) (18, 8.71515590840893139557e-01) (19, 2.31340791924880662123e+00) (20, 8.67777490936760154128e-01) (21, 3.66870996472249522036e-01) (22, 3.98350158692897582391e-01) (23, -6.67064615635112434511e-01) (24, 1.35625100192720698944e-01) (25, 3.13641780712190154645e+00) (26, -2.49607536618130398942e-01) (27, -1.76556338189051631460e+00) (0, 2.03268127068269635060e+01) (1, 3.70669402037956507989e-01) (2, 4.46336679016449244806e-01) (3, 4.85367953633167426020e-01) (4, 3.53160232161381038019e-01) (5, -6.34114473637635356340e+00) (6, 2.75040703475988967952e-01) (7, -7.34074181678828807662e+00) (8, -3.27840892089196644932e+00) (9, -3.15629549811782128543e+00) (10, 1.92846952732598908575e+00) (11, -2.81663542161153523935e+00) (12, 1.22941471407780489322e+00) (13, 2.45270223988581503871e-01) (14, -6.74352407358000416338e+00) (15, 3.55775426139074701926e-01) (16, -6.63292462112497283044e+00) (17, 2.53927612931515833683e-01) (18, 1.20723811479842096928e-01) (19, 3.29376226782201186882e-01) (20, 1.79886495402631824136e-01) (21, 1.08823577263548876282e+00) (22, 9.32375474096946432745e-01) (23, 4.47756011139011267375e+00) (24, -5.63105995335528741741e-01) (25, 4.50410162608826247777e+00) (26, 1.94424757356925792529e+00) (27, 8.82449269672063496550e-01) (0, -6.59934527062950948562e+00) (1, 8.50739886059003747043e-02) (2, 1.30500506330891274942e-01) (3, -2.47933234082026027201e-02) (4, 1.16934995819492904001e-01) (5, 2.10608458424530020636e+00) (6, 6.91139074323826180235e-02) (7, 1.81773278238054514233e+00) (8, 2.89794433670213580356e+00) (9, 3.00338600871450012164e+00) (10, -4.24370418893262768556e-01) (11, 4.77835559250331998182e-01) (12, 4.07633807581962215316e-01) (13, 9.24157561222215595542e-01) (14, 1.74854783661269563844e+00) (15, 1.79410569445462853011e-01) (16, 1.95426077809052411993e+00) (17, 9.62450284405681477651e-01) (18, 9.83270959464257132687e-01) (19, 7.68542499071565243796e-01) (20, 9.51175609768206364869e-01) (21, 2.88885107257609519138e-01) (22, 2.18740406589251007441e-01) (23, 5.46287093148991509395e+00) (24, -9.36131678701241226603e-02) (25, 1.57681451399244373923e-02) (26, -6.92643227093202445976e-02) (27, -4.13212922184403108616e+00) (0, 1.50000000000000000000e+03) (1, 6.51076576720566513323e-01) (2, 6.59003070603699558916e-01) (3, 6.69883362065644250016e-01) (4, 5.97152962397427322649e-01) (5, -3.95861737284616532762e+00) (6, 1.07182439259889328298e+00) (7, 8.18062521926472300038e+02) (8, -6.01881905387179244826e+02) (9, -5.90169955509239052560e+00) (10, -1.63769036624651320722e+00) (11, -3.48490718817393707596e+00) (12, 8.82630816193432110595e+02) (13, -2.22914004381393704435e+00) (14, -2.85719809522882517427e+00) (15, 4.89062042672334884585e-01) (16, -3.75106499812605420630e+00) (17, -2.07326963288660648388e+00) (18, 7.62476632748674498785e-01) (19, -1.31088415087768006551e+00) (20, 1.35707377818451746521e+00) (21, 4.48968602545923261005e+02) (22, 2.32215312355240488529e+00) (23, -2.84534887624604149181e+00) (24, 5.81345584829144668149e-01) (25, -2.11322920309042316944e+00) (26, 1.50000000000000000000e+03) (27, 3.10707080783239319999e+00) (0, 1.50000000000000000000e+03) (1, 6.39974513876581219129e-01) (2, 5.87409505474709936479e-01) (3, 4.99592823761845050701e-01) (4, 6.13518113124513320145e-01) (5, -4.00516790400193922750e+00) (6, 1.09311220265629471804e+00) (7, 8.18062521926472300038e+02) (8, -5.12074280582618968083e+00) (9, -5.83462091254525816453e+00) (10, -1.85215372808835132545e+00) (11, -3.08357014760288672406e+00) (12, 8.82630816193432110595e+02) (13, -2.16052739927454684477e+00) (14, -2.69693899243538082189e+00) (15, 6.32497448611863744006e-01) (16, -3.78689801416399429712e+00) (17, -2.64616105148639668698e+00) (18, 7.03036535373287807538e-01) (19, -1.22495518878408837793e+00) (20, 1.36400697585233565690e+00) (21, 4.48955137752360371906e+02) (22, 1.09464783053103809074e+00) (23, -2.82116884758215391571e+00) (24, 5.71994268548368212102e-01) (25, -2.12623609770792665330e+00) (26, 6.15475433416727035763e+00) (27, 3.20449175994360002662e+00) (0, 2.40524237655462123087e+01) (1, 4.20482557581658977774e-01) (2, 3.85852899717088360099e-01) (3, 5.27418706880798282555e-01) (4, 4.18361146317716259269e-01) (5, -5.12806347759652059182e+00) (6, 2.22557883787104365814e-01) (7, -7.85250644606215342236e+00) (8, -7.76571976713458900221e-01) (9, 3.04591292814285763413e-01) (10, 9.06971591916601704852e-01) (11, -3.07509376056998240401e+00) (12, 1.25454530045367773639e+00) (13, -7.98172881769025011067e-01) (14, -6.42348424721174904306e+00) (15, 1.66312096090166061657e-01) (16, -6.11140391343664202140e+00) (17, -7.83491678135407321193e-01) (18, -5.05951745509704675641e-01) (19, -1.21491561940066317149e+00) (20, -8.01455954282285332191e-01) (21, 7.31602251547292858902e-01) (22, 8.10233149107799199840e-01) (23, 4.96708840975129728434e+00) (24, 3.16162600575855279317e+00) (25, 2.70828948395760304990e+00) (26, -1.92788579819695060635e+00) (27, 6.61858691058721970712e-01) (0, 1.70119072650380793732e+01) (1, 1.13339239491245580282e-01) (2, 2.55654485656044205832e-01) (3, 2.03424239290973585259e-01) (4, 1.96241164339801682504e-01) (5, 8.58009775464268727774e+02) (6, 1.63592815324661922105e+00) (7, -6.90356207859248804937e+00) (8, 6.65710826248511988723e+00) (9, 9.94676063732345561164e+00) (10, 4.11385131050464636360e+00) (11, 1.35962838593852963776e+00) (12, 4.33833272963914329257e-01) (13, 1.70402166003053778809e+00) (14, 2.27040635216593500445e+00) (15, 1.61273834657569703488e+00) (16, 2.00181576720884812914e+00) (17, 3.17623141131682107385e+00) (18, 1.81929911099067420643e+00) (19, 1.59070755762869242567e+00) (20, 3.73246363663528697430e+01) (21, 2.19719005967207753338e-01) (22, -2.69046906946360742108e-01) (23, 6.48869196642285622767e-02) (24, 8.60088172603315381792e-01) (25, 1.49940257576962832076e+00) (26, 1.08305457725997889007e+00) (27, 1.98781466965611630648e+00) (0, -1.59917872120815758308e+01) (1, 1.24913813454335873021e-01) (2, 1.84037284833616199275e-01) (3, 2.61957505625912245861e-01) (4, 1.52781369072622241756e-01) (5, 3.78462967604994260373e-01) (6, 1.26727187119148321237e-01) (7, -1.27419831126186545589e+03) (8, 3.74818362866825238733e-01) (9, 2.31994488132392895352e+00) (10, -2.89447867328000674192e+00) (11, 2.14561531866894217302e+00) (12, -6.63915051083186380509e-01) (13, 5.31675753583677468406e-01) (14, 5.35084313850798687362e-01) (15, 2.13925400207108734607e-01) (16, 8.04750782311151158233e-01) (17, 5.53982611217032849815e-01) (18, 4.32418010307182187901e-01) (19, 4.20309858208283038117e-01) (20, 4.16763261237159621242e-01) (21, 3.32539842076968114593e-02) (22, -3.63537065149725363566e-02) (23, 1.26784783987705191066e+03) (24, -1.68551390189046988721e-02) (25, 1.26185621044731556140e+03) (26, 4.62826547985068781355e-02) (27, 2.85839492433964226237e-01) (28, 3.77242433520435072047e-01) (29, 8.48321638342144801470e-01) (30, 9.48357417622800458190e-01) (31, -4.67419650369532702072e-01) (32, 7.51214453272882165535e-01) (33, 3.93882178897930479433e-01) (34, 4.16822682853360326760e-01) (35, -2.86100382011764575729e-01) (36, 1.15569148870062687884e+00) (37, -5.60419051533179835012e-01) (38, 3.73127647151623276223e-01) 
