FANN_FLO_2.1
num_layers=3
learning_rate=0.700000
connection_rate=1.000000
network_type=0
learning_momentum=0.000000
training_algorithm=2
train_error_function=1
train_stop_function=1
cascade_output_change_fraction=0.010000
quickprop_decay=-0.000100
quickprop_mu=1.750000
rprop_increase_factor=1.200000
rprop_decrease_factor=0.500000
rprop_delta_min=0.000000
rprop_delta_max=50.000000
rprop_delta_zero=0.100000
cascade_output_stagnation_epochs=12
cascade_candidate_change_fraction=0.010000
cascade_candidate_stagnation_epochs=12
cascade_max_out_epochs=150
cascade_min_out_epochs=50
cascade_max_cand_epochs=150
cascade_min_cand_epochs=50
cascade_num_candidate_groups=2
bit_fail_limit=1.00000000000000005551e-01
cascade_candidate_limit=1.00000000000000000000e+03
cascade_weight_multiplier=4.00000000000000022204e-01
cascade_activation_functions_count=10
cascade_activation_functions=3 5 7 8 10 11 14 15 16 17 
cascade_activation_steepnesses_count=4
cascade_activation_steepnesses=2.50000000000000000000e-01 5.00000000000000000000e-01 7.50000000000000000000e-01 1.00000000000000000000e+00 
layer_sizes=19 4 2 
scale_included=0
neurons (num_inputs, activation_function, activation_steepness)=(0, 0, 0.00000000000000000000e+00) (0, 0, 0.00000000000000000000e+00) (0, 0, 0.00000000000000000000e+00) (0, 0, 0.00000000000000000000e+00) (0, 0, 0.00000000000000000000e+00) (0, 0, 0.00000000000000000000e+00) (0, 0, 0.00000000000000000000e+00) (0, 0, 0.00000000000000000000e+00) (0, 0, 0.00000000000000000000e+00) (0, 0, 0.00000000000000000000e+00) (0, 0, 0.00000000000000000000e+00) (0, 0, 0.00000000000000000000e+00) (0, 0, 0.00000000000000000000e+00) (0, 0, 0.00000000000000000000e+00) (0, 0, 0.00000000000000000000e+00) (0, 0, 0.00000000000000000000e+00) (0, 0, 0.00000000000000000000e+00) (0, 0, 0.00000000000000000000e+00) (0, 0, 0.00000000000000000000e+00) (19, 6, 5.00000000000000000000e-01) (19, 6, 5.00000000000000000000e-01) (19, 6, 5.00000000000000000000e-01) (0, 6, 0.00000000000000000000e+00) (4, 4, 5.00000000000000000000e-01) (0, 4, 0.00000000000000000000e+00) 
connections (connected_to_neuron, weight)=(0, 4.22147681840020183586e+00) (1, -1.13387162360951485596e+01) (2, -1.22665321352930312138e+00) (3, -2.62024052594501677405e+00) (4, -2.61925018553939192856e+00) (5, -2.40841275824389366988e+00) (6, -5.29187584062197902135e-01) (7, 2.75880757513675733961e+00) (8, -3.12642696042436177284e-02) (9, 3.03069200844840702658e+00) (10, 3.16453786697554484419e+00) (11, 2.75832624844846696632e+00) (12, 3.16334933050293942713e+00) (13, -3.41277686773795385644e-01) (14, -3.40943682504912470854e-01) (15, 2.38374509115597721376e+00) (16, 2.07800387797931040978e+00) (17, 3.46572490933052757001e+00) (18, 6.90046423562664990037e-01) (0, -4.96707369693302425162e+00) (1, -1.51686817040659671640e+00) (2, -2.09625585820083371047e+00) (3, 3.66779549770308621603e+00) (4, 3.66811887936774860819e+00) (5, 8.70822166301044378600e-03) (6, 7.16285042177729480706e-01) (7, 2.78048882945809539002e-01) (8, 1.33577009334877194746e+00) (9, 2.77474675979261509173e-01) (10, 4.88562818381235830500e-01) (11, 2.78332649416322575053e-01) (12, 4.90214893980927157724e-01) (13, -6.31484165640744610215e-01) (14, -6.31306590003913870035e-01) (15, 2.82669061056531267795e+00) (16, 2.64781438207414199226e+00) (17, 2.78588357814423925873e+00) (18, 8.31074460537084336309e-01) (0, 7.42733328604014619856e+00) (1, -4.13762962580223003783e+00) (2, -1.27979782785041447113e+01) (3, 9.65077568272547092754e-01) (4, 8.88807185175736758076e-01) (5, -2.07822904271555364275e+00) (6, -1.50595532370748386164e+00) (7, -1.07073542021673286939e+01) (8, 7.54690768361024749700e-02) (9, -1.07708079932546052504e+01) (10, -1.04493673408288785254e+01) (11, -1.07058045480148820161e+01) (12, -1.04437358362431957914e+01) (13, -7.17011149967186844911e-01) (14, -7.17055051690605904646e-01) (15, 7.80698767511614022396e+00) (16, 8.82495671378196711032e+00) (17, 5.98478700219281822825e+00) (18, 3.08330290132074802401e+00) (19, -1.24371285337181038955e+01) (20, 2.95601719822836059848e+01) (21, -1.19894852988520437265e+01) (22, -2.34716051262785940779e+00) 
