FANN_FLO_2.1
num_layers=3
learning_rate=0.700000
connection_rate=1.000000
network_type=0
learning_momentum=0.000000
training_algorithm=2
train_error_function=1
train_stop_function=1
cascade_output_change_fraction=0.010000
quickprop_decay=-0.000100
quickprop_mu=1.750000
rprop_increase_factor=1.200000
rprop_decrease_factor=0.500000
rprop_delta_min=0.000000
rprop_delta_max=50.000000
rprop_delta_zero=0.100000
cascade_output_stagnation_epochs=12
cascade_candidate_change_fraction=0.010000
cascade_candidate_stagnation_epochs=12
cascade_max_out_epochs=150
cascade_min_out_epochs=50
cascade_max_cand_epochs=150
cascade_min_cand_epochs=50
cascade_num_candidate_groups=2
bit_fail_limit=1.00000000000000005551e-01
cascade_candidate_limit=1.00000000000000000000e+03
cascade_weight_multiplier=4.00000000000000022204e-01
cascade_activation_functions_count=10
cascade_activation_functions=3 5 7 8 10 11 14 15 16 17 
cascade_activation_steepnesses_count=4
cascade_activation_steepnesses=2.50000000000000000000e-01 5.00000000000000000000e-01 7.50000000000000000000e-01 1.00000000000000000000e+00 
layer_sizes=9 4 2 
scale_included=0
neurons (num_inputs, activation_function, activation_steepness)=(0, 0, 0.00000000000000000000e+00) (0, 0, 0.00000000000000000000e+00) (0, 0, 0.00000000000000000000e+00) (0, 0, 0.00000000000000000000e+00) (0, 0, 0.00000000000000000000e+00) (0, 0, 0.00000000000000000000e+00) (0, 0, 0.00000000000000000000e+00) (0, 0, 0.00000000000000000000e+00) (0, 0, 0.00000000000000000000e+00) (9, 6, 5.00000000000000000000e-01) (9, 6, 5.00000000000000000000e-01) (9, 6, 5.00000000000000000000e-01) (0, 6, 0.00000000000000000000e+00) (4, 4, 5.00000000000000000000e-01) (0, 4, 0.00000000000000000000e+00) 
connections (connected_to_neuron, weight)=(0, 7.67622852809941580432e-01) (1, 2.10910752628580100421e+00) (2, 1.76846434710123423528e+00) (3, 2.49248530148129843198e+00) (4, 2.51402915446620367490e+00) (5, 2.62302010683875463926e+00) (6, 1.66102486114793790328e+00) (7, 2.35396722503465083420e+00) (8, -1.61028562074636560908e+00) (0, 8.70746872271812577537e-01) (1, 1.88740042211758840551e+00) (2, 3.40239488111367505141e+00) (3, 2.26690174831610091744e+00) (4, 1.65819693204144913423e+00) (5, 1.53932986255864578951e+00) (6, 6.46040150548732539093e-01) (7, 8.34160593994231702730e-01) (8, -3.10834161812798104307e-01) (0, -6.17037610627476085234e-01) (1, -3.40446992647582691305e+00) (2, -3.54314819064439934237e+00) (3, -3.28457864803010624044e+00) (4, -3.18826107603205999297e+00) (5, -3.27931673508817356222e+00) (6, -1.27966378513500678160e+00) (7, -9.08468580504596334713e-01) (8, 2.52088267954105038626e+00) (9, 5.49139137908590946324e+00) (10, 5.62091742815976846970e-01) (11, -1.17778009022644560844e+01) (12, -1.11233792115428986591e+00) 
