FANN_FLO_2.1
num_layers=3
learning_rate=0.700000
connection_rate=1.000000
network_type=0
learning_momentum=0.000000
training_algorithm=2
train_error_function=1
train_stop_function=1
cascade_output_change_fraction=0.010000
quickprop_decay=-0.000100
quickprop_mu=1.750000
rprop_increase_factor=1.200000
rprop_decrease_factor=0.500000
rprop_delta_min=0.000000
rprop_delta_max=50.000000
rprop_delta_zero=0.100000
cascade_output_stagnation_epochs=12
cascade_candidate_change_fraction=0.010000
cascade_candidate_stagnation_epochs=12
cascade_max_out_epochs=150
cascade_min_out_epochs=50
cascade_max_cand_epochs=150
cascade_min_cand_epochs=50
cascade_num_candidate_groups=2
bit_fail_limit=1.00000000000000005551e-01
cascade_candidate_limit=1.00000000000000000000e+03
cascade_weight_multiplier=4.00000000000000022204e-01
cascade_activation_functions_count=10
cascade_activation_functions=3 5 7 8 10 11 14 15 16 17 
cascade_activation_steepnesses_count=4
cascade_activation_steepnesses=2.50000000000000000000e-01 5.00000000000000000000e-01 7.50000000000000000000e-01 1.00000000000000000000e+00 
layer_sizes=25 4 2 
scale_included=0
neurons (num_inputs, activation_function, activation_steepness)=(0, 0, 0.00000000000000000000e+00) (0, 0, 0.00000000000000000000e+00) (0, 0, 0.00000000000000000000e+00) (0, 0, 0.00000000000000000000e+00) (0, 0, 0.00000000000000000000e+00) (0, 0, 0.00000000000000000000e+00) (0, 0, 0.00000000000000000000e+00) (0, 0, 0.00000000000000000000e+00) (0, 0, 0.00000000000000000000e+00) (0, 0, 0.00000000000000000000e+00) (0, 0, 0.00000000000000000000e+00) (0, 0, 0.00000000000000000000e+00) (0, 0, 0.00000000000000000000e+00) (0, 0, 0.00000000000000000000e+00) (0, 0, 0.00000000000000000000e+00) (0, 0, 0.00000000000000000000e+00) (0, 0, 0.00000000000000000000e+00) (0, 0, 0.00000000000000000000e+00) (0, 0, 0.00000000000000000000e+00) (0, 0, 0.00000000000000000000e+00) (0, 0, 0.00000000000000000000e+00) (0, 0, 0.00000000000000000000e+00) (0, 0, 0.00000000000000000000e+00) (0, 0, 0.00000000000000000000e+00) (0, 0, 0.00000000000000000000e+00) (25, 6, 5.00000000000000000000e-01) (25, 6, 5.00000000000000000000e-01) (25, 6, 5.00000000000000000000e-01) (0, 6, 0.00000000000000000000e+00) (4, 4, 5.00000000000000000000e-01) (0, 4, 0.00000000000000000000e+00) 
connections (connected_to_neuron, weight)=(0, 3.37798334539652866937e+00) (1, 1.50000000000000000000e+03) (2, -1.07915390802136901272e+00) (3, -4.82530047705886389053e+00) (4, 1.26375812629247317176e+01) (5, -6.85430563024936745364e+00) (6, -5.36846121403564247032e+00) (7, -1.49128105086421158809e+00) (8, -6.74862690985605162552e+00) (9, -1.63319907569780009560e+00) (10, -8.03847665985601422811e-01) (11, -9.35698480663694431847e-01) (12, -4.67120619281994220451e-01) (13, -1.67935849097277278830e+00) (14, -1.96795970129410768834e+00) (15, -5.69197088872095302570e-01) (16, 1.50000000000000000000e+03) (17, -4.23866614380562431452e-02) (18, -1.44501171401631745006e+00) (19, 7.84747827684027697615e+02) (20, -1.35623448669015433943e+00) (21, 3.06342440295446976961e+02) (22, -1.28904243183252873450e+02) (23, -1.53983517886844396116e+02) (24, -2.17976166152571426693e+00) (0, -1.24763260658435459760e+00) (1, -1.35000000000000000000e+03) (2, 1.50000000000000000000e+03) (3, 1.50000000000000000000e+03) (4, 1.10993722898674695898e+03) (5, 1.42814195698722846828e+03) (6, 1.50000000000000000000e+03) (7, -2.07188033536176563487e+00) (8, 1.49431277588311399995e+03) (9, 4.64618619587975434371e+00) (10, -7.69275274567064737408e-02) (11, 4.89064316629630527200e-02) (12, 1.98302979408322144206e-01) (13, 4.48267384702765792071e+00) (14, 2.93252810405090116319e+01) (15, -4.53153136691438973571e-01) (16, 2.00000000000000000000e+02) (17, -2.02465370265914330616e+01) (18, -3.25894355774867960918e+00) (19, -5.84053818506780775266e+00) (20, -5.66356164282640683894e+00) (21, -4.81972230315387761834e+00) (22, 2.46291011281527318033e+02) (23, 1.49382478854979308380e+03) (24, 8.64303623426815548214e+00) (0, 1.24567795909936549492e+01) (1, 1.50000000000000000000e+03) (2, 1.50000000000000000000e+03) (3, 9.55614082584830804024e+00) (4, -1.47998544908135833964e+01) (5, 2.20289074152220564429e+02) (6, 8.15598583780130326204e+00) (7, 7.68654309659655421427e+00) (8, 1.49420107038059796878e+02) (9, 6.31309860923222004203e+02) (10, 1.50000000000000000000e+03) (11, 7.33994381378563730323e+02) (12, 1.50000000000000000000e+03) (13, 5.36371281822519222260e+02) (14, 3.02295191034798051533e+02) (15, 9.44014176076802158377e+00) (16, 1.50000000000000000000e+03) (17, -2.49355202847114938436e+01) (18, 9.22147124631329404565e+01) (19, -8.40865517912909332665e+00) (20, 3.81337784365947740639e+01) (21, -4.32879526911045697801e+00) (22, -1.05783941373751400050e+01) (23, 3.78240593216520011310e+01) (24, -2.74715631248386227270e+00) (25, 6.75680604171513277123e+00) (26, -5.38953217508573612093e+00) (27, 6.22255698462383133318e+00) (28, -1.64556245377228549387e+00) 
