FANN_FLO_2.1
num_layers=3
learning_rate=0.700000
connection_rate=1.000000
network_type=0
learning_momentum=0.000000
training_algorithm=2
train_error_function=1
train_stop_function=1
cascade_output_change_fraction=0.010000
quickprop_decay=-0.000100
quickprop_mu=1.750000
rprop_increase_factor=1.200000
rprop_decrease_factor=0.500000
rprop_delta_min=0.000000
rprop_delta_max=50.000000
rprop_delta_zero=0.100000
cascade_output_stagnation_epochs=12
cascade_candidate_change_fraction=0.010000
cascade_candidate_stagnation_epochs=12
cascade_max_out_epochs=150
cascade_min_out_epochs=50
cascade_max_cand_epochs=150
cascade_min_cand_epochs=50
cascade_num_candidate_groups=2
bit_fail_limit=1.00000000000000005551e-01
cascade_candidate_limit=1.00000000000000000000e+03
cascade_weight_multiplier=4.00000000000000022204e-01
cascade_activation_functions_count=10
cascade_activation_functions=3 5 7 8 10 11 14 15 16 17 
cascade_activation_steepnesses_count=4
cascade_activation_steepnesses=2.50000000000000000000e-01 5.00000000000000000000e-01 7.50000000000000000000e-01 1.00000000000000000000e+00 
layer_sizes=8 4 2 
scale_included=0
neurons (num_inputs, activation_function, activation_steepness)=(0, 0, 0.00000000000000000000e+00) (0, 0, 0.00000000000000000000e+00) (0, 0, 0.00000000000000000000e+00) (0, 0, 0.00000000000000000000e+00) (0, 0, 0.00000000000000000000e+00) (0, 0, 0.00000000000000000000e+00) (0, 0, 0.00000000000000000000e+00) (0, 0, 0.00000000000000000000e+00) (8, 6, 5.00000000000000000000e-01) (8, 6, 5.00000000000000000000e-01) (8, 6, 5.00000000000000000000e-01) (0, 6, 0.00000000000000000000e+00) (4, 4, 5.00000000000000000000e-01) (0, 4, 0.00000000000000000000e+00) 
connections (connected_to_neuron, weight)=(0, -1.72059079952507887334e+00) (1, 2.38120260203317890557e+00) (2, 1.32751795350029289100e-01) (3, -1.18672052951302592350e-03) (4, 9.12655771390576298074e-01) (5, 9.81681509243392952380e-02) (6, 1.88003016764664887539e+00) (7, -1.31610296766705858751e+00) (0, -1.10586250700549570958e+00) (1, 1.00338878013140719858e+00) (2, 5.87957320196317523298e-01) (3, 9.54625974975793156752e-01) (4, 1.02216340661956017755e+00) (5, 1.01445681110996099861e+00) (6, 1.19939636596814325209e+00) (7, -9.02610301602774334206e-01) (0, -4.23753683714621076639e-01) (1, 3.43877360935889664351e-01) (2, 6.43874471184895158515e-01) (3, 1.21854373831626716651e+00) (4, 1.34367087226821269041e+00) (5, 1.18647514220851846289e+00) (6, 1.34279486336962716742e+00) (7, -1.73489380601267811910e-01) (8, 5.43752015895755302921e+00) (9, 5.89873496316299252840e+01) (10, 3.68236450372803147957e+00) (11, -2.30825335197224124073e+00) 
