FANN_FLO_2.1
num_layers=3
learning_rate=0.700000
connection_rate=1.000000
network_type=0
learning_momentum=0.000000
training_algorithm=2
train_error_function=1
train_stop_function=1
cascade_output_change_fraction=0.010000
quickprop_decay=-0.000100
quickprop_mu=1.750000
rprop_increase_factor=1.200000
rprop_decrease_factor=0.500000
rprop_delta_min=0.000000
rprop_delta_max=50.000000
rprop_delta_zero=0.100000
cascade_output_stagnation_epochs=12
cascade_candidate_change_fraction=0.010000
cascade_candidate_stagnation_epochs=12
cascade_max_out_epochs=150
cascade_min_out_epochs=50
cascade_max_cand_epochs=150
cascade_min_cand_epochs=50
cascade_num_candidate_groups=2
bit_fail_limit=1.00000000000000005551e-01
cascade_candidate_limit=1.00000000000000000000e+03
cascade_weight_multiplier=4.00000000000000022204e-01
cascade_activation_functions_count=10
cascade_activation_functions=3 5 7 8 10 11 14 15 16 17 
cascade_activation_steepnesses_count=4
cascade_activation_steepnesses=2.50000000000000000000e-01 5.00000000000000000000e-01 7.50000000000000000000e-01 1.00000000000000000000e+00 
layer_sizes=31 11 2 
scale_included=0
neurons (num_inputs, activation_function, activation_steepness)=(0, 0, 0.00000000000000000000e+00) (0, 0, 0.00000000000000000000e+00) (0, 0, 0.00000000000000000000e+00) (0, 0, 0.00000000000000000000e+00) (0, 0, 0.00000000000000000000e+00) (0, 0, 0.00000000000000000000e+00) (0, 0, 0.00000000000000000000e+00) (0, 0, 0.00000000000000000000e+00) (0, 0, 0.00000000000000000000e+00) (0, 0, 0.00000000000000000000e+00) (0, 0, 0.00000000000000000000e+00) (0, 0, 0.00000000000000000000e+00) (0, 0, 0.00000000000000000000e+00) (0, 0, 0.00000000000000000000e+00) (0, 0, 0.00000000000000000000e+00) (0, 0, 0.00000000000000000000e+00) (0, 0, 0.00000000000000000000e+00) (0, 0, 0.00000000000000000000e+00) (0, 0, 0.00000000000000000000e+00) (0, 0, 0.00000000000000000000e+00) (0, 0, 0.00000000000000000000e+00) (0, 0, 0.00000000000000000000e+00) (0, 0, 0.00000000000000000000e+00) (0, 0, 0.00000000000000000000e+00) (0, 0, 0.00000000000000000000e+00) (0, 0, 0.00000000000000000000e+00) (0, 0, 0.00000000000000000000e+00) (0, 0, 0.00000000000000000000e+00) (0, 0, 0.00000000000000000000e+00) (0, 0, 0.00000000000000000000e+00) (0, 0, 0.00000000000000000000e+00) (31, 6, 5.00000000000000000000e-01) (31, 6, 5.00000000000000000000e-01) (31, 6, 5.00000000000000000000e-01) (31, 6, 5.00000000000000000000e-01) (31, 6, 5.00000000000000000000e-01) (31, 6, 5.00000000000000000000e-01) (31, 6, 5.00000000000000000000e-01) (31, 6, 5.00000000000000000000e-01) (31, 6, 5.00000000000000000000e-01) (31, 6, 5.00000000000000000000e-01) (0, 6, 0.00000000000000000000e+00) (11, 6, 5.00000000000000000000e-01) (0, 6, 0.00000000000000000000e+00) 
connections (connected_to_neuron, weight)=(0, -1.28968808538420915966e+01) (1, -1.41124747932427213604e-01) (2, -3.14970448852055218136e-01) (3, -2.38939509034626795803e-01) (4, -2.42031209409706904445e-01) (5, 2.63528871530290853542e+00) (6, 5.72403657086403172549e-01) (7, 1.00669577847118252301e+00) (8, 1.56283268942837394455e+00) (9, 2.02192175621610692460e+00) (10, 3.51505158933537897870e-01) (11, 6.30202313928151736100e-01) (12, 1.57647775328026984454e+00) (13, 6.91498233721323685153e-01) (14, 1.19010699503326544679e+00) (15, 1.25976288315724183065e+00) (16, 1.03090518702061184619e+00) (17, 1.16007284901943474864e+00) (18, 1.27900854211551728845e+00) (19, 9.07781662520568910502e-01) (20, 1.02331683051025512654e+00) (21, 4.39470826174907358563e+00) (22, 3.55598367630210077106e-01) (23, 1.46935238936922041297e+00) (24, 1.45488986857620195003e+00) (25, 2.95305109268888532625e-01) (26, 1.31256569502385667114e+00) (27, -2.14431018264248107741e+00) (28, 1.00956683099669874970e+00) (29, 7.32874371456042350559e+00) (30, -3.27806139127066886729e+00) (0, 8.20829526976540324590e-01) (1, 3.84261521769037994734e-01) (2, 2.83126267862788438823e-01) (3, 4.54828697515002045026e-01) (4, 4.78219765496722126752e-01) (5, 2.73846299199249409995e+00) (6, 1.86213845752712436887e-01) (7, 8.31127702164404374985e-02) (8, -6.60947459695581329697e-01) (9, 7.41176238810273702029e+01) (10, 1.33633168001472929509e-01) (11, -1.22939265333195524299e+00) (12, -4.86175598989673912742e-02) (13, -3.87591873923653018608e-01) (14, 6.22370372517051295702e-01) (15, 5.35639569413612792737e-01) (16, 1.54161764608073542648e-01) (17, 4.65229528248993329242e-01) (18, 3.50453443003454878646e-01) (19, 5.83620719086347938820e-02) (20, 2.91020095006371236346e-02) (21, 1.12677406824756198844e+00) (22, 6.99173758169612025171e-01) (23, 2.13085448647921227305e+00) (24, 1.30541679275853334730e+03) (25, 2.26052947388744249202e-02) (26, 5.06589732859137054088e-02) (27, 2.68150018228987818691e-01) (28, -5.24140195171762912629e-01) (29, 1.15360898967116276559e+00) (30, 1.08099791223284036334e+00) (0, 7.68892745174474812053e-01) (1, 2.81872231784115467867e-01) (2, 3.85938708009968101109e-01) (3, 3.57562978091488181676e-01) (4, 2.78879288854847695589e-01) (5, 2.20696840879817335335e+00) (6, 3.24374740495424918052e-01) (7, 2.62913612375586636105e-01) (8, -5.21515333528165481169e-01) (9, 7.42259336268159444217e+01) (10, 3.10336050830410548063e-01) (11, -1.09103651903649190302e+00) (12, -5.57043733090542766972e-02) (13, -5.79855209979551866617e-01) (14, 5.90508366049207533699e-01) (15, 2.40629240805316502172e-01) (16, 6.00816087739782900279e-01) (17, 6.95448284484092127400e-01) (18, 3.45175127147980043141e-01) (19, 3.22723984494569293702e-01) (20, -2.01183214688190448172e-01) (21, -1.46518393560288506805e+00) (22, 3.88334818734628939296e-01) (23, -1.51344020280761559077e-02) (24, 1.50000000000000000000e+03) (25, -1.57891356421547257582e+00) (26, -2.03074431093837537432e+00) (27, -5.72431080859171492747e-01) (28, -4.46710548502158744100e-01) (29, 1.48997124550879744831e+00) (30, 1.36939561304501178363e+00) (0, 7.44666052739211625777e+00) (1, 6.17078128055223107395e-01) (2, 5.44526113912948139806e-01) (3, 6.59563871816285618443e-01) (4, 6.38864981726297020970e-01) (5, 1.50000000000000000000e+03) (6, 1.93056832391836934448e+01) (7, 1.11488867771169553045e+00) (8, 1.59959397820560731418e+01) (9, 3.27040066910510951459e+00) (10, 1.92051146020565477457e+00) (11, 1.23103406883003515304e+02) (12, -7.50797287591629003423e-01) (13, 2.06080281651717136526e+01) (14, 1.14689333137455040657e+00) (15, 2.90098846641551233461e+00) (16, 2.19428486185930779584e+02) (17, 1.04345984914109385500e+03) (18, 2.15001926221309673792e+01) (19, 8.73117919298805077233e+02) (20, 7.37777820667584620651e+01) (21, -5.51084108145367590481e+00) (22, 1.70827039326991808821e+02) (23, -6.90120835981521407732e-01) (24, -1.39116997787769536288e+00) (25, 6.38388846256177885152e+02) (26, 1.26056367340449027026e+00) (27, 1.63515174302368881953e+00) (28, 7.92873627329015229215e-01) (29, -2.01822544286079574860e+00) (30, 3.32584272799343683147e+00) (0, 3.32008606187673827037e+00) (1, 5.10507438778852629113e-01) (2, 4.76561580300306764091e-01) (3, 5.01643855571722419029e-01) (4, 4.52353727519487824882e-01) (5, 1.50000000000000000000e+03) (6, 1.92759406294741921783e+01) (7, 3.16890847918205764699e-01) (8, 3.76636716123200301354e+01) (9, 3.65357536449962383429e+00) (10, 6.16674858705260842129e-01) (11, 1.23019647131832641662e+02) (12, -3.45810563600734088840e-01) (13, 2.07501766300898502493e+01) (14, -5.27047736205971562029e-01) (15, 5.52849720964870172679e-01) (16, 9.28236812648536329107e+01) (17, 1.24365137192638841590e+00) (18, -4.96865793872851457813e-01) (19, 8.73220391219464886490e+02) (20, 1.77117577665899290196e+02) (21, -4.12308147150226478317e+00) (22, 3.12973540861964361071e+00) (23, -4.43315416104730686264e-01) (24, -5.60235717473527405907e-01) (25, 8.85776744464129706103e+02) (26, 2.14912602061379018892e+01) (27, 7.69697779949798044363e-01) (28, 8.73476953584288229315e-01) (29, -5.20858248702883663839e+00) (30, 3.20402887595452856573e+00) (0, 8.64645599300650147256e+00) (1, 6.00834639858662034051e-01) (2, 5.86666295420586014764e-01) (3, 4.76509580504356766717e-01) (4, 5.21801894646345409967e-01) (5, 1.50000000000000000000e+03) (6, 1.92852788221159272553e+01) (7, 1.58044401390034439103e+00) (8, 1.60384939221470119719e+01) (9, -6.99415450522379700260e+00) (10, 1.91731777190209862205e+00) (11, 1.23016911897035640777e+02) (12, 1.85489166688332351995e+00) (13, 2.06947808108430812979e+01) (14, 1.68025902778675662042e+00) (15, 7.36606225412995119228e+00) (16, 2.25464083053792574418e+00) (17, 1.50000000000000000000e+03) (18, 1.54570770337367680014e+00) (19, 1.57403035472238594927e+00) (20, 1.05599721849058170164e+00) (21, -1.07065470692223385640e+00) (22, 1.71611224479511434993e+02) (23, 6.21136659438676019818e+00) (24, 6.31322213067050608259e+00) (25, 1.14372461354002575717e+03) (26, -1.21304776316113271939e+00) (27, 1.33869378290535218090e-01) (28, 1.46412397520658515759e+02) (29, -6.37317218899017756684e+00) (30, 1.23340152899252819552e+00) (0, 8.49904936822310275168e-01) (1, 3.40063544288136510030e-01) (2, 3.50097080990530995503e-01) (3, 4.01111861988760753928e-01) (4, 3.94694051071860119162e-01) (5, 2.85019446103877305276e+00) (6, 3.41726579973722022210e-01) (7, 3.06984063069766666132e-01) (8, -5.37186327271621077983e-01) (9, 7.41577438009532983187e+01) (10, -7.96342064530379534215e-02) (11, -1.07660455070515492793e+00) (12, -1.49772297674105658860e-01) (13, -2.79466671565884228201e-01) (14, 6.17202172977866836412e-01) (15, 5.08776435483383804304e-01) (16, 2.24991890374534514452e-01) (17, 4.06437063092897565841e-01) (18, 2.64913946126908383949e-01) (19, 4.96827117573438933884e-02) (20, 3.09663287555835997633e-01) (21, 1.21181791428844642944e+00) (22, 5.15968960410574384312e-01) (23, 8.56384519976105193506e-03) (24, 1.50000000000000000000e+03) (25, 9.93970748586693736426e-02) (26, 3.95131912453973374588e-02) (27, -6.93974168627913168272e-01) (28, -1.69182526784844633472e-01) (29, 1.23257238377741518143e+00) (30, 1.32129644559448045094e+00) (0, 8.48301993887894512092e-01) (1, 3.33600610558897781033e-01) (2, 3.89369625662476126493e-01) (3, 3.37233051721960830349e-01) (4, 4.46124646876961239439e-01) (5, 2.86782009098517587375e+00) (6, 2.21048568844842419079e-01) (7, 1.79332262216503224295e-01) (8, -4.93636273644517453718e-01) (9, 7.41818838571759755496e+01) (10, 2.82728718036762471932e-01) (11, -1.07455234788437703486e+00) (12, -8.17103051480512487803e-02) (13, -3.41263768891209240408e-01) (14, 8.97343238799193421151e-01) (15, 5.13919436401180651508e-01) (16, 3.02214769725861531757e-01) (17, 6.39048642872676486704e-01) (18, 2.21524596263570433541e-01) (19, 3.46362716104124890304e-01) (20, 3.08876892230921351601e-01) (21, 1.32292983847576905987e+00) (22, 8.96008953365842852890e-01) (23, -6.52509959820222334992e-02) (24, 1.30546075555009542768e+03) (25, -3.27894276799045147897e-01) (26, -2.26522482942678876627e-02) (27, -1.43060749171811840696e+00) (28, 8.97011572869707896061e-01) (29, 1.33573864054324809025e+00) (30, 1.14423637111304143943e+00) (0, -1.33234727349246662165e+00) (1, -1.55896092914966866161e-01) (2, -1.53900186681179329540e-01) (3, -3.19577942752269805737e-01) (4, -1.92256818675426766063e-01) (5, 1.50000000000000000000e+03) (6, 4.73345303615696044730e-01) (7, 5.35150358766418920986e-01) (8, 3.18177866411233467581e-01) (9, -4.17490938770406549985e-01) (10, -2.21714638901945176874e-01) (11, 6.19890938141979708220e-01) (12, 9.86803351635610198622e-03) (13, 4.83923082163127959987e-01) (14, -1.02594180119777153570e-01) (15, 1.51683719112973458554e-01) (16, 4.12317973865056641714e-01) (17, 3.42762673166858711227e-01) (18, -1.90302724831136653785e-03) (19, -2.17372131768894333304e-01) (20, 3.39937285234222646979e-02) (21, 2.13104908623878097629e+00) (22, 2.33216294689018610597e+00) (23, 1.56869522955886186999e-01) (24, 2.14370570246471242593e-01) (25, 5.30174321157618311240e-01) (26, 1.81411610723157923353e+00) (27, -4.79922034994633317506e-01) (28, 8.90940066565211852279e-01) (29, 4.26824728812318365812e+00) (30, -5.17989263746325589999e-01) (0, -2.10158176420029541021e+00) (1, -2.28107936616429779475e-01) (2, -8.72201546387763315682e-02) (3, -1.48236863251218292659e-01) (4, -6.88191577153296901725e-02) (5, 2.81375256025140574323e+00) (6, -8.03435135567692748637e-02) (7, 3.04763965851604312629e-01) (8, 8.56503159507146283325e-01) (9, -7.60411561264383717429e+00) (10, -4.43358797967461248923e-01) (11, 3.89135398468992976806e-02) (12, -2.79830847443704122668e-01) (13, 7.16513507715797748343e-02) (14, -3.83403934712508109861e-01) (15, -1.08131028504449486216e-01) (16, 4.81624080793640746423e-02) (17, -2.53583602292926577060e-02) (18, -2.78324519591102881311e-01) (19, -3.95961998178061325149e-01) (20, -1.19192904779396771642e-01) (21, 1.56172014556041460764e+00) (22, 8.67182852608915366588e-01) (23, -1.55800088949892612256e-01) (24, -3.39617555311661323270e-01) (25, 4.57015665451489638826e-01) (26, 1.37923940297720926118e+00) (27, -4.83880977603771633699e-01) (28, 4.65264163656917306700e-01) (29, 3.00183483574380183256e+00) (30, -7.95274827450323240630e-02) (31, 1.26368141308614134743e+00) (32, -2.43773591289443036789e-01) (33, -2.69577690426367699850e-01) (34, 4.68350693570546705580e-01) (35, 4.44052745195725961924e-01) (36, 4.65254832639839632780e-01) (37, -2.42710050711554520264e-01) (38, -2.09022359017390718661e-01) (39, 6.92665335795939696162e-01) (40, -1.04850650385735200132e+00) (41, 4.88071307321225666964e-01) 
