FANN_FLO_2.1
num_layers=3
learning_rate=0.700000
connection_rate=1.000000
network_type=0
learning_momentum=0.000000
training_algorithm=2
train_error_function=1
train_stop_function=1
cascade_output_change_fraction=0.010000
quickprop_decay=-0.000100
quickprop_mu=1.750000
rprop_increase_factor=1.200000
rprop_decrease_factor=0.500000
rprop_delta_min=0.000000
rprop_delta_max=50.000000
rprop_delta_zero=0.100000
cascade_output_stagnation_epochs=12
cascade_candidate_change_fraction=0.010000
cascade_candidate_stagnation_epochs=12
cascade_max_out_epochs=150
cascade_min_out_epochs=50
cascade_max_cand_epochs=150
cascade_min_cand_epochs=50
cascade_num_candidate_groups=2
bit_fail_limit=1.00000000000000005551e-01
cascade_candidate_limit=1.00000000000000000000e+03
cascade_weight_multiplier=4.00000000000000022204e-01
cascade_activation_functions_count=10
cascade_activation_functions=3 5 7 8 10 11 14 15 16 17 
cascade_activation_steepnesses_count=4
cascade_activation_steepnesses=2.50000000000000000000e-01 5.00000000000000000000e-01 7.50000000000000000000e-01 1.00000000000000000000e+00 
layer_sizes=24 11 2 
scale_included=0
neurons (num_inputs, activation_function, activation_steepness)=(0, 0, 0.00000000000000000000e+00) (0, 0, 0.00000000000000000000e+00) (0, 0, 0.00000000000000000000e+00) (0, 0, 0.00000000000000000000e+00) (0, 0, 0.00000000000000000000e+00) (0, 0, 0.00000000000000000000e+00) (0, 0, 0.00000000000000000000e+00) (0, 0, 0.00000000000000000000e+00) (0, 0, 0.00000000000000000000e+00) (0, 0, 0.00000000000000000000e+00) (0, 0, 0.00000000000000000000e+00) (0, 0, 0.00000000000000000000e+00) (0, 0, 0.00000000000000000000e+00) (0, 0, 0.00000000000000000000e+00) (0, 0, 0.00000000000000000000e+00) (0, 0, 0.00000000000000000000e+00) (0, 0, 0.00000000000000000000e+00) (0, 0, 0.00000000000000000000e+00) (0, 0, 0.00000000000000000000e+00) (0, 0, 0.00000000000000000000e+00) (0, 0, 0.00000000000000000000e+00) (0, 0, 0.00000000000000000000e+00) (0, 0, 0.00000000000000000000e+00) (0, 0, 0.00000000000000000000e+00) (24, 6, 5.00000000000000000000e-01) (24, 6, 5.00000000000000000000e-01) (24, 6, 5.00000000000000000000e-01) (24, 6, 5.00000000000000000000e-01) (24, 6, 5.00000000000000000000e-01) (24, 6, 5.00000000000000000000e-01) (24, 6, 5.00000000000000000000e-01) (24, 6, 5.00000000000000000000e-01) (24, 6, 5.00000000000000000000e-01) (24, 6, 5.00000000000000000000e-01) (0, 6, 0.00000000000000000000e+00) (11, 6, 5.00000000000000000000e-01) (0, 6, 0.00000000000000000000e+00) 
connections (connected_to_neuron, weight)=(0, -2.62238593762112968955e-02) (1, -3.50266382474810067382e-02) (2, 3.60097303609937524627e-02) (3, 1.32065429906934456161e-02) (4, -6.36564049910606777338e-03) (5, -1.66120569694690856100e-01) (6, 3.72417715606995214372e-02) (7, -5.26563669301853831684e+00) (8, -2.30069070863840735575e-02) (9, 9.88466373843830820034e-02) (10, 2.46740280183172996931e-02) (11, 4.97822992004266565158e-02) (12, 2.93556064702478435036e-02) (13, 4.93418471272585729137e-02) (14, 1.20390377099509164605e-02) (15, -4.88927412721782139737e-02) (16, 1.34687740570507447080e-01) (17, -1.80721040451192992149e-02) (18, -2.04428884470011645869e-01) (19, 4.26423028241636262181e-02) (20, 1.51787900242154522035e-01) (21, 5.17655112659923116736e-02) (22, 6.47265954206690252715e-02) (23, -2.07601047320150056130e-01) (0, 2.91059743064332222817e-02) (1, 9.50440072757127024650e-02) (2, 2.66590618831041015202e-02) (3, 1.34401229892385287723e-01) (4, 5.25902078789594121244e-02) (5, 2.36048517370478050381e+00) (6, 1.95926758412503176920e-01) (7, -9.92048469877103222814e+00) (8, -2.63626808417178754018e-02) (9, 3.35059769774208038307e-01) (10, 1.27845572194898032814e-01) (11, 2.23033488345584368640e-01) (12, 2.33050484237477234517e-01) (13, 2.38131229952155798468e-01) (14, 8.61435561989341014311e-02) (15, -6.67978121220858672702e-02) (16, 4.19288342091565180425e+00) (17, 1.72316970198990226937e-01) (18, 2.44340841688074439375e+00) (19, 1.33975606428994797881e+00) (20, 4.64736142995083312268e-01) (21, 1.10352070467297697087e-01) (22, 2.71093168387403937736e-01) (23, -3.15174605838721977324e-02) (0, -1.39484198818833532441e-01) (1, 1.31787014876020236454e-01) (2, 9.44329176557284462670e-04) (3, 3.60747889918210454252e-02) (4, 8.97622683388116376912e-02) (5, 2.35739026262038819937e+00) (6, 2.58140074972294630840e-01) (7, -9.92603582421685715076e+00) (8, -3.98175874841548774197e-02) (9, 3.76590186320884146021e-01) (10, 4.25420719683312284487e-02) (11, 1.19321872500650058568e-01) (12, 2.03811422017619009450e-01) (13, 3.32587929570666629431e-01) (14, -3.47033673758728594683e-02) (15, -8.69704795194170127148e-02) (16, 4.55355618851462384811e+00) (17, 1.58634698284711939120e-01) (18, 2.54671867351998315598e+00) (19, 1.31696033485208041647e+00) (20, 5.13969243372700002048e-01) (21, 2.09843318850056470559e-01) (22, 4.46026235545360472123e-01) (23, 6.30062425430081424205e-02) (0, 2.38764779172273122754e+01) (1, 1.01557554489941814779e+00) (2, 9.86639784639788741671e-01) (3, 9.68260088926268691623e-01) (4, 8.93113115793181533419e-01) (5, -6.06397716683412871252e-02) (6, -4.53090225014279868176e-01) (7, -1.00745959802998434895e+01) (8, -1.04313032088126766972e+00) (9, -6.69942145595534999103e-01) (10, -8.54252369819025747510e-01) (11, -9.62594912468539898320e-01) (12, -5.77280915894377466557e-01) (13, -3.70897772017352744811e-01) (14, -8.40815294677092484044e-01) (15, -1.27261431325734974962e+00) (16, -1.89913801701894446872e+00) (17, 8.60625874394275514057e-01) (18, -2.50417639194508823142e-01) (19, -1.01772943882926725223e+00) (20, -1.53813795981474887853e+00) (21, -1.37043486915923229397e+00) (22, -7.73580773488547479566e-01) (23, 2.20527230092356363311e-01) (0, 2.26301227174389616437e+01) (1, 3.85464312075015136383e-01) (2, 3.73598726032610961578e-01) (3, 3.75448995767470428131e-01) (4, 3.61938746212359496734e-01) (5, -7.33862247948091184213e-01) (6, 4.63670890264497543853e+01) (7, 8.78410681181164054721e-01) (8, 1.98560654335926415115e+02) (9, 1.98475952514789444336e+00) (10, 2.45689328089163827595e-01) (11, 1.95518245556638858851e+00) (12, 1.30277382235208283312e+00) (13, 2.11743834739546965551e+00) (14, 8.77090307433893490163e-01) (15, 7.13044499334889225750e-01) (16, 1.78580799707286064226e+00) (17, 1.97288354993830616912e+00) (18, -1.49565043190004673401e-02) (19, -5.19873089494320650417e-01) (20, -1.04979380382481404799e-01) (21, 1.52560403511809966615e-01) (22, -1.38580958143115640091e+00) (23, 7.42869096481787866137e-02) (0, -1.44810827503831091034e-01) (1, 7.85504171975168474784e-02) (2, 5.44577764697584051912e-02) (3, 1.39862131548694035299e-01) (4, 1.98087167216113468893e-01) (5, 2.45177740597978965909e+00) (6, 3.08037075447454677946e-01) (7, -9.97700486278393761097e+00) (8, 6.47268565146574964553e-02) (9, 2.90637678590367487530e-01) (10, 7.78929941571398776201e-02) (11, 7.81227583269992892356e-02) (12, 1.73627084989506019763e-01) (13, 1.44073003921324716003e-01) (14, 5.00524073456321758058e-02) (15, 5.53282191054792343854e-02) (16, 3.55300125548989509383e+00) (17, 3.28373660624144192433e-01) (18, 2.19204138532857051302e+00) (19, 1.26277272130837414643e+00) (20, 3.56202622218416253830e-01) (21, 1.02957697488993735191e-01) (22, 4.36934432798317951008e-01) (23, -9.74831939085770912690e-03) (0, 2.57527544438854825160e+01) (1, 8.19690027017676237087e-01) (2, 8.56030993838392983974e-01) (3, 8.93880397756182443203e-01) (4, 9.31629062373720895351e-01) (5, -4.56145270095456023540e-01) (6, -5.24128180376080776703e-01) (7, -8.61567656031910900083e+00) (8, -1.62959279138955692723e+00) (9, -1.25918204892676066642e+00) (10, -1.38201976351187494352e+00) (11, -1.35950666839394296304e+00) (12, -9.93181648494575242125e-01) (13, -8.69891926670237292107e-01) (14, -1.41509671957378002638e+00) (15, -1.42034407742073010006e+00) (16, -1.38991984636232590589e+00) (17, -1.63719895365069878501e+00) (18, -5.42865104492467831498e-01) (19, -1.39672072961141702230e+00) (20, -1.40549128690958635701e+00) (21, -1.56172862101963771941e+00) (22, -1.01631304042248471475e+00) (23, 4.57014816535154799748e-01) (0, -6.12033401233265800245e-02) (1, 1.09336206060769141474e-02) (2, 1.72549275432241244754e-01) (3, 1.22697485361707422924e-01) (4, 8.28170308214547928882e-02) (5, 2.16519323950648345800e+00) (6, 3.32135151092194436107e-01) (7, -1.00241404542908849606e+01) (8, 7.73295002209123810699e-02) (9, 2.59217695855243346337e-01) (10, 1.54141299303888396066e-01) (11, 1.27350055633060094129e-01) (12, 2.46148776290223053609e-01) (13, 2.92381158226720339055e-01) (14, 1.04641455373624459035e-01) (15, 6.28566383440344739197e-02) (16, 4.12990763004569494399e+00) (17, 1.93590978055835971627e-01) (18, 2.27275601522209358407e+00) (19, 1.29409910466065380952e+00) (20, 4.68267262048624399728e-01) (21, 2.14196646051232175711e-01) (22, 4.43079912731752567634e-01) (23, 9.67596617258271451956e-02) (0, 6.94866328019942525174e-01) (1, 1.04569827050750047137e-01) (2, 9.11589309878990672331e-02) (3, 2.37927779861137923823e-02) (4, 5.28204486079857232772e-02) (5, 2.48443785917475494784e+01) (6, 7.91118066398380892501e-01) (7, -6.21100086697571729388e+00) (8, 2.72152065403998610904e-01) (9, 5.13740905912539069789e-01) (10, 2.88910012890046252743e-01) (11, 3.08552049581969300984e-01) (12, 4.63779397227104428492e-01) (13, 4.77844653919713813206e-01) (14, 2.48471804340535645794e-01) (15, 2.48458588167296934301e-01) (16, 1.01296465623052682758e+01) (17, 4.73443648715514642245e-01) (18, 1.02231300601944639084e+01) (19, 1.46526028746630343491e+00) (20, 5.54816715375838653834e-01) (21, 3.16499867184308447676e-01) (22, 1.15618790042870323020e+00) (23, -1.88332571435562201589e-01) (0, 2.64053142551651376380e+01) (1, 6.48503024063704747171e-01) (2, 5.68405847929118412942e-01) (3, 7.57775496624110478372e-01) (4, 6.29885177991984623880e-01) (5, -3.44962353526735543419e-01) (6, -1.79726782183689176575e-01) (7, -7.82539740317426790739e+00) (8, -1.03372524161503931417e+00) (9, -6.60830371887126122310e-01) (10, -1.38048454280982624276e+00) (11, -9.00680030247594465287e-01) (12, -6.03197696258393145641e-01) (13, -4.88537567932729788200e-01) (14, -6.77405516190713985480e-01) (15, -1.12271594127577900579e+00) (16, -2.00049381189221753274e+00) (17, 9.46843339870886091525e-01) (18, -2.47648360670103123704e-01) (19, -9.11917525514298832334e-01) (20, -9.26439118923926718807e-01) (21, -8.87446689369789099011e-01) (22, -6.43842856880777136830e-01) (23, 5.18565230120280995507e-01) (24, 8.69540910200581995682e-01) (25, -1.99076847445641719192e-01) (26, -2.24704720435000809831e-01) (27, -3.69874941371481524843e-01) (28, 3.87963096721622990870e-01) (29, -4.32579944324946508161e-01) (30, -4.68138819392481697612e-01) (31, -3.30109318698033227246e-01) (32, 1.56240067063553955684e+00) (33, -1.52225275552800604073e-01) (34, 2.73320080061808634575e-01) 
