FANN_FLO_2.1
num_layers=3
learning_rate=0.700000
connection_rate=1.000000
network_type=0
learning_momentum=0.000000
training_algorithm=2
train_error_function=1
train_stop_function=1
cascade_output_change_fraction=0.010000
quickprop_decay=-0.000100
quickprop_mu=1.750000
rprop_increase_factor=1.200000
rprop_decrease_factor=0.500000
rprop_delta_min=0.000000
rprop_delta_max=50.000000
rprop_delta_zero=0.100000
cascade_output_stagnation_epochs=12
cascade_candidate_change_fraction=0.010000
cascade_candidate_stagnation_epochs=12
cascade_max_out_epochs=150
cascade_min_out_epochs=50
cascade_max_cand_epochs=150
cascade_min_cand_epochs=50
cascade_num_candidate_groups=2
bit_fail_limit=1.00000000000000005551e-01
cascade_candidate_limit=1.00000000000000000000e+03
cascade_weight_multiplier=4.00000000000000022204e-01
cascade_activation_functions_count=10
cascade_activation_functions=3 5 7 8 10 11 14 15 16 17 
cascade_activation_steepnesses_count=4
cascade_activation_steepnesses=2.50000000000000000000e-01 5.00000000000000000000e-01 7.50000000000000000000e-01 1.00000000000000000000e+00 
layer_sizes=18 4 2 
scale_included=0
neurons (num_inputs, activation_function, activation_steepness)=(0, 0, 0.00000000000000000000e+00) (0, 0, 0.00000000000000000000e+00) (0, 0, 0.00000000000000000000e+00) (0, 0, 0.00000000000000000000e+00) (0, 0, 0.00000000000000000000e+00) (0, 0, 0.00000000000000000000e+00) (0, 0, 0.00000000000000000000e+00) (0, 0, 0.00000000000000000000e+00) (0, 0, 0.00000000000000000000e+00) (0, 0, 0.00000000000000000000e+00) (0, 0, 0.00000000000000000000e+00) (0, 0, 0.00000000000000000000e+00) (0, 0, 0.00000000000000000000e+00) (0, 0, 0.00000000000000000000e+00) (0, 0, 0.00000000000000000000e+00) (0, 0, 0.00000000000000000000e+00) (0, 0, 0.00000000000000000000e+00) (0, 0, 0.00000000000000000000e+00) (18, 6, 5.00000000000000000000e-01) (18, 6, 5.00000000000000000000e-01) (18, 6, 5.00000000000000000000e-01) (0, 6, 0.00000000000000000000e+00) (4, 4, 5.00000000000000000000e-01) (0, 4, 0.00000000000000000000e+00) 
connections (connected_to_neuron, weight)=(0, -4.64085480566949293291e+00) (1, 1.50000000000000000000e+03) (2, -4.97145246594974388188e+00) (3, 5.08641484254982567670e-01) (4, 4.27082935091302740016e-01) (5, 5.69781233592644653640e-01) (6, 4.76805153637408329903e-01) (7, 2.03748564649702101903e+00) (8, 3.71914849581352635610e+00) (9, -5.61835525751022024643e-01) (10, 1.10664321870017658966e+01) (11, 8.08671350999488836031e-01) (12, 1.14488791486136620712e+00) (13, 1.83724280159885933195e+00) (14, -4.78811658027111342051e+00) (15, 5.20536782478112747263e-01) (16, 1.50000000000000000000e+03) (17, -5.80719570163867118695e-02) (0, 9.89126301942297381231e+00) (1, 1.50000000000000000000e+03) (2, -3.80029178764392572276e+00) (3, -2.29034479999301021635e+00) (4, -2.26707856329326151723e+00) (5, -2.25019519412598301145e+00) (6, -2.27855716149758391609e+00) (7, -1.58670447625963673133e+00) (8, -7.59971606007163291707e-01) (9, -2.34369009817001572316e+00) (10, 6.29360325132385227676e+01) (11, -8.92651290637380467885e-01) (12, -3.25608758644101481394e+00) (13, -7.46732902231529216408e-01) (14, -3.78915051723492180002e+00) (15, -1.56852157380411250109e+00) (16, 1.50000000000000000000e+03) (17, 1.73372664377366259014e-01) (0, 1.11040542975541729476e+01) (1, 1.50000000000000000000e+03) (2, 1.62070822380893631021e+01) (3, -8.85639533840211967686e+00) (4, -8.87154395877122503578e+00) (5, -8.84170827713379026136e+00) (6, -8.89639746746899717778e+00) (7, -2.51931292986330923611e+00) (8, -3.08225218088250541015e+00) (9, -8.89674026258772521203e+00) (10, -1.00882555080693698812e+01) (11, -8.45442399377535069860e-01) (12, 1.48076500770329531065e+01) (13, -1.75632230287955781733e+00) (14, 1.17362344112360510451e+01) (15, -2.47685166209333917919e+00) (16, 1.50000000000000000000e+03) (17, -4.31607385578448854435e-01) (18, 1.43360860296006329406e+01) (19, -1.95842930925027083333e+01) (20, 1.56926404570270303651e+01) (21, -3.20136129390392487615e-01) 
