FANN_FLO_2.1
num_layers=3
learning_rate=0.700000
connection_rate=1.000000
network_type=0
learning_momentum=0.000000
training_algorithm=2
train_error_function=1
train_stop_function=1
cascade_output_change_fraction=0.010000
quickprop_decay=-0.000100
quickprop_mu=1.750000
rprop_increase_factor=1.200000
rprop_decrease_factor=0.500000
rprop_delta_min=0.000000
rprop_delta_max=50.000000
rprop_delta_zero=0.100000
cascade_output_stagnation_epochs=12
cascade_candidate_change_fraction=0.010000
cascade_candidate_stagnation_epochs=12
cascade_max_out_epochs=150
cascade_min_out_epochs=50
cascade_max_cand_epochs=150
cascade_min_cand_epochs=50
cascade_num_candidate_groups=2
bit_fail_limit=1.00000000000000005551e-01
cascade_candidate_limit=1.00000000000000000000e+03
cascade_weight_multiplier=4.00000000000000022204e-01
cascade_activation_functions_count=10
cascade_activation_functions=3 5 7 8 10 11 14 15 16 17 
cascade_activation_steepnesses_count=4
cascade_activation_steepnesses=2.50000000000000000000e-01 5.00000000000000000000e-01 7.50000000000000000000e-01 1.00000000000000000000e+00 
layer_sizes=12 4 2 
scale_included=0
neurons (num_inputs, activation_function, activation_steepness)=(0, 0, 0.00000000000000000000e+00) (0, 0, 0.00000000000000000000e+00) (0, 0, 0.00000000000000000000e+00) (0, 0, 0.00000000000000000000e+00) (0, 0, 0.00000000000000000000e+00) (0, 0, 0.00000000000000000000e+00) (0, 0, 0.00000000000000000000e+00) (0, 0, 0.00000000000000000000e+00) (0, 0, 0.00000000000000000000e+00) (0, 0, 0.00000000000000000000e+00) (0, 0, 0.00000000000000000000e+00) (0, 0, 0.00000000000000000000e+00) (12, 6, 5.00000000000000000000e-01) (12, 6, 5.00000000000000000000e-01) (12, 6, 5.00000000000000000000e-01) (0, 6, 0.00000000000000000000e+00) (4, 4, 5.00000000000000000000e-01) (0, 4, 0.00000000000000000000e+00) 
connections (connected_to_neuron, weight)=(0, -1.25798363069285534799e+00) (1, 4.29001485819468264538e+00) (2, 6.96202302781259163567e-01) (3, 9.81799098273934411907e-02) (4, -2.89067986849822100570e-01) (5, -2.53084990624465044906e-01) (6, -2.83221599687056235783e-01) (7, -1.66392018338979402747e-01) (8, 1.23298690168122532240e-01) (9, 7.24017688878765830474e-02) (10, -3.08415139223092604759e-01) (11, -2.60840095778516944947e+00) (0, 1.48316761968662336191e-01) (1, 3.47866466409623098510e-01) (2, 2.27810051580983496944e-01) (3, -9.48386098978363650813e-02) (4, 2.07484992787309807660e-01) (5, 5.97120994777165375877e-02) (6, 4.95618457049809418846e-02) (7, 1.63968240687921013032e-01) (8, 1.14037180813368471677e-01) (9, -8.61271340896664627795e-03) (10, 1.70368062898584499143e-01) (11, -7.09968712527194161649e-03) (0, 2.02071754839889905497e+00) (1, -1.95691351017986159277e+00) (2, -2.48576142694393364962e+00) (3, -2.11543492373134922602e+00) (4, -3.34172418609349985985e-01) (5, -4.11978198483674784569e-01) (6, -3.83948078647344370751e-01) (7, -5.14657870598710265320e-01) (8, -1.92551284761183705285e+00) (9, 3.11816723922191929574e+00) (10, -4.23472939327447672753e-01) (11, 2.05466968026630780741e+00) (12, 2.43716780449697134614e+00) (13, 2.45058905374464286453e-01) (14, -1.72005959911393304651e+01) (15, -1.22740030825790569224e+00) 
