FANN_FLO_2.1
num_layers=3
learning_rate=0.700000
connection_rate=1.000000
network_type=0
learning_momentum=0.000000
training_algorithm=2
train_error_function=1
train_stop_function=1
cascade_output_change_fraction=0.010000
quickprop_decay=-0.000100
quickprop_mu=1.750000
rprop_increase_factor=1.200000
rprop_decrease_factor=0.500000
rprop_delta_min=0.000000
rprop_delta_max=50.000000
rprop_delta_zero=0.100000
cascade_output_stagnation_epochs=12
cascade_candidate_change_fraction=0.010000
cascade_candidate_stagnation_epochs=12
cascade_max_out_epochs=150
cascade_min_out_epochs=50
cascade_max_cand_epochs=150
cascade_min_cand_epochs=50
cascade_num_candidate_groups=2
bit_fail_limit=1.00000000000000005551e-01
cascade_candidate_limit=1.00000000000000000000e+03
cascade_weight_multiplier=4.00000000000000022204e-01
cascade_activation_functions_count=10
cascade_activation_functions=3 5 7 8 10 11 14 15 16 17 
cascade_activation_steepnesses_count=4
cascade_activation_steepnesses=2.50000000000000000000e-01 5.00000000000000000000e-01 7.50000000000000000000e-01 1.00000000000000000000e+00 
layer_sizes=10 4 2 
scale_included=0
neurons (num_inputs, activation_function, activation_steepness)=(0, 0, 0.00000000000000000000e+00) (0, 0, 0.00000000000000000000e+00) (0, 0, 0.00000000000000000000e+00) (0, 0, 0.00000000000000000000e+00) (0, 0, 0.00000000000000000000e+00) (0, 0, 0.00000000000000000000e+00) (0, 0, 0.00000000000000000000e+00) (0, 0, 0.00000000000000000000e+00) (0, 0, 0.00000000000000000000e+00) (0, 0, 0.00000000000000000000e+00) (10, 6, 5.00000000000000000000e-01) (10, 6, 5.00000000000000000000e-01) (10, 6, 5.00000000000000000000e-01) (0, 6, 0.00000000000000000000e+00) (4, 4, 5.00000000000000000000e-01) (0, 4, 0.00000000000000000000e+00) 
connections (connected_to_neuron, weight)=(0, -4.03881631964645215760e+00) (1, -1.78311588130419362841e+00) (2, -1.89344598115593698573e+00) (3, -1.88717881556239786001e+00) (4, -1.86418399821538049999e+00) (5, -1.80381446469950601497e+00) (6, -3.02040883486187672347e+00) (7, 1.26453649288655922689e+00) (8, -1.87933011928099236165e+00) (9, 4.03066702430535439561e+00) (0, 2.98806811101975666745e+00) (1, 1.46608022310934349441e+00) (2, -3.37111112569170090492e-01) (3, -3.57144019280601243693e-01) (4, -2.85964073854990452617e-01) (5, 2.03173507610823839142e-01) (6, 5.41466298837868453830e-01) (7, -1.61328909021705846349e+00) (8, -4.07265599723546201094e-01) (9, -1.13750873385899642365e+00) (0, 1.53585193251964535754e+00) (1, 1.24440593311432023960e+00) (2, -4.53407060725718111249e-02) (3, -1.02717330828945255239e-01) (4, -7.25419617511724734715e-02) (5, -1.55788629260434657864e-01) (6, 2.11540815113770319655e-01) (7, -3.45015607171728022617e-01) (8, -2.77963212716887710096e-02) (9, -6.76897618662310129878e-01) (10, -7.69799241239768718970e+01) (11, 7.67572920843801931312e+00) (12, 1.30431788109781954255e+00) (13, -1.69818364092373763619e+00) 
