FANN_FLO_2.1
num_layers=3
learning_rate=0.700000
connection_rate=1.000000
network_type=0
learning_momentum=0.000000
training_algorithm=2
train_error_function=1
train_stop_function=1
cascade_output_change_fraction=0.010000
quickprop_decay=-0.000100
quickprop_mu=1.750000
rprop_increase_factor=1.200000
rprop_decrease_factor=0.500000
rprop_delta_min=0.000000
rprop_delta_max=50.000000
rprop_delta_zero=0.100000
cascade_output_stagnation_epochs=12
cascade_candidate_change_fraction=0.010000
cascade_candidate_stagnation_epochs=12
cascade_max_out_epochs=150
cascade_min_out_epochs=50
cascade_max_cand_epochs=150
cascade_min_cand_epochs=50
cascade_num_candidate_groups=2
bit_fail_limit=1.00000000000000005551e-01
cascade_candidate_limit=1.00000000000000000000e+03
cascade_weight_multiplier=4.00000000000000022204e-01
cascade_activation_functions_count=10
cascade_activation_functions=3 5 7 8 10 11 14 15 16 17 
cascade_activation_steepnesses_count=4
cascade_activation_steepnesses=2.50000000000000000000e-01 5.00000000000000000000e-01 7.50000000000000000000e-01 1.00000000000000000000e+00 
layer_sizes=22 4 2 
scale_included=0
neurons (num_inputs, activation_function, activation_steepness)=(0, 0, 0.00000000000000000000e+00) (0, 0, 0.00000000000000000000e+00) (0, 0, 0.00000000000000000000e+00) (0, 0, 0.00000000000000000000e+00) (0, 0, 0.00000000000000000000e+00) (0, 0, 0.00000000000000000000e+00) (0, 0, 0.00000000000000000000e+00) (0, 0, 0.00000000000000000000e+00) (0, 0, 0.00000000000000000000e+00) (0, 0, 0.00000000000000000000e+00) (0, 0, 0.00000000000000000000e+00) (0, 0, 0.00000000000000000000e+00) (0, 0, 0.00000000000000000000e+00) (0, 0, 0.00000000000000000000e+00) (0, 0, 0.00000000000000000000e+00) (0, 0, 0.00000000000000000000e+00) (0, 0, 0.00000000000000000000e+00) (0, 0, 0.00000000000000000000e+00) (0, 0, 0.00000000000000000000e+00) (0, 0, 0.00000000000000000000e+00) (0, 0, 0.00000000000000000000e+00) (0, 0, 0.00000000000000000000e+00) (22, 6, 5.00000000000000000000e-01) (22, 6, 5.00000000000000000000e-01) (22, 6, 5.00000000000000000000e-01) (0, 6, 0.00000000000000000000e+00) (4, 4, 5.00000000000000000000e-01) (0, 4, 0.00000000000000000000e+00) 
connections (connected_to_neuron, weight)=(0, -1.14496107584860578044e+01) (1, 1.20720537247540393722e-01) (2, 1.33671004898805723116e+00) (3, 8.11429390498383611430e+01) (4, 1.00733804790290676356e-01) (5, 5.78923944444530991227e-02) (6, 8.31898216071171592301e-02) (7, 5.77312776098485233578e-02) (8, 5.59157375516498092449e-02) (9, 2.64178290895070777555e-01) (10, 9.28833178288649996546e+00) (11, -4.48051240770532501756e+01) (12, 7.32111218012736770788e+01) (13, 1.39435634182564327510e+00) (14, 1.49926666478600334464e+00) (15, -4.98279787635291242509e+01) (16, 1.50000000000000000000e+03) (17, 3.61696242530741642440e+02) (18, -8.73355291010297918319e+01) (19, -8.91228989725291853574e+01) (20, -7.94606291276770662080e+01) (21, -4.66739693660192189739e-01) (0, 7.87288412633805290142e+00) (1, -1.86231102802511228056e+00) (2, -2.53468735284597412871e+00) (3, 3.12218299348753491884e+00) (4, -1.86168278030394152012e+00) (5, -1.86003539196442968517e+00) (6, -1.85903975611312199945e+00) (7, -1.86349658438911180980e+00) (8, -1.85868758413731072210e+00) (9, -1.85306433944022663773e+00) (10, -2.55475850533413728627e+00) (11, 2.93272268950206305149e+00) (12, 4.37127683009731898833e-02) (13, -2.54614411783085570207e+00) (14, -2.53271608611722554016e+00) (15, -2.79506854077222399724e+00) (16, -1.08375418472265128145e+00) (17, -1.61004618732058690789e+00) (18, 3.57353557659536413826e-01) (19, 3.55762389298611036992e-01) (20, 3.61891188632923743729e-01) (21, 5.95846272609234950401e-01) (0, -4.39451566699020013118e+00) (1, -3.14400478729281229739e-01) (2, 1.56131943081673796314e+00) (3, 2.32860556680758925552e+01) (4, -3.07140466786471055816e-01) (5, -2.72045681855347110112e-01) (6, -2.11575506992767670145e-01) (7, -3.60941595332916698169e-01) (8, -2.11865727457230423880e-01) (9, -1.64434747180181007296e-03) (10, 1.76638314308695809629e-01) (11, -1.33434259696416830820e+02) (12, 1.74847526132925395359e+02) (13, 1.54449085396559282479e+00) (14, 5.16770137041490063012e+00) (15, 3.60532164701312352051e+00) (16, 1.50000000000000000000e+03) (17, 3.61762589831747959579e+02) (18, -1.09613133878084685335e+01) (19, -1.09088300511115861013e+01) (20, -1.13634454042349908320e+01) (21, -5.99658300808610489341e-01) (22, 3.71350395155377155376e+00) (23, -8.13318492120451708161e+01) (24, 9.85441489514775703640e+00) (25, -2.39310788312706329561e-01) 
