FANN_FLO_2.1
num_layers=3
learning_rate=0.700000
connection_rate=1.000000
network_type=0
learning_momentum=0.000000
training_algorithm=2
train_error_function=1
train_stop_function=1
cascade_output_change_fraction=0.010000
quickprop_decay=-0.000100
quickprop_mu=1.750000
rprop_increase_factor=1.200000
rprop_decrease_factor=0.500000
rprop_delta_min=0.000000
rprop_delta_max=50.000000
rprop_delta_zero=0.100000
cascade_output_stagnation_epochs=12
cascade_candidate_change_fraction=0.010000
cascade_candidate_stagnation_epochs=12
cascade_max_out_epochs=150
cascade_min_out_epochs=50
cascade_max_cand_epochs=150
cascade_min_cand_epochs=50
cascade_num_candidate_groups=2
bit_fail_limit=1.00000000000000005551e-01
cascade_candidate_limit=1.00000000000000000000e+03
cascade_weight_multiplier=4.00000000000000022204e-01
cascade_activation_functions_count=10
cascade_activation_functions=3 5 7 8 10 11 14 15 16 17 
cascade_activation_steepnesses_count=4
cascade_activation_steepnesses=2.50000000000000000000e-01 5.00000000000000000000e-01 7.50000000000000000000e-01 1.00000000000000000000e+00 
layer_sizes=27 4 2 
scale_included=0
neurons (num_inputs, activation_function, activation_steepness)=(0, 0, 0.00000000000000000000e+00) (0, 0, 0.00000000000000000000e+00) (0, 0, 0.00000000000000000000e+00) (0, 0, 0.00000000000000000000e+00) (0, 0, 0.00000000000000000000e+00) (0, 0, 0.00000000000000000000e+00) (0, 0, 0.00000000000000000000e+00) (0, 0, 0.00000000000000000000e+00) (0, 0, 0.00000000000000000000e+00) (0, 0, 0.00000000000000000000e+00) (0, 0, 0.00000000000000000000e+00) (0, 0, 0.00000000000000000000e+00) (0, 0, 0.00000000000000000000e+00) (0, 0, 0.00000000000000000000e+00) (0, 0, 0.00000000000000000000e+00) (0, 0, 0.00000000000000000000e+00) (0, 0, 0.00000000000000000000e+00) (0, 0, 0.00000000000000000000e+00) (0, 0, 0.00000000000000000000e+00) (0, 0, 0.00000000000000000000e+00) (0, 0, 0.00000000000000000000e+00) (0, 0, 0.00000000000000000000e+00) (0, 0, 0.00000000000000000000e+00) (0, 0, 0.00000000000000000000e+00) (0, 0, 0.00000000000000000000e+00) (0, 0, 0.00000000000000000000e+00) (0, 0, 0.00000000000000000000e+00) (27, 6, 5.00000000000000000000e-01) (27, 6, 5.00000000000000000000e-01) (27, 6, 5.00000000000000000000e-01) (0, 6, 0.00000000000000000000e+00) (4, 4, 5.00000000000000000000e-01) (0, 4, 0.00000000000000000000e+00) 
connections (connected_to_neuron, weight)=(0, 3.46831559162136260355e+00) (1, -8.69735875893733201281e+00) (2, -8.47928155480449419201e+00) (3, -8.47844448906488068474e+00) (4, 5.81818368749271286333e+01) (5, -7.00100865431328145405e+00) (6, -6.99829196023871347165e+00) (7, 5.84144451127518422595e+01) (8, -9.16508209267353635141e+00) (9, -1.95808734497191181845e+02) (10, -9.13781715229131386025e+00) (11, -2.22960346702933733809e+01) (12, 3.75494017853784711747e+00) (13, -2.11380456455447784947e+00) (14, 4.84395993849326202962e+01) (15, 4.85217445617591423002e+01) (16, 4.87441259388430054855e+01) (17, 4.85775524930460775863e+01) (18, 7.87414660285121303929e+00) (19, 1.36120811571570214937e+01) (20, 4.83774682687923132107e+01) (21, 1.50000000000000000000e+03) (22, 1.50000000000000000000e+03) (23, 1.50000000000000000000e+03) (24, -4.74768245406233990735e+00) (25, -4.50759690262111121228e+01) (26, 5.37008036098532048896e+00) (0, 9.50282076836620781535e+00) (1, -1.50000000000000000000e+03) (2, -1.50000000000000000000e+03) (3, -1.50000000000000000000e+03) (4, 3.15080664581222658072e+00) (5, -1.23220634418928587372e+00) (6, -1.24836007586650299395e+00) (7, 3.17664722165478385918e+00) (8, -2.68856120004635178178e-02) (9, -6.65228130724917754435e+00) (10, -1.20044199785058168517e-02) (11, -3.11782952323342765766e+00) (12, 8.45786752217079751404e+00) (13, -1.08378872699325938811e+01) (14, 3.55361653837381865628e+01) (15, 3.56213481678819121612e+01) (16, 3.55184755728021244181e+01) (17, 3.53867515705712136764e+01) (18, 1.72513133907613713802e+01) (19, -2.66228190932115627021e+00) (20, 3.54510645664549244316e+01) (21, -2.16601594671861219510e+00) (22, -2.40870773779714175689e+00) (23, -2.37632977245907861530e+00) (24, -1.46662589307204916622e+03) (25, -1.50000000000000000000e+03) (26, -4.14442431401011290859e+00) (0, 7.72284294969858375879e+00) (1, 2.13002841854327362725e+00) (2, 2.23285438143617387396e+00) (3, 2.23333159136386694144e+00) (4, 2.97005117341376445594e+00) (5, 2.94934349864873279756e+00) (6, 2.95213134004538879651e+00) (7, 2.93417891202611880175e+00) (8, -1.50000000000000000000e+03) (9, -1.19935657064431104857e+01) (10, -1.50000000000000000000e+03) (11, -1.50000000000000000000e+03) (12, -2.78882147054013396215e+00) (13, 5.82652562155709818903e-01) (14, -3.24969135028494626738e+00) (15, -3.25271444484533001074e+00) (16, -3.24513639275325838085e+00) (17, -3.16511607665503680309e+00) (18, 2.39723320730793026945e-01) (19, 3.73022495146778765296e-01) (20, -3.23277058905933722954e+00) (21, 4.45534820861194447161e+00) (22, 4.04157764016426490628e+00) (23, 3.33058786527872854322e+01) (24, 5.28543154883881669548e+01) (25, -1.50520555710056157750e+02) (26, -3.39358017394292055258e+00) (27, -1.28942244740452220952e+01) (28, 1.12416898386371464369e+01) (29, 1.09111471256907321958e+01) (30, 4.10072697936591534784e+00) 
