FANN_FLO_2.1
num_layers=3
learning_rate=0.700000
connection_rate=1.000000
network_type=0
learning_momentum=0.000000
training_algorithm=2
train_error_function=1
train_stop_function=1
cascade_output_change_fraction=0.010000
quickprop_decay=-0.000100
quickprop_mu=1.750000
rprop_increase_factor=1.200000
rprop_decrease_factor=0.500000
rprop_delta_min=0.000000
rprop_delta_max=50.000000
rprop_delta_zero=0.100000
cascade_output_stagnation_epochs=12
cascade_candidate_change_fraction=0.010000
cascade_candidate_stagnation_epochs=12
cascade_max_out_epochs=150
cascade_min_out_epochs=50
cascade_max_cand_epochs=150
cascade_min_cand_epochs=50
cascade_num_candidate_groups=2
bit_fail_limit=1.00000000000000005551e-01
cascade_candidate_limit=1.00000000000000000000e+03
cascade_weight_multiplier=4.00000000000000022204e-01
cascade_activation_functions_count=10
cascade_activation_functions=3 5 7 8 10 11 14 15 16 17 
cascade_activation_steepnesses_count=4
cascade_activation_steepnesses=2.50000000000000000000e-01 5.00000000000000000000e-01 7.50000000000000000000e-01 1.00000000000000000000e+00 
layer_sizes=35 11 2 
scale_included=0
neurons (num_inputs, activation_function, activation_steepness)=(0, 0, 0.00000000000000000000e+00) (0, 0, 0.00000000000000000000e+00) (0, 0, 0.00000000000000000000e+00) (0, 0, 0.00000000000000000000e+00) (0, 0, 0.00000000000000000000e+00) (0, 0, 0.00000000000000000000e+00) (0, 0, 0.00000000000000000000e+00) (0, 0, 0.00000000000000000000e+00) (0, 0, 0.00000000000000000000e+00) (0, 0, 0.00000000000000000000e+00) (0, 0, 0.00000000000000000000e+00) (0, 0, 0.00000000000000000000e+00) (0, 0, 0.00000000000000000000e+00) (0, 0, 0.00000000000000000000e+00) (0, 0, 0.00000000000000000000e+00) (0, 0, 0.00000000000000000000e+00) (0, 0, 0.00000000000000000000e+00) (0, 0, 0.00000000000000000000e+00) (0, 0, 0.00000000000000000000e+00) (0, 0, 0.00000000000000000000e+00) (0, 0, 0.00000000000000000000e+00) (0, 0, 0.00000000000000000000e+00) (0, 0, 0.00000000000000000000e+00) (0, 0, 0.00000000000000000000e+00) (0, 0, 0.00000000000000000000e+00) (0, 0, 0.00000000000000000000e+00) (0, 0, 0.00000000000000000000e+00) (0, 0, 0.00000000000000000000e+00) (0, 0, 0.00000000000000000000e+00) (0, 0, 0.00000000000000000000e+00) (0, 0, 0.00000000000000000000e+00) (0, 0, 0.00000000000000000000e+00) (0, 0, 0.00000000000000000000e+00) (0, 0, 0.00000000000000000000e+00) (0, 0, 0.00000000000000000000e+00) (35, 6, 5.00000000000000000000e-01) (35, 6, 5.00000000000000000000e-01) (35, 6, 5.00000000000000000000e-01) (35, 6, 5.00000000000000000000e-01) (35, 6, 5.00000000000000000000e-01) (35, 6, 5.00000000000000000000e-01) (35, 6, 5.00000000000000000000e-01) (35, 6, 5.00000000000000000000e-01) (35, 6, 5.00000000000000000000e-01) (35, 6, 5.00000000000000000000e-01) (0, 6, 0.00000000000000000000e+00) (11, 6, 5.00000000000000000000e-01) (0, 6, 0.00000000000000000000e+00) 
connections (connected_to_neuron, weight)=(0, -4.22630418878580442765e+01) (1, -1.72941943040661183506e-02) (2, -1.32422391079979245854e-01) (3, -8.25197597654380582410e-03) (4, 7.09234575120886150817e-03) (5, 2.08609956136262919557e+00) (6, -3.63144808598229673624e-01) (7, 3.43162483236339532766e+00) (8, 2.58677214161299684481e-01) (9, 6.82968963179070742697e-01) (10, 4.37586963069222012468e-01) (11, 5.53188564406491778414e-01) (12, -1.72375030859409847372e-02) (13, 6.67162447255502666366e-01) (14, 4.15687823443688153624e-01) (15, -3.11280547212502090026e-01) (16, -4.40672948691775076546e-02) (17, -2.19540433442575594336e-01) (18, -1.73152902454530099874e+00) (19, -1.97568319461371144641e+00) (20, 1.31623928459717931538e-01) (21, -2.25804980655533604761e+00) (22, -1.93005365437876319490e+00) (23, 1.32842411641158952840e+00) (24, 1.17834332560000754064e+00) (25, 1.29982146233283391012e+00) (26, -1.01772439532854583888e+01) (27, -2.79966961709234685163e-01) (28, 1.70796020586389651896e-01) (29, 2.25924634072536545393e-01) (30, -7.49518785678454646515e-02) (31, 4.02699859849947883195e-01) (32, -3.42503703532378978025e+00) (33, -5.98569135110971739522e+00) (34, -2.74044525270220051816e-01) (0, -9.48128111125940697956e-02) (1, 4.56860478964147484482e-02) (2, -2.42863405499162479662e-02) (3, 9.87675450709437144359e-03) (4, -1.12238887325257385985e-01) (5, 8.14573210466677521957e-02) (6, 2.75287016981915599878e-01) (7, 1.41819790378579413392e+00) (8, 8.51176327747451832995e-02) (9, 2.20994056252242970784e-01) (10, 4.93896050810968614830e-02) (11, 7.56619645782598965189e-02) (12, 2.12869124298330596179e-02) (13, 3.04156535866130194046e-02) (14, 4.42108264248719656786e-02) (15, 3.75485927283709802760e-02) (16, 9.68254871106515452306e-02) (17, -1.49349839156826841302e-01) (18, 3.31689945604026537040e-01) (19, 3.75120346616707234233e-01) (20, 2.34757256348541276658e-01) (21, 3.96298032513213049910e-01) (22, 1.58648595736400971346e-01) (23, -1.07977703302746336211e-01) (24, 8.40030414136958281102e-02) (25, -9.45592187682331442034e-02) (26, -2.70693598612186292485e+00) (27, 2.19781894551762807533e-01) (28, 6.52663382155417304276e-02) (29, 5.56544843451399554035e-02) (30, 5.67821093068064733367e-02) (31, 1.53491681487114339788e-01) (32, -2.93047412293920395143e-01) (33, 3.20748772226975953359e-01) (34, -2.12328910126288370429e-04) (0, -2.04031259078435933674e+00) (1, 3.63730536151674888057e-01) (2, 4.84508090961721926693e-01) (3, 3.69587705779818198604e-01) (4, 4.74730500329283322536e-01) (5, -1.72663998181430877743e+00) (6, 1.16102590568098378299e+01) (7, 1.27364593202353648671e+00) (8, 1.35407596262186191716e+00) (9, 1.65264850549893047571e+01) (10, 7.47473006574196019436e-01) (11, 5.23564994555825613531e+00) (12, 4.60897597430750138869e+00) (13, 2.85745392525043140353e+00) (14, 2.44554914143472190702e+00) (15, 3.94102981296684040657e+00) (16, 1.03331475857523913398e+00) (17, 6.23924183368165019559e-01) (18, 2.09520133700519650688e+00) (19, 3.03253948723695154754e+00) (20, 3.70085621232306305473e+00) (21, 2.87863958033671618608e+00) (22, 4.12012154932788998707e+00) (23, 8.70126558543183104000e-01) (24, 4.29799857954168285090e+00) (25, 1.75522287214157568513e+00) (26, -1.96695613552729078322e+01) (27, -1.33557500481173485607e-01) (28, 5.43299991169786222756e-01) (29, 1.41027657121293903408e+00) (30, 8.00535517856496459110e-01) (31, -1.14475902037103338671e+00) (32, 2.57835178699474254493e-01) (33, -1.08976023645995612199e+00) (34, -2.51754054607326527293e-01) (0, 7.42754227844435677142e-01) (1, 6.24493004984221361520e-02) (2, 4.45493551201187817923e-02) (3, -2.58257070118561669197e-03) (4, 6.71399625248274706246e-02) (5, 1.18112502844915132072e-01) (6, 1.44189752795038561572e+00) (7, -7.44298434433873090654e+00) (8, 1.52908649876676933088e-01) (9, 2.01541626401774170985e-01) (10, 9.02521402887436069440e-02) (11, 6.68325503259571268577e-02) (12, 5.82908452290831421982e-02) (13, -1.68832562649673355304e-02) (14, 5.00506243649988039057e-02) (15, -2.05312371602686047356e-02) (16, -2.49176120748898360935e-02) (17, -8.71775492918000355358e-02) (18, 2.10860878741207846687e+00) (19, 3.10305767998876858016e+00) (20, 1.27330162625943299481e+00) (21, 2.91001535701181390792e+00) (22, 3.89931327550989959008e+00) (23, 3.77542903239824895190e-02) (24, 2.98332411751635884212e-01) (25, 1.59804322640379192766e-01) (26, -1.50000000000000000000e+03) (27, 3.41505177763531342361e-01) (28, 1.91144343538685729245e-01) (29, 5.51711358984029939800e-02) (30, 1.07956114499665301043e-01) (31, 3.14593627177150947372e-01) (32, 4.14229969921883489636e-01) (33, -1.00218658316876196857e+00) (34, 1.25588003298565092924e-01) (0, -1.65545317457744617373e-01) (1, 3.01341782675108305067e-01) (2, 3.57972207830271116347e-01) (3, 3.27411386535486570448e-01) (4, 3.12175962493738523573e-01) (5, 4.61238918028700539686e-01) (6, 1.00733921477436272340e+01) (7, -8.05586934378458074946e+00) (8, -2.53678622823007848819e-01) (9, 2.24582781665193659260e-01) (10, -2.30739904879675855609e-01) (11, -2.46309469983811452076e-01) (12, -2.93500876919874142956e-01) (13, -1.78887138316260768667e-01) (14, -3.23701976766423482612e-01) (15, -4.42106519248276985667e-01) (16, -6.31385513173618462268e-02) (17, 3.87174436640742192228e-01) (18, 1.46112205779015411622e+01) (19, 1.96237664961890828863e+02) (20, 4.43165466185297631796e+01) (21, 3.55329730678702446767e+01) (22, 1.50000000000000000000e+03) (23, 2.86076435495758232719e+02) (24, 2.59014212104350747268e+01) (25, 2.95218213834804787954e-01) (26, 1.50000000000000000000e+03) (27, -5.96710692567878120407e-01) (28, -5.76957792223230958584e-01) (29, -6.24184218215738995106e-01) (30, -6.42797287984824938789e-01) (31, -4.07587425097759747938e-01) (32, 1.45765339303116719938e-01) (33, -5.36440578470658957499e-01) (34, 1.85151778058761884438e+00) (0, 5.14825140824004989781e-01) (1, 9.60138292108404373115e-02) (2, 5.93047962580551882295e-02) (3, 1.04168430069528791804e-01) (4, 2.77890116964209926698e-02) (5, 1.35725431829025944275e+00) (6, -1.23082601586906953406e-01) (7, -3.16459385169271056881e+00) (8, 1.92499837770312987040e-01) (9, 6.57194472597556478277e-02) (10, 1.70107997036073599340e-01) (11, 2.05336027761904293953e-01) (12, 2.96826624513454005727e-04) (13, 1.40484844573731948447e-01) (14, 1.05968548353777711202e-01) (15, 1.54297290164284783831e-01) (16, -5.79133761630703847167e-01) (17, 1.21523211075457340802e-01) (18, -3.67716136516693548053e-01) (19, -4.59401309709194849429e-01) (20, -3.28777582515196523105e-02) (21, -3.02753472195848472026e-01) (22, -6.06523793696206126036e-01) (23, -4.04509713786832869609e-01) (24, 3.92163988058927326374e-01) (25, -4.00351593790119697491e-01) (26, 4.48058543432775402415e-01) (27, 9.06385942141782807724e-01) (28, 1.83656494508399437127e-01) (29, 1.31361581019902445844e-01) (30, 6.69726275372133222907e-02) (31, 9.25250348751664564162e-01) (32, -1.19876614756294275210e+00) (33, 7.36998006069634281623e-01) (34, 3.83369671182239024620e-02) (0, -3.25334383615891065133e+00) (1, -5.68231146759248587075e-02) (2, -9.36706427461362900466e-02) (3, -6.24681215709901663247e-02) (4, -9.83063716418005328901e-02) (5, -1.00642237645763898968e+00) (6, -2.45819754840808951668e-01) (7, -3.89955222753042773931e+00) (8, -1.54940028903871929167e-01) (9, 2.77626954627473609971e-01) (10, -6.91573015025415460677e-01) (11, -2.43211694715760873287e-01) (12, -9.33794767487842625187e-01) (13, -8.60489039676041622684e-01) (14, -5.31736443137322156716e-01) (15, -9.20644684203708707493e-01) (16, -2.99049931456217641529e-03) (17, 2.69689483391090001341e-01) (18, -4.02530505204084676496e-01) (19, -2.83663163377108173968e-01) (20, -3.45442635997237235124e-01) (21, -3.79464220756688952463e-02) (22, -8.66834813771882295441e+00) (23, -8.22603763505350804586e-01) (24, 2.82933117034181058624e-01) (25, -9.33427279910090557102e-01) (26, 9.98850405482334302576e+00) (27, 2.51758902219184621529e-01) (28, -3.93842043814348896635e-01) (29, -1.01156170500685451547e-02) (30, -1.23755181646456428879e-02) (31, -1.54917710839062139350e+00) (32, -1.09265637236538921684e+01) (33, 4.13608033844040345883e+00) (34, 1.63144490809767173101e-01) (0, -3.62066840891907375521e+01) (1, 6.11158425830309673388e-02) (2, -9.32284255601461969709e-02) (3, -7.78887567199762903547e-02) (4, -9.20824405826624475813e-02) (5, -1.08643950537699540693e-01) (6, 4.99912219865910056882e+00) (7, 4.12052187198370578614e+00) (8, 3.09160907376189231233e-01) (9, 5.03821713139486204724e-01) (10, 1.33880487780118739849e-01) (11, 2.88408427130770972369e-01) (12, 1.38890664388712475885e-01) (13, 3.23044536388003733496e-01) (14, 2.69320042547740834404e-01) (15, 3.02994273125378577038e-01) (16, 5.12567184459082003656e-01) (17, 8.91419138468848293311e-02) (18, 4.11640839175517836424e+00) (19, 4.31760850712881083524e+00) (20, 5.34433404411487433805e+00) (21, 3.90752001365279477696e+00) (22, 4.58962900336106471855e+00) (23, 1.81745428376946116522e+00) (24, 1.64106149140627222138e+00) (25, 1.74943637276781149836e+00) (26, -1.67081085799312201168e+00) (27, -3.41532072349055304539e-01) (28, 9.91880420333477230699e-01) (29, 4.28654592699716230353e-01) (30, 2.34220741857312980683e-01) (31, 1.26680582342764025405e+00) (32, -9.24815410596994458281e-01) (33, 1.16267520041552829824e+00) (34, -6.03513489408974379558e+00) (0, 3.70986441553242984881e+00) (1, 3.53317860481369538928e-01) (2, 4.17739395019638581896e-01) (3, 4.97395645794498630909e-01) (4, 3.97345650908577485705e-01) (5, 2.76426903944508972621e-01) (6, 1.89292951223149863438e+00) (7, -6.01607974701383874105e+00) (8, 3.77449213179430698162e-01) (9, 1.77093629097859377453e+01) (10, 2.76598326876907107952e-01) (11, 3.40648271693707538343e-01) (12, 3.51124034168628695873e-01) (13, 4.48248068854589010179e-01) (14, 1.90483551868257272588e-01) (15, -1.81637498783861012219e-01) (16, -1.31381252889136557194e+00) (17, -3.72126888499907104713e-01) (18, 2.19438139368060092238e+00) (19, 2.21754183573316421274e+00) (20, 1.64053006911517429423e+00) (21, 2.07235954089845497705e+00) (22, 3.73756552735990688063e+00) (23, -1.20188029220255954144e+00) (24, -2.89027919361479890270e+00) (25, -1.22855456735115708966e+00) (26, -1.19691641451370038851e+01) (27, -2.01209867907705142187e+00) (28, -5.40403246079932508827e-01) (29, -5.65314459201826768897e-01) (30, -5.24633233845280044783e-01) (31, 8.99744486864857521968e-03) (32, 2.89573328901489790432e-01) (33, -3.27283442194555584948e+00) (34, 4.66704702789690506481e-01) (0, 4.26237881403682976611e+01) (1, 3.86674988427513410816e-01) (2, 3.19316986360901167163e-01) (3, 3.69287687697761823902e-01) (4, 3.27232483187073042163e-01) (5, -1.18770783704494631294e+00) (6, 7.11831027678006922343e+00) (7, -4.08882102980971495754e+00) (8, -3.86565614252715905597e-01) (9, -1.04766982115766871253e+00) (10, 3.96662301655053509825e-03) (11, -2.96291354837922515930e-01) (12, -5.98291548799571026862e-02) (13, -3.20227124972016385929e-01) (14, -3.76102425084155034263e-01) (15, -5.59168494761198772713e-02) (16, -9.51174221959768306789e-01) (17, -3.42469862326002127961e-01) (18, 2.38330441723463088977e+01) (19, 3.87950450447955645927e+01) (20, 5.14034786553735827397e+01) (21, 3.28457004091756772368e+01) (22, 1.50000000000000000000e+03) (23, -5.32594106132632250095e-01) (24, 4.09959544981211543302e+00) (25, -7.80355811910990460056e-01) (26, 1.50000000000000000000e+03) (27, 5.17900869240650818526e-01) (28, -3.94824665457121581902e-01) (29, -1.31706851210300571881e-02) (30, 2.79295306857009040247e-01) (31, -7.67689550888267846496e-01) (32, 4.41964576568745770579e-01) (33, 6.25468070924520169740e-01) (34, 9.39416252513148641867e-01) (35, 5.02454766527560492406e-01) (36, 9.30747138594594347616e-01) (37, -6.98175008294444066070e-02) (38, -4.66285612199656696042e-01) (39, 8.84560138176666677090e-01) (40, -2.34952278246217338697e-01) (41, -2.62442347333761150097e-01) (42, 1.30422043548820298930e+00) (43, -1.12627407001898660610e-01) (44, 8.12499441280929990405e-01) (45, 4.34496419102912312393e-01) 
