FANN_FLO_2.1
num_layers=3
learning_rate=0.700000
connection_rate=1.000000
network_type=0
learning_momentum=0.000000
training_algorithm=2
train_error_function=1
train_stop_function=1
cascade_output_change_fraction=0.010000
quickprop_decay=-0.000100
quickprop_mu=1.750000
rprop_increase_factor=1.200000
rprop_decrease_factor=0.500000
rprop_delta_min=0.000000
rprop_delta_max=50.000000
rprop_delta_zero=0.100000
cascade_output_stagnation_epochs=12
cascade_candidate_change_fraction=0.010000
cascade_candidate_stagnation_epochs=12
cascade_max_out_epochs=150
cascade_min_out_epochs=50
cascade_max_cand_epochs=150
cascade_min_cand_epochs=50
cascade_num_candidate_groups=2
bit_fail_limit=1.00000000000000005551e-01
cascade_candidate_limit=1.00000000000000000000e+03
cascade_weight_multiplier=4.00000000000000022204e-01
cascade_activation_functions_count=10
cascade_activation_functions=3 5 7 8 10 11 14 15 16 17 
cascade_activation_steepnesses_count=4
cascade_activation_steepnesses=2.50000000000000000000e-01 5.00000000000000000000e-01 7.50000000000000000000e-01 1.00000000000000000000e+00 
layer_sizes=22 4 2 
scale_included=0
neurons (num_inputs, activation_function, activation_steepness)=(0, 0, 0.00000000000000000000e+00) (0, 0, 0.00000000000000000000e+00) (0, 0, 0.00000000000000000000e+00) (0, 0, 0.00000000000000000000e+00) (0, 0, 0.00000000000000000000e+00) (0, 0, 0.00000000000000000000e+00) (0, 0, 0.00000000000000000000e+00) (0, 0, 0.00000000000000000000e+00) (0, 0, 0.00000000000000000000e+00) (0, 0, 0.00000000000000000000e+00) (0, 0, 0.00000000000000000000e+00) (0, 0, 0.00000000000000000000e+00) (0, 0, 0.00000000000000000000e+00) (0, 0, 0.00000000000000000000e+00) (0, 0, 0.00000000000000000000e+00) (0, 0, 0.00000000000000000000e+00) (0, 0, 0.00000000000000000000e+00) (0, 0, 0.00000000000000000000e+00) (0, 0, 0.00000000000000000000e+00) (0, 0, 0.00000000000000000000e+00) (0, 0, 0.00000000000000000000e+00) (0, 0, 0.00000000000000000000e+00) (22, 6, 5.00000000000000000000e-01) (22, 6, 5.00000000000000000000e-01) (22, 6, 5.00000000000000000000e-01) (0, 6, 0.00000000000000000000e+00) (4, 4, 5.00000000000000000000e-01) (0, 4, 0.00000000000000000000e+00) 
connections (connected_to_neuron, weight)=(0, -2.82813296571648642441e+00) (1, -3.74412874260537797966e+00) (2, 3.71662937819899452663e-01) (3, -3.53559738521449817839e+00) (4, -2.88653796036539622705e+00) (5, 2.61288510508319893333e+00) (6, -3.95632040779519567053e+00) (7, -3.84488448597600562806e+00) (8, -3.39419145380580866700e+00) (9, -1.15879643693060918608e+00) (10, -1.51331412980059853979e+00) (11, -1.68426240312396457988e+00) (12, -1.54898895534242653227e+00) (13, -1.66049130900014563217e+00) (14, -1.52220129554511252046e+00) (15, -1.64369660389493588148e+00) (16, -1.63772500260725428767e+00) (17, 1.76378876746630797179e+00) (18, 2.94299072799123351274e+00) (19, 3.20134570808135832110e+00) (20, 3.42229175421520404043e+00) (21, 3.29618111714878248009e+00) (0, 5.15940450970700581479e+00) (1, 4.11170970524398970980e+00) (2, -2.15720113354497167180e+00) (3, 4.34770226929635406066e+00) (4, 2.12540319501419538994e+00) (5, -2.96776737499583331825e+00) (6, 3.63553409422685547270e+00) (7, 3.91791822898317487756e+00) (8, 4.45594903022958188643e+00) (9, 5.07383977029109534129e+00) (10, -8.10009135609215252805e-02) (11, -1.49501705295393361173e-01) (12, -3.34107681875146431127e-02) (13, -1.42665404135722595491e-01) (14, -1.20154563870742497889e-01) (15, -2.40176779316278454779e-01) (16, -3.25726743370019986012e-02) (17, 4.62508377378869517393e-01) (18, 4.28566500008799788901e+00) (19, 7.62939668994331299245e+00) (20, 7.60518928905074442781e+00) (21, -2.22514810544354757482e+00) (0, 3.70992312891687170406e+00) (1, 1.50406674496826120446e+00) (2, -7.82266617335867442407e-01) (3, 2.17234609266075917589e+00) (4, 9.23959449467180227167e-01) (5, -9.69211870607703307456e-01) (6, 1.71830254964020490149e+00) (7, 1.48914856237141246531e+00) (8, 2.97821988374006618727e+00) (9, 4.37984471110303896779e+00) (10, -3.00295037729341081356e-02) (11, -1.15567614066286106222e+00) (12, -4.79424843447481430214e-01) (13, -8.15799726088524468359e-01) (14, 5.97810258455823001489e-02) (15, -6.23775666271480067060e-01) (16, -1.19442575436132236710e+00) (17, 7.76242627148507846613e+00) (18, 1.47197140001521109554e+01) (19, -1.81768086733369105268e+00) (20, 3.61163517825506463765e+00) (21, -1.44946893412922639399e+00) (22, -2.19122274739501676777e+01) (23, 1.02352145688716387184e+01) (24, 2.75958680253194366117e+00) (25, -2.40040384033389386786e+00) 
