FANN_FLO_2.1
num_layers=3
learning_rate=0.700000
connection_rate=1.000000
network_type=0
learning_momentum=0.000000
training_algorithm=2
train_error_function=1
train_stop_function=1
cascade_output_change_fraction=0.010000
quickprop_decay=-0.000100
quickprop_mu=1.750000
rprop_increase_factor=1.200000
rprop_decrease_factor=0.500000
rprop_delta_min=0.000000
rprop_delta_max=50.000000
rprop_delta_zero=0.100000
cascade_output_stagnation_epochs=12
cascade_candidate_change_fraction=0.010000
cascade_candidate_stagnation_epochs=12
cascade_max_out_epochs=150
cascade_min_out_epochs=50
cascade_max_cand_epochs=150
cascade_min_cand_epochs=50
cascade_num_candidate_groups=2
bit_fail_limit=1.00000000000000005551e-01
cascade_candidate_limit=1.00000000000000000000e+03
cascade_weight_multiplier=4.00000000000000022204e-01
cascade_activation_functions_count=10
cascade_activation_functions=3 5 7 8 10 11 14 15 16 17 
cascade_activation_steepnesses_count=4
cascade_activation_steepnesses=2.50000000000000000000e-01 5.00000000000000000000e-01 7.50000000000000000000e-01 1.00000000000000000000e+00 
layer_sizes=14 4 2 
scale_included=0
neurons (num_inputs, activation_function, activation_steepness)=(0, 0, 0.00000000000000000000e+00) (0, 0, 0.00000000000000000000e+00) (0, 0, 0.00000000000000000000e+00) (0, 0, 0.00000000000000000000e+00) (0, 0, 0.00000000000000000000e+00) (0, 0, 0.00000000000000000000e+00) (0, 0, 0.00000000000000000000e+00) (0, 0, 0.00000000000000000000e+00) (0, 0, 0.00000000000000000000e+00) (0, 0, 0.00000000000000000000e+00) (0, 0, 0.00000000000000000000e+00) (0, 0, 0.00000000000000000000e+00) (0, 0, 0.00000000000000000000e+00) (0, 0, 0.00000000000000000000e+00) (14, 6, 5.00000000000000000000e-01) (14, 6, 5.00000000000000000000e-01) (14, 6, 5.00000000000000000000e-01) (0, 6, 0.00000000000000000000e+00) (4, 4, 5.00000000000000000000e-01) (0, 4, 0.00000000000000000000e+00) 
connections (connected_to_neuron, weight)=(0, -2.73636660253906249807e+00) (1, 9.83227021365634534789e+00) (2, 1.79107326347597933802e-01) (3, -2.48929831334064183279e-01) (4, 9.80712169899813268614e+00) (5, 1.18753752864423778313e+00) (6, 3.45028427332757237078e-01) (7, 5.87391819574050955133e-01) (8, 8.27556555805829097139e-01) (9, 1.02951778814333552714e-01) (10, -1.99888853437240499034e-01) (11, 4.73554097671702534100e-01) (12, 4.21562761466087509987e-01) (13, -7.38783068177839702395e-02) (0, -2.70229748791360879778e+00) (1, 9.86300498191587138308e+00) (2, 2.12335121412046939904e-01) (3, 9.49928528719080067511e-02) (4, 9.89199224058858561648e+00) (5, 1.08780552279773812252e+00) (6, 2.20887310297604333442e-01) (7, 3.71244671115091018354e-01) (8, 8.62418006942895498668e-01) (9, 2.77858230226689595366e-01) (10, 3.66259519434366409563e-01) (11, 9.57196487493709780026e-01) (12, 7.99885859934869047905e-01) (13, -3.90821858363741767017e-02) (0, -2.71573862707519531057e+00) (1, 9.81808249770871732665e+00) (2, 1.17451492030390597376e-01) (3, -1.33067727092104765019e-01) (4, 9.88523952781430814696e+00) (5, 1.22346894450012233513e+00) (6, 4.31941696345923664691e-01) (7, 5.88331829525642446832e-01) (8, 8.22274720011380244600e-01) (9, 2.17927520180777628545e-01) (10, 2.32781586605564999592e-01) (11, 4.72787943293049961468e-01) (12, 4.54222232501091172097e-01) (13, -1.50295596492066085847e-01) (14, 6.79342630990457863049e+00) (15, 2.87911503207476027200e+00) (16, 1.62410845603531264203e+01) (17, -1.32001233199494705239e+00) 
