FANN_FLO_2.1
num_layers=3
learning_rate=0.700000
connection_rate=1.000000
network_type=0
learning_momentum=0.000000
training_algorithm=2
train_error_function=1
train_stop_function=1
cascade_output_change_fraction=0.010000
quickprop_decay=-0.000100
quickprop_mu=1.750000
rprop_increase_factor=1.200000
rprop_decrease_factor=0.500000
rprop_delta_min=0.000000
rprop_delta_max=50.000000
rprop_delta_zero=0.100000
cascade_output_stagnation_epochs=12
cascade_candidate_change_fraction=0.010000
cascade_candidate_stagnation_epochs=12
cascade_max_out_epochs=150
cascade_min_out_epochs=50
cascade_max_cand_epochs=150
cascade_min_cand_epochs=50
cascade_num_candidate_groups=2
bit_fail_limit=1.00000000000000005551e-01
cascade_candidate_limit=1.00000000000000000000e+03
cascade_weight_multiplier=4.00000000000000022204e-01
cascade_activation_functions_count=10
cascade_activation_functions=3 5 7 8 10 11 14 15 16 17 
cascade_activation_steepnesses_count=4
cascade_activation_steepnesses=2.50000000000000000000e-01 5.00000000000000000000e-01 7.50000000000000000000e-01 1.00000000000000000000e+00 
layer_sizes=19 11 2 
scale_included=0
neurons (num_inputs, activation_function, activation_steepness)=(0, 0, 0.00000000000000000000e+00) (0, 0, 0.00000000000000000000e+00) (0, 0, 0.00000000000000000000e+00) (0, 0, 0.00000000000000000000e+00) (0, 0, 0.00000000000000000000e+00) (0, 0, 0.00000000000000000000e+00) (0, 0, 0.00000000000000000000e+00) (0, 0, 0.00000000000000000000e+00) (0, 0, 0.00000000000000000000e+00) (0, 0, 0.00000000000000000000e+00) (0, 0, 0.00000000000000000000e+00) (0, 0, 0.00000000000000000000e+00) (0, 0, 0.00000000000000000000e+00) (0, 0, 0.00000000000000000000e+00) (0, 0, 0.00000000000000000000e+00) (0, 0, 0.00000000000000000000e+00) (0, 0, 0.00000000000000000000e+00) (0, 0, 0.00000000000000000000e+00) (0, 0, 0.00000000000000000000e+00) (19, 6, 5.00000000000000000000e-01) (19, 6, 5.00000000000000000000e-01) (19, 6, 5.00000000000000000000e-01) (19, 6, 5.00000000000000000000e-01) (19, 6, 5.00000000000000000000e-01) (19, 6, 5.00000000000000000000e-01) (19, 6, 5.00000000000000000000e-01) (19, 6, 5.00000000000000000000e-01) (19, 6, 5.00000000000000000000e-01) (19, 6, 5.00000000000000000000e-01) (0, 6, 0.00000000000000000000e+00) (11, 6, 5.00000000000000000000e-01) (0, 6, 0.00000000000000000000e+00) 
connections (connected_to_neuron, weight)=(0, 3.75041737792259188833e-01) (1, -3.90994149494545834012e-02) (2, 1.28136831219158808803e-01) (3, -1.15136179376023554261e-02) (4, 8.31641879629713420830e-02) (5, 5.36581802617665248878e-03) (6, -3.49261222826855122214e-01) (7, -1.97464087863803028355e+00) (8, 4.36628755935998147386e-01) (9, -2.60133076126820572682e+00) (10, -2.63358802444253781161e+00) (11, -4.71562224372814531304e-01) (12, -5.02602012067763559422e-01) (13, -6.84299416213554834165e-01) (14, 2.31297219577053271566e-02) (15, -5.92675087508130915559e-01) (16, -8.35259672252065876741e-01) (17, -7.29714700801271876074e-01) (18, 3.42008995662297365925e-01) (0, 1.84629964573485172430e+00) (1, 1.56733970732476635135e-01) (2, 1.18108022601392220752e-01) (3, 8.95894650528691605107e-02) (4, 1.01827967555310539005e-01) (5, -2.86624254228592355298e-02) (6, -3.75109348258106267693e-01) (7, -1.95202138454607099227e+00) (8, 4.48132302460760740814e+01) (9, -2.25980890476726870020e+00) (10, -2.40255651928637314896e+00) (11, -4.91131539270318717705e-01) (12, -3.53661654738102126938e-01) (13, -6.37705760665612797489e-01) (14, 4.72000576028719625449e-03) (15, -5.19174030749079751246e-01) (16, -6.00251151194722165627e-01) (17, -9.26486595492212683389e-01) (18, 1.15441357591304180619e-01) (0, 3.04163006373849409414e+00) (1, 6.32430562685591279859e-01) (2, 6.07649793784481251357e-01) (3, 6.87258029292684646805e-01) (4, 6.67379857908350082596e-01) (5, 3.67240707571208302440e-01) (6, -8.68561911865043612124e-01) (7, 5.50432732170230281099e+01) (8, -4.55248087100684628581e+00) (9, -4.17587559481093273384e-01) (10, -6.27202981015263394404e-01) (11, 6.22952456814914623529e-01) (12, 1.13016477792406604408e+01) (13, 4.55053757014400694914e+00) (14, 4.26308036036819526515e+00) (15, 7.19616404520362884512e+00) (16, -9.70033206127431157917e-01) (17, -1.55834175053908086106e+00) (18, 7.31579484933447488082e-01) (0, 8.00092928313840046073e-01) (1, 5.30014702755036259951e-01) (2, 6.65244595783772374453e-01) (3, 5.40919357615532780947e-01) (4, 5.82214886027398015322e-01) (5, 5.93981098746931723831e-01) (6, 1.50044185692543452504e+00) (7, -5.57769978591383974731e+00) (8, -6.94596559032383334409e-03) (9, 1.62098291851919396045e+00) (10, 1.51538457476437016247e+00) (11, 5.81850167398825890430e-01) (12, 7.80659404748916957439e-02) (13, 5.84162818086989776845e-01) (14, -4.57194977949662550998e+00) (15, 1.24236087508670500767e+00) (16, 5.65547299763857425070e-01) (17, -4.34516674196470442659e-01) (18, 1.77925306617073886173e+00) (0, 1.87926254911524615032e+00) (1, 1.06966152045503512524e-01) (2, 1.61172068867460327457e-01) (3, 2.04314402494207458805e-01) (4, 4.13767762515697412606e-02) (5, -3.59555864276409550828e-02) (6, -1.62209136072103909942e-01) (7, -1.95407848984888166122e+00) (8, 4.48713379500002531586e+01) (9, -2.38888946110033328907e+00) (10, -2.11882490685423707788e+00) (11, -3.61501156166232739952e-01) (12, -6.38029900404773919753e-01) (13, -6.46701681085305679630e-01) (14, 1.24410927828471920553e-01) (15, -4.99043721600119394299e-01) (16, -8.07259756932994676504e-01) (17, -3.77245183240215553599e-01) (18, 1.27267985614789719273e-01) (0, 4.17598511670017646935e+00) (1, 3.32482198398727391009e-01) (2, 2.23515497666019413714e-01) (3, 2.56170960288661986315e-01) (4, 2.00696813088077546938e-01) (5, 6.40532898400074746093e+00) (6, 8.56006841265939044661e+00) (7, -3.87546040929653001772e-02) (8, -3.41563866067467047927e+00) (9, -2.04617340408385173234e+00) (10, -1.54209079615904953720e+00) (11, 5.75280583269338063879e-01) (12, 1.01145184272704358186e+00) (13, 1.28805331619259688658e+00) (14, 1.56265796754722838813e+01) (15, -2.37413721657093623740e-01) (16, -1.87418618315261131801e-01) (17, 1.70164284824869582735e+00) (18, 5.10397106162020774978e-03) (0, -6.09306029730434328684e+00) (1, -1.69856111914739982272e-01) (2, -2.40015353471861175860e-01) (3, -2.98399690003023354556e-01) (4, -1.88025544793234189456e-01) (5, 6.60213217284504771953e-01) (6, 5.17521022802950203534e-01) (7, 1.92334722631459498210e+00) (8, 1.48585499476214355496e+00) (9, 1.57704270832065884811e+00) (10, 1.53503324490249193346e+00) (11, 6.32512279589615533659e-01) (12, 5.98675266340089051731e-01) (13, 5.46131305670901623373e-01) (14, 2.39035534231708701736e-01) (15, 7.19615529611248971875e-01) (16, 6.38242567085902434698e-01) (17, 4.40385373607716124056e-01) (18, -1.72244732821609791706e+00) (0, 1.82282101852995670477e+00) (1, 1.75970503538099315444e-01) (2, 5.30197037748965510628e-02) (3, 9.76605354241999873421e-02) (4, 1.62515261619535472670e-01) (5, -4.03363490046978398484e-02) (6, -2.03623289999016132690e-01) (7, -1.94163456738880246810e+00) (8, 9.95262314666196914459e+01) (9, -2.36763298445963199512e+00) (10, -2.53244426779601816691e+00) (11, -1.02719993032409129263e+00) (12, -5.86336907955967046036e-01) (13, -1.77049272557125297878e-01) (14, 1.50946075792261352744e-01) (15, -3.24727136218220302499e-01) (16, -4.36441560159849029077e-01) (17, -3.20660898308101571796e-01) (18, 1.76729409965528244664e-01) (0, 7.89114997931005657250e+00) (1, 2.05023272819514323917e-01) (2, 2.21272299922699977603e-01) (3, 1.59318203963036586490e-01) (4, 2.66777525581116892184e-01) (5, -1.21316310727190984631e-01) (6, -4.21069804927302560049e-01) (7, -1.70774221386436142467e+00) (8, -9.75188568521090481944e-01) (9, -1.55172280606200985176e+00) (10, -1.57468442307192457719e+00) (11, -6.65840791323812908331e-01) (12, -6.24391990567094046227e-01) (13, -3.90273821967482281714e-01) (14, -4.39187608980437516060e-03) (15, -5.42601298580168367458e-01) (16, -7.14087490708794736527e-01) (17, -6.10528191122225671883e-01) (18, 4.29066104565962724848e-01) (0, 1.95886514080864837517e+00) (1, 5.34872738793525023815e-02) (2, 2.08691469408575164257e-01) (3, 2.08543485976759063183e-01) (4, 1.13483509995046596974e-01) (5, 6.86753460678933835837e-02) (6, -2.92147609033902799780e-01) (7, -3.61861071742134532414e+00) (8, 4.47966279012651114044e+01) (9, -2.24612063848995546778e+00) (10, -1.95895004038170772453e+00) (11, -4.22989434376395911919e-01) (12, -4.54711900987477768421e-01) (13, -5.62756228980771266990e-01) (14, 1.77875239316657274280e-01) (15, -5.73266181989256273788e-01) (16, -5.07649326588306748498e-01) (17, -3.53195819209854489085e-01) (18, -8.51338149899246582342e-03) (19, -9.66784480951837887908e-01) (20, 3.23674106750426793244e-01) (21, 2.87977692451125089068e-01) (22, -1.41404758578777857425e-02) (23, 2.64596991812103499164e-01) (24, 3.46800515150180788115e-01) (25, 9.09600553098923403361e-01) (26, 2.70558015083187386463e-01) (27, -6.52511089335503835507e-01) (28, 3.26904359347848672002e-01) (29, 2.95133682176224265703e-01) 
