FANN_FLO_2.1
num_layers=3
learning_rate=0.700000
connection_rate=1.000000
network_type=0
learning_momentum=0.000000
training_algorithm=2
train_error_function=1
train_stop_function=1
cascade_output_change_fraction=0.010000
quickprop_decay=-0.000100
quickprop_mu=1.750000
rprop_increase_factor=1.200000
rprop_decrease_factor=0.500000
rprop_delta_min=0.000000
rprop_delta_max=50.000000
rprop_delta_zero=0.100000
cascade_output_stagnation_epochs=12
cascade_candidate_change_fraction=0.010000
cascade_candidate_stagnation_epochs=12
cascade_max_out_epochs=150
cascade_min_out_epochs=50
cascade_max_cand_epochs=150
cascade_min_cand_epochs=50
cascade_num_candidate_groups=2
bit_fail_limit=1.00000000000000005551e-01
cascade_candidate_limit=1.00000000000000000000e+03
cascade_weight_multiplier=4.00000000000000022204e-01
cascade_activation_functions_count=10
cascade_activation_functions=3 5 7 8 10 11 14 15 16 17 
cascade_activation_steepnesses_count=4
cascade_activation_steepnesses=2.50000000000000000000e-01 5.00000000000000000000e-01 7.50000000000000000000e-01 1.00000000000000000000e+00 
layer_sizes=10 4 2 
scale_included=0
neurons (num_inputs, activation_function, activation_steepness)=(0, 0, 0.00000000000000000000e+00) (0, 0, 0.00000000000000000000e+00) (0, 0, 0.00000000000000000000e+00) (0, 0, 0.00000000000000000000e+00) (0, 0, 0.00000000000000000000e+00) (0, 0, 0.00000000000000000000e+00) (0, 0, 0.00000000000000000000e+00) (0, 0, 0.00000000000000000000e+00) (0, 0, 0.00000000000000000000e+00) (0, 0, 0.00000000000000000000e+00) (10, 6, 5.00000000000000000000e-01) (10, 6, 5.00000000000000000000e-01) (10, 6, 5.00000000000000000000e-01) (0, 6, 0.00000000000000000000e+00) (4, 4, 5.00000000000000000000e-01) (0, 4, 0.00000000000000000000e+00) 
connections (connected_to_neuron, weight)=(0, -2.42085848980656459517e+00) (1, 1.17696522416755322560e+00) (2, 5.35462269012680902591e-01) (3, 4.38567308212097939357e-01) (4, 5.44338107920167568743e-01) (5, 1.67279083433319653018e+00) (6, 7.00911906248148808274e-01) (7, 1.00969415345427626640e+00) (8, 9.37416927937395172421e-01) (9, -2.24807730120927501405e-01) (0, 3.70635596543461831587e+00) (1, -1.55916199805884914120e+00) (2, -3.54277488697555265063e-01) (3, -5.41131290484498039817e-01) (4, -4.31196144108130507977e-01) (5, -1.20277653414737351056e+00) (6, -1.96926436712356434100e+00) (7, -1.51375826855201189858e+00) (8, -1.65809309675291105535e+00) (9, 1.17744711926902212440e+00) (0, -3.31349227622156616846e+00) (1, 2.36010733531540539687e+00) (2, 1.14776640477346592029e+00) (3, 8.76318020678572007220e-01) (4, 1.02054653198416200865e+00) (5, 1.50097394060266786653e+00) (6, 2.19338043617139089037e+00) (7, 2.85269462564095244161e+00) (8, 2.66135167517419812810e+00) (9, -1.12864697501340294217e+00) (10, 1.54628171983214190988e+00) (11, -2.32980315321249307203e+01) (12, 1.55697028980207061721e+01) (13, -7.71940269994339178794e-01) 
