FANN_FLO_2.1
num_layers=3
learning_rate=0.700000
connection_rate=1.000000
network_type=0
learning_momentum=0.000000
training_algorithm=2
train_error_function=1
train_stop_function=1
cascade_output_change_fraction=0.010000
quickprop_decay=-0.000100
quickprop_mu=1.750000
rprop_increase_factor=1.200000
rprop_decrease_factor=0.500000
rprop_delta_min=0.000000
rprop_delta_max=50.000000
rprop_delta_zero=0.100000
cascade_output_stagnation_epochs=12
cascade_candidate_change_fraction=0.010000
cascade_candidate_stagnation_epochs=12
cascade_max_out_epochs=150
cascade_min_out_epochs=50
cascade_max_cand_epochs=150
cascade_min_cand_epochs=50
cascade_num_candidate_groups=2
bit_fail_limit=1.00000000000000005551e-01
cascade_candidate_limit=1.00000000000000000000e+03
cascade_weight_multiplier=4.00000000000000022204e-01
cascade_activation_functions_count=10
cascade_activation_functions=3 5 7 8 10 11 14 15 16 17 
cascade_activation_steepnesses_count=4
cascade_activation_steepnesses=2.50000000000000000000e-01 5.00000000000000000000e-01 7.50000000000000000000e-01 1.00000000000000000000e+00 
layer_sizes=22 4 2 
scale_included=0
neurons (num_inputs, activation_function, activation_steepness)=(0, 0, 0.00000000000000000000e+00) (0, 0, 0.00000000000000000000e+00) (0, 0, 0.00000000000000000000e+00) (0, 0, 0.00000000000000000000e+00) (0, 0, 0.00000000000000000000e+00) (0, 0, 0.00000000000000000000e+00) (0, 0, 0.00000000000000000000e+00) (0, 0, 0.00000000000000000000e+00) (0, 0, 0.00000000000000000000e+00) (0, 0, 0.00000000000000000000e+00) (0, 0, 0.00000000000000000000e+00) (0, 0, 0.00000000000000000000e+00) (0, 0, 0.00000000000000000000e+00) (0, 0, 0.00000000000000000000e+00) (0, 0, 0.00000000000000000000e+00) (0, 0, 0.00000000000000000000e+00) (0, 0, 0.00000000000000000000e+00) (0, 0, 0.00000000000000000000e+00) (0, 0, 0.00000000000000000000e+00) (0, 0, 0.00000000000000000000e+00) (0, 0, 0.00000000000000000000e+00) (0, 0, 0.00000000000000000000e+00) (22, 6, 5.00000000000000000000e-01) (22, 6, 5.00000000000000000000e-01) (22, 6, 5.00000000000000000000e-01) (0, 6, 0.00000000000000000000e+00) (4, 4, 5.00000000000000000000e-01) (0, 4, 0.00000000000000000000e+00) 
connections (connected_to_neuron, weight)=(0, 2.89458997674125262378e+00) (1, 1.30782704680802064345e+00) (2, 8.50758451486136046960e-01) (3, 9.05677143296794606719e-01) (4, 6.85252804171214813245e-01) (5, 2.69042622002495790401e-01) (6, 1.53597228254665540970e-01) (7, 1.80438876602943304439e-01) (8, 9.28922070742541211574e-02) (9, 1.78627234064620110665e-01) (10, -1.29016897523961976413e-01) (11, 5.37611311180161352552e-02) (12, 1.76717626726831250616e-02) (13, -4.50430077020856980963e-03) (14, -4.19284095510843307641e-03) (15, 1.28890937728999344092e-01) (16, 5.58781815139843471285e-02) (17, 6.17973732201298697753e-01) (18, 1.31235774143261640923e+00) (19, 1.31194563170368749816e+00) (20, 1.40431834885556661163e+00) (21, -1.82369189103595341628e+00) (0, 3.09742208472156566046e+00) (1, 7.61949988554031287791e-01) (2, -1.45432047409644660263e+00) (3, 5.66053338010741313724e-01) (4, 1.17825678162575164798e+00) (5, -1.32647459674671108765e+00) (6, -2.67844531260228180258e+00) (7, 2.92138384629902381207e-01) (8, 7.65004670638938955030e-01) (9, -1.31416393120619368062e+00) (10, 1.10985952329105987957e+01) (11, -1.51146157853618867684e+00) (12, -2.31674927344015202380e+00) (13, 6.41044681080312206412e-02) (14, -6.49049438837036918315e-01) (15, -1.70950086142478041573e+00) (16, -1.44984290245363744987e+00) (17, 6.79598745200525922172e+00) (18, -5.45784553369568214976e+00) (19, -4.90047390337383426129e+00) (20, -6.44572194928666597491e+00) (21, -3.43465376608417582993e-01) (0, 9.41149891664894155952e+00) (1, -2.00170294633322054523e+00) (2, -3.00902087950498131619e+00) (3, -2.02581477304550494623e+00) (4, -3.19037960249193508488e+00) (5, -6.48274361554676326058e-01) (6, -1.37731584379239979654e+00) (7, -5.45390624774824472887e-01) (8, -7.03590730926444529736e-01) (9, -9.63257066725074384550e-01) (10, -6.42211728497058875753e-01) (11, -1.10428094184610126050e+00) (12, -1.62124183254523579478e+00) (13, -1.07087797254362859789e+00) (14, -1.35093586687827316162e+00) (15, -1.24079037897383925859e+00) (16, -1.22462523106241683024e+00) (17, -3.41354880926772041860e+00) (18, -2.08354131177760226734e+00) (19, -2.10232445203160267511e+00) (20, -1.71343556323328671809e+00) (21, 1.51513039810172900346e+00) (22, 2.39164859435215895189e+01) (23, 1.74069903829809513596e+00) (24, -9.81112621843008447797e+00) (25, -7.46431094954802643038e-01) 
