FANN_FLO_2.1
num_layers=3
learning_rate=0.700000
connection_rate=1.000000
network_type=0
learning_momentum=0.000000
training_algorithm=2
train_error_function=1
train_stop_function=1
cascade_output_change_fraction=0.010000
quickprop_decay=-0.000100
quickprop_mu=1.750000
rprop_increase_factor=1.200000
rprop_decrease_factor=0.500000
rprop_delta_min=0.000000
rprop_delta_max=50.000000
rprop_delta_zero=0.100000
cascade_output_stagnation_epochs=12
cascade_candidate_change_fraction=0.010000
cascade_candidate_stagnation_epochs=12
cascade_max_out_epochs=150
cascade_min_out_epochs=50
cascade_max_cand_epochs=150
cascade_min_cand_epochs=50
cascade_num_candidate_groups=2
bit_fail_limit=1.00000000000000005551e-01
cascade_candidate_limit=1.00000000000000000000e+03
cascade_weight_multiplier=4.00000000000000022204e-01
cascade_activation_functions_count=10
cascade_activation_functions=3 5 7 8 10 11 14 15 16 17 
cascade_activation_steepnesses_count=4
cascade_activation_steepnesses=2.50000000000000000000e-01 5.00000000000000000000e-01 7.50000000000000000000e-01 1.00000000000000000000e+00 
layer_sizes=11 4 2 
scale_included=0
neurons (num_inputs, activation_function, activation_steepness)=(0, 0, 0.00000000000000000000e+00) (0, 0, 0.00000000000000000000e+00) (0, 0, 0.00000000000000000000e+00) (0, 0, 0.00000000000000000000e+00) (0, 0, 0.00000000000000000000e+00) (0, 0, 0.00000000000000000000e+00) (0, 0, 0.00000000000000000000e+00) (0, 0, 0.00000000000000000000e+00) (0, 0, 0.00000000000000000000e+00) (0, 0, 0.00000000000000000000e+00) (0, 0, 0.00000000000000000000e+00) (11, 6, 5.00000000000000000000e-01) (11, 6, 5.00000000000000000000e-01) (11, 6, 5.00000000000000000000e-01) (0, 6, 0.00000000000000000000e+00) (4, 4, 5.00000000000000000000e-01) (0, 4, 0.00000000000000000000e+00) 
connections (connected_to_neuron, weight)=(0, -4.93083038030035858412e+00) (1, 5.15393383449712194633e-01) (2, 6.19030444113025171693e-02) (3, 9.35305325725049874208e-01) (4, 1.36075469519081848624e+00) (5, 1.37615699636897725888e+00) (6, 5.70442258231819487868e-01) (7, 1.25273834535032241311e-01) (8, 5.91511385146347934416e-01) (9, 5.84195329034691734904e-01) (10, 1.61455047764998027571e-01) (0, -4.93861148355372314711e+00) (1, 5.98580404764809781426e-01) (2, 7.17103852120646867441e-02) (3, 1.03962280456063282941e+00) (4, 1.32571436504903572562e+00) (5, 1.29561508017739934751e+00) (6, 4.27323932610929546616e-01) (7, 1.53944126882701814996e-01) (8, 5.76770858470169844878e-01) (9, 6.80450206780796817974e-01) (10, 1.23089504876356656271e-01) (0, -8.97780421385761151498e+00) (1, 2.09114081463045753395e+00) (2, 2.96687249291124263695e-02) (3, 1.60871609783061053633e+00) (4, 2.00454840776141329783e+00) (5, 2.01670678269109870939e+00) (6, 2.40498463106111382004e+00) (7, -5.64365026268275893351e-01) (8, 2.38747471364204333355e+00) (9, 2.38344759908641012913e+00) (10, -4.02330206178683813523e-01) (11, 1.29264141657796982621e+00) (12, 2.46162035030378634204e+00) (13, 3.95582871739427304192e+01) (14, -1.55592480887613082707e+00) 
