FANN_FLO_2.1
num_layers=3
learning_rate=0.700000
connection_rate=1.000000
network_type=0
learning_momentum=0.000000
training_algorithm=2
train_error_function=1
train_stop_function=1
cascade_output_change_fraction=0.010000
quickprop_decay=-0.000100
quickprop_mu=1.750000
rprop_increase_factor=1.200000
rprop_decrease_factor=0.500000
rprop_delta_min=0.000000
rprop_delta_max=50.000000
rprop_delta_zero=0.100000
cascade_output_stagnation_epochs=12
cascade_candidate_change_fraction=0.010000
cascade_candidate_stagnation_epochs=12
cascade_max_out_epochs=150
cascade_min_out_epochs=50
cascade_max_cand_epochs=150
cascade_min_cand_epochs=50
cascade_num_candidate_groups=2
bit_fail_limit=1.00000000000000005551e-01
cascade_candidate_limit=1.00000000000000000000e+03
cascade_weight_multiplier=4.00000000000000022204e-01
cascade_activation_functions_count=10
cascade_activation_functions=3 5 7 8 10 11 14 15 16 17 
cascade_activation_steepnesses_count=4
cascade_activation_steepnesses=2.50000000000000000000e-01 5.00000000000000000000e-01 7.50000000000000000000e-01 1.00000000000000000000e+00 
layer_sizes=37 11 2 
scale_included=0
neurons (num_inputs, activation_function, activation_steepness)=(0, 0, 0.00000000000000000000e+00) (0, 0, 0.00000000000000000000e+00) (0, 0, 0.00000000000000000000e+00) (0, 0, 0.00000000000000000000e+00) (0, 0, 0.00000000000000000000e+00) (0, 0, 0.00000000000000000000e+00) (0, 0, 0.00000000000000000000e+00) (0, 0, 0.00000000000000000000e+00) (0, 0, 0.00000000000000000000e+00) (0, 0, 0.00000000000000000000e+00) (0, 0, 0.00000000000000000000e+00) (0, 0, 0.00000000000000000000e+00) (0, 0, 0.00000000000000000000e+00) (0, 0, 0.00000000000000000000e+00) (0, 0, 0.00000000000000000000e+00) (0, 0, 0.00000000000000000000e+00) (0, 0, 0.00000000000000000000e+00) (0, 0, 0.00000000000000000000e+00) (0, 0, 0.00000000000000000000e+00) (0, 0, 0.00000000000000000000e+00) (0, 0, 0.00000000000000000000e+00) (0, 0, 0.00000000000000000000e+00) (0, 0, 0.00000000000000000000e+00) (0, 0, 0.00000000000000000000e+00) (0, 0, 0.00000000000000000000e+00) (0, 0, 0.00000000000000000000e+00) (0, 0, 0.00000000000000000000e+00) (0, 0, 0.00000000000000000000e+00) (0, 0, 0.00000000000000000000e+00) (0, 0, 0.00000000000000000000e+00) (0, 0, 0.00000000000000000000e+00) (0, 0, 0.00000000000000000000e+00) (0, 0, 0.00000000000000000000e+00) (0, 0, 0.00000000000000000000e+00) (0, 0, 0.00000000000000000000e+00) (0, 0, 0.00000000000000000000e+00) (0, 0, 0.00000000000000000000e+00) (37, 6, 5.00000000000000000000e-01) (37, 6, 5.00000000000000000000e-01) (37, 6, 5.00000000000000000000e-01) (37, 6, 5.00000000000000000000e-01) (37, 6, 5.00000000000000000000e-01) (37, 6, 5.00000000000000000000e-01) (37, 6, 5.00000000000000000000e-01) (37, 6, 5.00000000000000000000e-01) (37, 6, 5.00000000000000000000e-01) (37, 6, 5.00000000000000000000e-01) (0, 6, 0.00000000000000000000e+00) (11, 6, 5.00000000000000000000e-01) (0, 6, 0.00000000000000000000e+00) 
connections (connected_to_neuron, weight)=(0, -9.91133006130198612738e-01) (1, -2.35103432934236772356e-01) (2, -1.35252584617090387820e-01) (3, -3.07796415786694810279e-01) (4, -2.68344134937476552771e-01) (5, 6.00781868506443661460e-01) (6, 6.80231315470757280650e+00) (7, -1.49309772301857730525e+01) (8, 6.27633018644850704248e+00) (9, 2.87885245597327177336e+00) (10, 3.85573073429435275727e+00) (11, 3.90150404146180118659e+00) (12, 3.42457288239128576635e+00) (13, 2.84171118157529090098e+00) (14, 2.83748596417845799778e+00) (15, 2.62709586583614074229e+00) (16, 4.26966806879984250855e+00) (17, 2.43741152354343926234e+00) (18, 3.21781959516421345313e+00) (19, 3.11542083351752241427e+00) (20, 2.26187872677596724103e+00) (21, 2.06981774292149101058e+00) (22, 1.89206462327526780953e+00) (23, 2.54508448173772627854e+00) (24, 1.50000000000000000000e+03) (25, -3.94625233648457918179e+00) (26, -1.03595826215132478865e+03) (27, -3.90783362402044964767e+00) (28, 6.86831200627475979559e+00) (29, 5.27673031167739825520e+00) (30, 6.51197789360468526354e+00) (31, 5.13323472240982070502e-01) (32, -2.66213109593268093533e+01) (33, 3.50186867536563140035e-01) (34, 5.41941423031513103137e-02) (35, 1.56586259544879147221e-02) (36, -3.11654464057874447391e+00) (0, 8.31873808915018919663e+00) (1, 4.71666573843212283412e-02) (2, 7.86035328468531052648e-02) (3, 8.95878642162532962123e-02) (4, 8.69552686175556338588e-02) (5, 3.63785592952608427542e-01) (6, 3.24558467359671265484e+00) (7, -5.47428504008188809848e+00) (8, -6.85409194479732475358e-01) (9, -4.15861979086364685898e-01) (10, -8.76132224303841494750e-02) (11, -9.25034262719816313680e-03) (12, 6.91117543582046300887e-02) (13, -1.03711524874028326870e+00) (14, -1.27801773243049909823e+00) (15, -6.06161663636480052553e-01) (16, -8.03320393881574168482e-01) (17, -6.98038336323363650671e-01) (18, -8.00655015610947429217e-01) (19, -7.47782418064751180919e-02) (20, -8.10952181589075893342e-01) (21, -1.87202610548665404622e+00) (22, -1.05334014121136521069e+00) (23, -6.20654627119406665514e-01) (24, -2.18815815809540703540e+00) (25, -1.46911352150271912187e+00) (26, 4.66625563571611579050e+00) (27, 2.42527307016613580259e+00) (28, -2.46482033176250503459e+00) (29, -3.03707973530866848222e+00) (30, -1.42646496579336923283e+00) (31, 7.94526832190376341991e-01) (32, 2.14739546112080459395e+00) (33, 2.14550414918779824847e-01) (34, 1.67056837178692435542e-01) (35, 3.39792863672705669487e-01) (36, 1.47007337923998027129e+00) (0, 7.49641064948270230417e+00) (1, 1.17709838071560712880e-01) (2, 1.00255213895535322255e-01) (3, 1.06873737962008552582e-02) (4, 4.80216147691967035205e-02) (5, -1.04814041905599864002e+00) (6, 6.85024440730632377949e+00) (7, -2.36942631281533833132e+00) (8, 1.03523558794105219327e+00) (9, 1.89925685792583713862e+01) (10, 6.24955347812982875411e+00) (11, 7.00179155022192656332e+00) (12, -1.18298663780339499696e-01) (13, 6.22603432730873773693e+00) (14, 8.35595637781711886305e+00) (15, 4.65953581567799812735e-01) (16, 1.46351953189237837805e+00) (17, 7.57767746629928407032e-01) (18, 2.20985442847468238625e+00) (19, 7.21117356842123413685e-01) (20, 6.67420953557367990783e+00) (21, 1.19731329470479188615e+01) (22, 1.77652077541666919558e+00) (23, 8.78434238268070100020e-01) (24, 3.72797619617653364088e+00) (25, -2.66510048211111461036e-01) (26, 6.68651401450330418186e-01) (27, 1.23410023807293400822e+00) (28, 6.51155723720762757978e+00) (29, 3.34756288428397752455e+01) (30, 3.08986933902498650539e+00) (31, -1.27943347056098666314e-01) (32, -6.46807865039857599054e-02) (33, 1.06811407662674179991e-02) (34, 1.72487146866883954421e-02) (35, 1.07498277684645437285e-02) (36, 7.39096640963492035326e-01) (0, 3.87839741184536368479e+00) (1, 6.61804288915461141896e-02) (2, 1.49769170611268903626e-01) (3, 1.70819847314721967591e-01) (4, 1.23216962843305397057e-01) (5, 5.37329289300760404302e-01) (6, 6.53046372289153742585e-01) (7, -6.06591938970544086729e-01) (8, 6.76193933611037079068e-01) (9, 3.45870325862741634371e-01) (10, 1.06697939884775450103e+00) (11, 1.25203739422184434638e+00) (12, -1.44141696470281466258e-01) (13, 5.63767160167144898431e-01) (14, 1.43453825608789076185e+00) (15, 6.88919373435357557112e-02) (16, -1.25863335051999564174e-01) (17, -3.83211641220958590393e-02) (18, 2.07983461033393990380e-01) (19, 2.48523108952069082811e-01) (20, 6.62335652581790723659e-01) (21, 2.13330909311896057545e+01) (22, 1.98472307212172766056e-01) (23, 2.33235187634139775475e-03) (24, 4.38209869181543698602e+00) (25, 4.82851859527749005530e-01) (26, 5.45049414541215915264e-01) (27, 8.10450831243504232759e+00) (28, -2.58376256197244735802e+00) (29, -1.41721594102955283923e+00) (30, -4.68938045669780745328e+00) (31, 4.95517369369553928315e-01) (32, 3.51167530515131665059e-01) (33, -1.95926569131634975562e-01) (34, 2.06316274568562302294e-01) (35, 4.59446879378543837635e-01) (36, 3.33771302114719697895e-02) (0, 8.18601493303379967870e+00) (1, 1.44471081478341312199e-01) (2, 1.09783051703755789308e-03) (3, 8.18348327109653106426e-02) (4, 7.69927599856692623792e-02) (5, 1.77641995518537001431e+01) (6, 6.23358487253798942973e-01) (7, -2.02846409068903366091e+00) (8, 6.14236478878943392701e-01) (9, 9.77236826590619500621e-02) (10, 9.18152640705524880627e-02) (11, 1.05317901386722215240e-01) (12, -1.66717688511112238636e-01) (13, 3.13537638124764816983e-02) (14, -3.68728926778190635449e-01) (15, -2.47045043854422566310e-02) (16, -9.64971535284706583013e-02) (17, -1.39287831639525655492e-01) (18, 4.81200753064093544875e-02) (19, -8.28890421445943187395e-02) (20, -1.69775325414038891214e-01) (21, 6.52536792230740014809e-01) (22, -2.53575819466108742795e-01) (23, -1.99457763276089161675e-01) (24, 4.36450833128543713713e+00) (25, 4.29799777081615486107e-01) (26, 9.92991360558007613690e+02) (27, 4.45634209110104517748e+00) (28, -5.69805422825064589176e+00) (29, -5.12506554494706811909e+00) (30, -5.11422123090443392357e+00) (31, 1.73706481495073234100e+02) (32, 3.69546525216969667937e+00) (33, 3.24515514033358032364e+00) (34, 2.72242347909642523618e+00) (35, 2.70120123371409093238e+00) (36, 2.24061852532844635322e-01) (0, 1.42039604465055138149e+01) (1, 2.67239325313564202169e-01) (2, 2.25046493678088044277e-01) (3, 1.87259004085059022060e-01) (4, 2.66584300069805102407e-01) (5, -5.04115251532667785206e-01) (6, 2.40102608883994622646e-01) (7, -3.76367605693182527560e+00) (8, 1.40770295835141223684e-01) (9, -9.77057920244921551678e-01) (10, -4.20610708078830941581e-01) (11, -4.06194819414380792200e-01) (12, -1.44807660946904714905e+00) (13, -2.21900787541599697761e+00) (14, -1.79716829755968743321e+00) (15, -2.19171638131961543650e+00) (16, -1.54616462528852371960e+00) (17, -2.26815750378294245237e+00) (18, -2.14790268847269105734e+00) (19, -2.27085860641051917597e+00) (20, -2.31113575443347452065e+00) (21, -2.42396661324050954889e+00) (22, -2.31125403706517085212e+00) (23, -2.12536671056681303327e+00) (24, -2.86915169051762397601e+00) (25, -3.41032969192000601222e-01) (26, 1.11727996699414200421e+00) (27, 5.53420876068935996273e+00) (28, -9.75481987688195317787e+00) (29, -9.74291311589714581487e+00) (30, -1.00271942631145059011e+01) (31, 3.65279650126520208375e-02) (32, 7.18501677179650855010e-01) (33, -6.61523716161289687676e-02) (34, 3.06797261029553951228e-02) (35, 9.14030013558184140088e-02) (36, 2.17216724574138292381e-01) (0, 2.53293638945606525148e-01) (1, -1.30082632251648316890e-01) (2, -1.33975739427475343257e-01) (3, -8.24365232368987205236e-02) (4, -1.34486964740423570186e-01) (5, -2.72331980243046556378e-01) (6, 1.15518526923754257041e+03) (7, 4.53420641269201285528e-02) (8, 1.32444004712763330645e+03) (9, -5.73396596769520039416e-01) (10, 8.14642668253847235249e-01) (11, 9.44377765447860229031e-01) (12, 1.08548718211024797231e-01) (13, 4.55166224161231702805e-01) (14, 2.39501019820253041592e-01) (15, -2.48292085871954608389e-02) (16, 6.94087028692933899476e-02) (17, -2.58482979765727927113e-01) (18, 1.24743937496523155106e-01) (19, -1.65515311324014757766e-01) (20, 1.85387529582689725149e-01) (21, -9.09794695623932891948e-01) (22, -2.99723928470984946060e-01) (23, -1.31906975561625311455e-01) (24, -1.50000000000000000000e+03) (25, 3.24333078761367077369e-01) (26, 8.84443208132895009044e-01) (27, -2.87760417736205725836e-02) (28, 7.86356086683048460806e-01) (29, -3.18982764171326704794e-01) (30, -3.82856843970478977202e-01) (31, 9.76983946133603176065e-01) (32, 1.22890625238697648314e+00) (33, 2.39202363274753998512e-01) (34, 6.20463000443392531658e-01) (35, 8.20175165640863790273e-01) (36, 6.67963542788585717958e-01) (0, -1.18186894478944726217e+01) (1, 1.58516386601929654132e-01) (2, 1.83435106728081692706e-01) (3, 2.66099514517789625945e-01) (4, 1.20027033690219012141e-01) (5, 9.70851107541706337400e-01) (6, 1.77729183622118225294e+00) (7, 1.24766201547007882233e+00) (8, 1.92411167942268512832e+00) (9, 7.74776746071583866105e-01) (10, 6.33524969111531666144e-01) (11, 6.25430301059314963652e-01) (12, 1.45384471420051619717e+00) (13, 9.50982131306636113699e-01) (14, 7.64966256300377289712e-01) (15, 7.75014094991338553520e-01) (16, 1.16526507180316807322e+00) (17, 6.62292247039595549651e-01) (18, 8.17832308306719379942e-01) (19, 8.00131646879625679780e-01) (20, 9.32705908763082902624e-01) (21, 1.06378360299842444903e+00) (22, 9.34764741481955874214e-01) (23, 7.97530381748794092722e-01) (24, 1.91836939997488409304e+00) (25, 1.03838316589985613092e+00) (26, 3.47675230608676666400e-01) (27, -2.47212226870533635648e+00) (28, 3.32545068751754602232e+00) (29, 3.37682439927980126981e+00) (30, 3.11118888167323515148e+00) (31, 2.76830238520360649712e-01) (32, 1.01678050055665236684e+00) (33, 1.37823656678382477914e-01) (34, 2.21140340875387031438e-01) (35, 2.67753980840509442363e-01) (36, -3.79044437971268211029e+00) (0, 8.67843158137392101104e-01) (1, 2.28059461618070669076e-01) (2, 1.22279612625246336677e-01) (3, 1.46198986375932704629e-01) (4, 2.49223908687238759896e-01) (5, 1.14799290540269749959e-04) (6, -1.44981929967539576865e+03) (7, -1.47824022046693137611e+00) (8, -3.16542842294555315519e+00) (9, -2.52977329333153555524e+00) (10, -2.26405571123972748637e+00) (11, -2.32863125947253069015e+00) (12, 4.13485244209169600094e-01) (13, 1.31547723118622394978e+00) (14, -1.95726784113010338073e-01) (15, 1.43199716746339189566e-01) (16, -5.57785218127525350695e-01) (17, -2.98770961440636972917e-02) (18, -7.06047995889221013943e-02) (19, -7.02785493330829041936e-02) (20, 8.38412800333207419712e-01) (21, 4.31710901253490320073e+00) (22, 9.23530424613649869592e-01) (23, -1.25154954694568137930e-01) (24, 2.97926369527593060127e+00) (25, 2.72602285859396475942e+00) (26, -1.13547055043196110091e+00) (27, 7.36028505896806906073e-01) (28, 5.43873949334188111493e+00) (29, 3.20693529352421302647e+00) (30, 3.97908440502523363946e+00) (31, -1.37118557329716650450e+00) (32, 8.34110118679216694382e-01) (33, 4.61673044891565687031e-02) (34, 1.05505966550345609001e+00) (35, 7.20615736147998453553e-01) (36, 1.81437202249262824472e-01) (0, 9.72641257300327910507e-01) (1, 1.79156108885807158204e-01) (2, 2.50082924157184749436e-01) (3, 2.22983583003086210939e-01) (4, 1.84951580256027342530e-01) (5, 7.04531959331881479924e-02) (6, -1.44981929967539576865e+03) (7, -1.49540792977073144776e+00) (8, -1.14393354602461454306e+03) (9, -1.59051141198650713982e+00) (10, -2.16974888737437598962e+00) (11, -2.16886614128852617256e+00) (12, 4.49235349041597398223e-01) (13, 6.05383055224037902597e-01) (14, -2.28578237607579115576e-01) (15, -1.54086108388694464910e-01) (16, -2.82031340714711642459e-01) (17, -2.28572447736313050237e-01) (18, -1.36042561513863624612e-01) (19, -2.26154511497275695353e-01) (20, 1.00957026195758081677e+00) (21, 2.18803841268008048004e+00) (22, 9.81741596361364488033e-01) (23, -2.18502758522464174407e-01) (24, 4.76335670344048267566e+00) (25, 2.61246171028727847130e+00) (26, 3.01678037543135435516e-01) (27, 7.61623044384947767149e-01) (28, 9.39535710794886291808e+00) (29, 4.18802359845128080451e+00) (30, 2.82610857233686445233e-02) (31, 1.05516018711535775054e+00) (32, 1.38074937160445221362e-01) (33, -4.63909501060230378133e-02) (34, 4.71247464610588584488e-01) (35, 1.01455295622895746988e+00) (36, 1.00033856064111040252e-01) (37, -3.46524626694583226527e-01) (38, -2.04690080332760926396e-01) (39, 6.70541012132443770000e-01) (40, 6.69853532698134190859e-01) (41, 6.96649109894458717918e-01) (42, -9.93523857645955077444e-01) (43, 9.29252742982599189148e-02) (44, 1.58951004991231781283e+00) (45, -5.02266029862455040678e-02) (46, -2.07818766277140659637e-01) (47, 6.32221992164190838004e-01) 
