FANN_FLO_2.1
num_layers=3
learning_rate=0.700000
connection_rate=1.000000
network_type=0
learning_momentum=0.000000
training_algorithm=2
train_error_function=1
train_stop_function=1
cascade_output_change_fraction=0.010000
quickprop_decay=-0.000100
quickprop_mu=1.750000
rprop_increase_factor=1.200000
rprop_decrease_factor=0.500000
rprop_delta_min=0.000000
rprop_delta_max=50.000000
rprop_delta_zero=0.100000
cascade_output_stagnation_epochs=12
cascade_candidate_change_fraction=0.010000
cascade_candidate_stagnation_epochs=12
cascade_max_out_epochs=150
cascade_min_out_epochs=50
cascade_max_cand_epochs=150
cascade_min_cand_epochs=50
cascade_num_candidate_groups=2
bit_fail_limit=1.00000000000000005551e-01
cascade_candidate_limit=1.00000000000000000000e+03
cascade_weight_multiplier=4.00000000000000022204e-01
cascade_activation_functions_count=10
cascade_activation_functions=3 5 7 8 10 11 14 15 16 17 
cascade_activation_steepnesses_count=4
cascade_activation_steepnesses=2.50000000000000000000e-01 5.00000000000000000000e-01 7.50000000000000000000e-01 1.00000000000000000000e+00 
layer_sizes=18 4 2 
scale_included=0
neurons (num_inputs, activation_function, activation_steepness)=(0, 0, 0.00000000000000000000e+00) (0, 0, 0.00000000000000000000e+00) (0, 0, 0.00000000000000000000e+00) (0, 0, 0.00000000000000000000e+00) (0, 0, 0.00000000000000000000e+00) (0, 0, 0.00000000000000000000e+00) (0, 0, 0.00000000000000000000e+00) (0, 0, 0.00000000000000000000e+00) (0, 0, 0.00000000000000000000e+00) (0, 0, 0.00000000000000000000e+00) (0, 0, 0.00000000000000000000e+00) (0, 0, 0.00000000000000000000e+00) (0, 0, 0.00000000000000000000e+00) (0, 0, 0.00000000000000000000e+00) (0, 0, 0.00000000000000000000e+00) (0, 0, 0.00000000000000000000e+00) (0, 0, 0.00000000000000000000e+00) (0, 0, 0.00000000000000000000e+00) (18, 6, 5.00000000000000000000e-01) (18, 6, 5.00000000000000000000e-01) (18, 6, 5.00000000000000000000e-01) (0, 6, 0.00000000000000000000e+00) (4, 4, 5.00000000000000000000e-01) (0, 4, 0.00000000000000000000e+00) 
connections (connected_to_neuron, weight)=(0, 7.68455429767177466971e+00) (1, 1.50000000000000000000e+03) (2, -1.02940329840569377851e+00) (3, 1.50000000000000000000e+03) (4, 1.38984016382034947235e+00) (5, 1.96351746147896166761e+00) (6, 1.97581414946184619197e+00) (7, 1.27445749646021644352e+00) (8, -7.23139042449818791880e+00) (9, -7.75002806876103234046e-01) (10, -1.27025759789720638082e+00) (11, -1.98053693978172573598e-01) (12, -1.26358515365428386579e-01) (13, -1.49099999928474426270e+03) (14, -1.48499999940395355225e+03) (15, -1.49099999928474426270e+03) (16, -1.49099999928474426270e+03) (17, -4.11908372555030588558e+00) (0, 2.79464286236462555735e+00) (1, 1.50000000000000000000e+03) (2, -1.80527754156870889890e-02) (3, 1.50000000000000000000e+03) (4, 2.67403879786325626711e+00) (5, 1.29375451597393809067e+00) (6, 1.28248686407290857225e+00) (7, -9.92385552218326139062e-01) (8, 1.50000000000000000000e+03) (9, -9.41350418250720744062e-01) (10, 1.25733439194392615512e+00) (11, -4.76651337268882868692e-01) (12, -2.65766326417666565174e-01) (13, 8.93948733608607959411e+00) (14, -1.30532192845458041575e+01) (15, 8.92057082985557947552e+00) (16, 8.92856474826388257782e+00) (17, -5.18461163097645671982e-01) (0, 2.82639487109681226684e+01) (1, 1.50000000000000000000e+03) (2, -2.59034860126512223033e+00) (3, 1.50000000000000000000e+03) (4, -3.41818758764355790092e+00) (5, -4.12821467324238522423e+00) (6, -4.13578533417648053216e+00) (7, -8.04115744473846838503e+00) (8, 7.17305922526727535171e+00) (9, -1.42639758353125021273e+01) (10, -7.00398187160522756045e+00) (11, -9.16750926547717348569e+00) (12, -8.80284579610346540335e+00) (13, -7.29597069764024475091e+00) (14, 2.57638646947236971130e+00) (15, -7.31329345450696521880e+00) (16, -7.30742079225634544315e+00) (17, 1.63576625166006150991e+00) (18, 1.76506029846412779705e+01) (19, 2.36244755618548047948e+01) (20, -1.11596160796026619977e+01) (21, 6.54719428389627100540e-02) 
