FANN_FLO_2.1
num_layers=3
learning_rate=0.700000
connection_rate=1.000000
network_type=0
learning_momentum=0.000000
training_algorithm=2
train_error_function=1
train_stop_function=1
cascade_output_change_fraction=0.010000
quickprop_decay=-0.000100
quickprop_mu=1.750000
rprop_increase_factor=1.200000
rprop_decrease_factor=0.500000
rprop_delta_min=0.000000
rprop_delta_max=50.000000
rprop_delta_zero=0.100000
cascade_output_stagnation_epochs=12
cascade_candidate_change_fraction=0.010000
cascade_candidate_stagnation_epochs=12
cascade_max_out_epochs=150
cascade_min_out_epochs=50
cascade_max_cand_epochs=150
cascade_min_cand_epochs=50
cascade_num_candidate_groups=2
bit_fail_limit=1.00000000000000005551e-01
cascade_candidate_limit=1.00000000000000000000e+03
cascade_weight_multiplier=4.00000000000000022204e-01
cascade_activation_functions_count=10
cascade_activation_functions=3 5 7 8 10 11 14 15 16 17 
cascade_activation_steepnesses_count=4
cascade_activation_steepnesses=2.50000000000000000000e-01 5.00000000000000000000e-01 7.50000000000000000000e-01 1.00000000000000000000e+00 
layer_sizes=6 4 2 
scale_included=0
neurons (num_inputs, activation_function, activation_steepness)=(0, 0, 0.00000000000000000000e+00) (0, 0, 0.00000000000000000000e+00) (0, 0, 0.00000000000000000000e+00) (0, 0, 0.00000000000000000000e+00) (0, 0, 0.00000000000000000000e+00) (0, 0, 0.00000000000000000000e+00) (6, 6, 5.00000000000000000000e-01) (6, 6, 5.00000000000000000000e-01) (6, 6, 5.00000000000000000000e-01) (0, 6, 0.00000000000000000000e+00) (4, 4, 5.00000000000000000000e-01) (0, 4, 0.00000000000000000000e+00) 
connections (connected_to_neuron, weight)=(0, -1.26490631639173738421e+01) (1, -5.26163913221076917637e-01) (2, -7.27201858963952618709e-01) (3, -6.37245428927220858295e-02) (4, -5.85562294819916950850e-01) (5, 5.40040319224226283978e+00) (0, 4.79009884339569036449e-01) (1, 8.52191329612046910569e-01) (2, 1.05648181359578408056e+00) (3, 8.44133294960170976751e-01) (4, 8.74886082722128199940e-01) (5, -1.23065528277236310717e-01) (0, 1.62235901198124055078e+00) (1, 1.74845691729931029812e+00) (2, 1.68946020836149402022e+00) (3, 1.88298641849677128590e+00) (4, 1.72013141673658709330e+00) (5, -2.35336531950058303053e+00) (6, -5.83093332521112817091e+00) (7, 1.80771397988788473654e+00) (8, 2.22235131993972601094e+01) (9, -3.20635784869244000461e+00) 
