FANN_FLO_2.1
num_layers=3
learning_rate=0.700000
connection_rate=1.000000
network_type=0
learning_momentum=0.000000
training_algorithm=2
train_error_function=1
train_stop_function=1
cascade_output_change_fraction=0.010000
quickprop_decay=-0.000100
quickprop_mu=1.750000
rprop_increase_factor=1.200000
rprop_decrease_factor=0.500000
rprop_delta_min=0.000000
rprop_delta_max=50.000000
rprop_delta_zero=0.100000
cascade_output_stagnation_epochs=12
cascade_candidate_change_fraction=0.010000
cascade_candidate_stagnation_epochs=12
cascade_max_out_epochs=150
cascade_min_out_epochs=50
cascade_max_cand_epochs=150
cascade_min_cand_epochs=50
cascade_num_candidate_groups=2
bit_fail_limit=1.00000000000000005551e-01
cascade_candidate_limit=1.00000000000000000000e+03
cascade_weight_multiplier=4.00000000000000022204e-01
cascade_activation_functions_count=10
cascade_activation_functions=3 5 7 8 10 11 14 15 16 17 
cascade_activation_steepnesses_count=4
cascade_activation_steepnesses=2.50000000000000000000e-01 5.00000000000000000000e-01 7.50000000000000000000e-01 1.00000000000000000000e+00 
layer_sizes=11 11 2 
scale_included=0
neurons (num_inputs, activation_function, activation_steepness)=(0, 0, 0.00000000000000000000e+00) (0, 0, 0.00000000000000000000e+00) (0, 0, 0.00000000000000000000e+00) (0, 0, 0.00000000000000000000e+00) (0, 0, 0.00000000000000000000e+00) (0, 0, 0.00000000000000000000e+00) (0, 0, 0.00000000000000000000e+00) (0, 0, 0.00000000000000000000e+00) (0, 0, 0.00000000000000000000e+00) (0, 0, 0.00000000000000000000e+00) (0, 0, 0.00000000000000000000e+00) (11, 6, 5.00000000000000000000e-01) (11, 6, 5.00000000000000000000e-01) (11, 6, 5.00000000000000000000e-01) (11, 6, 5.00000000000000000000e-01) (11, 6, 5.00000000000000000000e-01) (11, 6, 5.00000000000000000000e-01) (11, 6, 5.00000000000000000000e-01) (11, 6, 5.00000000000000000000e-01) (11, 6, 5.00000000000000000000e-01) (11, 6, 5.00000000000000000000e-01) (0, 6, 0.00000000000000000000e+00) (11, 6, 5.00000000000000000000e-01) (0, 6, 0.00000000000000000000e+00) 
connections (connected_to_neuron, weight)=(0, 1.43453299614757767699e+00) (1, 2.05912264181572074451e-01) (2, 1.83630446089702720203e-01) (3, 2.42471875740486314532e-01) (4, 2.33127879096466178455e-01) (5, 2.32425344736069696694e+01) (6, -4.83816400030314008873e-01) (7, -2.71035529741177594332e+00) (8, 1.12339039305115004908e+01) (9, 2.50128082257475981010e+00) (10, -6.96503770090995261155e-02) (0, -4.71740153293502550991e-01) (1, -1.02288051417803310672e-01) (2, -9.89798354241793604258e-03) (3, -3.63374565753692424508e-02) (4, -5.41461770448440279924e-02) (5, 3.24284300405518643995e-01) (6, 3.58424302794023486030e-01) (7, 8.29802277025524781529e-01) (8, 2.82245551765108071418e-01) (9, 5.29867159881025284740e-01) (10, -4.16026786271503912218e-01) (0, 2.05456256004404380633e+00) (1, 2.19542178353663935964e-01) (2, 1.37140992125865474049e-01) (3, 1.93870845279094178304e-01) (4, 2.34631407102939143483e-01) (5, -1.77554393315072123194e+00) (6, -1.86898420372797691158e+00) (7, 1.11534564842033603327e+01) (8, -2.00784272919851236594e+00) (9, -2.91195190167356443567e+00) (10, -3.70846602274461749349e-03) (0, -2.40846673835157121246e+00) (1, -2.13147446610749344287e-02) (2, -1.72584493468028316032e-01) (3, -2.03959357748252217979e-01) (4, -1.20914158234816895843e-01) (5, 4.78251643072839016657e-01) (6, 4.93788300047902195544e-01) (7, 9.40086542548960513166e-01) (8, 6.78846753247187462144e-01) (9, 9.70268379279173753815e-01) (10, -8.45154399363398090017e-01) (0, 2.02706124200111759137e+00) (1, 1.85101488608539671565e-01) (2, 2.40195656198681023463e-01) (3, 2.35226744789302971705e-01) (4, 2.02123278755367369319e-01) (5, -4.30888727060216303322e-01) (6, -4.07637141466087926656e-01) (7, 2.37845299630512885258e+00) (8, -4.86975380528774759448e-01) (9, -1.55459639453348952287e-01) (10, -2.21966308448277888088e-01) (0, -1.79083580727974867042e-01) (1, 3.73592900220928336719e-01) (2, 3.35766719762859489062e-01) (3, 3.78969358388958121875e-01) (4, 4.18289387707290793994e-01) (5, 7.05546707590149964062e+01) (6, -1.31136538298036953165e+00) (7, -7.15680135348689905328e+00) (8, 1.10918961203151553718e+01) (9, 5.48169929247227116775e+00) (10, 4.03583469212640011392e+00) (0, 3.03471980533301322058e-01) (1, 1.46032302680443315523e-01) (2, 1.43377165350149632372e-01) (3, 1.53895366045664339083e-01) (4, 2.59205530437659259491e-01) (5, -3.56322826152202065675e-01) (6, -4.33738247603023319154e-01) (7, -1.57000064250566206958e+00) (8, -3.40368708107948392261e-01) (9, -5.02541552299136218274e-01) (10, 2.77839842392811731120e-01) (0, 1.57861754419266713256e+01) (1, 2.04211992026894662011e-01) (2, 1.94677796961396309960e-01) (3, 2.12553453446953866113e-01) (4, 3.60331286491482882806e-01) (5, -1.40953099429182016067e+00) (6, -2.33449927104016463630e+00) (7, -1.37185165663543551240e+00) (8, -1.40221539209429013617e+00) (9, -1.37739498458680209581e+00) (10, 2.02943327166542974993e+00) (0, 4.32220870266713408370e+00) (1, 2.46494359412246288876e-01) (2, 2.07428163924270159146e-01) (3, 9.25517744207911552401e-02) (4, 2.57256365456634161770e-01) (5, 2.22819897662787536063e+00) (6, 1.43673069601597291900e+00) (7, -1.77699944494280481777e+00) (8, 3.85979401859893123117e+00) (9, 5.67078885205687832638e-01) (10, -1.39046614699650211699e-01) (0, -4.01173461159634259232e-01) (1, -7.46606280611952083381e-02) (2, -1.24461091081996808039e-01) (3, -6.80225854324300743814e-02) (4, -1.07136486987968307383e-01) (5, 3.56526341710590555234e-01) (6, 5.13317588683570691366e-01) (7, 9.39233918679126977835e-01) (8, 1.85216769756793464552e-01) (9, 3.43164078703047714658e-01) (10, -4.94119278979039788791e-01) (11, 3.59465721055492237745e-01) (12, 6.35395813159892242084e-01) (13, 4.55989407096397403318e-01) (14, 6.20677392402623762102e-01) (15, 3.76760524338155711188e-01) (16, 3.39697001827629574411e-01) (17, -5.78178021036281249156e-03) (18, -5.60663742938616094236e-01) (19, 3.03291861277579066769e-01) (20, 6.06698530174426431394e-01) (21, 2.03862637593038326100e-01) 
