FANN_FLO_2.1
num_layers=3
learning_rate=0.700000
connection_rate=1.000000
network_type=0
learning_momentum=0.000000
training_algorithm=2
train_error_function=1
train_stop_function=1
cascade_output_change_fraction=0.010000
quickprop_decay=-0.000100
quickprop_mu=1.750000
rprop_increase_factor=1.200000
rprop_decrease_factor=0.500000
rprop_delta_min=0.000000
rprop_delta_max=50.000000
rprop_delta_zero=0.100000
cascade_output_stagnation_epochs=12
cascade_candidate_change_fraction=0.010000
cascade_candidate_stagnation_epochs=12
cascade_max_out_epochs=150
cascade_min_out_epochs=50
cascade_max_cand_epochs=150
cascade_min_cand_epochs=50
cascade_num_candidate_groups=2
bit_fail_limit=1.00000000000000005551e-01
cascade_candidate_limit=1.00000000000000000000e+03
cascade_weight_multiplier=4.00000000000000022204e-01
cascade_activation_functions_count=10
cascade_activation_functions=3 5 7 8 10 11 14 15 16 17 
cascade_activation_steepnesses_count=4
cascade_activation_steepnesses=2.50000000000000000000e-01 5.00000000000000000000e-01 7.50000000000000000000e-01 1.00000000000000000000e+00 
layer_sizes=6 4 2 
scale_included=0
neurons (num_inputs, activation_function, activation_steepness)=(0, 0, 0.00000000000000000000e+00) (0, 0, 0.00000000000000000000e+00) (0, 0, 0.00000000000000000000e+00) (0, 0, 0.00000000000000000000e+00) (0, 0, 0.00000000000000000000e+00) (0, 0, 0.00000000000000000000e+00) (6, 6, 5.00000000000000000000e-01) (6, 6, 5.00000000000000000000e-01) (6, 6, 5.00000000000000000000e-01) (0, 6, 0.00000000000000000000e+00) (4, 4, 5.00000000000000000000e-01) (0, 4, 0.00000000000000000000e+00) 
connections (connected_to_neuron, weight)=(0, 2.73088889530774325820e+00) (1, 2.49366217029457226673e+00) (2, 4.17967068775153194338e+00) (3, 1.43381715786288008729e+01) (4, 5.41615886687827674528e-01) (5, -2.89363711941154688745e+00) (0, 2.91964325628064846896e+00) (1, 2.44045726877813562439e+00) (2, 1.82257707012883241049e+00) (3, 6.23031426719450642793e+00) (4, 3.77246743142200469112e-01) (5, -2.88185485054006962358e+00) (0, -3.85450749622247013093e-01) (1, -2.41861490286883473733e-01) (2, 1.40050369329939528029e-01) (3, 1.03289534912711022940e+00) (4, -2.62717455518998999064e-01) (5, 7.49417686700367680075e-01) (6, 7.70219758027414957979e+00) (7, 2.92358889757534541332e+01) (8, -6.79118892419809867533e+01) (9, -2.17701361354813149873e+00) 
