FANN_FLO_2.1
num_layers=3
learning_rate=0.700000
connection_rate=1.000000
network_type=0
learning_momentum=0.000000
training_algorithm=2
train_error_function=1
train_stop_function=1
cascade_output_change_fraction=0.010000
quickprop_decay=-0.000100
quickprop_mu=1.750000
rprop_increase_factor=1.200000
rprop_decrease_factor=0.500000
rprop_delta_min=0.000000
rprop_delta_max=50.000000
rprop_delta_zero=0.100000
cascade_output_stagnation_epochs=12
cascade_candidate_change_fraction=0.010000
cascade_candidate_stagnation_epochs=12
cascade_max_out_epochs=150
cascade_min_out_epochs=50
cascade_max_cand_epochs=150
cascade_min_cand_epochs=50
cascade_num_candidate_groups=2
bit_fail_limit=1.00000000000000005551e-01
cascade_candidate_limit=1.00000000000000000000e+03
cascade_weight_multiplier=4.00000000000000022204e-01
cascade_activation_functions_count=10
cascade_activation_functions=3 5 7 8 10 11 14 15 16 17 
cascade_activation_steepnesses_count=4
cascade_activation_steepnesses=2.50000000000000000000e-01 5.00000000000000000000e-01 7.50000000000000000000e-01 1.00000000000000000000e+00 
layer_sizes=6 4 2 
scale_included=0
neurons (num_inputs, activation_function, activation_steepness)=(0, 0, 0.00000000000000000000e+00) (0, 0, 0.00000000000000000000e+00) (0, 0, 0.00000000000000000000e+00) (0, 0, 0.00000000000000000000e+00) (0, 0, 0.00000000000000000000e+00) (0, 0, 0.00000000000000000000e+00) (6, 6, 5.00000000000000000000e-01) (6, 6, 5.00000000000000000000e-01) (6, 6, 5.00000000000000000000e-01) (0, 6, 0.00000000000000000000e+00) (4, 4, 5.00000000000000000000e-01) (0, 4, 0.00000000000000000000e+00) 
connections (connected_to_neuron, weight)=(0, 3.28778613221963622593e+00) (1, -1.09199054504220760542e+00) (2, -1.54737672971653017484e+00) (3, -1.52893968800765311933e+00) (4, -1.21272596575889068937e+00) (5, 7.22491889592032698886e-01) (0, 3.35322520000060730894e+00) (1, -1.11403568054025448042e+00) (2, -1.58467119203971895658e+00) (3, -1.57543276007038390851e+00) (4, -1.17625501610907989836e+00) (5, 7.48614340420584944980e-01) (0, -2.81789839161678878909e+00) (1, 6.60256970091196992989e-01) (2, 6.97862019277657230631e-01) (3, 7.17796426563920175745e-01) (4, 8.01013165560582551805e-01) (5, 1.18913522768507973204e-01) (6, -2.24792292230733359304e+01) (7, -2.24092918896087134328e+01) (8, 3.40276886606844464200e-01) (9, -2.53921739274809987741e-01) 
