FANN_FLO_2.1
num_layers=3
learning_rate=0.700000
connection_rate=1.000000
network_type=0
learning_momentum=0.000000
training_algorithm=2
train_error_function=1
train_stop_function=1
cascade_output_change_fraction=0.010000
quickprop_decay=-0.000100
quickprop_mu=1.750000
rprop_increase_factor=1.200000
rprop_decrease_factor=0.500000
rprop_delta_min=0.000000
rprop_delta_max=50.000000
rprop_delta_zero=0.100000
cascade_output_stagnation_epochs=12
cascade_candidate_change_fraction=0.010000
cascade_candidate_stagnation_epochs=12
cascade_max_out_epochs=150
cascade_min_out_epochs=50
cascade_max_cand_epochs=150
cascade_min_cand_epochs=50
cascade_num_candidate_groups=2
bit_fail_limit=1.00000000000000005551e-01
cascade_candidate_limit=1.00000000000000000000e+03
cascade_weight_multiplier=4.00000000000000022204e-01
cascade_activation_functions_count=10
cascade_activation_functions=3 5 7 8 10 11 14 15 16 17 
cascade_activation_steepnesses_count=4
cascade_activation_steepnesses=2.50000000000000000000e-01 5.00000000000000000000e-01 7.50000000000000000000e-01 1.00000000000000000000e+00 
layer_sizes=8 4 2 
scale_included=0
neurons (num_inputs, activation_function, activation_steepness)=(0, 0, 0.00000000000000000000e+00) (0, 0, 0.00000000000000000000e+00) (0, 0, 0.00000000000000000000e+00) (0, 0, 0.00000000000000000000e+00) (0, 0, 0.00000000000000000000e+00) (0, 0, 0.00000000000000000000e+00) (0, 0, 0.00000000000000000000e+00) (0, 0, 0.00000000000000000000e+00) (8, 6, 5.00000000000000000000e-01) (8, 6, 5.00000000000000000000e-01) (8, 6, 5.00000000000000000000e-01) (0, 6, 0.00000000000000000000e+00) (4, 4, 5.00000000000000000000e-01) (0, 4, 0.00000000000000000000e+00) 
connections (connected_to_neuron, weight)=(0, 1.30769896111501249258e-01) (1, -2.85388150788638528255e+00) (2, -3.73564027903912698747e+00) (3, 4.39451368439551970368e+00) (4, 1.50000000000000000000e+03) (5, -2.13000336279249813387e+00) (6, 6.41942154708239609562e+00) (7, 9.49953808824501311214e-01) (0, -1.24237927426251548724e+00) (1, -8.27335722693633215385e+02) (2, 2.26638514138410984700e+00) (3, 5.44680224664068912688e+00) (4, 1.50000000000000000000e+03) (5, 1.72220450046569228952e+00) (6, 2.99795889229625034389e+00) (7, -3.69942173638080573639e+00) (0, 1.28034016441406689468e-01) (1, 5.02520126579112691445e+00) (2, -1.48183325210242244907e+00) (3, 1.22445842105491831120e+00) (4, 1.50000000000000000000e+03) (5, -3.90977335857113388329e+01) (6, 1.25147237848520482828e+01) (7, -1.04248558296695170711e+00) (8, -1.25137542798681788980e+01) (9, 1.97870332156358514908e+01) (10, 1.15094332586947416530e+01) (11, -1.89221403280272193470e+00) 
