FANN_FLO_2.1
num_layers=3
learning_rate=0.700000
connection_rate=1.000000
network_type=0
learning_momentum=0.000000
training_algorithm=2
train_error_function=1
train_stop_function=1
cascade_output_change_fraction=0.010000
quickprop_decay=-0.000100
quickprop_mu=1.750000
rprop_increase_factor=1.200000
rprop_decrease_factor=0.500000
rprop_delta_min=0.000000
rprop_delta_max=50.000000
rprop_delta_zero=0.100000
cascade_output_stagnation_epochs=12
cascade_candidate_change_fraction=0.010000
cascade_candidate_stagnation_epochs=12
cascade_max_out_epochs=150
cascade_min_out_epochs=50
cascade_max_cand_epochs=150
cascade_min_cand_epochs=50
cascade_num_candidate_groups=2
bit_fail_limit=1.00000000000000005551e-01
cascade_candidate_limit=1.00000000000000000000e+03
cascade_weight_multiplier=4.00000000000000022204e-01
cascade_activation_functions_count=10
cascade_activation_functions=3 5 7 8 10 11 14 15 16 17 
cascade_activation_steepnesses_count=4
cascade_activation_steepnesses=2.50000000000000000000e-01 5.00000000000000000000e-01 7.50000000000000000000e-01 1.00000000000000000000e+00 
layer_sizes=8 4 2 
scale_included=0
neurons (num_inputs, activation_function, activation_steepness)=(0, 0, 0.00000000000000000000e+00) (0, 0, 0.00000000000000000000e+00) (0, 0, 0.00000000000000000000e+00) (0, 0, 0.00000000000000000000e+00) (0, 0, 0.00000000000000000000e+00) (0, 0, 0.00000000000000000000e+00) (0, 0, 0.00000000000000000000e+00) (0, 0, 0.00000000000000000000e+00) (8, 6, 5.00000000000000000000e-01) (8, 6, 5.00000000000000000000e-01) (8, 6, 5.00000000000000000000e-01) (0, 6, 0.00000000000000000000e+00) (4, 4, 5.00000000000000000000e-01) (0, 4, 0.00000000000000000000e+00) 
connections (connected_to_neuron, weight)=(0, 1.27373398126820580600e+00) (1, 1.24167772163999323709e+00) (2, 2.24072971817209332102e+00) (3, 2.24028206765009452184e+00) (4, 1.04934782862638931178e+00) (5, 1.52863810443238645753e+00) (6, 1.53463307974251805810e+00) (7, -1.89302639724006271926e+00) (0, 8.15697068167995098520e+00) (1, 6.59173854254659108420e+00) (2, -7.55152123554941390182e+00) (3, -7.80749173426081988225e+00) (4, -2.24989764578103912385e+00) (5, -4.20225774463826212468e+02) (6, -2.34841655536025797346e+01) (7, -1.38183712551299175963e+00) (0, -3.32955563083549899162e+00) (1, 7.37735242041791838830e+00) (2, 5.21464299350381679687e+02) (3, 4.58714513415550868558e+02) (4, -3.52056961769566933995e+00) (5, -3.98136138741317757717e-01) (6, 4.42908812093823822664e-01) (7, 1.05322486433685069684e+00) (8, 5.44855441685496373339e+01) (9, 1.82962075210011043680e+01) (10, -1.41463302742939092127e+01) (11, -1.08078011118690442416e+00) 
