FANN_FLO_2.1
num_layers=3
learning_rate=0.700000
connection_rate=1.000000
network_type=0
learning_momentum=0.000000
training_algorithm=2
train_error_function=1
train_stop_function=1
cascade_output_change_fraction=0.010000
quickprop_decay=-0.000100
quickprop_mu=1.750000
rprop_increase_factor=1.200000
rprop_decrease_factor=0.500000
rprop_delta_min=0.000000
rprop_delta_max=50.000000
rprop_delta_zero=0.100000
cascade_output_stagnation_epochs=12
cascade_candidate_change_fraction=0.010000
cascade_candidate_stagnation_epochs=12
cascade_max_out_epochs=150
cascade_min_out_epochs=50
cascade_max_cand_epochs=150
cascade_min_cand_epochs=50
cascade_num_candidate_groups=2
bit_fail_limit=1.00000000000000005551e-01
cascade_candidate_limit=1.00000000000000000000e+03
cascade_weight_multiplier=4.00000000000000022204e-01
cascade_activation_functions_count=10
cascade_activation_functions=3 5 7 8 10 11 14 15 16 17 
cascade_activation_steepnesses_count=4
cascade_activation_steepnesses=2.50000000000000000000e-01 5.00000000000000000000e-01 7.50000000000000000000e-01 1.00000000000000000000e+00 
layer_sizes=7 4 2 
scale_included=0
neurons (num_inputs, activation_function, activation_steepness)=(0, 0, 0.00000000000000000000e+00) (0, 0, 0.00000000000000000000e+00) (0, 0, 0.00000000000000000000e+00) (0, 0, 0.00000000000000000000e+00) (0, 0, 0.00000000000000000000e+00) (0, 0, 0.00000000000000000000e+00) (0, 0, 0.00000000000000000000e+00) (7, 6, 5.00000000000000000000e-01) (7, 6, 5.00000000000000000000e-01) (7, 6, 5.00000000000000000000e-01) (0, 6, 0.00000000000000000000e+00) (4, 4, 5.00000000000000000000e-01) (0, 4, 0.00000000000000000000e+00) 
connections (connected_to_neuron, weight)=(0, 4.87412184677438631297e+00) (1, 1.99595959875153705632e+00) (2, 1.86645150325606112851e+00) (3, 5.08243512239779349215e+00) (4, -2.66877071882859473462e-01) (5, -1.34767588309517760692e+00) (6, -2.69718985350215634256e+00) (0, 1.08401136119831686955e+00) (1, 2.15188480171727380963e+00) (2, 2.16892533130357678672e+00) (3, 3.71487116587006560575e-01) (4, 3.55282023304977767619e-01) (5, -2.62555412683814076713e-02) (6, -1.76338588300822141086e+00) (0, 2.05278640067007334125e+00) (1, 1.24509336550572502489e+00) (2, 1.22032953474443717212e+00) (3, -3.36128462463548594030e+00) (4, 1.15865883678945591484e+00) (5, 1.42323838564022011610e+01) (6, -1.15491026932399667992e-01) (7, 8.10146742514443474192e+00) (8, 6.33486975987563027957e+00) (9, 6.28963870452748974316e+00) (10, -3.01869639479579721097e+00) 
