FANN_FLO_2.1
num_layers=3
learning_rate=0.700000
connection_rate=1.000000
network_type=0
learning_momentum=0.000000
training_algorithm=2
train_error_function=1
train_stop_function=1
cascade_output_change_fraction=0.010000
quickprop_decay=-0.000100
quickprop_mu=1.750000
rprop_increase_factor=1.200000
rprop_decrease_factor=0.500000
rprop_delta_min=0.000000
rprop_delta_max=50.000000
rprop_delta_zero=0.100000
cascade_output_stagnation_epochs=12
cascade_candidate_change_fraction=0.010000
cascade_candidate_stagnation_epochs=12
cascade_max_out_epochs=150
cascade_min_out_epochs=50
cascade_max_cand_epochs=150
cascade_min_cand_epochs=50
cascade_num_candidate_groups=2
bit_fail_limit=1.00000000000000005551e-01
cascade_candidate_limit=1.00000000000000000000e+03
cascade_weight_multiplier=4.00000000000000022204e-01
cascade_activation_functions_count=10
cascade_activation_functions=3 5 7 8 10 11 14 15 16 17 
cascade_activation_steepnesses_count=4
cascade_activation_steepnesses=2.50000000000000000000e-01 5.00000000000000000000e-01 7.50000000000000000000e-01 1.00000000000000000000e+00 
layer_sizes=16 11 2 
scale_included=0
neurons (num_inputs, activation_function, activation_steepness)=(0, 0, 0.00000000000000000000e+00) (0, 0, 0.00000000000000000000e+00) (0, 0, 0.00000000000000000000e+00) (0, 0, 0.00000000000000000000e+00) (0, 0, 0.00000000000000000000e+00) (0, 0, 0.00000000000000000000e+00) (0, 0, 0.00000000000000000000e+00) (0, 0, 0.00000000000000000000e+00) (0, 0, 0.00000000000000000000e+00) (0, 0, 0.00000000000000000000e+00) (0, 0, 0.00000000000000000000e+00) (0, 0, 0.00000000000000000000e+00) (0, 0, 0.00000000000000000000e+00) (0, 0, 0.00000000000000000000e+00) (0, 0, 0.00000000000000000000e+00) (0, 0, 0.00000000000000000000e+00) (16, 6, 5.00000000000000000000e-01) (16, 6, 5.00000000000000000000e-01) (16, 6, 5.00000000000000000000e-01) (16, 6, 5.00000000000000000000e-01) (16, 6, 5.00000000000000000000e-01) (16, 6, 5.00000000000000000000e-01) (16, 6, 5.00000000000000000000e-01) (16, 6, 5.00000000000000000000e-01) (16, 6, 5.00000000000000000000e-01) (16, 6, 5.00000000000000000000e-01) (0, 6, 0.00000000000000000000e+00) (11, 6, 5.00000000000000000000e-01) (0, 6, 0.00000000000000000000e+00) 
connections (connected_to_neuron, weight)=(0, -1.11130185263349834379e-01) (1, 5.69282940769014422777e-01) (2, 7.38538681709585254076e-01) (3, 6.26272848987398322862e-01) (4, 5.67761755728540484789e-01) (5, -2.29542596794573476870e+01) (6, 5.99174765975518042183e+00) (7, -2.44975802628449290665e+00) (8, 2.45074170815839442739e+00) (9, 2.38836974860950856936e+00) (10, 3.61553422464169083028e+00) (11, -1.71981964890804439605e+00) (12, 9.34187033644353626016e+00) (13, 7.30361470004504020892e-01) (14, 9.81403720145384141915e+01) (15, 4.77797869084676296580e+00) (0, -2.91180273194346099785e+01) (1, -8.11154419659276398891e-02) (2, -1.08798953342308560299e-01) (3, -3.94847864388125774360e-02) (4, -5.45216078041689949929e-02) (5, -4.49149179538124165845e+00) (6, 7.62150761244178909237e-01) (7, 3.14306395653474668350e+00) (8, 1.53903550723817050816e+00) (9, -4.91108908633508001174e+00) (10, 5.75502095420663017933e+00) (11, -2.14697853817676254096e-01) (12, -5.18678575686410625600e-01) (13, -1.10841838162525396783e+00) (14, -2.11055462751806999222e+00) (15, 5.70150159028883662948e-01) (0, -1.13153921438539684097e+00) (1, 1.94284322945482423872e-01) (2, 2.93493735877877914842e-01) (3, 3.76400853781109823171e-01) (4, 3.81537894992238058034e-01) (5, -5.05160361331581455602e+01) (6, 4.12248419643179957461e+01) (7, -5.59064796196245161752e+00) (8, -3.02653504305797071972e-01) (9, 5.11904327636125255907e+00) (10, 1.37893755199680190238e+00) (11, 1.97329416344645536263e+00) (12, 4.67677246934566248626e+00) (13, -1.34518234358450183841e+00) (14, -3.25259995301859117234e+00) (15, 5.60366107466265095383e+00) (0, -2.27954633538320514674e+01) (1, -3.52264667015539212347e-01) (2, -2.37777626227604010900e-01) (3, -2.01198643159137796621e-01) (4, -3.62749947320686383367e-01) (5, -1.47500000000000000000e+03) (6, 1.23623876035508950544e+00) (7, 4.58500039323576658035e+00) (8, -3.54868665406466221590e-01) (9, -9.90492152315225737880e+00) (10, 2.11677866486403964963e-01) (11, -1.68066476713741175253e+00) (12, -2.80453561662565586943e+00) (13, -1.30863019789846712904e+00) (14, -2.36144725007604572298e+00) (15, 1.99936207643673324874e+00) (0, 2.41318579346549411113e+00) (1, 1.75490060277257692301e-01) (2, 6.54893307164058635639e-02) (3, 2.34541980698452744158e-02) (4, 1.76853412218366395914e-01) (5, 1.50000000000000000000e+03) (6, -2.32250400430764258886e+00) (7, 1.45884079069544068119e+01) (8, 7.68835508545573254047e-01) (9, 3.55571893800412430764e-01) (10, -1.36909207335055804755e+00) (11, 1.51890541340336038267e+00) (12, 1.44301737059387691353e+00) (13, 3.37866335648202120723e+00) (14, 1.43394377608134671043e+00) (15, 2.45324737866604664083e-01) (0, 4.19142020837657724996e+00) (1, 3.71871677139169853898e-01) (2, 3.66022606292135399553e-01) (3, 3.40020579197771233293e-01) (4, 3.91036246815092247697e-01) (5, 4.11256895860203375292e+00) (6, 5.32112212639015979221e+02) (7, 9.53339403279396435664e+00) (8, 6.91389723927179744578e+00) (9, 2.51630349443394285558e+00) (10, 7.19986439095405827970e+00) (11, 6.99511826951520543361e+00) (12, 1.23595615778498366666e+01) (13, -5.47445063765318429283e-01) (14, 9.92947666066998579915e-01) (15, -3.18015484223481159631e+00) (0, 6.09970975268563919691e-01) (1, 1.70433498582834826521e-03) (2, -2.30501519922257751272e-02) (3, -3.38357763771058028812e-02) (4, 4.54952640052794510250e-02) (5, -8.03266610956800164445e+00) (6, 1.06128506759407592597e+00) (7, -1.83948845250282821961e-01) (8, 3.11618929547453960005e-01) (9, -1.94817466101121627986e+00) (10, 2.42323693674378759511e+00) (11, -7.72425195980697837372e-02) (12, -6.99974411942824031874e-02) (13, -1.95513184601341594160e-01) (14, -2.09334762804142870962e+00) (15, -1.46510025929731779737e-01) (0, 5.62439694510544807571e+00) (1, 4.25115997516560650826e-01) (2, 5.13012411617684405130e-01) (3, 6.08184183561253144390e-01) (4, 5.84041396700787029950e-01) (5, 4.32461794246172281930e+00) (6, 9.64156922377004832470e+01) (7, 5.12397094464718083628e+00) (8, 6.91311549545009462747e+00) (9, 3.70025527679044596852e+00) (10, 7.93922535919552618822e+00) (11, 6.94218184311440733580e+00) (12, 1.23467455733947470975e+01) (13, 2.75372657673541070267e+01) (14, -4.83170814682046412258e+00) (15, -3.60148380900515974190e+00) (0, -1.25749235096229021735e+01) (1, -4.89455444001649156438e-02) (2, -2.24247051515529122190e-01) (3, -7.02654403829074403198e-02) (4, -1.43469890692183910108e-01) (5, -9.80267228213376862200e-01) (6, 8.25623484506677485228e+00) (7, 1.86633511237988158893e-01) (8, -2.48906340515558655024e-02) (9, -8.34673228210865758570e-01) (10, 1.00516628109875028052e+00) (11, 3.04016339655032788447e-02) (12, -8.74763755792676533929e+00) (13, 3.59409878614669442420e-01) (14, -3.04843113609404836595e+00) (15, -8.73120206863513659279e-01) (0, 6.22951544458784312042e+00) (1, 4.50182380423793548907e-01) (2, 4.54060310766944641436e-01) (3, 5.14672721073873740139e-01) (4, 4.03665652767667526568e-01) (5, 3.83864544351216840923e+00) (6, 2.42199507193504324221e+01) (7, -1.11229321243464385205e+00) (8, 6.01532710205309850693e+00) (9, -1.32126136561379148304e+01) (10, 6.96504053669700251561e+00) (11, 1.24416199399318951890e+01) (12, 6.45997011384978669923e+00) (13, 1.67736922211493997281e+01) (14, -1.02146024484411004352e+01) (15, -3.39847583438554456947e+00) (16, -9.89264687823429023084e-02) (17, 1.37338308832909516966e+00) (18, -7.13506360054741300969e-02) (19, -1.67499977149505729912e+00) (20, 7.80971492648429133077e-01) (21, -1.43229725579358008192e-01) (22, 3.22148535373903033285e-01) (23, -2.84846430142850437495e-01) (24, 1.09376855377290471694e+00) (25, -1.40019335299787994753e-01) (26, 7.02913116471006960140e-01) 
