FANN_FLO_2.1
num_layers=3
learning_rate=0.700000
connection_rate=1.000000
network_type=0
learning_momentum=0.000000
training_algorithm=2
train_error_function=1
train_stop_function=1
cascade_output_change_fraction=0.010000
quickprop_decay=-0.000100
quickprop_mu=1.750000
rprop_increase_factor=1.200000
rprop_decrease_factor=0.500000
rprop_delta_min=0.000000
rprop_delta_max=50.000000
rprop_delta_zero=0.100000
cascade_output_stagnation_epochs=12
cascade_candidate_change_fraction=0.010000
cascade_candidate_stagnation_epochs=12
cascade_max_out_epochs=150
cascade_min_out_epochs=50
cascade_max_cand_epochs=150
cascade_min_cand_epochs=50
cascade_num_candidate_groups=2
bit_fail_limit=1.00000000000000005551e-01
cascade_candidate_limit=1.00000000000000000000e+03
cascade_weight_multiplier=4.00000000000000022204e-01
cascade_activation_functions_count=10
cascade_activation_functions=3 5 7 8 10 11 14 15 16 17 
cascade_activation_steepnesses_count=4
cascade_activation_steepnesses=2.50000000000000000000e-01 5.00000000000000000000e-01 7.50000000000000000000e-01 1.00000000000000000000e+00 
layer_sizes=14 11 2 
scale_included=0
neurons (num_inputs, activation_function, activation_steepness)=(0, 0, 0.00000000000000000000e+00) (0, 0, 0.00000000000000000000e+00) (0, 0, 0.00000000000000000000e+00) (0, 0, 0.00000000000000000000e+00) (0, 0, 0.00000000000000000000e+00) (0, 0, 0.00000000000000000000e+00) (0, 0, 0.00000000000000000000e+00) (0, 0, 0.00000000000000000000e+00) (0, 0, 0.00000000000000000000e+00) (0, 0, 0.00000000000000000000e+00) (0, 0, 0.00000000000000000000e+00) (0, 0, 0.00000000000000000000e+00) (0, 0, 0.00000000000000000000e+00) (0, 0, 0.00000000000000000000e+00) (14, 6, 5.00000000000000000000e-01) (14, 6, 5.00000000000000000000e-01) (14, 6, 5.00000000000000000000e-01) (14, 6, 5.00000000000000000000e-01) (14, 6, 5.00000000000000000000e-01) (14, 6, 5.00000000000000000000e-01) (14, 6, 5.00000000000000000000e-01) (14, 6, 5.00000000000000000000e-01) (14, 6, 5.00000000000000000000e-01) (14, 6, 5.00000000000000000000e-01) (0, 6, 0.00000000000000000000e+00) (11, 6, 5.00000000000000000000e-01) (0, 6, 0.00000000000000000000e+00) 
connections (connected_to_neuron, weight)=(0, -3.53004154718169538274e-01) (1, -1.27888648920831266009e-02) (2, 5.20383388585272249616e-02) (3, -1.65269105845269742572e-02) (4, 3.44454915112677589883e-02) (5, 5.64178960012373872934e-02) (6, -1.07120303233838448653e-01) (7, 1.14733353321802927782e-01) (8, -3.63860891325306426425e-02) (9, 2.33057257621162479400e-02) (10, 1.69095601563080277785e+00) (11, 8.88620740729237912348e-02) (12, 2.11105338838788458844e-01) (13, -1.31508465552562081591e+00) (0, -2.14520629514441563135e-01) (1, 3.68863088945698067156e-02) (2, 7.85622788528750060077e-02) (3, -3.73992504616427953734e-02) (4, -6.76683330972840807460e-02) (5, -1.08211315250174730518e-01) (6, 4.63863685210552767479e-01) (7, 2.13038930723849467830e-01) (8, 5.29357553035557440446e-02) (9, -2.12098198834129142432e-01) (10, 1.57298372523825036318e+00) (11, 2.27419531914612978521e-03) (12, 1.89031872828793523489e-01) (13, -1.24902450247194751753e+00) (0, -3.54333944178615189990e-01) (1, 1.65074427283130285848e-02) (2, -1.05488799824682830120e-01) (3, 1.31110359585604949184e-02) (4, -7.04938288175739335983e-02) (5, -2.59237146779965732524e-01) (6, 2.64090628133585927917e-02) (7, -5.77222599130928631928e-02) (8, -1.49561797853420913595e-01) (9, 1.62015401855265722686e-01) (10, 2.05197428316940833071e+00) (11, 7.28678045316184241909e-02) (12, -4.53189439870056998139e-01) (13, -8.84724084710241998053e-01) (0, 8.88476541179046397367e-01) (1, 1.44531920439278066537e-01) (2, 2.33173973745380708200e-01) (3, 1.99491567796741736673e-01) (4, 9.68598275246967815866e-02) (5, 4.19788821582582072356e-02) (6, 3.48958727043000849211e-01) (7, -1.74124689743825222799e-01) (8, 6.24724185763826100892e-02) (9, -2.49768024706475022523e-01) (10, -2.61673015389323015967e+00) (11, -2.61568712563985950048e-01) (12, -1.20856964084288986960e+00) (13, 6.81830931587821043038e-01) (0, -5.81403638407631428997e-01) (1, -4.34357134349462464806e-02) (2, 3.03891057424429227030e-02) (3, -7.66273757166978375377e-02) (4, -6.48542588300821121194e-02) (5, 1.27197411871385723803e-01) (6, 1.02974528387662611628e+00) (7, 6.36618012244442033065e-01) (8, 1.03104940150304733026e-02) (9, -4.29797461799922120296e-01) (10, -7.23721947357783346177e+00) (11, 1.19701768157824461891e-01) (12, 2.29133773073188856673e-01) (13, 4.16797557976125221391e-01) (0, 1.55455326375551883267e+00) (1, 3.31393028907624120905e-01) (2, 2.37877640240040683084e-01) (3, 2.34306804202643298440e-01) (4, 2.03135851137486361795e-01) (5, 3.86990947256022566059e-01) (6, 7.61680500057441367545e+00) (7, 1.23581475765771342523e+00) (8, 1.27040257878607253106e-02) (9, 4.93390531595295001033e-01) (10, -8.68188355525328780971e+00) (11, 2.90611618462651100092e-01) (12, 4.25313649361264545234e+00) (13, 2.76515954179172984695e+00) (0, -1.92950176804608158898e-01) (1, 2.46900022047072842390e-01) (2, 3.02022069709808160809e-01) (3, 2.11599208431750868131e-01) (4, 2.93168298917323877362e-01) (5, 8.22468973023003147027e-01) (6, 1.42558522057479084566e+01) (7, 4.49819910863342387053e-01) (8, -8.25695280177425994239e-01) (9, -2.73061906263022802221e+00) (10, -1.64332908629440077597e+00) (11, -1.11729152693897404447e+00) (12, -2.19250006957459264711e+00) (13, -1.41408726908544402079e+00) (0, 9.41566877440406635458e+00) (1, 3.15369306857309683600e-01) (2, 4.77769723887167319099e-01) (3, 4.78123492355070456306e-01) (4, 4.74226674790106161872e-01) (5, -2.18063919950115286950e-01) (6, 4.92531997409770383456e-01) (7, -4.51534917523662149286e-01) (8, 1.05390800114654015207e-01) (9, -9.36406732257455298729e-01) (10, -7.14074292601767268707e+00) (11, -7.27847165587778621720e-01) (12, -7.83612009120896790826e-01) (13, 6.38530084670041131467e-01) (0, 8.70140519959885366807e-02) (1, -1.05508958965145598768e-02) (2, 1.23726835283676464550e-01) (3, 1.83326413664261222980e-01) (4, 3.56481986076034110256e-02) (5, -4.37687717407989063112e-02) (6, -2.64536881579936029515e-03) (7, 6.03769152491052119025e-02) (8, -5.32472597095653490951e-02) (9, -1.25777199153945529186e-01) (10, -8.78876953277640593498e-01) (11, -1.63803638972800702511e-01) (12, -1.37608624252779337960e-01) (13, 3.82601606146587003288e-01) (0, -5.27039161680864176596e-01) (1, -1.81626580399245583786e-02) (2, -5.23728482168883541226e-02) (3, -4.51679952186316707730e-02) (4, 1.39809049922257101761e-02) (5, -4.61987981894528831894e-02) (6, 1.72823863148871381679e-01) (7, 2.02601094865756919949e-01) (8, -2.10988922221812397195e-02) (9, 1.73777822667156023329e-01) (10, 1.26185944823584783592e+00) (11, -1.88177234227874488892e-02) (12, 1.52479699835411874886e-01) (13, -1.35951447276849424206e+00) (14, 6.22055139726480077478e-01) (15, 4.78678001296783395269e-01) (16, 3.95898731439865370074e-01) (17, -1.98435737961334096591e-01) (18, -4.18354927601098047774e-01) (19, 1.16522107514129702466e+00) (20, 1.01610063489330340603e-01) (21, -1.04521368825953822612e-01) (22, -2.86140496688359557975e-01) (23, 3.74180207426333621967e-01) (24, 2.75926928943999782984e-01) 
