FANN_FLO_2.1
num_layers=3
learning_rate=0.700000
connection_rate=1.000000
network_type=0
learning_momentum=0.000000
training_algorithm=2
train_error_function=1
train_stop_function=1
cascade_output_change_fraction=0.010000
quickprop_decay=-0.000100
quickprop_mu=1.750000
rprop_increase_factor=1.200000
rprop_decrease_factor=0.500000
rprop_delta_min=0.000000
rprop_delta_max=50.000000
rprop_delta_zero=0.100000
cascade_output_stagnation_epochs=12
cascade_candidate_change_fraction=0.010000
cascade_candidate_stagnation_epochs=12
cascade_max_out_epochs=150
cascade_min_out_epochs=50
cascade_max_cand_epochs=150
cascade_min_cand_epochs=50
cascade_num_candidate_groups=2
bit_fail_limit=1.00000000000000005551e-01
cascade_candidate_limit=1.00000000000000000000e+03
cascade_weight_multiplier=4.00000000000000022204e-01
cascade_activation_functions_count=10
cascade_activation_functions=3 5 7 8 10 11 14 15 16 17 
cascade_activation_steepnesses_count=4
cascade_activation_steepnesses=2.50000000000000000000e-01 5.00000000000000000000e-01 7.50000000000000000000e-01 1.00000000000000000000e+00 
layer_sizes=16 11 2 
scale_included=0
neurons (num_inputs, activation_function, activation_steepness)=(0, 0, 0.00000000000000000000e+00) (0, 0, 0.00000000000000000000e+00) (0, 0, 0.00000000000000000000e+00) (0, 0, 0.00000000000000000000e+00) (0, 0, 0.00000000000000000000e+00) (0, 0, 0.00000000000000000000e+00) (0, 0, 0.00000000000000000000e+00) (0, 0, 0.00000000000000000000e+00) (0, 0, 0.00000000000000000000e+00) (0, 0, 0.00000000000000000000e+00) (0, 0, 0.00000000000000000000e+00) (0, 0, 0.00000000000000000000e+00) (0, 0, 0.00000000000000000000e+00) (0, 0, 0.00000000000000000000e+00) (0, 0, 0.00000000000000000000e+00) (0, 0, 0.00000000000000000000e+00) (16, 6, 5.00000000000000000000e-01) (16, 6, 5.00000000000000000000e-01) (16, 6, 5.00000000000000000000e-01) (16, 6, 5.00000000000000000000e-01) (16, 6, 5.00000000000000000000e-01) (16, 6, 5.00000000000000000000e-01) (16, 6, 5.00000000000000000000e-01) (16, 6, 5.00000000000000000000e-01) (16, 6, 5.00000000000000000000e-01) (16, 6, 5.00000000000000000000e-01) (0, 6, 0.00000000000000000000e+00) (11, 6, 5.00000000000000000000e-01) (0, 6, 0.00000000000000000000e+00) 
connections (connected_to_neuron, weight)=(0, -3.88582118141821410973e+01) (1, -3.58355453835548648511e-02) (2, -8.10810065494601411862e-02) (3, -1.78438451014620302892e-01) (4, -8.87712946759288829002e-02) (5, 4.75769881952738504793e+00) (6, 1.29898070880595395415e+00) (7, -4.74878396148092285500e+00) (8, 1.01216225662911600836e+01) (9, -4.83174301632914193760e+00) (10, -1.77310491582159857060e+00) (11, 6.23634238757344228077e+00) (12, -9.91590014849799672447e+00) (13, -1.02082754421652701637e+01) (14, -1.97251848272247287674e+00) (15, -8.58150760690184988277e+00) (0, -1.72384737725277070730e-01) (1, -1.27835731183521695425e-02) (2, -1.07358166125917059430e-01) (3, -5.34658238043699343689e-03) (4, -1.19933677015208878247e-01) (5, 1.22714141162109893757e-01) (6, -1.58530625799468520565e-02) (7, 1.95046803439808055791e-02) (8, 3.89485796953637830597e-01) (9, 6.92056147131671767214e-02) (10, 2.34309753201462633854e+00) (11, 1.11611199533643912218e+00) (12, -2.44634593921490145485e-01) (13, 6.91680171291291223667e-02) (14, -4.72134873572315538759e-01) (15, -3.04932820512333668805e-01) (0, 5.50620423813097215060e+00) (1, 1.76238316834195940519e-01) (2, 2.30314742565378066663e-01) (3, 2.14556414425596059248e-01) (4, 2.54892211199029716795e-01) (5, -1.72176614626937229957e+00) (6, -6.24826868374115163007e-01) (7, -9.32535653006198339554e-01) (8, 1.03566011047639197074e+01) (9, -6.95146878364085729629e-01) (10, -3.60811712624338776223e+00) (11, -1.15593547170121730971e+01) (12, 3.04706066642546247181e+00) (13, 2.95879206018225326957e+00) (14, -2.45543537981502774104e-01) (15, 2.07877127481308043855e+00) (0, -1.95963675537233470436e+01) (1, -9.89659333768041077350e-02) (2, -2.14338818395391206284e-01) (3, -1.05876764112964580344e-01) (4, -1.03621592575565288352e-01) (5, 2.94184473845082550270e+00) (6, 3.41671957899023770455e-01) (7, 1.61044446799424134653e+00) (8, 4.61899338883731491734e+00) (9, 1.46598304844931592861e+00) (10, 5.35583946372387220691e+00) (11, 3.81331803940787267493e+02) (12, -5.85372378611602073306e+00) (13, -5.63297172200741158576e+00) (14, -6.97249342920900461174e-01) (15, -3.87680651388104979826e-01) (0, 2.91407597749578783919e+01) (1, 2.98707301399850966295e-01) (2, 2.08383763811729710858e-01) (3, 1.57915080568932081340e-01) (4, 1.85441660366199773113e-01) (5, -7.03221257050708259406e-01) (6, -3.68239929813563071637e-01) (7, -3.29099954521629811666e+00) (8, -8.70301715027837197169e+00) (9, -3.17366432293777567253e+00) (10, 5.45384059238209673026e+01) (11, 1.29554003418402832182e+01) (12, 6.00832079978389366204e+00) (13, 3.31689379215665081091e+00) (14, 4.94841818600925797966e+00) (15, 3.46047345026537378487e+00) (0, -9.12691016719020531411e-01) (1, -5.56330036912740244492e-02) (2, -1.00288140455323387945e-01) (3, -1.28274339119035352130e-01) (4, -9.39897623453914698999e-02) (5, -1.94216407773788013458e-01) (6, -2.10950627610232671616e-01) (7, -2.52548488151121297562e-01) (8, -2.05168025217283250816e-01) (9, -8.29381624987248766701e-02) (10, 1.02222314010772130644e+00) (11, -3.19318213810316331447e+00) (12, -9.02351197739066246406e-01) (13, -8.88050780121869276496e-02) (14, -2.23322611600230980233e-02) (15, -1.56019828895686774040e-01) (0, -2.58874247208457586300e-01) (1, -6.33325775658639174986e-03) (2, -1.07779685161467506105e-01) (3, -8.16099007943828641531e-02) (4, 2.63956377884193779670e-02) (5, 1.21966531323096011308e-01) (6, 3.86798131213731757883e-02) (7, -4.24526488504474830421e-01) (8, 5.17205876610185799613e-01) (9, -1.07693696838267086169e-01) (10, 1.09932742608261846406e+00) (11, 8.20520003930037433726e-01) (12, 7.67930707679203017335e-02) (13, 8.15233267326138100195e-02) (14, 1.00366355781862415242e+00) (15, -3.87048247932049671594e-01) (0, -3.32684427599799263930e+01) (1, -8.80149435560537984902e-02) (2, -1.17781138078434849392e-01) (3, -7.04280566732717883127e-02) (4, -8.19118137763272073648e-03) (5, 1.66735866344440863962e+00) (6, 4.84658789527634947802e+00) (7, -2.87624938456412371224e+00) (8, 6.50652726097982370135e+00) (9, -2.49395132650341588842e+00) (10, 1.69103683927860526381e+00) (11, 8.28598534234390982078e+00) (12, -4.98233097804132629705e+00) (13, -2.62560722006183855370e+00) (14, -4.41537622357840398024e+00) (15, -8.86658524014038817995e+00) (0, 8.23429428565317783617e-02) (1, -3.45487907472382810292e-02) (2, 1.24510569876121426902e-01) (3, 1.00147961085723311014e-01) (4, 1.26409350341247450622e-01) (5, 2.10003570130058063795e-03) (6, -5.04349788948982233339e-02) (7, -2.86158822738555029819e-01) (8, 1.25285090473704641134e+00) (9, -4.08739849335844271372e-02) (10, -1.11746760875261519352e+00) (11, -1.22585826874189307567e+00) (12, 3.49166828443712662366e-01) (13, 1.59714595837455231031e-01) (14, 3.58523468173116865998e-01) (15, 1.69838009527305155988e-01) (0, 1.66312222249728804968e+01) (1, 8.24133977621090141330e-02) (2, 2.25073084267904593991e-01) (3, 2.04688504370977020219e-01) (4, 2.60285854372313940619e-01) (5, -2.29390412811707333773e+00) (6, -1.42611621816063061097e+00) (7, 1.15734762463908449348e+01) (8, -5.85262426100350285907e+00) (9, 1.56829901288400375137e+01) (10, 5.59408487651504557903e+01) (11, -3.94822540248909392702e+00) (12, 4.12705098644740875358e+00) (13, 2.63336459425307456428e+00) (14, 6.93540643846949819817e+02) (15, 2.71995845445736961210e+00) (16, 9.96217150079585667122e-01) (17, 2.32587845714643332018e-01) (18, 9.27137231736611888699e-01) (19, 6.82421045077823751335e-01) (20, 8.69978460654138863184e-01) (21, -3.39526150085780242804e-01) (22, 1.97913824041461267056e-01) (23, 1.15762178972136298150e+00) (24, -2.73121642483836912785e-01) (25, 7.27454362085516059722e-01) (26, 3.38144503669598861517e-01) 
