FANN_FLO_2.1
num_layers=3
learning_rate=0.700000
connection_rate=1.000000
network_type=0
learning_momentum=0.000000
training_algorithm=2
train_error_function=1
train_stop_function=1
cascade_output_change_fraction=0.010000
quickprop_decay=-0.000100
quickprop_mu=1.750000
rprop_increase_factor=1.200000
rprop_decrease_factor=0.500000
rprop_delta_min=0.000000
rprop_delta_max=50.000000
rprop_delta_zero=0.100000
cascade_output_stagnation_epochs=12
cascade_candidate_change_fraction=0.010000
cascade_candidate_stagnation_epochs=12
cascade_max_out_epochs=150
cascade_min_out_epochs=50
cascade_max_cand_epochs=150
cascade_min_cand_epochs=50
cascade_num_candidate_groups=2
bit_fail_limit=1.00000000000000005551e-01
cascade_candidate_limit=1.00000000000000000000e+03
cascade_weight_multiplier=4.00000000000000022204e-01
cascade_activation_functions_count=10
cascade_activation_functions=3 5 7 8 10 11 14 15 16 17 
cascade_activation_steepnesses_count=4
cascade_activation_steepnesses=2.50000000000000000000e-01 5.00000000000000000000e-01 7.50000000000000000000e-01 1.00000000000000000000e+00 
layer_sizes=14 11 2 
scale_included=0
neurons (num_inputs, activation_function, activation_steepness)=(0, 0, 0.00000000000000000000e+00) (0, 0, 0.00000000000000000000e+00) (0, 0, 0.00000000000000000000e+00) (0, 0, 0.00000000000000000000e+00) (0, 0, 0.00000000000000000000e+00) (0, 0, 0.00000000000000000000e+00) (0, 0, 0.00000000000000000000e+00) (0, 0, 0.00000000000000000000e+00) (0, 0, 0.00000000000000000000e+00) (0, 0, 0.00000000000000000000e+00) (0, 0, 0.00000000000000000000e+00) (0, 0, 0.00000000000000000000e+00) (0, 0, 0.00000000000000000000e+00) (0, 0, 0.00000000000000000000e+00) (14, 6, 5.00000000000000000000e-01) (14, 6, 5.00000000000000000000e-01) (14, 6, 5.00000000000000000000e-01) (14, 6, 5.00000000000000000000e-01) (14, 6, 5.00000000000000000000e-01) (14, 6, 5.00000000000000000000e-01) (14, 6, 5.00000000000000000000e-01) (14, 6, 5.00000000000000000000e-01) (14, 6, 5.00000000000000000000e-01) (14, 6, 5.00000000000000000000e-01) (0, 6, 0.00000000000000000000e+00) (11, 6, 5.00000000000000000000e-01) (0, 6, 0.00000000000000000000e+00) 
connections (connected_to_neuron, weight)=(0, 2.34724484504319015343e+01) (1, 4.63930968296971224518e-01) (2, 4.73565030944790743561e-01) (3, 3.60722120953049563141e-01) (4, 5.15042040598835404452e-01) (5, -2.89075130384690437424e+00) (6, -3.05690052255735644771e-01) (7, 1.48679999997615823304e+03) (8, -7.17535441826837150359e+00) (9, 1.49979710021315327140e+03) (10, 1.49631752111258356308e+03) (11, 8.86118746817538394112e+00) (12, -4.90181339198279619751e+00) (13, 1.35589947747596761829e+00) (0, -8.83181104802787331209e-01) (1, -1.36799359570916212459e-01) (2, -1.11871575813468376870e-01) (3, -1.94674039890128866559e-02) (4, -1.64839764933760651866e-01) (5, -5.74908970605872149395e-02) (6, -1.66738795301339309818e-01) (7, 3.01915052946812381696e-02) (8, 6.36788157777103264179e-02) (9, -1.69263429050164893042e-02) (10, -9.84407428685574875660e-02) (11, -1.09480852604334577549e+00) (12, 1.24468518699016358897e-01) (13, -4.52012058987800516285e-02) (0, 2.57424908029884436100e-01) (1, -1.53029249814307266586e-01) (2, -2.27814862337862966690e-01) (3, -2.54475334492480331772e-01) (4, -2.25847789850985525284e-01) (5, 1.84112199687847177820e+00) (6, 1.36917764759810156594e-01) (7, 1.68682096572096901221e-01) (8, 3.05774964153247630350e+00) (9, 1.64986576760886294313e-01) (10, 1.33304270054749540719e-01) (11, -9.80151060865523060528e-01) (12, 1.54042173936996040773e+00) (13, -1.30282755994863874704e+00) (0, -2.60237411343982785183e+01) (1, -2.21387346754593344889e-01) (2, -2.27444728384537192545e-01) (3, -2.12065001497787924967e-01) (4, -1.74250376890224961679e-01) (5, 6.47399360537892043510e+00) (6, -4.17289418004575390908e-02) (7, -1.71567565366390312187e-01) (8, 2.60598693705264894405e+00) (9, -8.89111688474367306556e-02) (10, -1.54446694218702218482e-01) (11, -7.23601251654457544582e-01) (12, -3.95165287685120336647e+00) (13, 8.49161019281835655059e-02) (0, -4.68942638049665490030e+01) (1, -1.25859092642184450250e-01) (2, -1.92047703732367652796e-01) (3, -2.84577365685815375507e-01) (4, -1.46885018516894477747e-01) (5, 1.30731887000559687806e+00) (6, -3.51892162551706910723e-01) (7, -7.27916373280298789616e-01) (8, 5.98766337056822273155e+00) (9, -6.88763462851563756928e-01) (10, -7.34077615396930727165e-01) (11, -8.33492637122146606821e-01) (12, -9.93429555414687276427e-02) (13, 2.37931254855851148644e-01) (0, -4.81481975199159362155e-01) (1, -1.27007744304510283850e-01) (2, -1.22980817250581922484e-01) (3, 2.29746112305199493009e-02) (4, -1.01878969959589546490e-01) (5, -7.70163406369284042619e-01) (6, 3.14534796912171871197e-02) (7, -2.57613773250636279855e-01) (8, 1.58824184373030719009e+00) (9, -3.08170513069659812722e-01) (10, -2.78369146801498101862e-01) (11, 1.07298377333495476016e+00) (12, -6.78885278024592935253e+01) (13, -3.91347381726372400834e-02) (0, -2.61959235045549521104e-01) (1, -8.65394456571209197415e-02) (2, -1.24825371688471430109e-02) (3, -1.56134201425896734783e-01) (4, -1.20039699811326186496e-01) (5, -2.67477378309977142923e-01) (6, -3.74067891528041929217e-01) (7, 4.25298655955641102117e-03) (8, -3.05328022847897728731e-01) (9, -3.79146864610645784044e-02) (10, -9.49824361167685704554e-02) (11, -6.92443535390508541072e-03) (12, 3.36300843016764272608e-01) (13, 1.35087632617505032373e-01) (0, -3.35723152185847961704e+00) (1, -1.04861625283050027835e-01) (2, -1.30750135331439448771e-01) (3, -1.35319047420310478724e-01) (4, -9.23606984308237982662e-02) (5, 4.19020789251538161579e+00) (6, 6.68800580305228931088e-01) (7, 4.85202413628266548962e-01) (8, 1.04075506908356563152e+00) (9, 5.88711297378442410810e-01) (10, 4.89552539330262825867e-01) (11, 1.98978555469837736780e+00) (12, 3.81635309796633226398e+00) (13, -5.27763475593971875810e+00) (0, -3.30560565637504533143e+00) (1, 3.16940042699856650010e-01) (2, 3.35665631617588888780e-01) (3, 1.83538239027542571247e-01) (4, 1.99677619661373539905e-01) (5, 6.72685508151710376268e+00) (6, -6.59640509690163856504e-01) (7, -4.16511709355393111576e-01) (8, 3.81856229906086186432e+00) (9, -3.72646273298606334201e-01) (10, -2.68980349399003115796e-01) (11, -5.11820603093970660780e+00) (12, 1.10258178456673139323e+01) (13, -1.55695339384954789530e+00) (0, -7.59373415970756138194e-01) (1, -2.17999330104058253177e-01) (2, -1.62497779668038910827e-01) (3, -2.47895619214241968997e-01) (4, -9.06739815480170768813e-02) (5, 1.42066249545071243698e-01) (6, -1.06363276034139170312e-01) (7, -9.88316385029902738646e-02) (8, 1.16859118031220843292e+00) (9, 6.80078327716360665073e-03) (10, -8.41142115539720153228e-02) (11, -3.52614713109413857595e+00) (12, -2.01833702747041321413e-01) (13, 1.24695350080689784655e-01) (14, 1.02443929536597999608e+00) (15, -2.72408685978625775270e-01) (16, 1.33623378645707702184e+00) (17, -8.46192090603058777454e-01) (18, 1.95303474034595336839e+00) (19, -7.41230995650428381438e-01) (20, -3.26241885182543656096e-01) (21, 6.15103111824227832827e-01) (22, -4.13253981507920642446e-01) (23, -5.36557849224700400548e-01) (24, 3.92474507930834992653e-01) 
