FANN_FLO_2.1
num_layers=3
learning_rate=0.700000
connection_rate=1.000000
network_type=0
learning_momentum=0.000000
training_algorithm=2
train_error_function=1
train_stop_function=1
cascade_output_change_fraction=0.010000
quickprop_decay=-0.000100
quickprop_mu=1.750000
rprop_increase_factor=1.200000
rprop_decrease_factor=0.500000
rprop_delta_min=0.000000
rprop_delta_max=50.000000
rprop_delta_zero=0.100000
cascade_output_stagnation_epochs=12
cascade_candidate_change_fraction=0.010000
cascade_candidate_stagnation_epochs=12
cascade_max_out_epochs=150
cascade_min_out_epochs=50
cascade_max_cand_epochs=150
cascade_min_cand_epochs=50
cascade_num_candidate_groups=2
bit_fail_limit=1.00000000000000005551e-01
cascade_candidate_limit=1.00000000000000000000e+03
cascade_weight_multiplier=4.00000000000000022204e-01
cascade_activation_functions_count=10
cascade_activation_functions=3 5 7 8 10 11 14 15 16 17 
cascade_activation_steepnesses_count=4
cascade_activation_steepnesses=2.50000000000000000000e-01 5.00000000000000000000e-01 7.50000000000000000000e-01 1.00000000000000000000e+00 
layer_sizes=6 4 2 
scale_included=0
neurons (num_inputs, activation_function, activation_steepness)=(0, 0, 0.00000000000000000000e+00) (0, 0, 0.00000000000000000000e+00) (0, 0, 0.00000000000000000000e+00) (0, 0, 0.00000000000000000000e+00) (0, 0, 0.00000000000000000000e+00) (0, 0, 0.00000000000000000000e+00) (6, 6, 5.00000000000000000000e-01) (6, 6, 5.00000000000000000000e-01) (6, 6, 5.00000000000000000000e-01) (0, 6, 0.00000000000000000000e+00) (4, 4, 5.00000000000000000000e-01) (0, 4, 0.00000000000000000000e+00) 
connections (connected_to_neuron, weight)=(0, 3.23927052857112585116e+00) (1, 2.62487548275339765969e-01) (2, 9.83287164352741549500e-01) (3, 1.56514655587598083830e-01) (4, 1.71448215326787056778e-01) (5, -3.68703783668937690177e-01) (0, 2.70408818845581677692e+00) (1, 1.01697414744053493685e+00) (2, 8.32179187558498401067e-01) (3, 1.03263249628536235569e+00) (4, 1.02742384519680873822e+00) (5, -1.45628348798990581159e+00) (0, 2.69375610698890355366e+00) (1, 9.21202393294904609000e-01) (2, 1.34788042943721730893e+00) (3, 8.90017926770372613809e-01) (4, 9.13688083703364295474e-01) (5, -1.48529304625034663800e+00) (6, 5.70969195450841571216e-01) (7, 1.34412858114413268140e+02) (8, 5.75022888505488083410e+01) (9, -1.44464520426035258893e+00) 
