FANN_FLO_2.1
num_layers=3
learning_rate=0.700000
connection_rate=1.000000
network_type=0
learning_momentum=0.000000
training_algorithm=2
train_error_function=1
train_stop_function=1
cascade_output_change_fraction=0.010000
quickprop_decay=-0.000100
quickprop_mu=1.750000
rprop_increase_factor=1.200000
rprop_decrease_factor=0.500000
rprop_delta_min=0.000000
rprop_delta_max=50.000000
rprop_delta_zero=0.100000
cascade_output_stagnation_epochs=12
cascade_candidate_change_fraction=0.010000
cascade_candidate_stagnation_epochs=12
cascade_max_out_epochs=150
cascade_min_out_epochs=50
cascade_max_cand_epochs=150
cascade_min_cand_epochs=50
cascade_num_candidate_groups=2
bit_fail_limit=1.00000000000000005551e-01
cascade_candidate_limit=1.00000000000000000000e+03
cascade_weight_multiplier=4.00000000000000022204e-01
cascade_activation_functions_count=10
cascade_activation_functions=3 5 7 8 10 11 14 15 16 17 
cascade_activation_steepnesses_count=4
cascade_activation_steepnesses=2.50000000000000000000e-01 5.00000000000000000000e-01 7.50000000000000000000e-01 1.00000000000000000000e+00 
layer_sizes=8 4 2 
scale_included=0
neurons (num_inputs, activation_function, activation_steepness)=(0, 0, 0.00000000000000000000e+00) (0, 0, 0.00000000000000000000e+00) (0, 0, 0.00000000000000000000e+00) (0, 0, 0.00000000000000000000e+00) (0, 0, 0.00000000000000000000e+00) (0, 0, 0.00000000000000000000e+00) (0, 0, 0.00000000000000000000e+00) (0, 0, 0.00000000000000000000e+00) (8, 6, 5.00000000000000000000e-01) (8, 6, 5.00000000000000000000e-01) (8, 6, 5.00000000000000000000e-01) (0, 6, 0.00000000000000000000e+00) (4, 4, 5.00000000000000000000e-01) (0, 4, 0.00000000000000000000e+00) 
connections (connected_to_neuron, weight)=(0, -4.06803730340942693022e-01) (1, 1.52738778973216593471e+00) (2, 1.50000000000000000000e+03) (3, -1.70049875190602284292e+00) (4, -2.27925613181750286174e+00) (5, -5.14725460000691459328e+00) (6, 3.61757906697628583981e-01) (7, -8.35301469899674686737e-01) (0, 2.65859028364262073296e+00) (1, 2.31523236192565269598e-02) (2, 1.50000000000000000000e+03) (3, -7.09634128626506655024e-01) (4, 1.80051751587844606206e+01) (5, 1.45110569282109782563e+01) (6, 7.99420629954913586346e-01) (7, -1.75886080000044220384e+00) (0, 4.98236764091129435972e-01) (1, 3.04018661228148745490e-01) (2, 1.50000000000000000000e+03) (3, 1.71188551291195736326e+01) (4, -1.32825694024782725577e+00) (5, 1.47251723613826612791e+01) (6, 2.26062599675381004083e-01) (7, -1.13266094368188929842e+00) (8, 6.37176853254194526244e+01) (9, 2.30903141308332102710e+01) (10, 1.88177708023750405175e+01) (11, -2.79551207099830278935e+00) 
