FANN_FLO_2.1
num_layers=3
learning_rate=0.700000
connection_rate=1.000000
network_type=0
learning_momentum=0.000000
training_algorithm=2
train_error_function=1
train_stop_function=1
cascade_output_change_fraction=0.010000
quickprop_decay=-0.000100
quickprop_mu=1.750000
rprop_increase_factor=1.200000
rprop_decrease_factor=0.500000
rprop_delta_min=0.000000
rprop_delta_max=50.000000
rprop_delta_zero=0.100000
cascade_output_stagnation_epochs=12
cascade_candidate_change_fraction=0.010000
cascade_candidate_stagnation_epochs=12
cascade_max_out_epochs=150
cascade_min_out_epochs=50
cascade_max_cand_epochs=150
cascade_min_cand_epochs=50
cascade_num_candidate_groups=2
bit_fail_limit=1.00000000000000005551e-01
cascade_candidate_limit=1.00000000000000000000e+03
cascade_weight_multiplier=4.00000000000000022204e-01
cascade_activation_functions_count=10
cascade_activation_functions=3 5 7 8 10 11 14 15 16 17 
cascade_activation_steepnesses_count=4
cascade_activation_steepnesses=2.50000000000000000000e-01 5.00000000000000000000e-01 7.50000000000000000000e-01 1.00000000000000000000e+00 
layer_sizes=10 4 2 
scale_included=0
neurons (num_inputs, activation_function, activation_steepness)=(0, 0, 0.00000000000000000000e+00) (0, 0, 0.00000000000000000000e+00) (0, 0, 0.00000000000000000000e+00) (0, 0, 0.00000000000000000000e+00) (0, 0, 0.00000000000000000000e+00) (0, 0, 0.00000000000000000000e+00) (0, 0, 0.00000000000000000000e+00) (0, 0, 0.00000000000000000000e+00) (0, 0, 0.00000000000000000000e+00) (0, 0, 0.00000000000000000000e+00) (10, 6, 5.00000000000000000000e-01) (10, 6, 5.00000000000000000000e-01) (10, 6, 5.00000000000000000000e-01) (0, 6, 0.00000000000000000000e+00) (4, 4, 5.00000000000000000000e-01) (0, 4, 0.00000000000000000000e+00) 
connections (connected_to_neuron, weight)=(0, -3.11469153121189812339e+00) (1, 1.37016792423107824916e+00) (2, 8.53986536621842207140e-01) (3, 1.15224862830100271971e+00) (4, 1.89251957778697610379e+00) (5, 5.19943811499854557923e+00) (6, 1.16741163743958975552e+00) (7, 1.50000000000000000000e+03) (8, 3.97189566401097327031e+00) (9, -8.40870240335646945695e-01) (0, -9.93799258629580323232e-02) (1, -1.35622801870408649094e+00) (2, -2.27682807572507917016e+00) (3, -1.38434936236039307644e+00) (4, -1.90029235529095186230e+00) (5, 1.10226467825545988433e+01) (6, -1.38775748891684713726e+00) (7, -5.24410169547676030533e+00) (8, -1.52068712864422073139e+00) (9, 2.43743503097205227448e+00) (0, 1.11599779151150979573e+01) (1, 1.62171955978216653094e+00) (2, 4.35484774148273301453e-01) (3, 1.61607667557974465922e+00) (4, 2.31638934287211134544e-01) (5, 7.91901939963023604463e-01) (6, 1.60553432929770423243e+00) (7, -8.29177726101931789060e+00) (8, -1.06449505311081382697e-01) (9, -2.04634575730936951743e+00) (10, 1.65239296749481106019e+01) (11, -2.71831089268149561633e+01) (12, 3.39810211688496508486e+01) (13, -7.80377263812101262808e-01) 
