FANN_FLO_2.1
num_layers=3
learning_rate=0.700000
connection_rate=1.000000
network_type=0
learning_momentum=0.000000
training_algorithm=2
train_error_function=1
train_stop_function=1
cascade_output_change_fraction=0.010000
quickprop_decay=-0.000100
quickprop_mu=1.750000
rprop_increase_factor=1.200000
rprop_decrease_factor=0.500000
rprop_delta_min=0.000000
rprop_delta_max=50.000000
rprop_delta_zero=0.100000
cascade_output_stagnation_epochs=12
cascade_candidate_change_fraction=0.010000
cascade_candidate_stagnation_epochs=12
cascade_max_out_epochs=150
cascade_min_out_epochs=50
cascade_max_cand_epochs=150
cascade_min_cand_epochs=50
cascade_num_candidate_groups=2
bit_fail_limit=1.00000000000000005551e-01
cascade_candidate_limit=1.00000000000000000000e+03
cascade_weight_multiplier=4.00000000000000022204e-01
cascade_activation_functions_count=10
cascade_activation_functions=3 5 7 8 10 11 14 15 16 17 
cascade_activation_steepnesses_count=4
cascade_activation_steepnesses=2.50000000000000000000e-01 5.00000000000000000000e-01 7.50000000000000000000e-01 1.00000000000000000000e+00 
layer_sizes=7 4 2 
scale_included=0
neurons (num_inputs, activation_function, activation_steepness)=(0, 0, 0.00000000000000000000e+00) (0, 0, 0.00000000000000000000e+00) (0, 0, 0.00000000000000000000e+00) (0, 0, 0.00000000000000000000e+00) (0, 0, 0.00000000000000000000e+00) (0, 0, 0.00000000000000000000e+00) (0, 0, 0.00000000000000000000e+00) (7, 6, 5.00000000000000000000e-01) (7, 6, 5.00000000000000000000e-01) (7, 6, 5.00000000000000000000e-01) (0, 6, 0.00000000000000000000e+00) (4, 4, 5.00000000000000000000e-01) (0, 4, 0.00000000000000000000e+00) 
connections (connected_to_neuron, weight)=(0, 8.84707160259114999690e+00) (1, -2.09164244510549401923e+00) (2, -1.67171579893673238892e+00) (3, -3.98648948293272298304e-01) (4, -1.92616797143465379172e+00) (5, -2.07595563051941889299e+00) (6, 8.94491813270121172152e-01) (0, -1.04203030109312172469e-01) (1, 4.25184394553054179067e-01) (2, 1.38573127231411064031e+00) (3, 8.06494225301980005582e-01) (4, 2.96929818259407618530e-01) (5, 6.29381581333493533847e-01) (6, -6.65027332738204579599e-01) (0, -1.35761582995052454415e+00) (1, 6.90093652860508166569e-01) (2, 3.03777545882214772277e+00) (3, 1.06774026020308365759e+00) (4, 4.66355901524704741234e-01) (5, 4.20439570721626765248e+00) (6, 2.14896574083670327537e-01) (7, -3.76261787577853255016e+01) (8, 1.35643336159183336420e+00) (9, 8.24689963444721563235e-01) (10, -5.01826680302990713045e-01) 
