FANN_FLO_2.1
num_layers=3
learning_rate=0.700000
connection_rate=1.000000
network_type=0
learning_momentum=0.000000
training_algorithm=2
train_error_function=1
train_stop_function=1
cascade_output_change_fraction=0.010000
quickprop_decay=-0.000100
quickprop_mu=1.750000
rprop_increase_factor=1.200000
rprop_decrease_factor=0.500000
rprop_delta_min=0.000000
rprop_delta_max=50.000000
rprop_delta_zero=0.100000
cascade_output_stagnation_epochs=12
cascade_candidate_change_fraction=0.010000
cascade_candidate_stagnation_epochs=12
cascade_max_out_epochs=150
cascade_min_out_epochs=50
cascade_max_cand_epochs=150
cascade_min_cand_epochs=50
cascade_num_candidate_groups=2
bit_fail_limit=1.00000000000000005551e-01
cascade_candidate_limit=1.00000000000000000000e+03
cascade_weight_multiplier=4.00000000000000022204e-01
cascade_activation_functions_count=10
cascade_activation_functions=3 5 7 8 10 11 14 15 16 17 
cascade_activation_steepnesses_count=4
cascade_activation_steepnesses=2.50000000000000000000e-01 5.00000000000000000000e-01 7.50000000000000000000e-01 1.00000000000000000000e+00 
layer_sizes=7 4 2 
scale_included=0
neurons (num_inputs, activation_function, activation_steepness)=(0, 0, 0.00000000000000000000e+00) (0, 0, 0.00000000000000000000e+00) (0, 0, 0.00000000000000000000e+00) (0, 0, 0.00000000000000000000e+00) (0, 0, 0.00000000000000000000e+00) (0, 0, 0.00000000000000000000e+00) (0, 0, 0.00000000000000000000e+00) (7, 6, 5.00000000000000000000e-01) (7, 6, 5.00000000000000000000e-01) (7, 6, 5.00000000000000000000e-01) (0, 6, 0.00000000000000000000e+00) (4, 4, 5.00000000000000000000e-01) (0, 4, 0.00000000000000000000e+00) 
connections (connected_to_neuron, weight)=(0, 9.53934983915975198698e-01) (1, 8.10280910208790117188e-01) (2, -7.23272016390337557645e-01) (3, 1.02899470325905872947e+00) (4, 8.90874422701796508939e-01) (5, 1.04533638123332295322e+00) (6, -3.49266421764635737190e-01) (0, -1.14064718813535037611e+00) (1, -3.44489082865804707723e+00) (2, -1.98539227954240660168e+00) (3, -3.42076934701054691246e+00) (4, -3.46430624051941116193e+00) (5, -3.41644084407282155880e+00) (6, 4.02219049696023578377e+00) (0, 1.29994275792054803098e+00) (1, 2.12773888685333156801e+00) (2, -1.86028612359904732543e+00) (3, 2.39696427265312506094e+00) (4, 1.67184374522857726042e+00) (5, 2.67103011508141774399e+00) (6, -5.18517801939031963698e-01) (7, 1.28589211569327077633e+00) (8, -8.28746145300911933873e+01) (9, 7.81984421337253277073e+00) (10, -1.97779455039585783105e+00) 
