FANN_FLO_2.1
num_layers=3
learning_rate=0.700000
connection_rate=1.000000
network_type=0
learning_momentum=0.000000
training_algorithm=2
train_error_function=1
train_stop_function=1
cascade_output_change_fraction=0.010000
quickprop_decay=-0.000100
quickprop_mu=1.750000
rprop_increase_factor=1.200000
rprop_decrease_factor=0.500000
rprop_delta_min=0.000000
rprop_delta_max=50.000000
rprop_delta_zero=0.100000
cascade_output_stagnation_epochs=12
cascade_candidate_change_fraction=0.010000
cascade_candidate_stagnation_epochs=12
cascade_max_out_epochs=150
cascade_min_out_epochs=50
cascade_max_cand_epochs=150
cascade_min_cand_epochs=50
cascade_num_candidate_groups=2
bit_fail_limit=1.00000000000000005551e-01
cascade_candidate_limit=1.00000000000000000000e+03
cascade_weight_multiplier=4.00000000000000022204e-01
cascade_activation_functions_count=10
cascade_activation_functions=3 5 7 8 10 11 14 15 16 17 
cascade_activation_steepnesses_count=4
cascade_activation_steepnesses=2.50000000000000000000e-01 5.00000000000000000000e-01 7.50000000000000000000e-01 1.00000000000000000000e+00 
layer_sizes=7 4 2 
scale_included=0
neurons (num_inputs, activation_function, activation_steepness)=(0, 0, 0.00000000000000000000e+00) (0, 0, 0.00000000000000000000e+00) (0, 0, 0.00000000000000000000e+00) (0, 0, 0.00000000000000000000e+00) (0, 0, 0.00000000000000000000e+00) (0, 0, 0.00000000000000000000e+00) (0, 0, 0.00000000000000000000e+00) (7, 6, 5.00000000000000000000e-01) (7, 6, 5.00000000000000000000e-01) (7, 6, 5.00000000000000000000e-01) (0, 6, 0.00000000000000000000e+00) (4, 4, 5.00000000000000000000e-01) (0, 4, 0.00000000000000000000e+00) 
connections (connected_to_neuron, weight)=(0, 1.86621478934530649063e+00) (1, 6.47257943075982944414e-01) (2, 1.03610806369187944398e+01) (3, 8.91150865976114370248e-01) (4, 9.61539289672669328368e-01) (5, 1.23543508789512435087e+00) (6, -1.65040495001953191334e+00) (0, 7.55165998669143911926e-01) (1, 2.56013951674623196908e+00) (2, -3.22934482156706437195e+00) (3, 2.77857395881343327559e+00) (4, 2.67730254639847942144e+00) (5, 1.84753481374935235593e+00) (6, -2.42014960988620098092e+00) (0, 5.70926389512410370486e-01) (1, 2.12553792989797951662e+00) (2, -3.37417261288339132008e+00) (3, 1.13935948274382869982e+00) (4, 1.13175898569355815049e+00) (5, 1.81702576268819671057e+00) (6, -1.66081075985906956305e+00) (7, 2.82986402073067786489e+01) (8, 1.84100245255628678365e+01) (9, 1.13772609250315355212e+01) (10, -4.47098712708354906198e+00) 
