FANN_FLO_2.1
num_layers=3
learning_rate=0.700000
connection_rate=1.000000
network_type=0
learning_momentum=0.000000
training_algorithm=2
train_error_function=1
train_stop_function=1
cascade_output_change_fraction=0.010000
quickprop_decay=-0.000100
quickprop_mu=1.750000
rprop_increase_factor=1.200000
rprop_decrease_factor=0.500000
rprop_delta_min=0.000000
rprop_delta_max=50.000000
rprop_delta_zero=0.100000
cascade_output_stagnation_epochs=12
cascade_candidate_change_fraction=0.010000
cascade_candidate_stagnation_epochs=12
cascade_max_out_epochs=150
cascade_min_out_epochs=50
cascade_max_cand_epochs=150
cascade_min_cand_epochs=50
cascade_num_candidate_groups=2
bit_fail_limit=1.00000000000000005551e-01
cascade_candidate_limit=1.00000000000000000000e+03
cascade_weight_multiplier=4.00000000000000022204e-01
cascade_activation_functions_count=10
cascade_activation_functions=3 5 7 8 10 11 14 15 16 17 
cascade_activation_steepnesses_count=4
cascade_activation_steepnesses=2.50000000000000000000e-01 5.00000000000000000000e-01 7.50000000000000000000e-01 1.00000000000000000000e+00 
layer_sizes=13 11 2 
scale_included=0
neurons (num_inputs, activation_function, activation_steepness)=(0, 0, 0.00000000000000000000e+00) (0, 0, 0.00000000000000000000e+00) (0, 0, 0.00000000000000000000e+00) (0, 0, 0.00000000000000000000e+00) (0, 0, 0.00000000000000000000e+00) (0, 0, 0.00000000000000000000e+00) (0, 0, 0.00000000000000000000e+00) (0, 0, 0.00000000000000000000e+00) (0, 0, 0.00000000000000000000e+00) (0, 0, 0.00000000000000000000e+00) (0, 0, 0.00000000000000000000e+00) (0, 0, 0.00000000000000000000e+00) (0, 0, 0.00000000000000000000e+00) (13, 6, 5.00000000000000000000e-01) (13, 6, 5.00000000000000000000e-01) (13, 6, 5.00000000000000000000e-01) (13, 6, 5.00000000000000000000e-01) (13, 6, 5.00000000000000000000e-01) (13, 6, 5.00000000000000000000e-01) (13, 6, 5.00000000000000000000e-01) (13, 6, 5.00000000000000000000e-01) (13, 6, 5.00000000000000000000e-01) (13, 6, 5.00000000000000000000e-01) (0, 6, 0.00000000000000000000e+00) (11, 6, 5.00000000000000000000e-01) (0, 6, 0.00000000000000000000e+00) 
connections (connected_to_neuron, weight)=(0, -4.48060135914835555582e+00) (1, 4.71576252565281572871e-01) (2, 4.30930779859917456598e-01) (3, 5.20945855960743942070e-01) (4, 4.58059215531246954889e-01) (5, 3.81609118022675386506e-01) (6, 1.52923246381157218465e+00) (7, 1.34899850481269578673e+00) (8, 2.01294426575654439304e+00) (9, 1.15007662039405461618e-01) (10, 8.19280620466738551677e-01) (11, 9.22242569834186731725e-01) (12, 1.11266763524796696849e-01) (0, 9.21211726212267123515e+00) (1, 5.14351040575500628727e-01) (2, 6.31373368654247646425e-01) (3, 6.66438572559353237246e-01) (4, 4.85426605198379768069e-01) (5, -4.54254906567267369155e+00) (6, -2.62372608685478869717e+00) (7, -1.53296559852776792532e-01) (8, -2.56898161811780711972e+00) (9, -4.13734232936590201613e-02) (10, -8.99491318507583126340e-02) (11, -2.41877783430255816066e-01) (12, 3.47206049473833466834e+00) (0, -5.82326599965453617358e+00) (1, 4.90436873213432378282e-01) (2, 4.59141711519144180009e-01) (3, 4.28241266683719756792e-01) (4, 4.11442830042026641557e-01) (5, 5.63430215824615054920e-01) (6, 1.80217211779841401942e+00) (7, 8.43029803657578180598e-01) (8, 1.83061416670867371792e+00) (9, 3.25309395794155242765e-01) (10, 5.55698864450865803732e-01) (11, 5.43673366023966653238e-01) (12, 7.88606690594371495528e-01) (0, -4.32371293868623851608e+00) (1, 5.42205668473744184510e-01) (2, 5.24147510016464979188e-01) (3, 6.55020959163212679321e-01) (4, 5.14175898814701715089e-01) (5, 4.74844415621708371145e-01) (6, 3.43935519009401202695e+00) (7, 1.48875658105952113353e+00) (8, 2.02796211794370107029e+00) (9, 2.04917982224704670058e-01) (10, 5.64910446070595928525e-01) (11, 1.19020793473239949734e+00) (12, 5.56792678681510722072e-01) (0, 2.53204772604299244154e-01) (1, -1.54714121453274500856e-02) (2, -5.13172543577660456027e-02) (3, 7.04401561089049582653e-02) (4, -6.32362281603706007094e-03) (5, -3.04307583621906518889e-01) (6, -4.64263916807908016970e-01) (7, -1.63714942284218845092e-01) (8, 1.45727489900020545921e-01) (9, -2.44013183627661417452e-02) (10, 9.80675689381652615495e-02) (11, -9.96223183755161161013e-03) (12, 2.03293418742958309497e-02) (0, 9.14809679978851519877e+00) (1, 5.27036534524064848029e-01) (2, 5.53297502821784803473e-01) (3, 6.48748656636577436529e-01) (4, 6.00311865931850263678e-01) (5, -4.47251257243088673476e+00) (6, -2.75632843577847186367e+00) (7, -2.09990398159525942789e-01) (8, -2.58849346680593273007e+00) (9, 2.09636868679768766099e-02) (10, -3.16551319669346117869e-02) (11, -3.14905960453189803783e-01) (12, 3.58815362365793610877e+00) (0, -3.15458696020522288972e-01) (1, 6.02657916010786581795e-02) (2, 5.43424012125898886483e-02) (3, -3.99905396638940285881e-02) (4, 8.91856374205519247811e-02) (5, -8.24475228602624538032e-02) (6, 3.11400637541358449312e+00) (7, -1.19765272123645086233e-01) (8, -4.43532220048574676863e-01) (9, 5.93578023224841655470e-02) (10, 5.22353772037091740321e-02) (11, -1.34423464411180026978e-01) (12, -1.23195230138486128135e-01) (0, -2.83137926597196887268e-01) (1, -2.05048033120566117193e-02) (2, -7.37761975350313820021e-02) (3, -5.35623812200956977980e-02) (4, 5.56318527934617362840e-02) (5, 1.72717176964042207210e-01) (6, 1.03180080867923140708e+00) (7, 9.37431077610297591729e-02) (8, 2.79632436942544637670e-01) (9, -6.78488398581970075796e-02) (10, 2.50131572407822320991e-02) (11, 9.30270851432380557755e-02) (12, -2.69290435013005979847e-01) (0, 3.51870672886705537774e-01) (1, 3.39625680523786499521e-01) (2, 3.07977052110109283944e-01) (3, 4.02671502607736542245e-01) (4, 2.64866599517736556191e-01) (5, -7.85784430801122146804e-01) (6, -4.93195015123122004752e+00) (7, 1.35283392896414400575e+00) (8, 1.35204187709024559183e+01) (9, 4.20201021736850532928e-01) (10, 3.70313574913357201890e-01) (11, 7.43786346149407240347e+00) (12, 4.61330576326417329813e-01) (0, 2.58241838189563310824e-01) (1, 4.25005023721597013919e-02) (2, 7.50608881358049012666e-02) (3, -4.04464686866858047498e-02) (4, -5.35785714741804780514e-02) (5, -1.20942857133583631102e-01) (6, -3.34887381017586083232e-01) (7, -1.17655679721789627190e-01) (8, -4.55895308810684796175e-01) (9, 5.71855522058746998382e-02) (10, -3.46006799254109792541e-02) (11, 6.20122289507939808417e-02) (12, 1.66328450254273979558e-01) (13, -7.96881709715282354756e-02) (14, -3.17124825278472799450e-01) (15, -9.99184776226347132200e-02) (16, -8.62272609154050989622e-02) (17, -2.79681737662549390055e-01) (18, -3.09914823929023641735e-01) (19, 1.08045166456693109147e+00) (20, 5.49728112095904886125e-01) (21, 9.01065965421538050961e-01) (22, -5.83547874272919098182e-01) (23, 2.72250836268985496602e-01) 
