FANN_FLO_2.1
num_layers=3
learning_rate=0.700000
connection_rate=1.000000
network_type=0
learning_momentum=0.000000
training_algorithm=2
train_error_function=1
train_stop_function=1
cascade_output_change_fraction=0.010000
quickprop_decay=-0.000100
quickprop_mu=1.750000
rprop_increase_factor=1.200000
rprop_decrease_factor=0.500000
rprop_delta_min=0.000000
rprop_delta_max=50.000000
rprop_delta_zero=0.100000
cascade_output_stagnation_epochs=12
cascade_candidate_change_fraction=0.010000
cascade_candidate_stagnation_epochs=12
cascade_max_out_epochs=150
cascade_min_out_epochs=50
cascade_max_cand_epochs=150
cascade_min_cand_epochs=50
cascade_num_candidate_groups=2
bit_fail_limit=1.00000000000000005551e-01
cascade_candidate_limit=1.00000000000000000000e+03
cascade_weight_multiplier=4.00000000000000022204e-01
cascade_activation_functions_count=10
cascade_activation_functions=3 5 7 8 10 11 14 15 16 17 
cascade_activation_steepnesses_count=4
cascade_activation_steepnesses=2.50000000000000000000e-01 5.00000000000000000000e-01 7.50000000000000000000e-01 1.00000000000000000000e+00 
layer_sizes=10 11 2 
scale_included=0
neurons (num_inputs, activation_function, activation_steepness)=(0, 0, 0.00000000000000000000e+00) (0, 0, 0.00000000000000000000e+00) (0, 0, 0.00000000000000000000e+00) (0, 0, 0.00000000000000000000e+00) (0, 0, 0.00000000000000000000e+00) (0, 0, 0.00000000000000000000e+00) (0, 0, 0.00000000000000000000e+00) (0, 0, 0.00000000000000000000e+00) (0, 0, 0.00000000000000000000e+00) (0, 0, 0.00000000000000000000e+00) (10, 6, 5.00000000000000000000e-01) (10, 6, 5.00000000000000000000e-01) (10, 6, 5.00000000000000000000e-01) (10, 6, 5.00000000000000000000e-01) (10, 6, 5.00000000000000000000e-01) (10, 6, 5.00000000000000000000e-01) (10, 6, 5.00000000000000000000e-01) (10, 6, 5.00000000000000000000e-01) (10, 6, 5.00000000000000000000e-01) (10, 6, 5.00000000000000000000e-01) (0, 6, 0.00000000000000000000e+00) (11, 6, 5.00000000000000000000e-01) (0, 6, 0.00000000000000000000e+00) 
connections (connected_to_neuron, weight)=(0, -5.06330368151227339091e-01) (1, 2.57876915587741048497e-02) (2, -1.41703804050509390988e-01) (3, -1.01271616564434872171e-02) (4, -1.57218758975092826047e-01) (5, 3.86715848715873000696e-01) (6, 4.36539900334872998933e-01) (7, 5.80004130619811042457e-01) (8, 6.59373580612308107796e-01) (9, -4.05711052993981913239e-01) (0, 1.90228069057734305858e+00) (1, 1.49400946008702351087e-01) (2, 1.87324609863301350110e-01) (3, 1.72679107892056538098e-01) (4, 7.81196730907163655599e-02) (5, -3.65270900280391108694e-01) (6, -2.81083137550133077553e+00) (7, 2.35628144274995925400e+01) (8, -1.22555035664690170627e+00) (9, 1.41363693880781154943e-01) (0, -2.76002497702710555827e-02) (1, 1.53130691728643603122e-01) (2, 7.08891118383923601876e-02) (3, 2.21596990010790001469e-01) (4, 2.02102441570810503757e-01) (5, 2.42949451804253258036e-02) (6, -3.18262554284574616936e-01) (7, -7.98391582897111234951e-02) (8, 4.85212255471865550049e+00) (9, 9.56297118313019500757e-02) (0, -5.67928300578860040249e-02) (1, -7.11728029595611599856e-02) (2, -1.36786504899143929181e-01) (3, -5.93447305904624688999e-02) (4, -1.09929288987994006055e-01) (5, 1.42845682173734986331e-02) (6, 7.13464641304148106116e-01) (7, 9.16038478716687420977e-01) (8, 7.28040879503120907934e-01) (9, -1.10078887559746776970e-01) (0, -6.95347580323183045437e+00) (1, 7.50698789285403567106e-01) (2, 8.74406635092478845550e-01) (3, 7.35253866093141139615e-01) (4, 7.01712361799460948575e-01) (5, 1.46124629276900064312e+00) (6, 3.11773619033313664772e+00) (7, 2.77060559418800533837e-01) (8, 1.89729765331681843321e+00) (9, -2.64198126637401875527e+00) (0, 3.46986749318125964336e+00) (1, 5.61210353077569057412e-01) (2, 6.24839645029225287942e-01) (3, 6.80495385230698524026e-01) (4, 5.34211691619076778359e-01) (5, -3.63248174514006416658e+00) (6, -5.32495795018338768934e-01) (7, -2.57307355654627167851e+00) (8, -2.69807337632053378940e+00) (9, 1.90207703615346823689e+00) (0, -8.54105146451259344964e-01) (1, -2.32606970540216562160e-01) (2, -3.15103404990366098293e-01) (3, -2.24930704406431314357e-01) (4, -3.23129066101244089015e-01) (5, 4.01364382589930956957e-01) (6, 1.26167991425627223911e+00) (7, 1.11883049089484987171e+00) (8, 2.08580479726473377866e+00) (9, -2.41412506264379322918e-01) (0, 1.34086050846304649653e+00) (1, 8.60703418299298278482e-02) (2, 2.01182631616268703389e-01) (3, 1.84286190037403652120e-01) (4, 1.46814821128521455496e-01) (5, -3.10634532204035418435e-01) (6, 7.74439116466797656813e+01) (7, -6.04778107033205336585e-01) (8, -2.69643799865831379492e+00) (9, 8.04858499505415742048e-02) (0, 9.34847379485246210429e-01) (1, 1.95452553410588453220e-01) (2, 1.12694938857613682903e-01) (3, 1.16838951785622716106e-01) (4, 1.58509982008992328373e-01) (5, -4.93606179578614356895e-01) (6, 3.23188585024301318072e+01) (7, -2.42034943344403163934e+00) (8, 2.22237122425311045548e-01) (9, 2.03878472124366272311e-01) (0, -2.85591533073793646391e-01) (1, -5.69527990466071540321e-02) (2, -4.88758676704897920828e-03) (3, 3.48692998940037870992e-02) (4, 5.41965231949375833564e-02) (5, -1.22014423545404621096e-01) (6, -2.69037766502916164679e-01) (7, -1.48600656903471930320e-02) (8, 3.12365257322932388107e+00) (9, -2.43305007245918830661e-01) (10, 7.23077119059115980271e-01) (11, 4.00307710270792926899e-01) (12, 1.79251304757436391579e-01) (13, 2.28895624832084393363e-01) (14, -9.28342013056559639539e-02) (15, -5.17564491979869423233e-01) (16, 1.95634015434043101456e-01) (17, 4.17712718447654840492e-01) (18, 3.62382394719133749117e-01) (19, 7.37447496321053524992e-02) (20, 9.38856173583482028766e-02) 
