FANN_FLO_2.1
num_layers=3
learning_rate=0.700000
connection_rate=1.000000
network_type=0
learning_momentum=0.000000
training_algorithm=2
train_error_function=1
train_stop_function=1
cascade_output_change_fraction=0.010000
quickprop_decay=-0.000100
quickprop_mu=1.750000
rprop_increase_factor=1.200000
rprop_decrease_factor=0.500000
rprop_delta_min=0.000000
rprop_delta_max=50.000000
rprop_delta_zero=0.100000
cascade_output_stagnation_epochs=12
cascade_candidate_change_fraction=0.010000
cascade_candidate_stagnation_epochs=12
cascade_max_out_epochs=150
cascade_min_out_epochs=50
cascade_max_cand_epochs=150
cascade_min_cand_epochs=50
cascade_num_candidate_groups=2
bit_fail_limit=1.00000000000000005551e-01
cascade_candidate_limit=1.00000000000000000000e+03
cascade_weight_multiplier=4.00000000000000022204e-01
cascade_activation_functions_count=10
cascade_activation_functions=3 5 7 8 10 11 14 15 16 17 
cascade_activation_steepnesses_count=4
cascade_activation_steepnesses=2.50000000000000000000e-01 5.00000000000000000000e-01 7.50000000000000000000e-01 1.00000000000000000000e+00 
layer_sizes=22 11 2 
scale_included=0
neurons (num_inputs, activation_function, activation_steepness)=(0, 0, 0.00000000000000000000e+00) (0, 0, 0.00000000000000000000e+00) (0, 0, 0.00000000000000000000e+00) (0, 0, 0.00000000000000000000e+00) (0, 0, 0.00000000000000000000e+00) (0, 0, 0.00000000000000000000e+00) (0, 0, 0.00000000000000000000e+00) (0, 0, 0.00000000000000000000e+00) (0, 0, 0.00000000000000000000e+00) (0, 0, 0.00000000000000000000e+00) (0, 0, 0.00000000000000000000e+00) (0, 0, 0.00000000000000000000e+00) (0, 0, 0.00000000000000000000e+00) (0, 0, 0.00000000000000000000e+00) (0, 0, 0.00000000000000000000e+00) (0, 0, 0.00000000000000000000e+00) (0, 0, 0.00000000000000000000e+00) (0, 0, 0.00000000000000000000e+00) (0, 0, 0.00000000000000000000e+00) (0, 0, 0.00000000000000000000e+00) (0, 0, 0.00000000000000000000e+00) (0, 0, 0.00000000000000000000e+00) (22, 6, 5.00000000000000000000e-01) (22, 6, 5.00000000000000000000e-01) (22, 6, 5.00000000000000000000e-01) (22, 6, 5.00000000000000000000e-01) (22, 6, 5.00000000000000000000e-01) (22, 6, 5.00000000000000000000e-01) (22, 6, 5.00000000000000000000e-01) (22, 6, 5.00000000000000000000e-01) (22, 6, 5.00000000000000000000e-01) (22, 6, 5.00000000000000000000e-01) (0, 6, 0.00000000000000000000e+00) (11, 6, 5.00000000000000000000e-01) (0, 6, 0.00000000000000000000e+00) 
connections (connected_to_neuron, weight)=(0, 3.75933932064020837061e+00) (1, 5.17389429495435204664e-01) (2, 4.76068934187989623030e-01) (3, 5.24836702034574109632e-01) (4, 4.07020551846128120221e-01) (5, 1.50000000000000000000e+03) (6, -2.13583953087222377931e+00) (7, -2.10409214116073295386e+00) (8, -1.81162833359775032882e+00) (9, -2.62123976029245930874e+00) (10, 7.25015472326098375788e+00) (11, -3.21657827484298441956e-01) (12, 1.50000000000000000000e+03) (13, -1.57095008596041774140e+00) (14, 4.71433770847632427348e+00) (15, 1.50000000000000000000e+03) (16, 1.50000000000000000000e+03) (17, 2.62793578122045801138e+02) (18, -1.04232794982658444338e-01) (19, 4.29424765665758101374e-01) (20, 8.74950709739567900058e-01) (21, 2.12443848248473932117e+00) (0, 1.34499675050324221104e+01) (1, -5.94666636426819106287e-02) (2, 5.55594974319564977039e-02) (3, -5.02666447953103653901e-03) (4, -1.90868600149524045295e-02) (5, -4.14007171988145916686e+00) (6, -2.29277132986475251641e+00) (7, 6.67470911635371333404e+00) (8, -3.39037844594167880885e+00) (9, -8.32798483197527339428e+00) (10, 4.69948999950789048086e+00) (11, 4.43875814350321284962e+00) (12, 2.23542747994214074936e+00) (13, 2.97802132346342940394e+00) (14, 4.39209353653928236128e+00) (15, -1.44799999964237213135e+03) (16, -1.50000000000000000000e+03) (17, 6.92015135970725037140e+00) (18, -1.19996929611272573624e+00) (19, -1.15153554092520882257e+00) (20, -1.36721019006112487482e+00) (21, 2.20057407698816792641e-01) (0, 9.00459994895580884133e+00) (1, 6.56315678660453344362e-02) (2, 1.22432782680231611039e-01) (3, 1.20446279079157364533e-01) (4, 1.90533227652746633973e-01) (5, -5.34567739835684818672e+00) (6, -7.26084235289962176552e+00) (7, -9.37163930884520723907e+00) (8, -3.26752881654587090665e+00) (9, -8.85757101885246100892e+00) (10, 1.44025483665968900837e+00) (11, 1.61678888202347909031e-01) (12, -4.83203490528358514666e+00) (13, 5.16408599466591011762e-01) (14, 1.45329532471949773864e+00) (15, 4.90770229870778695869e+00) (16, 8.39643915992566269857e-01) (17, 1.29678665413440197263e+00) (18, -3.27656605886764618063e+00) (19, -3.19359870585623051298e+00) (20, -3.88189374175705259606e-01) (21, 7.68161057620448772809e+00) (0, 1.68574659131028581349e+00) (1, 4.63935387261295184569e-01) (2, 4.58875161536121178862e-01) (3, 4.83914320297622546629e-01) (4, 4.26858593650245532469e-01) (5, -2.17267561184613988701e+00) (6, -1.61576806417368934454e+00) (7, 3.69504258203840807440e+00) (8, 3.91288187462052139409e+00) (9, -2.60673363855610640272e+00) (10, -1.07417090781569224411e+00) (11, 7.90188887000526585247e-01) (12, 1.50000000000000000000e+03) (13, 9.36013797311970733972e+02) (14, -1.24205077203844993505e+00) (15, 4.96149055570232988543e+00) (16, -1.08453019407546307207e+01) (17, 1.13858486318553460137e+02) (18, 5.97705372046618998993e-01) (19, 1.56033695695059915209e+00) (20, 1.50000000000000000000e+03) (21, 1.90365960370583620076e+00) (0, 1.00257751110860517940e+01) (1, -1.72917843533520257382e-02) (2, 1.01418680774207400214e-02) (3, -5.88444999585191995395e-03) (4, 1.00163821064137931183e-01) (5, -4.15959716272941726345e+00) (6, -7.19358472935378134849e+00) (7, -1.09153352814417345940e+01) (8, -5.97965554112778185925e+00) (9, -8.06672040097014786397e+00) (10, 2.77302185733716233251e-01) (11, 7.58285345690384748885e-01) (12, 2.29479766373493587750e+00) (13, 2.29826834618606667959e+00) (14, 1.06667215563642905907e-01) (15, 3.37234087427707729390e+00) (16, -1.80392340013687396683e-02) (17, 1.90664234052643477568e+00) (18, -3.67081555448282426113e+00) (19, -3.47058635550174798823e+00) (20, 1.76834639579981733881e+00) (21, 1.02091746257121531727e+01) (0, -1.56091364358234674370e+01) (1, 2.36212605537058223382e-01) (2, 2.27406496108652350641e-01) (3, 3.12123713941456548682e-01) (4, 3.46311030835987798682e-01) (5, 6.01103506831151790379e+00) (6, 2.23734692016379987933e+01) (7, 6.51317614361386443278e+00) (8, 3.21146604930261414523e+00) (9, 5.80146868186297215431e+00) (10, -7.01421241924742311369e-01) (11, -6.59425422738651234589e-01) (12, 1.39819623208650684054e-01) (13, -6.05672884843340628147e-02) (14, -9.14926662966056292170e-01) (15, -2.15073955117092729949e+01) (16, -4.93524137752627600761e-01) (17, -2.76284755432242823403e+00) (18, 1.10059624942346578891e+00) (19, 9.70078831728818258284e-01) (20, 6.86588243347805327055e-01) (21, -1.29076096192245404204e+00) (0, -1.69193531952211806413e+01) (1, -1.43102771725400913089e-02) (2, -4.88950005855306665814e-02) (3, -1.95593304297766610797e-03) (4, 7.27721386292137697310e-03) (5, 4.53425154808703734233e+00) (6, -1.12066090825807895826e+00) (7, 4.74998866575008626967e+00) (8, 3.41663239637227844625e+00) (9, 5.77540867014322234496e+00) (10, 2.80779043504063929859e+00) (11, 2.08321062361389186535e+00) (12, 3.58325290919785421906e+00) (13, 3.49778581029369739497e+00) (14, 2.73393715021346039862e+00) (15, 5.12014869529254124103e+00) (16, 1.83909672352001174467e+00) (17, -1.94146891019336775841e+00) (18, 4.02985880839619170501e+00) (19, 3.94330011287336601455e+00) (20, 3.45129607204407856669e-04) (21, -7.83416562350526302083e+00) (0, -3.69526185775528404065e+00) (1, 2.98640248389442253263e-01) (2, 4.28401143313844712246e-01) (3, 3.68244626583059120328e-01) (4, 3.54297199310262489469e-01) (5, 3.07677654352412677241e+00) (6, 4.83793069284136123542e+00) (7, 3.16622796138407436306e-01) (8, 6.92823270779786515305e+00) (9, 3.13186750190915894621e+01) (10, -9.83062223277626212603e-02) (11, 6.68187847299473425267e+00) (12, 8.22268504852373016689e-01) (13, 1.33143368794148031498e+00) (14, -4.98078739296978767470e-01) (15, 7.51726159881745470415e+00) (16, -6.11989409410340412521e-01) (17, -8.14877497795831517990e-01) (18, 2.19971646721107161326e+00) (19, 5.09785013495707151066e-01) (20, 2.82628550575595927086e+00) (21, -3.12900853062919814818e+00) (0, -9.97882314065776432344e-01) (1, -1.30125015764292542575e-02) (2, 8.30224052281323954272e-02) (3, -4.90105628757532552076e-02) (4, -3.68529854107467729624e-03) (5, 1.22575708840776886888e+00) (6, 2.13512858054953680309e+00) (7, -2.44671195060303325874e+00) (8, 6.46297914537785067601e-01) (9, 9.29365325044309353864e-01) (10, -4.58923854283802210019e-02) (11, -7.86986483517833693146e-03) (12, -1.93099886841553783356e-02) (13, -5.52087058863495565297e-03) (14, -8.43647998694510709017e-02) (15, -3.91042803010577522116e+00) (16, 1.50000000000000000000e+03) (17, -1.40653003872346721304e-01) (18, 9.84901303553071538754e-02) (19, 6.81979572713246329219e-02) (20, 3.16897697788396104368e-01) (21, -7.46917119082566971500e-01) (0, -1.87131275373519585514e+01) (1, -1.23416978457546330783e-01) (2, -8.66967547327042592498e-02) (3, 4.05451323690405197181e-03) (4, -4.26299605160714023544e-02) (5, 9.63769079382865823113e-01) (6, 1.39838895784908689990e+00) (7, -4.92142635560031904696e-01) (8, 6.03494197942275878432e-01) (9, 3.05119614754234502740e+00) (10, -7.10905387177569320079e-02) (11, 1.44736488553834970888e-02) (12, 8.13476486016921573885e-01) (13, 5.62620188710615032335e-01) (14, -3.69963351703159679107e-02) (15, -3.41959368249658313132e+00) (16, 8.59430407284028063941e+00) (17, -1.43928529643794744786e+00) (18, -2.36388697267723713047e-01) (19, 1.07469225046128505352e-02) (20, -2.66383174194542693414e+00) (21, -6.77904733623894473205e-01) (22, 8.08164186943082785142e-01) (23, -1.15995797428847718935e-01) (24, -1.13371241294421082335e-01) (25, 7.22990732814326575451e-01) (26, -6.22939488979939670621e-01) (27, -2.82360846072680193863e-01) (28, 9.34655184605446276436e-01) (29, -6.39630450894252966521e-02) (30, 4.19574149248793992761e-01) (31, 4.94467862218042064626e-01) (32, 6.67263286292596458082e-01) 
