FANN_FLO_2.1
num_layers=3
learning_rate=0.700000
connection_rate=1.000000
network_type=0
learning_momentum=0.000000
training_algorithm=2
train_error_function=1
train_stop_function=1
cascade_output_change_fraction=0.010000
quickprop_decay=-0.000100
quickprop_mu=1.750000
rprop_increase_factor=1.200000
rprop_decrease_factor=0.500000
rprop_delta_min=0.000000
rprop_delta_max=50.000000
rprop_delta_zero=0.100000
cascade_output_stagnation_epochs=12
cascade_candidate_change_fraction=0.010000
cascade_candidate_stagnation_epochs=12
cascade_max_out_epochs=150
cascade_min_out_epochs=50
cascade_max_cand_epochs=150
cascade_min_cand_epochs=50
cascade_num_candidate_groups=2
bit_fail_limit=1.00000000000000005551e-01
cascade_candidate_limit=1.00000000000000000000e+03
cascade_weight_multiplier=4.00000000000000022204e-01
cascade_activation_functions_count=10
cascade_activation_functions=3 5 7 8 10 11 14 15 16 17 
cascade_activation_steepnesses_count=4
cascade_activation_steepnesses=2.50000000000000000000e-01 5.00000000000000000000e-01 7.50000000000000000000e-01 1.00000000000000000000e+00 
layer_sizes=8 4 2 
scale_included=0
neurons (num_inputs, activation_function, activation_steepness)=(0, 0, 0.00000000000000000000e+00) (0, 0, 0.00000000000000000000e+00) (0, 0, 0.00000000000000000000e+00) (0, 0, 0.00000000000000000000e+00) (0, 0, 0.00000000000000000000e+00) (0, 0, 0.00000000000000000000e+00) (0, 0, 0.00000000000000000000e+00) (0, 0, 0.00000000000000000000e+00) (8, 6, 5.00000000000000000000e-01) (8, 6, 5.00000000000000000000e-01) (8, 6, 5.00000000000000000000e-01) (0, 6, 0.00000000000000000000e+00) (4, 4, 5.00000000000000000000e-01) (0, 4, 0.00000000000000000000e+00) 
connections (connected_to_neuron, weight)=(0, -1.25065107056709745592e+00) (1, -1.55020909409654041866e+01) (2, 2.35771103229750025321e+01) (3, 2.37424559585303995846e+01) (4, 4.00275541603494247056e+01) (5, 1.91712753992146573978e+01) (6, 2.05913340159561158771e+02) (7, -1.63616673270495921466e-01) (0, 6.57931426661521001620e+00) (1, -1.76876132225003313003e+00) (2, -1.09204634364581432138e+00) (3, -1.28782491141706501026e+00) (4, 6.59699381216056091048e-01) (5, 4.07524152490296720508e-01) (6, 5.33213405396353312682e+00) (7, 8.07700098863742166344e-01) (0, 6.71520878534385712300e+00) (1, -1.39607545216632478180e+00) (2, -1.07994787827814575643e+00) (3, -1.29615348371671368355e+00) (4, -6.09092591190872889584e-01) (5, -4.05265094612551057818e-01) (6, -1.62132412878686427149e+00) (7, 9.34588421401926661147e-01) (8, 2.15844278761173136161e+00) (9, -9.04160916197700781360e-01) (10, -4.17759450097801448010e+01) (11, -4.31843343292145021017e-01) 
