FANN_FLO_2.1
num_layers=3
learning_rate=0.700000
connection_rate=1.000000
network_type=0
learning_momentum=0.000000
training_algorithm=2
train_error_function=1
train_stop_function=1
cascade_output_change_fraction=0.010000
quickprop_decay=-0.000100
quickprop_mu=1.750000
rprop_increase_factor=1.200000
rprop_decrease_factor=0.500000
rprop_delta_min=0.000000
rprop_delta_max=50.000000
rprop_delta_zero=0.100000
cascade_output_stagnation_epochs=12
cascade_candidate_change_fraction=0.010000
cascade_candidate_stagnation_epochs=12
cascade_max_out_epochs=150
cascade_min_out_epochs=50
cascade_max_cand_epochs=150
cascade_min_cand_epochs=50
cascade_num_candidate_groups=2
bit_fail_limit=1.00000000000000005551e-01
cascade_candidate_limit=1.00000000000000000000e+03
cascade_weight_multiplier=4.00000000000000022204e-01
cascade_activation_functions_count=10
cascade_activation_functions=3 5 7 8 10 11 14 15 16 17 
cascade_activation_steepnesses_count=4
cascade_activation_steepnesses=2.50000000000000000000e-01 5.00000000000000000000e-01 7.50000000000000000000e-01 1.00000000000000000000e+00 
layer_sizes=8 4 2 
scale_included=0
neurons (num_inputs, activation_function, activation_steepness)=(0, 0, 0.00000000000000000000e+00) (0, 0, 0.00000000000000000000e+00) (0, 0, 0.00000000000000000000e+00) (0, 0, 0.00000000000000000000e+00) (0, 0, 0.00000000000000000000e+00) (0, 0, 0.00000000000000000000e+00) (0, 0, 0.00000000000000000000e+00) (0, 0, 0.00000000000000000000e+00) (8, 6, 5.00000000000000000000e-01) (8, 6, 5.00000000000000000000e-01) (8, 6, 5.00000000000000000000e-01) (0, 6, 0.00000000000000000000e+00) (4, 4, 5.00000000000000000000e-01) (0, 4, 0.00000000000000000000e+00) 
connections (connected_to_neuron, weight)=(0, -1.83726608070627968061e+01) (1, 1.11746404801300291965e+00) (2, -1.86709642924810137465e+00) (3, 1.74469529096369746490e+00) (4, 3.23573307874449112020e+00) (5, 1.49635586791653030225e+00) (6, 2.41796821797403893584e+00) (7, -9.82363103213784616408e-01) (0, 1.13030603417974582214e+01) (1, -1.51083775394720554175e+00) (2, -1.33096706834146338849e+00) (3, 6.61689275755800121459e+00) (4, 1.28630962526154064562e+01) (5, -1.80394082791342086347e-02) (6, -5.16918612298023738560e+00) (7, -1.49180777230660766008e+00) (0, -1.35924498928022075006e+00) (1, 3.32984709190384187139e+00) (2, 3.19111312654198719940e+00) (3, 8.56236430115130175977e-01) (4, 3.09076462368515048063e-01) (5, 1.56576178453224246212e+00) (6, 9.19932316429509566724e-01) (7, -2.39718405174850790473e+00) (8, 1.50095364886439899266e+01) (9, 2.46757309144632657194e+01) (10, 4.77961559833641516093e+01) (11, -2.74628432858757598467e+00) 
