FANN_FLO_2.1
num_layers=3
learning_rate=0.700000
connection_rate=1.000000
network_type=0
learning_momentum=0.000000
training_algorithm=2
train_error_function=1
train_stop_function=1
cascade_output_change_fraction=0.010000
quickprop_decay=-0.000100
quickprop_mu=1.750000
rprop_increase_factor=1.200000
rprop_decrease_factor=0.500000
rprop_delta_min=0.000000
rprop_delta_max=50.000000
rprop_delta_zero=0.100000
cascade_output_stagnation_epochs=12
cascade_candidate_change_fraction=0.010000
cascade_candidate_stagnation_epochs=12
cascade_max_out_epochs=150
cascade_min_out_epochs=50
cascade_max_cand_epochs=150
cascade_min_cand_epochs=50
cascade_num_candidate_groups=2
bit_fail_limit=1.00000000000000005551e-01
cascade_candidate_limit=1.00000000000000000000e+03
cascade_weight_multiplier=4.00000000000000022204e-01
cascade_activation_functions_count=10
cascade_activation_functions=3 5 7 8 10 11 14 15 16 17 
cascade_activation_steepnesses_count=4
cascade_activation_steepnesses=2.50000000000000000000e-01 5.00000000000000000000e-01 7.50000000000000000000e-01 1.00000000000000000000e+00 
layer_sizes=12 11 2 
scale_included=0
neurons (num_inputs, activation_function, activation_steepness)=(0, 0, 0.00000000000000000000e+00) (0, 0, 0.00000000000000000000e+00) (0, 0, 0.00000000000000000000e+00) (0, 0, 0.00000000000000000000e+00) (0, 0, 0.00000000000000000000e+00) (0, 0, 0.00000000000000000000e+00) (0, 0, 0.00000000000000000000e+00) (0, 0, 0.00000000000000000000e+00) (0, 0, 0.00000000000000000000e+00) (0, 0, 0.00000000000000000000e+00) (0, 0, 0.00000000000000000000e+00) (0, 0, 0.00000000000000000000e+00) (12, 6, 5.00000000000000000000e-01) (12, 6, 5.00000000000000000000e-01) (12, 6, 5.00000000000000000000e-01) (12, 6, 5.00000000000000000000e-01) (12, 6, 5.00000000000000000000e-01) (12, 6, 5.00000000000000000000e-01) (12, 6, 5.00000000000000000000e-01) (12, 6, 5.00000000000000000000e-01) (12, 6, 5.00000000000000000000e-01) (12, 6, 5.00000000000000000000e-01) (0, 6, 0.00000000000000000000e+00) (11, 6, 5.00000000000000000000e-01) (0, 6, 0.00000000000000000000e+00) 
connections (connected_to_neuron, weight)=(0, 2.83050676037969939358e+00) (1, 3.43895622036015202738e-01) (2, 3.32862727782284428812e-01) (3, 2.25950822672402129587e-01) (4, 3.42812352320706059672e-01) (5, 1.56300857712559038148e+00) (6, -5.59563402504169138396e-01) (7, 1.43715854179119411071e+01) (8, 1.48919999871253958190e+03) (9, 1.50000000000000000000e+03) (10, -7.79008389554065594496e+00) (11, 2.48553964403168681230e+00) (0, -1.05931172191148270656e+00) (1, -5.69054473139318436892e-02) (2, -1.05199909577515973713e-01) (3, -1.48015263298896304622e-01) (4, -1.67120683886083504222e-02) (5, 6.13615093006007264465e-02) (6, 3.31686728243805184491e-01) (7, 6.39695634767467824489e-01) (8, 1.00968261316581831011e+00) (9, 2.63615979494437879804e-01) (10, 1.06300575735762681262e+00) (11, -1.44736023629426391324e-01) (0, -3.52585661565178676291e-01) (1, 3.39009547643758651914e-02) (2, -8.27319091148278756842e-02) (3, -3.01902657337091810674e-02) (4, -3.77359529919527453279e-02) (5, 4.63951467110504722768e+00) (6, -4.67823856207549682029e-01) (7, -5.62590496237640458332e-01) (8, -1.15801163576277921230e+00) (9, -5.73328205758083742083e-01) (10, -1.09875088088618944049e+00) (11, -5.87863328850194571951e-02) (0, 6.97839266491010690174e+00) (1, 4.11425873797434948909e-01) (2, 5.21937094789046596155e-01) (3, 4.19647559683818005549e-01) (4, 5.05980603557128261194e-01) (5, -6.64175967049548177101e+00) (6, -6.35296734213627090071e+00) (7, -6.72109206538126358055e+00) (8, 4.41758455117725112871e+00) (9, 1.26889678623165824689e+00) (10, -6.00995885899561610444e+00) (11, 8.07525805835068410943e+00) (0, 9.36030373287999650778e-01) (1, 4.21552875717913361209e-02) (2, 6.09820628246103280112e-02) (3, 8.14596222420964216626e-02) (4, 5.32585525592600278477e-02) (5, 1.26336624444722422922e+00) (6, 1.48761169187041880635e-01) (7, -5.63730424725764400762e-01) (8, 3.41253951524701015785e+00) (9, -1.37106911394665825776e-01) (10, -1.46068799356269801137e+03) (11, 2.77595066194005257731e-01) (0, -9.99653491202328270404e-01) (1, -7.08602532292876893111e-03) (2, 1.51817186221930369716e-02) (3, -4.99637888326790735594e-02) (4, 1.95685608730170566838e-02) (5, -2.64744718158553160592e-01) (6, -1.03654146211863723570e-01) (7, 1.44473242967437509598e+00) (8, 1.04830507758176416644e+00) (9, 4.14254169975570407658e-01) (10, 1.65638303010092924339e+00) (11, -2.41374591452390319102e-01) (0, 7.39993040987696115707e+00) (1, 4.33451037526413840428e-01) (2, 3.81640623927399558202e-01) (3, 3.72286762714669150487e-01) (4, 3.94228182405516547337e-01) (5, -6.40158282117028143432e+00) (6, -6.16212270432941267018e+00) (7, -6.65946042480846323031e+00) (8, 4.21762355176746517316e+00) (9, 1.18427194631383847501e+00) (10, -8.43586445985630639655e+00) (11, 7.85260531840721043295e+00) (0, 6.65079867536739222089e+00) (1, 3.82830092724262049941e-01) (2, 5.03820115741191565384e-01) (3, 5.11218706186710281081e-01) (4, 3.77787428017555049209e-01) (5, -6.07603414791834595121e+00) (6, -5.87360325025168883428e+00) (7, -6.11391182019467027686e+00) (8, 4.16270627731745257449e+00) (9, 1.56199591775488499934e+00) (10, -4.62287719780873285202e+00) (11, 7.37189601113322812154e+00) (0, 7.63752238931669502620e+00) (1, 7.64989732436874070309e-01) (2, 7.50458187095858986204e-01) (3, 6.45244433216789370356e-01) (4, 6.65250441663005731563e-01) (5, -1.05305169949253425443e+01) (6, 4.80471278107825394699e+00) (7, -9.77999252457570555919e+00) (8, 5.30845752596474973473e+00) (9, 7.29237023364867065212e-01) (10, 2.05259779464881741973e+00) (11, -2.13522352204804510833e+00) (0, -1.42733261732604765903e+00) (1, -2.63681523564920604341e-02) (2, -4.63277287844284929585e-02) (3, -4.87834848526581682515e-02) (4, 2.61443965073958235756e-02) (5, -4.40612978647296149592e-01) (6, 2.06186944132008609376e-01) (7, 2.13364458108327914587e+00) (8, 1.19829078183271287017e+00) (9, 4.31259617405556627823e-01) (10, -1.46068799356269801137e+03) (11, 8.14056574983033631732e-02) (12, 1.15447356982276683190e+00) (13, 6.85885198854369382282e-01) (14, -3.98102683803158052811e-01) (15, -1.29539101230978737078e+00) (16, -8.36841346422999704524e-02) (17, 4.97177480853224551538e-01) (18, -1.90031974538105802308e-01) (19, -3.05778291497863397019e-01) (20, -2.01291728202381864365e-01) (21, -1.05847416540166072707e+00) (22, 8.62064140581137117181e-01) 
