FANN_FLO_2.1
num_layers=3
learning_rate=0.700000
connection_rate=1.000000
network_type=0
learning_momentum=0.000000
training_algorithm=2
train_error_function=1
train_stop_function=1
cascade_output_change_fraction=0.010000
quickprop_decay=-0.000100
quickprop_mu=1.750000
rprop_increase_factor=1.200000
rprop_decrease_factor=0.500000
rprop_delta_min=0.000000
rprop_delta_max=50.000000
rprop_delta_zero=0.100000
cascade_output_stagnation_epochs=12
cascade_candidate_change_fraction=0.010000
cascade_candidate_stagnation_epochs=12
cascade_max_out_epochs=150
cascade_min_out_epochs=50
cascade_max_cand_epochs=150
cascade_min_cand_epochs=50
cascade_num_candidate_groups=2
bit_fail_limit=1.00000000000000005551e-01
cascade_candidate_limit=1.00000000000000000000e+03
cascade_weight_multiplier=4.00000000000000022204e-01
cascade_activation_functions_count=10
cascade_activation_functions=3 5 7 8 10 11 14 15 16 17 
cascade_activation_steepnesses_count=4
cascade_activation_steepnesses=2.50000000000000000000e-01 5.00000000000000000000e-01 7.50000000000000000000e-01 1.00000000000000000000e+00 
layer_sizes=22 11 2 
scale_included=0
neurons (num_inputs, activation_function, activation_steepness)=(0, 0, 0.00000000000000000000e+00) (0, 0, 0.00000000000000000000e+00) (0, 0, 0.00000000000000000000e+00) (0, 0, 0.00000000000000000000e+00) (0, 0, 0.00000000000000000000e+00) (0, 0, 0.00000000000000000000e+00) (0, 0, 0.00000000000000000000e+00) (0, 0, 0.00000000000000000000e+00) (0, 0, 0.00000000000000000000e+00) (0, 0, 0.00000000000000000000e+00) (0, 0, 0.00000000000000000000e+00) (0, 0, 0.00000000000000000000e+00) (0, 0, 0.00000000000000000000e+00) (0, 0, 0.00000000000000000000e+00) (0, 0, 0.00000000000000000000e+00) (0, 0, 0.00000000000000000000e+00) (0, 0, 0.00000000000000000000e+00) (0, 0, 0.00000000000000000000e+00) (0, 0, 0.00000000000000000000e+00) (0, 0, 0.00000000000000000000e+00) (0, 0, 0.00000000000000000000e+00) (0, 0, 0.00000000000000000000e+00) (22, 6, 5.00000000000000000000e-01) (22, 6, 5.00000000000000000000e-01) (22, 6, 5.00000000000000000000e-01) (22, 6, 5.00000000000000000000e-01) (22, 6, 5.00000000000000000000e-01) (22, 6, 5.00000000000000000000e-01) (22, 6, 5.00000000000000000000e-01) (22, 6, 5.00000000000000000000e-01) (22, 6, 5.00000000000000000000e-01) (22, 6, 5.00000000000000000000e-01) (0, 6, 0.00000000000000000000e+00) (11, 6, 5.00000000000000000000e-01) (0, 6, 0.00000000000000000000e+00) 
connections (connected_to_neuron, weight)=(0, -6.64520296518855468904e-01) (1, 1.25138694145250639611e-01) (2, -2.73423775057313224457e-02) (3, 1.30027228691149049356e-01) (4, 1.13811576463747288201e-01) (5, -3.30998863384322272729e-01) (6, -1.27307152974341974971e-01) (7, -3.36991458445492775287e-01) (8, -1.39807527807729453651e-01) (9, -1.64803545590961414424e-01) (10, -1.55331493914488805164e-01) (11, -1.37959581750065896077e-01) (12, -1.94870089892564241074e-01) (13, -4.15318471653902399066e-02) (14, 2.55068090498802024779e-01) (15, 3.78213815036124989533e+00) (16, 2.63710345548024616136e+00) (17, 6.37590776864771280330e-01) (18, -7.75511311964016541998e-02) (19, -1.86507230400951129479e-01) (20, -2.63369715197866050005e+00) (21, -1.82029966518835739642e-01) (0, 7.56391627295189383773e+00) (1, 4.40668151233487237484e-01) (2, 5.41093789491943644165e-01) (3, 4.80635524246983636409e-01) (4, 4.56208944771580804378e-01) (5, -6.32680165989900178403e+00) (6, -4.51484241244883358068e-03) (7, 1.04441301693869270650e+01) (8, 8.37116487982097062792e-02) (9, -1.40525990203562545222e-01) (10, -3.05864075408625257779e-01) (11, 2.40388838845787627951e-01) (12, -5.07475713878452732580e-03) (13, -8.06999170889537709161e-02) (14, -5.49633709506702899938e-02) (15, -6.90129915393597581641e+00) (16, -6.12095258015742427204e+00) (17, -6.68640951846577014095e+00) (18, 2.17006187016370671872e-01) (19, -2.49483983573281919988e+00) (20, 7.97082486006367219034e-01) (21, 6.72923892371711129812e-01) (0, -8.12795565340236669805e-01) (1, -8.61142016975778024079e-02) (2, -1.84416469189395304529e-01) (3, -5.34405745594399850251e-02) (4, -2.05077882858981486169e-01) (5, 1.65122981777659189051e-01) (6, -1.80243479982105825332e-01) (7, -4.34511887944003127870e+00) (8, -7.57766986946789344870e-01) (9, -2.39744205490957346116e-01) (10, -1.66244026856733007058e-01) (11, -9.06322256444152762889e-01) (12, -2.18279008160436188701e-01) (13, -9.46230611832345330781e-02) (14, 1.80105861378495324399e-01) (15, 4.00449389639403676711e+01) (16, 1.74674519511451897813e+00) (17, 1.23655234622691700963e+00) (18, -3.24336367711447581819e-01) (19, -1.27086833504612056744e-01) (20, -5.19703085567589151417e-01) (21, -2.26504463231298414083e-01) (0, 1.49832263060928994491e+02) (1, 3.16200120121752448199e+00) (2, 3.12449655056511588214e+00) (3, 3.22058362633501715777e+00) (4, 3.13756817698990531085e+00) (5, -2.38443994069424158866e+00) (6, 2.41553746436124416874e+00) (7, -3.71886869465574720905e+00) (8, 4.37052407816515753325e+00) (9, 2.82877654550413248913e+00) (10, 2.84250342853403781263e+00) (11, 4.47713756884925917490e+00) (12, 2.91665683955408328032e+00) (13, 2.54709472151924742889e+00) (14, 1.26323992196668843935e-01) (15, -3.23678425117445112136e+00) (16, 1.07229825277351210389e+02) (17, -5.67174826206702120679e-01) (18, 1.13381452724984566061e+00) (19, -8.29556062820278050651e-01) (20, 3.73042376323718816167e+00) (21, -6.84850040941687865370e+00) (0, -9.59359456580910263668e-01) (1, -1.12536779378062043455e-01) (2, -1.47816276882296232520e-01) (3, -1.70159986947184233008e-01) (4, -1.61059944663649229346e-01) (5, 6.96657085592606417634e-01) (6, -8.27646225756521580763e+00) (7, -2.19986729752530019155e+00) (8, -2.57909792538844442333e+01) (9, -1.88526619830210218076e+00) (10, -8.27944290046185749077e+00) (11, -8.96842394736629966445e-01) (12, -7.90502908296247053244e+00) (13, -2.50759093806528232662e+00) (14, 2.91735321817886805729e-01) (15, 1.28344141876861755236e+02) (16, 9.80915887682052733965e+00) (17, 1.16035597709987339243e+01) (18, -9.64690183796940381455e-01) (19, 1.54334122388449429542e-01) (20, 7.45689032605500834450e+00) (21, -2.31339389483754015453e-01) (0, -7.68377198739583655573e-01) (1, -1.01123489324118728816e-01) (2, -1.22849114123847219515e-01) (3, -2.71205700818564487964e-01) (4, -2.52308569733168674976e-01) (5, 2.99394786496458176206e-01) (6, -1.97620910089918866426e+00) (7, -4.38355990800389960782e+00) (8, -4.82499191971276830682e-01) (9, -5.02890731064501994574e-01) (10, -4.94663505406036707601e-01) (11, -3.82691190914987544591e-01) (12, -3.51335435684725638783e-01) (13, -1.70097271025545815348e+00) (14, 1.69067777376027683633e-01) (15, 1.88024576461999828325e+01) (16, -5.04308905272721830215e+00) (17, 1.48380163154374944412e+00) (18, -1.99847630608893722659e+00) (19, 2.67387099949360218520e-01) (20, -5.61153047452613407131e-01) (21, -1.62131177737137227579e-01) (0, 1.51447180680449609014e+01) (1, 3.31109733667199646057e-01) (2, 3.65253215070788894714e-01) (3, 3.64581887956683670104e-01) (4, 3.63271509643619094909e-01) (5, -3.23520129364645603331e+00) (6, 2.72588772372537135880e+00) (7, -4.88211453735446099245e+00) (8, 2.69504237768002319342e+00) (9, 2.83188405723419744930e+00) (10, 2.79163632569460329336e+00) (11, 2.44468461034234785245e+00) (12, 2.88439197063524721543e+00) (13, 3.25386476702048543785e+00) (14, 1.94437273221860579264e-01) (15, 9.12227409215380258267e-01) (16, 3.16709699294921653845e+00) (17, -1.70363116722107976742e+00) (18, 9.74655146354563517441e-01) (19, -3.49600960476752153916e-01) (20, 2.01669189746469790236e+00) (21, -1.24447861171035389916e+00) (0, 1.24640885605253259882e+01) (1, 2.70942838513858696992e-01) (2, 2.82158793532855889374e-01) (3, 2.63025538647182310914e-01) (4, 4.15427887463577172333e-01) (5, -7.66259508964854685331e+00) (6, 1.20908774103349303530e+00) (7, 1.38457397311859509159e+00) (8, 1.58811828431030965803e+00) (9, 8.79897734186367186382e-01) (10, 1.20745726980298884179e+00) (11, 1.39689162407152189793e+00) (12, 1.14885741980216815605e+00) (13, 1.08406957151742133760e+00) (14, -5.92681950984391359150e-01) (15, -4.86346404205852156366e+00) (16, -6.92279503938457096979e+00) (17, -7.04062655266397641185e+00) (18, 1.48779268752001370135e-01) (19, -7.86399401507988260462e-01) (20, 1.90628012665371859846e+00) (21, 4.71447635757340111073e-01) (0, 1.54056959029437301467e+01) (1, 2.33514383473415437775e-01) (2, 3.16155202724953454663e-01) (3, 4.00823570826073560802e-01) (4, 2.45200902261753173050e-01) (5, -3.18278520161302180824e+00) (6, 9.19097959672716680046e-01) (7, -3.95881566670916251738e+00) (8, 6.42392218417164873046e-01) (9, 1.02244043081771862624e+00) (10, 8.97851552694970522772e-01) (11, 7.75586242906549983012e-01) (12, 9.15915587584549273359e-01) (13, 1.12044579618116468822e+00) (14, 1.69614317787911494939e+00) (15, -2.79060256190959465883e+00) (16, -2.17576612736799557268e+00) (17, -1.50897465917115414236e+00) (18, 8.55257218553444387155e-01) (19, -2.26104367484155854839e+00) (20, 2.72549791123742712884e+00) (21, 8.95703982283723165736e-02) (0, 3.82601845481357694112e+00) (1, 5.36788118863043561824e-01) (2, 3.91304088616309608817e-01) (3, 4.63635785365042907280e-01) (4, 4.24827640736041289848e-01) (5, -5.00699657195914404895e+00) (6, -1.19458152896410665922e-01) (7, 9.67782717971839900883e+00) (8, 3.85173212647580143209e-01) (9, -7.01265359421475387158e-01) (10, 2.09809786128697661756e-02) (11, -4.53998321632447132679e-01) (12, -3.19874803623252101925e-01) (13, -2.93355348522544523426e-01) (14, -2.05186130369657410144e-01) (15, -6.73463688981102581721e+00) (16, -6.11572007114384064153e+00) (17, -5.44215011689049443788e+00) (18, 1.68904883359751789573e-01) (19, -2.65936220596893768686e+00) (20, 1.55371970906848733129e-01) (21, 1.26595545404436315984e+00) (22, 3.23162700660366120076e-01) (23, 4.24920660905636460303e-01) (24, 4.67598749639321631388e-02) (25, 8.78251069353207514112e-01) (26, 1.45215486009972111203e-01) (27, 1.05919976133871093782e-01) (28, -3.23310449821373635526e-01) (29, -8.71965006709405132668e-01) (30, -6.79830791877522710998e-01) (31, 4.91927366842974000960e-01) (32, 3.77511310084078066662e-01) 
