FANN_FLO_2.1
num_layers=3
learning_rate=0.700000
connection_rate=1.000000
network_type=0
learning_momentum=0.000000
training_algorithm=2
train_error_function=1
train_stop_function=1
cascade_output_change_fraction=0.010000
quickprop_decay=-0.000100
quickprop_mu=1.750000
rprop_increase_factor=1.200000
rprop_decrease_factor=0.500000
rprop_delta_min=0.000000
rprop_delta_max=50.000000
rprop_delta_zero=0.100000
cascade_output_stagnation_epochs=12
cascade_candidate_change_fraction=0.010000
cascade_candidate_stagnation_epochs=12
cascade_max_out_epochs=150
cascade_min_out_epochs=50
cascade_max_cand_epochs=150
cascade_min_cand_epochs=50
cascade_num_candidate_groups=2
bit_fail_limit=1.00000000000000005551e-01
cascade_candidate_limit=1.00000000000000000000e+03
cascade_weight_multiplier=4.00000000000000022204e-01
cascade_activation_functions_count=10
cascade_activation_functions=3 5 7 8 10 11 14 15 16 17 
cascade_activation_steepnesses_count=4
cascade_activation_steepnesses=2.50000000000000000000e-01 5.00000000000000000000e-01 7.50000000000000000000e-01 1.00000000000000000000e+00 
layer_sizes=16 4 2 
scale_included=0
neurons (num_inputs, activation_function, activation_steepness)=(0, 0, 0.00000000000000000000e+00) (0, 0, 0.00000000000000000000e+00) (0, 0, 0.00000000000000000000e+00) (0, 0, 0.00000000000000000000e+00) (0, 0, 0.00000000000000000000e+00) (0, 0, 0.00000000000000000000e+00) (0, 0, 0.00000000000000000000e+00) (0, 0, 0.00000000000000000000e+00) (0, 0, 0.00000000000000000000e+00) (0, 0, 0.00000000000000000000e+00) (0, 0, 0.00000000000000000000e+00) (0, 0, 0.00000000000000000000e+00) (0, 0, 0.00000000000000000000e+00) (0, 0, 0.00000000000000000000e+00) (0, 0, 0.00000000000000000000e+00) (0, 0, 0.00000000000000000000e+00) (16, 6, 5.00000000000000000000e-01) (16, 6, 5.00000000000000000000e-01) (16, 6, 5.00000000000000000000e-01) (0, 6, 0.00000000000000000000e+00) (4, 4, 5.00000000000000000000e-01) (0, 4, 0.00000000000000000000e+00) 
connections (connected_to_neuron, weight)=(0, 2.93871039541192047295e+00) (1, 1.04113012655320602562e+00) (2, 5.27982011220358504744e+00) (3, 5.19336749048805335072e-01) (4, 9.10242366251758472373e-01) (5, 1.21988810227159194532e+00) (6, 1.37717345822736780825e+00) (7, 1.40183596267141519220e+00) (8, 1.38718447552867463202e+00) (9, 1.50000000000000000000e+03) (10, 3.28501382563626265210e+00) (11, 1.50000000000000000000e+03) (12, 1.50000000000000000000e+03) (13, 1.75085889827923590900e+00) (14, 2.48387780947899372563e+00) (15, -3.39296119017767505710e+00) (0, 4.51398873119027221890e+00) (1, 7.24180440696973391823e+02) (2, -5.27720954082070825564e+00) (3, 4.43359858126166095360e+00) (4, 3.54856541078272735845e+00) (5, 5.15019619277307061367e+00) (6, 5.61550305121609838466e+00) (7, 5.46958071036257820197e+00) (8, 5.57879304458194891225e+00) (9, 1.50000000000000000000e+03) (10, -7.25936726961734613006e-01) (11, 1.50000000000000000000e+03) (12, 1.50000000000000000000e+03) (13, 2.05495779005238503601e+01) (14, 2.90245181442912212333e+02) (15, -1.26528569778400057366e+00) (0, -1.03243968648512201014e+01) (1, -1.28209539595190880057e+00) (2, -2.16593265552056868373e+00) (3, -1.83979606639923254363e+00) (4, -1.64882159787748516777e+00) (5, -1.42085790232896114205e+00) (6, -9.49764582261127809915e-01) (7, -9.16342001965536168129e-01) (8, -9.42833917434809487546e-01) (9, -1.00000000000000000000e+03) (10, 1.50000000000000000000e+03) (11, 0.00000000000000000000e+00) (12, 0.00000000000000000000e+00) (13, 1.34617182790405672677e+03) (14, 1.14256083601757723045e+03) (15, 6.97853784992975167967e+00) (16, 1.17956802338942257080e+01) (17, 5.55708103666638297824e+00) (18, -1.21823060218542664757e+01) (19, -1.85939104345948069685e+00) 
