FANN_FLO_2.1
num_layers=3
learning_rate=0.700000
connection_rate=1.000000
network_type=0
learning_momentum=0.000000
training_algorithm=2
train_error_function=1
train_stop_function=1
cascade_output_change_fraction=0.010000
quickprop_decay=-0.000100
quickprop_mu=1.750000
rprop_increase_factor=1.200000
rprop_decrease_factor=0.500000
rprop_delta_min=0.000000
rprop_delta_max=50.000000
rprop_delta_zero=0.100000
cascade_output_stagnation_epochs=12
cascade_candidate_change_fraction=0.010000
cascade_candidate_stagnation_epochs=12
cascade_max_out_epochs=150
cascade_min_out_epochs=50
cascade_max_cand_epochs=150
cascade_min_cand_epochs=50
cascade_num_candidate_groups=2
bit_fail_limit=1.00000000000000005551e-01
cascade_candidate_limit=1.00000000000000000000e+03
cascade_weight_multiplier=4.00000000000000022204e-01
cascade_activation_functions_count=10
cascade_activation_functions=3 5 7 8 10 11 14 15 16 17 
cascade_activation_steepnesses_count=4
cascade_activation_steepnesses=2.50000000000000000000e-01 5.00000000000000000000e-01 7.50000000000000000000e-01 1.00000000000000000000e+00 
layer_sizes=12 4 2 
scale_included=0
neurons (num_inputs, activation_function, activation_steepness)=(0, 0, 0.00000000000000000000e+00) (0, 0, 0.00000000000000000000e+00) (0, 0, 0.00000000000000000000e+00) (0, 0, 0.00000000000000000000e+00) (0, 0, 0.00000000000000000000e+00) (0, 0, 0.00000000000000000000e+00) (0, 0, 0.00000000000000000000e+00) (0, 0, 0.00000000000000000000e+00) (0, 0, 0.00000000000000000000e+00) (0, 0, 0.00000000000000000000e+00) (0, 0, 0.00000000000000000000e+00) (0, 0, 0.00000000000000000000e+00) (12, 6, 5.00000000000000000000e-01) (12, 6, 5.00000000000000000000e-01) (12, 6, 5.00000000000000000000e-01) (0, 6, 0.00000000000000000000e+00) (4, 4, 5.00000000000000000000e-01) (0, 4, 0.00000000000000000000e+00) 
connections (connected_to_neuron, weight)=(0, -4.98220491661911424330e+00) (1, -7.12103734787829090180e+00) (2, -6.60631362688432499652e+00) (3, -7.14493735747249036905e+00) (4, 1.50000000000000000000e+03) (5, 1.50000000000000000000e+03) (6, -7.14489480772569773848e+00) (7, -3.95997839090671188700e+00) (8, -3.96063861252678117708e+00) (9, -3.87771793987929713765e+00) (10, -3.96052139134638725437e+00) (11, 1.01429067792723746066e+01) (0, -3.34150372718271384542e+01) (1, -1.50000000000000000000e+03) (2, 1.69830921941451045143e+01) (3, -1.50000000000000000000e+03) (4, -1.50000000000000000000e+03) (5, 3.97008302044501126815e+00) (6, -1.50000000000000000000e+03) (7, -1.50000000000000000000e+03) (8, -1.50000000000000000000e+03) (9, -1.50000000000000000000e+03) (10, -1.50000000000000000000e+03) (11, -2.91262917452646652450e+00) (0, 4.35325022506852454818e-01) (1, 1.50000000000000000000e+03) (2, -8.59145159200956420875e+00) (3, 1.50000000000000000000e+03) (4, -1.52109092737858606625e+01) (5, -1.10168090118849715253e+01) (6, 1.50000000000000000000e+03) (7, 1.50000000000000000000e+03) (8, 1.50000000000000000000e+03) (9, 1.50000000000000000000e+03) (10, 1.50000000000000000000e+03) (11, 1.50240830645493765871e+01) (12, -1.01372198201665604245e+01) (13, 2.85233413431963267470e+00) (14, -4.36785224068599831071e+00) (15, 9.95237535020439700872e+00) 
