FANN_FLO_2.1
num_layers=3
learning_rate=0.700000
connection_rate=1.000000
network_type=0
learning_momentum=0.000000
training_algorithm=2
train_error_function=1
train_stop_function=1
cascade_output_change_fraction=0.010000
quickprop_decay=-0.000100
quickprop_mu=1.750000
rprop_increase_factor=1.200000
rprop_decrease_factor=0.500000
rprop_delta_min=0.000000
rprop_delta_max=50.000000
rprop_delta_zero=0.100000
cascade_output_stagnation_epochs=12
cascade_candidate_change_fraction=0.010000
cascade_candidate_stagnation_epochs=12
cascade_max_out_epochs=150
cascade_min_out_epochs=50
cascade_max_cand_epochs=150
cascade_min_cand_epochs=50
cascade_num_candidate_groups=2
bit_fail_limit=1.00000000000000005551e-01
cascade_candidate_limit=1.00000000000000000000e+03
cascade_weight_multiplier=4.00000000000000022204e-01
cascade_activation_functions_count=10
cascade_activation_functions=3 5 7 8 10 11 14 15 16 17 
cascade_activation_steepnesses_count=4
cascade_activation_steepnesses=2.50000000000000000000e-01 5.00000000000000000000e-01 7.50000000000000000000e-01 1.00000000000000000000e+00 
layer_sizes=14 4 2 
scale_included=0
neurons (num_inputs, activation_function, activation_steepness)=(0, 0, 0.00000000000000000000e+00) (0, 0, 0.00000000000000000000e+00) (0, 0, 0.00000000000000000000e+00) (0, 0, 0.00000000000000000000e+00) (0, 0, 0.00000000000000000000e+00) (0, 0, 0.00000000000000000000e+00) (0, 0, 0.00000000000000000000e+00) (0, 0, 0.00000000000000000000e+00) (0, 0, 0.00000000000000000000e+00) (0, 0, 0.00000000000000000000e+00) (0, 0, 0.00000000000000000000e+00) (0, 0, 0.00000000000000000000e+00) (0, 0, 0.00000000000000000000e+00) (0, 0, 0.00000000000000000000e+00) (14, 6, 5.00000000000000000000e-01) (14, 6, 5.00000000000000000000e-01) (14, 6, 5.00000000000000000000e-01) (0, 6, 0.00000000000000000000e+00) (4, 4, 5.00000000000000000000e-01) (0, 4, 0.00000000000000000000e+00) 
connections (connected_to_neuron, weight)=(0, 3.25205593752430885957e+01) (1, -4.89710240380645522862e+00) (2, -4.42695921625051713733e+00) (3, 9.35606549534825693293e-01) (4, -1.59519176949207786009e+01) (5, 5.10855148143915585024e+01) (6, -4.47455417782195308263e+00) (7, 1.06521546689674284636e+00) (8, -4.05233502969531489413e+00) (9, -3.96013295096133788320e+00) (10, -4.13432300366746297016e+00) (11, 8.12645212539206296398e-01) (12, -4.07410030687445967601e+00) (13, -6.64959461396401052546e-01) (0, -1.14158187323927196033e+00) (1, -3.08923304251033670198e+00) (2, -1.11733839066469742285e+00) (3, -8.35097238160866006673e-01) (4, -1.66269098287178351825e+00) (5, 1.57184969081070291530e+00) (6, -1.13845418442077783716e+00) (7, -7.73488081578617148182e-01) (8, -1.05926376046728010216e+00) (9, -8.62173013444516356252e-01) (10, -1.19757599269578141055e+00) (11, -7.76697472310431513698e-01) (12, -1.07433573321391784283e+00) (13, 1.44184888047388648502e+00) (0, -1.13033640341285002151e+00) (1, 4.77882379152304093139e+00) (2, -1.15712932130708168188e+00) (3, -1.19158796234832253802e+00) (4, -1.04293705688209037419e+00) (5, 3.39417785481327616282e+00) (6, -1.15225739887784306426e+00) (7, -1.27184638746346112548e+00) (8, -1.21508025787149542829e+00) (9, -1.47200054856021878003e+00) (10, -1.05817905792242394902e+00) (11, -1.26805065383153592329e+00) (12, -1.20216985994347269617e+00) (13, 1.61457779603085005427e+00) (14, 1.28018094653005967132e+01) (15, -2.87987973849520138003e+01) (16, -2.12704443333856403342e+01) (17, -8.36528860658313333509e-01) 
