FANN_FLO_2.1
num_layers=3
learning_rate=0.700000
connection_rate=1.000000
network_type=0
learning_momentum=0.000000
training_algorithm=2
train_error_function=1
train_stop_function=1
cascade_output_change_fraction=0.010000
quickprop_decay=-0.000100
quickprop_mu=1.750000
rprop_increase_factor=1.200000
rprop_decrease_factor=0.500000
rprop_delta_min=0.000000
rprop_delta_max=50.000000
rprop_delta_zero=0.100000
cascade_output_stagnation_epochs=12
cascade_candidate_change_fraction=0.010000
cascade_candidate_stagnation_epochs=12
cascade_max_out_epochs=150
cascade_min_out_epochs=50
cascade_max_cand_epochs=150
cascade_min_cand_epochs=50
cascade_num_candidate_groups=2
bit_fail_limit=1.00000000000000005551e-01
cascade_candidate_limit=1.00000000000000000000e+03
cascade_weight_multiplier=4.00000000000000022204e-01
cascade_activation_functions_count=10
cascade_activation_functions=3 5 7 8 10 11 14 15 16 17 
cascade_activation_steepnesses_count=4
cascade_activation_steepnesses=2.50000000000000000000e-01 5.00000000000000000000e-01 7.50000000000000000000e-01 1.00000000000000000000e+00 
layer_sizes=32 11 2 
scale_included=0
neurons (num_inputs, activation_function, activation_steepness)=(0, 0, 0.00000000000000000000e+00) (0, 0, 0.00000000000000000000e+00) (0, 0, 0.00000000000000000000e+00) (0, 0, 0.00000000000000000000e+00) (0, 0, 0.00000000000000000000e+00) (0, 0, 0.00000000000000000000e+00) (0, 0, 0.00000000000000000000e+00) (0, 0, 0.00000000000000000000e+00) (0, 0, 0.00000000000000000000e+00) (0, 0, 0.00000000000000000000e+00) (0, 0, 0.00000000000000000000e+00) (0, 0, 0.00000000000000000000e+00) (0, 0, 0.00000000000000000000e+00) (0, 0, 0.00000000000000000000e+00) (0, 0, 0.00000000000000000000e+00) (0, 0, 0.00000000000000000000e+00) (0, 0, 0.00000000000000000000e+00) (0, 0, 0.00000000000000000000e+00) (0, 0, 0.00000000000000000000e+00) (0, 0, 0.00000000000000000000e+00) (0, 0, 0.00000000000000000000e+00) (0, 0, 0.00000000000000000000e+00) (0, 0, 0.00000000000000000000e+00) (0, 0, 0.00000000000000000000e+00) (0, 0, 0.00000000000000000000e+00) (0, 0, 0.00000000000000000000e+00) (0, 0, 0.00000000000000000000e+00) (0, 0, 0.00000000000000000000e+00) (0, 0, 0.00000000000000000000e+00) (0, 0, 0.00000000000000000000e+00) (0, 0, 0.00000000000000000000e+00) (0, 0, 0.00000000000000000000e+00) (32, 6, 5.00000000000000000000e-01) (32, 6, 5.00000000000000000000e-01) (32, 6, 5.00000000000000000000e-01) (32, 6, 5.00000000000000000000e-01) (32, 6, 5.00000000000000000000e-01) (32, 6, 5.00000000000000000000e-01) (32, 6, 5.00000000000000000000e-01) (32, 6, 5.00000000000000000000e-01) (32, 6, 5.00000000000000000000e-01) (32, 6, 5.00000000000000000000e-01) (0, 6, 0.00000000000000000000e+00) (11, 6, 5.00000000000000000000e-01) (0, 6, 0.00000000000000000000e+00) 
connections (connected_to_neuron, weight)=(0, -7.15059129124689607515e-01) (1, -3.12090401716085819039e-02) (2, -6.48561899728625906869e-02) (3, -1.25122327095971319633e-01) (4, -1.32411788887486225885e-01) (5, 7.70155012212473621958e-01) (6, -5.43655598399786776920e-02) (7, 6.33769891067624158154e-01) (8, -1.03634334958195392651e-01) (9, 6.30742866054830542133e-01) (10, 3.79625422625670186361e-02) (11, 6.39228273005155445130e-02) (12, 5.77717629236585844543e-02) (13, 4.52769267057961388723e-02) (14, 6.08845424648834440684e-02) (15, 6.08496956343812026025e-02) (16, 1.14779765598688160422e-01) (17, 1.23232637707362917279e-02) (18, 6.36472194816122688321e-02) (19, -9.20274926136765286655e-03) (20, 6.44643816985405182507e-02) (21, 1.40630978974716075447e-01) (22, 1.20186798506419067339e-02) (23, 5.82803832315876957360e-01) (24, 1.23217304167225163991e-01) (25, 6.86042273197780411165e-02) (26, 8.63762783990294491510e-02) (27, 5.46700806005467054849e-02) (28, 3.13144277235088766553e-02) (29, 9.36693091792462906309e-02) (30, 2.63773575845527019634e-01) (31, -4.08097964461859308294e-02) (0, 2.84681292405105912380e+00) (1, 2.91258591450149539881e-01) (2, 1.75397525764397599346e-01) (3, 2.74542766846115116053e-01) (4, 2.37602125144890707897e-01) (5, -2.17499616398614614710e+00) (6, -3.31807355998794462071e-01) (7, 3.95888100593089120594e+01) (8, -1.24655378584770248906e+00) (9, -2.79497027274026255128e+00) (10, -5.39403235886027232482e-01) (11, 8.22779568051463100486e-02) (12, -3.51397590173856633200e-01) (13, -6.20454180293188550799e-01) (14, -6.20586928019601247186e-01) (15, -1.60242073974517645896e-01) (16, -9.40975880700159472703e-02) (17, -1.97360428772790447161e-01) (18, 7.93875099375466880547e-02) (19, 2.88986609728014764986e-01) (20, 7.76590953745191769908e-02) (21, -5.21056344076703537027e-02) (22, -1.52498018790131784073e+00) (23, -2.63107655745544732895e+00) (24, -7.91686762354181228218e-02) (25, -3.47333870186189649920e-02) (26, -6.79526905803763958680e-02) (27, 7.00866835596885701110e-02) (28, 2.65966371734196960208e-01) (29, 1.35149124185476643412e-01) (30, 2.92998439156878009992e-01) (31, -9.73833948747593464157e-02) (0, -9.91991612961384161551e-01) (1, -1.12603751829758430558e-01) (2, -1.31560260317220845128e-01) (3, -1.14318336163902276731e-02) (4, -6.48212338601494714174e-02) (5, 4.89055235668775956093e-01) (6, 5.69268798995971186949e-02) (7, 1.35088742813780982033e+00) (8, 2.51809230010883247641e-02) (9, 4.15643829967058953123e-01) (10, 9.07966613821871298962e-02) (11, 1.51739016129946169276e-01) (12, 1.46256422138990871407e-01) (13, -1.99471377774819175893e-03) (14, -1.22789398714767232501e-02) (15, 1.37421076667509800551e-01) (16, 3.52021676417879625376e-02) (17, 8.30752198374539868597e-02) (18, 2.64729558816697088663e-02) (19, 2.29537352027378606378e-02) (20, 6.39229614773149934503e-02) (21, 9.53030347131322841392e-02) (22, -1.09292606985634144223e-01) (23, 4.32670204765659427437e-01) (24, 8.27965957320853096491e-02) (25, 2.17841521949091593280e-01) (26, 2.89042672329777872164e-02) (27, -3.66751558913780764670e-02) (28, 6.56783286992821957462e-02) (29, -1.13676128580100718746e-02) (30, -1.45521129195933074385e-01) (31, 2.23084757496447468050e-03) (0, 1.43534483662524348091e+00) (1, 9.29037804313820464452e-02) (2, 5.97100729652570161310e-02) (3, -4.61522390536142634865e-02) (4, 3.51230824896024279580e-02) (5, 2.46191002117210651079e+01) (6, -1.88258915874051531436e-02) (7, -5.15433598543907134371e+00) (8, 9.94449830664929557145e+00) (9, 2.17638905182540689509e+01) (10, -1.19944331098892895127e-01) (11, -1.34738501721543089268e-02) (12, -1.14037506765734805714e-01) (13, 7.54943812240994882590e-02) (14, 1.14945092893850159266e-01) (15, -9.64837434415604933147e-02) (16, 4.37928403394496831846e-02) (17, -4.29053524862778659643e-02) (18, 3.77130205241286917128e-02) (19, 7.53717217726763838437e-02) (20, 3.25812676818399002063e-03) (21, 2.05998917200033090924e-02) (22, 4.72719606723208507493e-01) (23, 1.23839431147495613317e+01) (24, -1.38582345393480823453e-02) (25, -3.05806371134461976724e-02) (26, 2.85888579349899002446e-02) (27, 7.21807998228394392948e-02) (28, 6.52190778219195188559e-02) (29, 2.34370567897376549937e-02) (30, 7.15403133180355088605e-02) (31, 5.22260640288202335202e-02) (0, -3.23587211753739167897e-01) (1, -1.80586183780888295813e-02) (2, 2.91473140602848436453e-02) (3, 5.69223036652348468589e-02) (4, 2.39057412033815280816e-02) (5, 6.40481159877287209437e-02) (6, 1.87767220181602606521e-01) (7, -2.28528462387624475838e-01) (8, 8.23518420742319207095e-02) (9, 4.41255553497887476055e-01) (10, 7.83882317729693162134e-02) (11, 1.57683917560203154529e-02) (12, 3.02988577429372657468e-02) (13, 2.82290574714039455007e-02) (14, -1.19839921537817986619e-02) (15, 3.06950153955033167019e-02) (16, 2.45358090548512229601e-02) (17, 5.57514892833172806541e-02) (18, -1.27522796471715403610e-02) (19, -4.76920345513571902751e-02) (20, 2.89383699940650267191e-02) (21, -3.64893694724746087132e-02) (22, 6.88119785436627356967e-02) (23, 4.42559977596426068480e-01) (24, 4.50904270970452075717e-02) (25, -6.87291981355335201975e-02) (26, 8.67920889227703357127e-02) (27, 1.30132524291272952226e-03) (28, -1.93616198632103088395e-02) (29, 7.96959881608361002392e-03) (30, 1.66537588106259841492e-02) (31, -1.22099553946144571970e-02) (0, -6.15414816702142486449e-01) (1, -7.88634589312091696667e-03) (2, -4.97704031169174804239e-02) (3, -1.65528285711980194250e-01) (4, -7.26101866362110527631e-03) (5, 4.83023306333105750809e-01) (6, 4.24769113915643009571e-02) (7, 6.57468477932220296545e-01) (8, -1.07421555611872786978e-02) (9, 4.18583758939995942416e-01) (10, 1.35656804902648642219e-01) (11, 1.52110456365776303134e-02) (12, 9.95775057010496039700e-02) (13, -3.32316273300493486564e-02) (14, 2.45676730391974733336e-02) (15, 7.78487891116567409799e-02) (16, 2.76305541844103462468e-02) (17, 2.94665112792966733812e-02) (18, 2.20859465612056778128e-02) (19, 4.39222300871377480114e-02) (20, -1.00396665920935608540e-02) (21, -1.26079788698781041639e-02) (22, 1.19829570302470003740e-01) (23, 9.27670477536957083231e-01) (24, -1.73164063314506962155e-02) (25, 2.08484228314984552932e-02) (26, 1.32275720329376230561e-02) (27, 4.33409814114950192598e-02) (28, -3.92879552399544029750e-02) (29, 1.34822502032776701808e-02) (30, 2.75219126592350475657e-02) (31, -6.23589645159920991091e-02) (0, 1.84037685332525953186e+01) (1, 3.46768290085463060102e-01) (2, 2.50239566249517875196e-01) (3, 2.02239133698608325451e-01) (4, 1.50768019539977898846e-01) (5, -1.27208081577188880651e+00) (6, -8.44187124380606945806e-01) (7, 3.96273694067000405994e+01) (8, -4.28209645999118748705e+00) (9, -2.59602609775884163312e+00) (10, -1.11322544003011292268e+00) (11, -2.36917980970822394937e+00) (12, -1.24178990751180506891e+00) (13, -9.55194681622658636755e-01) (14, -1.36889574454169693496e+00) (15, -6.01122283078424968217e-01) (16, -2.74547547959395732420e-01) (17, -2.85362687116604174520e-01) (18, 5.46279994951283653926e-02) (19, -3.37005583760245586156e-01) (20, -1.60748397366494960581e-01) (21, -2.02870713611192104997e-01) (22, -4.84544510444556930651e-01) (23, -6.42656037928843182350e-01) (24, 1.48515411824979209898e-01) (25, -2.82735577070654442444e-01) (26, 1.32036242333307712871e-01) (27, -1.86400180429415973649e-01) (28, -1.73586250946188264122e-01) (29, -1.74269769349838815620e-01) (30, 1.04631162932893123640e-01) (31, 4.87211486937752957793e-01) (0, -3.84462034628969384631e-01) (1, 4.40270369357331770033e-02) (2, -2.45979885154503849498e-02) (3, -2.26471657448547997182e-02) (4, 5.00511889762148068361e-02) (5, 2.23515864010482359636e-02) (6, 3.41545236781995303899e-02) (7, 4.69228706492582248178e-01) (8, -5.76047470509437123387e-02) (9, 1.95030906146266586054e-01) (10, -3.92762014581060428520e-02) (11, 2.14422176647209063172e-02) (12, 4.79027368580694570821e-02) (13, 7.23006972981309926907e-03) (14, -4.69356790570873844137e-02) (15, 8.31439107480038547271e-02) (16, -2.93684375570442517123e-02) (17, 5.06565645019186813758e-02) (18, -1.54108911122299244850e-02) (19, -7.48049736435046214167e-03) (20, -5.21353264421578269094e-02) (21, -1.45163067589869701490e-02) (22, 8.91642150828785007288e-02) (23, -1.24651686417706672461e-01) (24, -6.26536292486481235370e-03) (25, 7.25673285522478034304e-02) (26, -9.31435445380742604859e-02) (27, -4.04891953671033810735e-02) (28, -3.05273498578034329504e-03) (29, 3.49490732079176750352e-03) (30, -9.47677357259901070874e-02) (31, -1.35481576978458057026e-01) (0, -1.77967212861541512758e+00) (1, -1.10148215565954193940e-01) (2, -1.73296126463751767877e-02) (3, -9.78743749597413836838e-02) (4, -2.04354914763312314752e-02) (5, 8.03513161791185304139e+00) (6, 2.69742337855223002219e-01) (7, -2.30805890535883797554e+01) (8, 2.08356466454285804701e+00) (9, 5.21553923870215374592e+00) (10, 3.04664383269963590095e-01) (11, 2.91133094909467315947e-01) (12, 3.59148145651760009045e-01) (13, 1.40204757596639362216e-01) (14, 6.38030813278188391191e-02) (15, 4.35612097639691164819e-01) (16, 3.57449977171365007589e-01) (17, 2.67162234652091490350e-01) (18, 2.43424639122902936039e-01) (19, 2.14714191802631376715e-01) (20, 2.30449667535022079123e-01) (21, 2.00017428862495044717e-01) (22, 3.80919970744800162610e-01) (23, 5.65745530264109497409e+00) (24, 3.29070998033848149955e-01) (25, 1.79608550400677496883e-01) (26, 3.53652718745674166101e-01) (27, 2.67381636883661066850e-01) (28, 2.19423617153672673163e-01) (29, 3.21794600044587764121e-01) (30, 4.92876407259079440948e-01) (31, 2.80514720532996780777e-02) (0, -2.57888996991011438809e+01) (1, -1.68211417556789644134e-01) (2, -1.98118420601869738018e-01) (3, -1.46934198499706514252e-01) (4, -2.00961185903335753933e-01) (5, 1.30931896711730799687e+00) (6, 1.79903976296238110599e+00) (7, 1.49387061080046373851e-01) (8, 2.53569081056690537324e+00) (9, 1.45983872612736376162e+00) (10, 1.70466800633075132865e+00) (11, 2.12890646055255627900e+00) (12, 1.68910781529084808028e+00) (13, 1.61661392672225567857e+00) (14, 1.84587181790827226102e+00) (15, 1.43044111494623926717e+00) (16, 1.20623015135548761201e+00) (17, 1.34193840523128771203e+00) (18, 1.11349321864335637500e+00) (19, 1.30569450585172219803e+00) (20, 1.20047303447849573743e+00) (21, 1.39795003454362198880e+00) (22, 1.51904944122551754937e+00) (23, 1.54337215241064118487e+00) (24, 1.29913914539226871270e+00) (25, 1.26914195213634917181e+00) (26, 1.14280726645477193060e+00) (27, 1.20766980655322320182e+00) (28, 1.25257169427302073039e+00) (29, 1.11986653859531037902e+00) (30, 1.34237169900047126347e+00) (31, -1.83606980695175314722e+00) (32, 4.45112629169922613404e-01) (33, 4.99617388113305471720e-01) (34, 4.06354062652412140189e-01) (35, 8.18194441634981894929e-01) (36, 5.99914568328798414321e-01) (37, 4.60385408552675234883e-01) (38, 5.20490747371226691875e-01) (39, 3.09453029784418243153e-01) (40, -3.19023533103482193063e-01) (41, 1.44024312343082838694e+00) (42, 4.58182783748369737431e-01) 
