FANN_FLO_2.1
num_layers=3
learning_rate=0.700000
connection_rate=1.000000
network_type=0
learning_momentum=0.000000
training_algorithm=2
train_error_function=1
train_stop_function=1
cascade_output_change_fraction=0.010000
quickprop_decay=-0.000100
quickprop_mu=1.750000
rprop_increase_factor=1.200000
rprop_decrease_factor=0.500000
rprop_delta_min=0.000000
rprop_delta_max=50.000000
rprop_delta_zero=0.100000
cascade_output_stagnation_epochs=12
cascade_candidate_change_fraction=0.010000
cascade_candidate_stagnation_epochs=12
cascade_max_out_epochs=150
cascade_min_out_epochs=50
cascade_max_cand_epochs=150
cascade_min_cand_epochs=50
cascade_num_candidate_groups=2
bit_fail_limit=1.00000000000000005551e-01
cascade_candidate_limit=1.00000000000000000000e+03
cascade_weight_multiplier=4.00000000000000022204e-01
cascade_activation_functions_count=10
cascade_activation_functions=3 5 7 8 10 11 14 15 16 17 
cascade_activation_steepnesses_count=4
cascade_activation_steepnesses=2.50000000000000000000e-01 5.00000000000000000000e-01 7.50000000000000000000e-01 1.00000000000000000000e+00 
layer_sizes=17 4 2 
scale_included=0
neurons (num_inputs, activation_function, activation_steepness)=(0, 0, 0.00000000000000000000e+00) (0, 0, 0.00000000000000000000e+00) (0, 0, 0.00000000000000000000e+00) (0, 0, 0.00000000000000000000e+00) (0, 0, 0.00000000000000000000e+00) (0, 0, 0.00000000000000000000e+00) (0, 0, 0.00000000000000000000e+00) (0, 0, 0.00000000000000000000e+00) (0, 0, 0.00000000000000000000e+00) (0, 0, 0.00000000000000000000e+00) (0, 0, 0.00000000000000000000e+00) (0, 0, 0.00000000000000000000e+00) (0, 0, 0.00000000000000000000e+00) (0, 0, 0.00000000000000000000e+00) (0, 0, 0.00000000000000000000e+00) (0, 0, 0.00000000000000000000e+00) (0, 0, 0.00000000000000000000e+00) (17, 6, 5.00000000000000000000e-01) (17, 6, 5.00000000000000000000e-01) (17, 6, 5.00000000000000000000e-01) (0, 6, 0.00000000000000000000e+00) (4, 4, 5.00000000000000000000e-01) (0, 4, 0.00000000000000000000e+00) 
connections (connected_to_neuron, weight)=(0, -5.32176719707300271978e+00) (1, 4.10317840436493685985e+00) (2, 5.40762627133494003240e-02) (3, 2.21795805336951055153e+01) (4, 1.47486228980771305608e+00) (5, 6.11986529253183142441e-02) (6, -3.39563549387830008186e+01) (7, 1.02119630831646612812e+00) (8, -6.45270207797656536464e-01) (9, 5.86547381924691579869e-01) (10, 5.56740929241836379759e-01) (11, 7.08518652813057037143e-01) (12, 1.27040981425454124754e+00) (13, 5.78422665443688588383e-01) (14, -4.36906759576930259215e+00) (15, -3.90724880948551511750e+00) (16, -3.34558150351654104426e+00) (0, 4.27086656359214433820e+00) (1, 3.82234107254654498220e+00) (2, 1.07439734182346091629e+00) (3, -4.85931016893572120807e+00) (4, 3.42604132308340414426e+00) (5, 9.85701475548248939873e-01) (6, 1.08497720258241603375e+01) (7, 1.25555951558825573677e+00) (8, -4.35805267618325675727e+00) (9, 8.53749163567430691124e-01) (10, 8.71542502839678712157e-01) (11, 1.08114076320326724101e+00) (12, 2.92226832972315708759e+00) (13, 8.62266897013618693890e-01) (14, 5.36529082780157651200e+00) (15, -1.73381132419789518728e+00) (16, -4.65360173560125323089e-01) (0, -4.29417708042667811696e+00) (1, -1.50000000000000000000e+03) (2, 2.26285631314700541594e+00) (3, -5.56017625620945921128e+00) (4, 4.15642981542387213167e-01) (5, 2.27038483888896669427e+00) (6, -1.22003425815479378258e+01) (7, 8.51680372558195064592e-01) (8, 1.45509442832486062258e+01) (9, 1.89097681042276288821e+00) (10, 1.87843092054407190261e+00) (11, 1.05395804184842600826e+00) (12, -3.00039935896766429835e+00) (13, 1.86705551473879927116e+00) (14, -3.78875387266729246605e+00) (15, 1.14572178414826044701e+01) (16, -7.81413448056254011931e-01) (17, 2.07474958174399723987e+01) (18, 3.89056669352627935154e+01) (19, 1.97680746149815576018e+01) (20, -6.57803735839173597810e+00) 
