FANN_FLO_2.1
num_layers=3
learning_rate=0.700000
connection_rate=1.000000
network_type=0
learning_momentum=0.000000
training_algorithm=2
train_error_function=1
train_stop_function=1
cascade_output_change_fraction=0.010000
quickprop_decay=-0.000100
quickprop_mu=1.750000
rprop_increase_factor=1.200000
rprop_decrease_factor=0.500000
rprop_delta_min=0.000000
rprop_delta_max=50.000000
rprop_delta_zero=0.100000
cascade_output_stagnation_epochs=12
cascade_candidate_change_fraction=0.010000
cascade_candidate_stagnation_epochs=12
cascade_max_out_epochs=150
cascade_min_out_epochs=50
cascade_max_cand_epochs=150
cascade_min_cand_epochs=50
cascade_num_candidate_groups=2
bit_fail_limit=1.00000000000000005551e-01
cascade_candidate_limit=1.00000000000000000000e+03
cascade_weight_multiplier=4.00000000000000022204e-01
cascade_activation_functions_count=10
cascade_activation_functions=3 5 7 8 10 11 14 15 16 17 
cascade_activation_steepnesses_count=4
cascade_activation_steepnesses=2.50000000000000000000e-01 5.00000000000000000000e-01 7.50000000000000000000e-01 1.00000000000000000000e+00 
layer_sizes=20 4 2 
scale_included=0
neurons (num_inputs, activation_function, activation_steepness)=(0, 0, 0.00000000000000000000e+00) (0, 0, 0.00000000000000000000e+00) (0, 0, 0.00000000000000000000e+00) (0, 0, 0.00000000000000000000e+00) (0, 0, 0.00000000000000000000e+00) (0, 0, 0.00000000000000000000e+00) (0, 0, 0.00000000000000000000e+00) (0, 0, 0.00000000000000000000e+00) (0, 0, 0.00000000000000000000e+00) (0, 0, 0.00000000000000000000e+00) (0, 0, 0.00000000000000000000e+00) (0, 0, 0.00000000000000000000e+00) (0, 0, 0.00000000000000000000e+00) (0, 0, 0.00000000000000000000e+00) (0, 0, 0.00000000000000000000e+00) (0, 0, 0.00000000000000000000e+00) (0, 0, 0.00000000000000000000e+00) (0, 0, 0.00000000000000000000e+00) (0, 0, 0.00000000000000000000e+00) (0, 0, 0.00000000000000000000e+00) (20, 6, 5.00000000000000000000e-01) (20, 6, 5.00000000000000000000e-01) (20, 6, 5.00000000000000000000e-01) (0, 6, 0.00000000000000000000e+00) (4, 4, 5.00000000000000000000e-01) (0, 4, 0.00000000000000000000e+00) 
connections (connected_to_neuron, weight)=(0, -1.63705579979579241012e+01) (1, 9.47525967709433203368e+00) (2, 1.28320546743045778015e+01) (3, 3.15318343174223514325e+00) (4, 4.93325089212045764242e+00) (5, 7.79048305026083021119e+00) (6, 7.74455989319489290779e+00) (7, 2.26289052539863089208e+00) (8, 3.43551472481596320563e+00) (9, 7.71462033033143956828e+00) (10, 1.05945553731858521651e+00) (11, 1.18355812237058577452e+00) (12, 3.91060594294651941993e+00) (13, 2.61199545136918320765e+00) (14, 7.39956364200035352496e+01) (15, -7.48912921961814165295e-02) (16, 1.05085092754219324718e+01) (17, 7.25685303772111200971e+00) (18, 7.69153652295237133529e+00) (19, -5.45547736410466477253e+00) (0, 2.33948565976765499030e+00) (1, 1.74989144767542598169e-01) (2, -7.58967371655052014390e-01) (3, 2.72974827709170497769e+00) (4, 2.21569343755024039666e+00) (5, -5.14773403058866207971e-01) (6, -5.63579211653284950501e-01) (7, -3.70028280200593251426e-01) (8, -2.06321650770425391030e+00) (9, -4.76976753302033762427e-01) (10, -3.24615217411257095392e+00) (11, -5.45296640765836748699e+00) (12, -7.66547168481304908028e+00) (13, -6.37408590539336206149e+00) (14, -1.06388895104718739226e+00) (15, 8.58402969733792375884e-01) (16, 7.15805852402190856409e-01) (17, -1.02612340374461874504e-01) (18, 6.39799382946706129971e-01) (19, -1.37010556819693030128e+00) (0, 5.71595660471508093536e+00) (1, 9.69034296593459298919e-01) (2, -1.27692697118043096971e-01) (3, 1.41851924024220554799e+00) (4, 3.04139735493070428873e+00) (5, -2.13551890163187563232e+00) (6, -2.11584970767543145698e+00) (7, 9.69660119769707340431e-01) (8, 7.20884579781881118521e+00) (9, -2.09470363764366895865e+00) (10, 1.28173183194343138780e+01) (11, 1.20654190721455982782e+01) (12, 1.26985443680522447352e+01) (13, 1.42656796365502405166e+01) (14, -3.55216575783430954516e+00) (15, 3.58906005553159823673e-03) (16, -2.07248916488183176909e+00) (17, -2.47678216095286796161e+00) (18, -1.84690404533555030397e+00) (19, -3.00014984592636002603e+00) (20, 1.04535735771884539247e+01) (21, 1.28262948409519275117e+01) (22, 1.05136665373778441790e+01) (23, -3.06985767428436684412e+00) 
