FANN_FLO_2.1
num_layers=3
learning_rate=0.700000
connection_rate=1.000000
network_type=0
learning_momentum=0.000000
training_algorithm=2
train_error_function=1
train_stop_function=1
cascade_output_change_fraction=0.010000
quickprop_decay=-0.000100
quickprop_mu=1.750000
rprop_increase_factor=1.200000
rprop_decrease_factor=0.500000
rprop_delta_min=0.000000
rprop_delta_max=50.000000
rprop_delta_zero=0.100000
cascade_output_stagnation_epochs=12
cascade_candidate_change_fraction=0.010000
cascade_candidate_stagnation_epochs=12
cascade_max_out_epochs=150
cascade_min_out_epochs=50
cascade_max_cand_epochs=150
cascade_min_cand_epochs=50
cascade_num_candidate_groups=2
bit_fail_limit=1.00000000000000005551e-01
cascade_candidate_limit=1.00000000000000000000e+03
cascade_weight_multiplier=4.00000000000000022204e-01
cascade_activation_functions_count=10
cascade_activation_functions=3 5 7 8 10 11 14 15 16 17 
cascade_activation_steepnesses_count=4
cascade_activation_steepnesses=2.50000000000000000000e-01 5.00000000000000000000e-01 7.50000000000000000000e-01 1.00000000000000000000e+00 
layer_sizes=10 4 2 
scale_included=0
neurons (num_inputs, activation_function, activation_steepness)=(0, 0, 0.00000000000000000000e+00) (0, 0, 0.00000000000000000000e+00) (0, 0, 0.00000000000000000000e+00) (0, 0, 0.00000000000000000000e+00) (0, 0, 0.00000000000000000000e+00) (0, 0, 0.00000000000000000000e+00) (0, 0, 0.00000000000000000000e+00) (0, 0, 0.00000000000000000000e+00) (0, 0, 0.00000000000000000000e+00) (0, 0, 0.00000000000000000000e+00) (10, 6, 5.00000000000000000000e-01) (10, 6, 5.00000000000000000000e-01) (10, 6, 5.00000000000000000000e-01) (0, 6, 0.00000000000000000000e+00) (4, 4, 5.00000000000000000000e-01) (0, 4, 0.00000000000000000000e+00) 
connections (connected_to_neuron, weight)=(0, -2.58959578083978403384e+00) (1, -3.22736420262502710088e+00) (2, -1.19374912731567794921e+00) (3, -2.89104983298767859168e+00) (4, -2.34399683600506403280e+00) (5, -1.90985613562092559903e+00) (6, -2.68996961073406160025e+00) (7, -2.09267934232909391667e+00) (8, -1.90495237240459136530e+00) (9, 3.70116115468855833015e+00) (0, -1.01847237639030252510e+00) (1, 2.43237745834433161107e+00) (2, -1.06053819477180937270e+01) (3, -5.62628025732594058694e-02) (4, 9.87997212280953385211e-01) (5, 7.95275415075195502013e-01) (6, 2.23588850139804273809e+00) (7, -4.72661297236911259745e+00) (8, 9.47269320083327426296e-01) (9, 2.36485599965242965226e+00) (0, -1.36392032427035636566e+00) (1, -2.91761552539480817359e+01) (2, 1.45756261846847845476e+00) (3, -5.78667648991182836937e+00) (4, 2.00630416796970489912e+00) (5, 3.30110438575400166883e+00) (6, 1.50673158422841257931e+00) (7, 3.60726125865630520284e-01) (8, 1.24794207878076268692e+00) (9, -2.20879427981902498601e+00) (10, -3.40444917787295082690e+01) (11, -5.21301674651973900865e+00) (12, 1.07389447824465911197e+01) (13, -1.28298978089129778191e+00) 
