FANN_FLO_2.1
num_layers=3
learning_rate=0.700000
connection_rate=1.000000
network_type=0
learning_momentum=0.000000
training_algorithm=2
train_error_function=1
train_stop_function=1
cascade_output_change_fraction=0.010000
quickprop_decay=-0.000100
quickprop_mu=1.750000
rprop_increase_factor=1.200000
rprop_decrease_factor=0.500000
rprop_delta_min=0.000000
rprop_delta_max=50.000000
rprop_delta_zero=0.100000
cascade_output_stagnation_epochs=12
cascade_candidate_change_fraction=0.010000
cascade_candidate_stagnation_epochs=12
cascade_max_out_epochs=150
cascade_min_out_epochs=50
cascade_max_cand_epochs=150
cascade_min_cand_epochs=50
cascade_num_candidate_groups=2
bit_fail_limit=1.00000000000000005551e-01
cascade_candidate_limit=1.00000000000000000000e+03
cascade_weight_multiplier=4.00000000000000022204e-01
cascade_activation_functions_count=10
cascade_activation_functions=3 5 7 8 10 11 14 15 16 17 
cascade_activation_steepnesses_count=4
cascade_activation_steepnesses=2.50000000000000000000e-01 5.00000000000000000000e-01 7.50000000000000000000e-01 1.00000000000000000000e+00 
layer_sizes=15 11 2 
scale_included=0
neurons (num_inputs, activation_function, activation_steepness)=(0, 0, 0.00000000000000000000e+00) (0, 0, 0.00000000000000000000e+00) (0, 0, 0.00000000000000000000e+00) (0, 0, 0.00000000000000000000e+00) (0, 0, 0.00000000000000000000e+00) (0, 0, 0.00000000000000000000e+00) (0, 0, 0.00000000000000000000e+00) (0, 0, 0.00000000000000000000e+00) (0, 0, 0.00000000000000000000e+00) (0, 0, 0.00000000000000000000e+00) (0, 0, 0.00000000000000000000e+00) (0, 0, 0.00000000000000000000e+00) (0, 0, 0.00000000000000000000e+00) (0, 0, 0.00000000000000000000e+00) (0, 0, 0.00000000000000000000e+00) (15, 6, 5.00000000000000000000e-01) (15, 6, 5.00000000000000000000e-01) (15, 6, 5.00000000000000000000e-01) (15, 6, 5.00000000000000000000e-01) (15, 6, 5.00000000000000000000e-01) (15, 6, 5.00000000000000000000e-01) (15, 6, 5.00000000000000000000e-01) (15, 6, 5.00000000000000000000e-01) (15, 6, 5.00000000000000000000e-01) (15, 6, 5.00000000000000000000e-01) (0, 6, 0.00000000000000000000e+00) (11, 6, 5.00000000000000000000e-01) (0, 6, 0.00000000000000000000e+00) 
connections (connected_to_neuron, weight)=(0, 4.72914306062870493097e-01) (1, 2.63381571755839372084e-01) (2, 2.48521135435534556990e-01) (3, 1.65019654915762953307e-01) (4, 1.31769427345229117599e-01) (5, 2.41683634069207826656e+01) (6, 9.99791009608961944721e-01) (7, -3.70323276968676440291e+00) (8, 6.79014910981868613504e-01) (9, 2.54259927893900894436e-01) (10, 6.29686272208771047332e-01) (11, 5.21469450025953573657e-01) (12, 4.98423019960640178994e+00) (13, 4.80818991360646874611e-01) (14, 6.91952046700495038145e-01) (0, -3.50406776181792745106e+00) (1, 5.21148925902105264463e-01) (2, 5.67434584976888700680e-01) (3, 5.88813370348668985166e-01) (4, 6.78739672781683012204e-01) (5, 1.49874584157598733647e+00) (6, 4.70600363963424528357e-01) (7, 6.25482367952228557328e+00) (8, -8.95643769636762288044e-01) (9, 3.89324662058011916610e-01) (10, 1.31879831090049126630e+00) (11, 1.85527717581522044732e+00) (12, 3.86576392564388970907e-01) (13, 7.69401921265990829113e-02) (14, -6.72061510476607004705e-01) (0, 9.61894366022876745603e+00) (1, 1.35257199964660873581e-01) (2, 2.54441430784647995567e-02) (3, 9.72629642106477843022e-02) (4, 5.16578610910824881364e-03) (5, -1.87952030883253873306e+00) (6, -8.48671519786862171841e-02) (7, -9.78150795476831369513e-01) (8, 3.33587294097658915160e-02) (9, -5.38868600196020341997e-01) (10, -4.32202712538585387403e-01) (11, -5.92067961563654265866e-01) (12, -6.98573207442487631447e-01) (13, -5.13216485818689394094e-01) (14, 1.84698825119507614723e+00) (0, 8.10472481466204819345e-02) (1, 2.27642076580946817188e-01) (2, 2.42632093398993387012e-01) (3, 1.51029410331671609669e-01) (4, 1.17262887328093229344e-01) (5, -2.51268309410805645854e+00) (6, 3.88323183417527861838e-01) (7, 1.33980932640793888311e+01) (8, 3.10774415079358268255e-01) (9, 6.89424975179599303088e-02) (10, 4.65401872731403265515e-01) (11, 2.65599571038025727976e-01) (12, -1.04168131953864984141e+00) (13, 1.39601180438572114451e-01) (14, 1.81827594862943031639e-01) (0, 1.10024771109909313971e+00) (1, 2.86427627659727568332e-01) (2, 4.56988583661009306613e-01) (3, 3.38932297534634108249e-01) (4, 3.84989279664446348850e-01) (5, -4.53331478403615761863e+00) (6, -2.78641573903406047918e-01) (7, 4.12813800753943416222e-01) (8, 1.79711186832499841826e-01) (9, 1.79451644975354429601e-01) (10, 4.76460725776710836143e-01) (11, -3.00250777262956958236e-01) (12, -4.84730309448554441687e-01) (13, -2.25747236774462955999e-01) (14, 6.47714727790215438752e-01) (0, 2.50365850362518349570e-01) (1, -9.50955407920739126393e-02) (2, -6.09090881648918433533e-02) (3, -8.13868897262474966237e-02) (4, -2.32067379564370707135e-01) (5, 1.83766112957424354590e+00) (6, -1.27102196186272026202e-01) (7, 3.34908303724547218305e-01) (8, -9.25189761791738451979e-02) (9, -9.65697226146627341059e-02) (10, -2.15244367629029736966e-01) (11, -4.86050100841116591854e-02) (12, 7.96961646284331637347e-01) (13, -8.07010724402693474522e-02) (14, -3.77176571492731427249e-01) (0, -2.16710423381089034578e+00) (1, 5.72367813762214572293e-01) (2, 6.55980781044748328945e-01) (3, 6.12279102530267627102e-01) (4, 6.28556676533010394436e-01) (5, 1.40146916140449762089e+00) (6, 1.27275634500136736182e-01) (7, 6.10499267508150111894e+00) (8, -9.25523834965889802273e-03) (9, 3.68352976250820474124e-01) (10, 4.42151780921146264625e-01) (11, 1.58895481224473700266e+00) (12, 3.80763742790428072471e-01) (13, 8.45742824218515543144e-02) (14, 1.38568215086976226358e-01) (0, 7.25462095757133718088e-01) (1, -1.53620089799489545346e-01) (2, -1.20719696790303893108e-01) (3, -8.26869415346047353932e-02) (4, -1.93367096990670728207e-01) (5, 1.25526803148424437317e+00) (6, -3.89458656307393388807e-02) (7, 1.01591000197900771518e+00) (8, -1.01541211583425300402e-01) (9, 2.85224181041387414570e-01) (10, 3.38227401327083621041e-02) (11, 4.05763601097481260704e-02) (12, 4.35080707424120083360e-01) (13, 4.70751060935749171543e-02) (14, -3.07894933824121808108e-01) (0, -2.17044160963057342073e+00) (1, 6.35964007627129568334e-01) (2, 5.48185133885502717810e-01) (3, 5.44916463594794175940e-01) (4, 5.22298940967678926306e-01) (5, 1.51385693032873391850e+00) (6, 4.35291146093189029731e-01) (7, 6.16600617994428645829e+00) (8, 5.40830935285261660272e-02) (9, 4.64548405406891226632e-02) (10, 1.18657809313349327240e+00) (11, 1.89197372157194965148e+00) (12, 4.40855208502021700401e-01) (13, 3.71838265755294189452e-03) (14, -9.67531408010027516031e-02) (0, 2.95681984388031227073e-01) (1, -6.52301853489769128958e-02) (2, -9.17427336764229106603e-02) (3, -1.45963328142155318590e-01) (4, -1.06277221996773557633e-01) (5, 1.14059971495089551574e+00) (6, -1.29091955232526117703e-01) (7, 7.25120990485897509714e-01) (8, -7.35285241635665748339e-02) (9, 3.56857639432966500248e-01) (10, -1.25805933781053508325e-01) (11, -3.79999602552116497178e-02) (12, 1.10812078185210480252e-01) (13, 2.68822944509625516574e-01) (14, -2.68472444287959466358e-01) (15, 5.17273699930185681950e-01) (16, -4.00807221190359469487e-02) (17, -8.68122283523668936134e-01) (18, 1.02372735851245666439e+00) (19, -1.88845385047972831594e-02) (20, 6.28790607816472557623e-01) (21, -3.05212193385985160188e-02) (22, 2.79154644081904879105e-01) (23, -1.91705429212477296286e-02) (24, 3.63080086512888089434e-01) (25, 2.80438553017469449635e-01) 
