FANN_FLO_2.1
num_layers=3
learning_rate=0.700000
connection_rate=1.000000
network_type=0
learning_momentum=0.000000
training_algorithm=2
train_error_function=1
train_stop_function=1
cascade_output_change_fraction=0.010000
quickprop_decay=-0.000100
quickprop_mu=1.750000
rprop_increase_factor=1.200000
rprop_decrease_factor=0.500000
rprop_delta_min=0.000000
rprop_delta_max=50.000000
rprop_delta_zero=0.100000
cascade_output_stagnation_epochs=12
cascade_candidate_change_fraction=0.010000
cascade_candidate_stagnation_epochs=12
cascade_max_out_epochs=150
cascade_min_out_epochs=50
cascade_max_cand_epochs=150
cascade_min_cand_epochs=50
cascade_num_candidate_groups=2
bit_fail_limit=1.00000000000000005551e-01
cascade_candidate_limit=1.00000000000000000000e+03
cascade_weight_multiplier=4.00000000000000022204e-01
cascade_activation_functions_count=10
cascade_activation_functions=3 5 7 8 10 11 14 15 16 17 
cascade_activation_steepnesses_count=4
cascade_activation_steepnesses=2.50000000000000000000e-01 5.00000000000000000000e-01 7.50000000000000000000e-01 1.00000000000000000000e+00 
layer_sizes=25 4 2 
scale_included=0
neurons (num_inputs, activation_function, activation_steepness)=(0, 0, 0.00000000000000000000e+00) (0, 0, 0.00000000000000000000e+00) (0, 0, 0.00000000000000000000e+00) (0, 0, 0.00000000000000000000e+00) (0, 0, 0.00000000000000000000e+00) (0, 0, 0.00000000000000000000e+00) (0, 0, 0.00000000000000000000e+00) (0, 0, 0.00000000000000000000e+00) (0, 0, 0.00000000000000000000e+00) (0, 0, 0.00000000000000000000e+00) (0, 0, 0.00000000000000000000e+00) (0, 0, 0.00000000000000000000e+00) (0, 0, 0.00000000000000000000e+00) (0, 0, 0.00000000000000000000e+00) (0, 0, 0.00000000000000000000e+00) (0, 0, 0.00000000000000000000e+00) (0, 0, 0.00000000000000000000e+00) (0, 0, 0.00000000000000000000e+00) (0, 0, 0.00000000000000000000e+00) (0, 0, 0.00000000000000000000e+00) (0, 0, 0.00000000000000000000e+00) (0, 0, 0.00000000000000000000e+00) (0, 0, 0.00000000000000000000e+00) (0, 0, 0.00000000000000000000e+00) (0, 0, 0.00000000000000000000e+00) (25, 6, 5.00000000000000000000e-01) (25, 6, 5.00000000000000000000e-01) (25, 6, 5.00000000000000000000e-01) (0, 6, 0.00000000000000000000e+00) (4, 4, 5.00000000000000000000e-01) (0, 4, 0.00000000000000000000e+00) 
connections (connected_to_neuron, weight)=(0, 6.33991537381326608624e+00) (1, 4.82287191173804874467e+00) (2, 2.89156049614998800212e-01) (3, -7.09885632094131358016e-01) (4, -6.15719953295689403916e-01) (5, -5.29682186724851900017e-01) (6, -4.66008526993849703235e-01) (7, -7.31192101646144010374e-01) (8, -8.00456581949403944698e-01) (9, -5.75248352359450154658e-01) (10, 2.41837238995071723835e+00) (11, 1.58835978537448152537e+01) (12, 2.66972340636355864874e+00) (13, 2.50018691341342114143e+00) (14, -3.97284902650653359846e-01) (15, 4.05454540753036418721e+00) (16, 2.48051888636287554135e+00) (17, 2.45893952511545865747e+00) (18, 2.46876944697835876141e+00) (19, 2.88569118990763495702e+00) (20, -5.37664709978330712659e+00) (21, 1.45179228135291715773e-01) (22, -1.22629534984944243980e+00) (23, -8.91697866182929566037e-01) (24, -2.59475882356478448898e+00) (0, 8.62040672160748400188e+00) (1, -2.83991929869706716261e+00) (2, -1.33784587796671949889e+00) (3, 1.46111940989763322563e+00) (4, 1.07943559481043682702e+00) (5, 1.01690949649995632242e+00) (6, 1.00394361341918081365e+00) (7, 1.55607794901869844750e+00) (8, 1.36794189352114869962e+00) (9, 1.07899860752711362899e+00) (10, 1.76014236183222072540e+00) (11, -1.12375427624192685272e+01) (12, 1.55776382787041955957e+00) (13, 1.95817260762057343548e+00) (14, -1.16889600451944519754e+00) (15, -3.24283070103144277496e+00) (16, 1.72426888551699386554e+00) (17, 1.75305908382503794485e+00) (18, 1.70448075291957912292e+00) (19, 4.62290223049605586425e+00) (20, -1.26820520309305839746e+00) (21, -4.47446902456619621802e+00) (22, -4.41552045168767737238e+00) (23, -4.25766418727647000253e+00) (24, -1.85494279330783862214e+00) (0, -6.12984452583085648314e+00) (1, 3.99037827343499973409e+00) (2, 3.81958702471364963671e+00) (3, 3.91046272860937094151e+00) (4, 3.94144789022926378408e+00) (5, 3.94124592739931900454e+00) (6, 3.92808631554434040112e+00) (7, 3.93158672737888936766e+00) (8, 3.99168860940637593160e+00) (9, 3.91416604867652839772e+00) (10, 3.21916265012270486068e+00) (11, -2.26800862659068247495e+00) (12, 3.28171369089981235234e+00) (13, 3.11140751235528867369e+00) (14, -1.47504456273495998531e+00) (15, -2.55565595802498890521e+00) (16, 3.23017174302106102601e+00) (17, 3.22278775244049553450e+00) (18, 3.24481114701657524790e+00) (19, 3.19200527744577877698e+00) (20, 3.71724680316599664920e-01) (21, 4.17032542520303817213e+00) (22, 4.98814136337925173592e+00) (23, 4.80169765794730452058e+00) (24, -3.20681629701376946784e+00) (25, 1.18990584516512729607e+01) (26, 1.03887740955050151825e+01) (27, 1.84778451350142596254e+01) (28, -4.93281558809425757506e-01) 
