FANN_FLO_2.1
num_layers=3
learning_rate=0.700000
connection_rate=1.000000
network_type=0
learning_momentum=0.000000
training_algorithm=2
train_error_function=1
train_stop_function=1
cascade_output_change_fraction=0.010000
quickprop_decay=-0.000100
quickprop_mu=1.750000
rprop_increase_factor=1.200000
rprop_decrease_factor=0.500000
rprop_delta_min=0.000000
rprop_delta_max=50.000000
rprop_delta_zero=0.100000
cascade_output_stagnation_epochs=12
cascade_candidate_change_fraction=0.010000
cascade_candidate_stagnation_epochs=12
cascade_max_out_epochs=150
cascade_min_out_epochs=50
cascade_max_cand_epochs=150
cascade_min_cand_epochs=50
cascade_num_candidate_groups=2
bit_fail_limit=1.00000000000000005551e-01
cascade_candidate_limit=1.00000000000000000000e+03
cascade_weight_multiplier=4.00000000000000022204e-01
cascade_activation_functions_count=10
cascade_activation_functions=3 5 7 8 10 11 14 15 16 17 
cascade_activation_steepnesses_count=4
cascade_activation_steepnesses=2.50000000000000000000e-01 5.00000000000000000000e-01 7.50000000000000000000e-01 1.00000000000000000000e+00 
layer_sizes=15 4 2 
scale_included=0
neurons (num_inputs, activation_function, activation_steepness)=(0, 0, 0.00000000000000000000e+00) (0, 0, 0.00000000000000000000e+00) (0, 0, 0.00000000000000000000e+00) (0, 0, 0.00000000000000000000e+00) (0, 0, 0.00000000000000000000e+00) (0, 0, 0.00000000000000000000e+00) (0, 0, 0.00000000000000000000e+00) (0, 0, 0.00000000000000000000e+00) (0, 0, 0.00000000000000000000e+00) (0, 0, 0.00000000000000000000e+00) (0, 0, 0.00000000000000000000e+00) (0, 0, 0.00000000000000000000e+00) (0, 0, 0.00000000000000000000e+00) (0, 0, 0.00000000000000000000e+00) (0, 0, 0.00000000000000000000e+00) (15, 6, 5.00000000000000000000e-01) (15, 6, 5.00000000000000000000e-01) (15, 6, 5.00000000000000000000e-01) (0, 6, 0.00000000000000000000e+00) (4, 4, 5.00000000000000000000e-01) (0, 4, 0.00000000000000000000e+00) 
connections (connected_to_neuron, weight)=(0, 2.07121085720084208148e+00) (1, -1.72158046603285042053e+00) (2, -1.43598343129004701879e+00) (3, -1.39129987434501289911e+00) (4, -1.70063755124256466011e+00) (5, 1.24701424978971942004e+00) (6, -7.20972947431805732954e-01) (7, -2.78618646273307568606e+00) (8, -2.75950985743925292226e+00) (9, -2.81526367896631857235e+00) (10, -2.86895683581234628434e+00) (11, -1.65930042270630595524e+00) (12, -1.33578914855437469456e+00) (13, -1.68830212899328202525e+00) (14, 2.29299496227021482042e+00) (0, 5.53799269848227382340e+00) (1, 2.11106517391815184936e+00) (2, 2.63360178516299059392e-01) (3, 1.34823154885795082336e+00) (4, 1.25643494775538333563e+00) (5, 8.75135025483716688655e-01) (6, 1.26085634250319134075e+00) (7, 8.03709122571083955933e-01) (8, 8.17890125007174506599e-01) (9, 7.49602294244546052404e-01) (10, 7.29961900990699241731e-01) (11, 1.30701888912881503124e+00) (12, 2.28019533919749317619e+00) (13, 2.14260816368549900091e+00) (14, -3.62077241321701981391e+00) (0, 3.60000206143482470722e+00) (1, 1.32819565950814522104e+00) (2, 2.55241369974957832412e-01) (3, 1.62675708430516285929e+00) (4, 1.09872944098847402650e+00) (5, 7.62251997282833104741e-01) (6, 1.62828474371206621818e+00) (7, 9.66346388507522080502e-01) (8, -2.03075893288609081455e-02) (9, 3.54991625260475416326e+01) (10, 1.65399346084942138191e+01) (11, -2.13775346801091181703e+00) (12, 2.01898312906342636275e-01) (13, 3.88443065040240509411e-01) (14, -2.36567690549237125142e-01) (15, -9.48081454924071920232e+00) (16, 1.90038649444675193934e+01) (17, 3.57302515045326563037e-01) (18, -1.34903647474211352275e+00) 
