FANN_FLO_2.1
num_layers=3
learning_rate=0.700000
connection_rate=1.000000
network_type=0
learning_momentum=0.000000
training_algorithm=2
train_error_function=1
train_stop_function=1
cascade_output_change_fraction=0.010000
quickprop_decay=-0.000100
quickprop_mu=1.750000
rprop_increase_factor=1.200000
rprop_decrease_factor=0.500000
rprop_delta_min=0.000000
rprop_delta_max=50.000000
rprop_delta_zero=0.100000
cascade_output_stagnation_epochs=12
cascade_candidate_change_fraction=0.010000
cascade_candidate_stagnation_epochs=12
cascade_max_out_epochs=150
cascade_min_out_epochs=50
cascade_max_cand_epochs=150
cascade_min_cand_epochs=50
cascade_num_candidate_groups=2
bit_fail_limit=1.00000000000000005551e-01
cascade_candidate_limit=1.00000000000000000000e+03
cascade_weight_multiplier=4.00000000000000022204e-01
cascade_activation_functions_count=10
cascade_activation_functions=3 5 7 8 10 11 14 15 16 17 
cascade_activation_steepnesses_count=4
cascade_activation_steepnesses=2.50000000000000000000e-01 5.00000000000000000000e-01 7.50000000000000000000e-01 1.00000000000000000000e+00 
layer_sizes=30 11 2 
scale_included=0
neurons (num_inputs, activation_function, activation_steepness)=(0, 0, 0.00000000000000000000e+00) (0, 0, 0.00000000000000000000e+00) (0, 0, 0.00000000000000000000e+00) (0, 0, 0.00000000000000000000e+00) (0, 0, 0.00000000000000000000e+00) (0, 0, 0.00000000000000000000e+00) (0, 0, 0.00000000000000000000e+00) (0, 0, 0.00000000000000000000e+00) (0, 0, 0.00000000000000000000e+00) (0, 0, 0.00000000000000000000e+00) (0, 0, 0.00000000000000000000e+00) (0, 0, 0.00000000000000000000e+00) (0, 0, 0.00000000000000000000e+00) (0, 0, 0.00000000000000000000e+00) (0, 0, 0.00000000000000000000e+00) (0, 0, 0.00000000000000000000e+00) (0, 0, 0.00000000000000000000e+00) (0, 0, 0.00000000000000000000e+00) (0, 0, 0.00000000000000000000e+00) (0, 0, 0.00000000000000000000e+00) (0, 0, 0.00000000000000000000e+00) (0, 0, 0.00000000000000000000e+00) (0, 0, 0.00000000000000000000e+00) (0, 0, 0.00000000000000000000e+00) (0, 0, 0.00000000000000000000e+00) (0, 0, 0.00000000000000000000e+00) (0, 0, 0.00000000000000000000e+00) (0, 0, 0.00000000000000000000e+00) (0, 0, 0.00000000000000000000e+00) (0, 0, 0.00000000000000000000e+00) (30, 6, 5.00000000000000000000e-01) (30, 6, 5.00000000000000000000e-01) (30, 6, 5.00000000000000000000e-01) (30, 6, 5.00000000000000000000e-01) (30, 6, 5.00000000000000000000e-01) (30, 6, 5.00000000000000000000e-01) (30, 6, 5.00000000000000000000e-01) (30, 6, 5.00000000000000000000e-01) (30, 6, 5.00000000000000000000e-01) (30, 6, 5.00000000000000000000e-01) (0, 6, 0.00000000000000000000e+00) (11, 6, 5.00000000000000000000e-01) (0, 6, 0.00000000000000000000e+00) 
connections (connected_to_neuron, weight)=(0, 2.41501732062232621345e+00) (1, -5.44124135497724009669e-02) (2, -8.68007691327250668900e-02) (3, 5.80958759661997226065e-02) (4, 3.40991078580267286888e-03) (5, -1.06976805833184029915e+00) (6, -5.55111607393111512465e+01) (7, -6.39465251803474687975e-01) (8, 5.45326746539380249890e-02) (9, -6.10915097923964978133e-02) (10, -5.63335599805880535285e-02) (11, -2.65703783002851495754e-02) (12, -1.07135156582100522782e-02) (13, 7.74333327404221477552e-02) (14, 3.82515614148512594905e-01) (15, 1.56165454914008988707e-01) (16, -1.44652732835146263790e-01) (17, -1.96704688642469260884e-01) (18, 4.63858112102268682619e-01) (19, 1.56977283165601999571e-01) (20, 1.30708613318588573460e-01) (21, -1.54800584507096411491e-01) (22, -2.55277754197837380978e-01) (23, -1.25625478761752590318e-01) (24, -1.54695820763481900473e-01) (25, 5.01862684406897963107e-01) (26, -4.17068509393049291489e-02) (27, -4.28275612450005338516e-02) (28, 2.11451071030877464640e-02) (29, 4.60905036221673725105e-01) (0, 3.43329922338087234479e+00) (1, -3.74755557316901743992e-02) (2, 1.63937960129614083982e-02) (3, 5.95443848830099833891e-02) (4, -5.11937323648097020179e-02) (5, 4.40472448083167489319e-01) (6, -1.85407049182622585271e+00) (7, 3.81937844871579834649e-01) (8, -1.04844000356260361184e-01) (9, -1.04902394491121764286e-02) (10, -1.41905983541388575758e-02) (11, -3.93390186825881352228e-02) (12, -1.62035859809952609289e-01) (13, 1.19375059977315400861e-01) (14, 1.61120035110459913774e-01) (15, 3.50340902303706708265e-02) (16, 3.70057267526713751238e-01) (17, 2.63355290514829920578e-01) (18, -1.53017737459714947557e-01) (19, -1.44683103255376262208e-03) (20, 4.11374680333863762538e-01) (21, 3.43053766274313221007e-01) (22, 3.57714277388020640558e-01) (23, 2.41265292765329153468e-01) (24, 4.27231678038185513913e-01) (25, 1.21566538607635735159e-01) (26, -7.63905739076483764061e-02) (27, -8.99070284658519403020e-02) (28, 2.67805120490110758202e-02) (29, 4.41362954580276009575e-02) (0, -7.25992201839889528259e+00) (1, 4.82646210588195123670e-02) (2, -5.11282475196144226004e-02) (3, -6.80891068183205466768e-02) (4, 2.09641589320876259306e-02) (5, 4.27563619294076779909e+00) (6, 8.50058205015272072558e+00) (7, 4.84608613628351125868e+00) (8, -2.42694494410901129289e-01) (9, -2.26607419824513739437e-01) (10, -2.37549829752209951117e-01) (11, -2.36278808915357740883e-01) (12, -2.46275842094177827013e-01) (13, -2.27691653991884623842e-01) (14, -2.46713087682037646164e-01) (15, -2.31504608859538135723e-01) (16, -1.76358754745336696601e+01) (17, -8.26018615765380737059e+00) (18, -8.13975730314703271873e-01) (19, 6.53341330140794651626e-01) (20, -2.57719017224777857678e+01) (21, -1.19337276340162663502e+01) (22, -2.57800116388350097907e+01) (23, -6.56656359239883613554e+00) (24, -1.75737211444421959072e+01) (25, -3.77520296453684942040e-02) (26, -4.06195466302349261767e-01) (27, -4.49981809435346824522e-01) (28, -4.32294489483198762780e-01) (29, -2.10682479182450332900e+00) (0, 8.62740584815892752601e+00) (1, 1.53192194273931686643e-01) (2, 6.56650123207401653636e-02) (3, 1.30875969400865932446e-01) (4, 1.62352563908560010297e-01) (5, -2.98578594473717595648e+00) (6, 9.19048222197980657633e-01) (7, -4.14504235989635427817e-01) (8, -2.21153647170281769663e-01) (9, -3.38311246034880441780e-01) (10, -1.40576788952824632828e-01) (11, -1.59890180099422046789e-01) (12, -4.16509030302728233686e-01) (13, -1.65207005084517188909e-01) (14, -3.00448106989571306347e-01) (15, -4.27231297156047615249e-02) (16, -5.72102993950834637360e-01) (17, -1.54994560692848359906e+00) (18, 2.39575710266218322442e-01) (19, 7.57239427509188045562e-01) (20, -1.29641861501417809954e+00) (21, -9.66241972739807386539e-01) (22, -3.75078388819893249195e-01) (23, -1.69403257596936973606e+00) (24, -5.98177661685287631599e-01) (25, 6.58889669347975326374e-01) (26, -1.29440598270525258906e-01) (27, -1.51143404933244518418e-01) (28, -6.64790540207422508967e-02) (29, 2.72870479826795908629e-01) (0, -1.56711392772636348703e+00) (1, 5.93885980904827193161e-02) (2, -1.01798223668264548047e-01) (3, -7.94433489083520572027e-02) (4, -3.66060085236299681544e-02) (5, 2.45603450566537473421e+00) (6, -5.42923179460818250419e-01) (7, 4.69001121819565880422e-01) (8, 3.76708019172250982431e-02) (9, -1.07620957938437789014e-01) (10, -8.94285539694220643625e-02) (11, -8.16386471127725221741e-02) (12, -4.60860248793543009205e-02) (13, -3.38558215466924702919e-02) (14, 9.53421757526208002442e-02) (15, 1.52263182181634464801e-02) (16, 2.70908437400787793781e-01) (17, 2.53510972211041241131e-01) (18, -3.44602920972178483616e-02) (19, 5.88500810474063516808e-03) (20, 2.64036801673264487356e-01) (21, 3.87171372484458820029e-01) (22, 3.15708425478738785586e-01) (23, 1.30909488833193532464e-01) (24, 2.72684070459744742898e-01) (25, 8.22368129188112001460e-02) (26, -7.58358183656460821398e-02) (27, -8.47818404722939927831e-02) (28, -7.02761480771240815146e-02) (29, 6.32853464909397672722e-02) (0, -2.46032187240150470586e+01) (1, -9.42060965801282401699e-02) (2, -4.70251012350121899708e-02) (3, -5.86351174617806836231e-02) (4, -5.48800099397698804005e-02) (5, 7.68386272005143489139e+00) (6, 2.45882978803938101464e+01) (7, 4.30080558264845258520e+00) (8, 1.77197077704448968660e+00) (9, 1.69447150112593747373e+00) (10, 1.71524787150472768360e+00) (11, 1.73661115763972939696e+00) (12, 1.69860021131621419244e+00) (13, 1.79365499445952769619e+00) (14, 1.88145620298060967102e+00) (15, -6.52701464302947176321e-01) (16, 3.54256031295981266283e+00) (17, 2.68139915368372117044e+00) (18, 5.95131275073565113587e-01) (19, -1.74073224792517300408e+00) (20, 2.94865889900434785531e+00) (21, 3.45785786235333780780e+00) (22, 3.51220548458415127158e+00) (23, 4.03002648102754346127e+00) (24, 3.62205724004609130873e+00) (25, -8.60371149647525923498e-01) (26, 2.42007589259268929283e+00) (27, 2.43801272552681425054e+00) (28, 2.39003176354046154017e+00) (29, -7.08766543409244231810e+00) (0, 5.45711580881169666668e+00) (1, 8.07366977167268823345e-02) (2, -7.67051328896040975069e-03) (3, -2.52163921761369529129e-02) (4, 3.32926670742177202578e-02) (5, 1.58638780386353350771e+00) (6, 1.69342241988160644439e+01) (7, -1.60451497322908587240e-01) (8, 7.36371679596139194768e-02) (9, 3.42668751582235919795e-01) (10, 2.77851115883427091102e-01) (11, 2.44862196009239058148e-01) (12, 3.11110185587385068562e-01) (13, 1.59280739949365146568e-01) (14, -4.09748533992426167138e-02) (15, 4.80628712261136481487e+00) (16, 2.46662819067872435275e-01) (17, 2.76981405739728070436e-01) (18, 3.26022466084445017298e-01) (19, 1.54182298691479285901e-01) (20, 4.53106097072612443166e-02) (21, 3.50086434093005771651e-01) (22, 2.18898187634065960472e-01) (23, 9.69719959231431283264e-01) (24, 2.09383217142106559105e-01) (25, -4.63210313358044870058e-02) (26, 6.35053728220703495033e-01) (27, 6.39743717929245447884e-01) (28, 6.02882780202359080945e-01) (29, -2.16798169403165487748e-03) (0, 5.81838364898291171556e+00) (1, 9.04008746440860960769e-02) (2, 1.00277669757172810394e-01) (3, 1.98192365496918626588e-01) (4, 1.52422376006409593385e-01) (5, -5.14178467865791599678e+00) (6, 5.90493623760705599324e+00) (7, -1.55526598801396009897e+00) (8, 7.71088142329714489043e-03) (9, 4.44393287255964580806e-02) (10, -5.72303020914139218278e-02) (11, -7.82704958865492045339e-02) (12, 5.32291838734031547142e-02) (13, 1.38072396242221340223e-01) (14, 1.10859260367009423986e-01) (15, 1.49091291597262226576e-01) (16, -9.70706151307333731104e-01) (17, -1.58867947068355674922e+00) (18, 2.44377220315661003447e-01) (19, 3.50541197879945365390e-01) (20, -1.41572144313481174116e+00) (21, -7.44204441336019928421e-01) (22, -9.38699391564238205810e-01) (23, -7.59857769374598257528e-01) (24, -8.19140975574865759512e-01) (25, 4.17739769657047788076e-01) (26, 7.14100349033136849730e-02) (27, -6.16064214077092844879e-02) (28, -1.69941836612203869827e-02) (29, 2.25488075499189727369e-01) (0, 5.10528503237081743293e+00) (1, 6.74748255000987146035e-02) (2, 6.18591589914243011883e-02) (3, 1.58043038710766869243e-03) (4, 4.02356071458738889790e-02) (5, -9.19245786345868864942e+00) (6, -4.66556935695583763213e-01) (7, 7.77669264425619246595e+01) (8, 6.14315193248639382362e-02) (9, 2.66948703742623978663e-02) (10, 9.28617638040162354796e-03) (11, 4.59089207635254084594e-02) (12, 9.17661825492140093008e-02) (13, 6.05743989551613196132e-02) (14, 1.15649482676415324423e-01) (15, -6.86378388099583847115e-01) (16, -1.29727790925510011455e+00) (17, -1.64515480540865866033e+00) (18, 6.62884890804627868732e-01) (19, 3.08559119064819309397e-02) (20, -1.28659795779557217799e+00) (21, -1.48074195418999665641e+00) (22, -1.41731945678102166930e+00) (23, -1.32200367522965445133e+00) (24, -1.30751078920700702923e+00) (25, 1.18673354762169877552e-01) (26, -6.57079827801714116964e-02) (27, -8.71747805500229094866e-02) (28, -9.19507918783108307847e-02) (29, 1.20182299800088945863e-01) (0, -1.30676140257423227808e+01) (1, -1.75473559913512378028e-01) (2, -3.27723438714705300745e-02) (3, -1.44728685592376334762e-02) (4, -4.46995611165724587854e-02) (5, -4.39493450597030754778e+00) (6, 1.12678126247077514677e+00) (7, 5.55775854939571711810e+00) (8, -1.36056008920890009195e-01) (9, -1.18596552566282736896e-01) (10, -1.72386368780223953046e-01) (11, -1.29751326232004110528e-01) (12, -7.68416365192592515365e-02) (13, -5.23263148919617948618e-02) (14, 8.34448038245959033965e-02) (15, 9.23970335513004531469e-02) (16, -6.74395293797144579351e-01) (17, -1.05646210417888375410e+00) (18, -1.06517328626121710045e+00) (19, 2.27465403436030388917e+00) (20, -4.46054688647804065127e-01) (21, -8.18722044409697757850e-01) (22, -8.73827473661484388501e-01) (23, -5.11305816658847223088e-01) (24, -6.75226561982370299120e-01) (25, 1.10655513177580067108e+00) (26, -7.77022686163058362574e-01) (27, -8.52198677249428215852e-01) (28, -7.91120180256265626006e-01) (29, -6.33954686486205787332e-01) (30, -8.01476748487316426051e-01) (31, 5.99361659023771919941e-01) (32, -1.42643272716465641103e+00) (33, -3.87458526826443327984e-01) (34, 9.82702643995391422749e-01) (35, 1.08181355973581938557e+00) (36, 6.05945991525038585301e-01) (37, -3.88412375893357031398e-01) (38, 7.05247511515365133050e-01) (39, 7.07446829507865970754e-01) (40, 4.51229032761485349123e-01) 
