FANN_FLO_2.1
num_layers=3
learning_rate=0.700000
connection_rate=1.000000
network_type=0
learning_momentum=0.000000
training_algorithm=2
train_error_function=1
train_stop_function=1
cascade_output_change_fraction=0.010000
quickprop_decay=-0.000100
quickprop_mu=1.750000
rprop_increase_factor=1.200000
rprop_decrease_factor=0.500000
rprop_delta_min=0.000000
rprop_delta_max=50.000000
rprop_delta_zero=0.100000
cascade_output_stagnation_epochs=12
cascade_candidate_change_fraction=0.010000
cascade_candidate_stagnation_epochs=12
cascade_max_out_epochs=150
cascade_min_out_epochs=50
cascade_max_cand_epochs=150
cascade_min_cand_epochs=50
cascade_num_candidate_groups=2
bit_fail_limit=1.00000000000000005551e-01
cascade_candidate_limit=1.00000000000000000000e+03
cascade_weight_multiplier=4.00000000000000022204e-01
cascade_activation_functions_count=10
cascade_activation_functions=3 5 7 8 10 11 14 15 16 17 
cascade_activation_steepnesses_count=4
cascade_activation_steepnesses=2.50000000000000000000e-01 5.00000000000000000000e-01 7.50000000000000000000e-01 1.00000000000000000000e+00 
layer_sizes=8 4 2 
scale_included=0
neurons (num_inputs, activation_function, activation_steepness)=(0, 0, 0.00000000000000000000e+00) (0, 0, 0.00000000000000000000e+00) (0, 0, 0.00000000000000000000e+00) (0, 0, 0.00000000000000000000e+00) (0, 0, 0.00000000000000000000e+00) (0, 0, 0.00000000000000000000e+00) (0, 0, 0.00000000000000000000e+00) (0, 0, 0.00000000000000000000e+00) (8, 6, 5.00000000000000000000e-01) (8, 6, 5.00000000000000000000e-01) (8, 6, 5.00000000000000000000e-01) (0, 6, 0.00000000000000000000e+00) (4, 4, 5.00000000000000000000e-01) (0, 4, 0.00000000000000000000e+00) 
connections (connected_to_neuron, weight)=(0, -2.20227432157201974405e+00) (1, 8.05920681702497865295e-01) (2, 1.90217970192694041387e-01) (3, 6.52079327001588548995e-01) (4, 9.46738597528205105824e-01) (5, 4.99153373395683386260e-01) (6, 4.67329421781365772492e-01) (7, -7.63946683991448688422e-02) (0, -3.59225014282089372131e+00) (1, 1.55328334103190157656e+00) (2, 1.43497075177043376115e+00) (3, 2.60414039744025424539e-02) (4, 7.20511710829757956454e-01) (5, 5.49897590034372996115e-01) (6, 2.34286850872582386174e+00) (7, -1.25173636120639675262e+00) (0, -1.06372616696196931052e+00) (1, 4.08311971425416586623e-01) (2, 3.34293524177179557366e-01) (3, 5.50216589763181773698e-01) (4, 3.51071968388603938838e-01) (5, 4.67828575824978332154e-01) (6, 5.73246162031952666283e-01) (7, -7.14411212790502098136e-02) (8, 4.04188870575663994344e+00) (9, 1.88111954573090613962e+01) (10, 4.00399839228815834780e-01) (11, -1.72955263297507211284e+00) 
