FANN_FLO_2.1
num_layers=3
learning_rate=0.700000
connection_rate=1.000000
network_type=0
learning_momentum=0.000000
training_algorithm=2
train_error_function=1
train_stop_function=1
cascade_output_change_fraction=0.010000
quickprop_decay=-0.000100
quickprop_mu=1.750000
rprop_increase_factor=1.200000
rprop_decrease_factor=0.500000
rprop_delta_min=0.000000
rprop_delta_max=50.000000
rprop_delta_zero=0.100000
cascade_output_stagnation_epochs=12
cascade_candidate_change_fraction=0.010000
cascade_candidate_stagnation_epochs=12
cascade_max_out_epochs=150
cascade_min_out_epochs=50
cascade_max_cand_epochs=150
cascade_min_cand_epochs=50
cascade_num_candidate_groups=2
bit_fail_limit=1.00000000000000005551e-01
cascade_candidate_limit=1.00000000000000000000e+03
cascade_weight_multiplier=4.00000000000000022204e-01
cascade_activation_functions_count=10
cascade_activation_functions=3 5 7 8 10 11 14 15 16 17 
cascade_activation_steepnesses_count=4
cascade_activation_steepnesses=2.50000000000000000000e-01 5.00000000000000000000e-01 7.50000000000000000000e-01 1.00000000000000000000e+00 
layer_sizes=14 11 2 
scale_included=0
neurons (num_inputs, activation_function, activation_steepness)=(0, 0, 0.00000000000000000000e+00) (0, 0, 0.00000000000000000000e+00) (0, 0, 0.00000000000000000000e+00) (0, 0, 0.00000000000000000000e+00) (0, 0, 0.00000000000000000000e+00) (0, 0, 0.00000000000000000000e+00) (0, 0, 0.00000000000000000000e+00) (0, 0, 0.00000000000000000000e+00) (0, 0, 0.00000000000000000000e+00) (0, 0, 0.00000000000000000000e+00) (0, 0, 0.00000000000000000000e+00) (0, 0, 0.00000000000000000000e+00) (0, 0, 0.00000000000000000000e+00) (0, 0, 0.00000000000000000000e+00) (14, 6, 5.00000000000000000000e-01) (14, 6, 5.00000000000000000000e-01) (14, 6, 5.00000000000000000000e-01) (14, 6, 5.00000000000000000000e-01) (14, 6, 5.00000000000000000000e-01) (14, 6, 5.00000000000000000000e-01) (14, 6, 5.00000000000000000000e-01) (14, 6, 5.00000000000000000000e-01) (14, 6, 5.00000000000000000000e-01) (14, 6, 5.00000000000000000000e-01) (0, 6, 0.00000000000000000000e+00) (11, 6, 5.00000000000000000000e-01) (0, 6, 0.00000000000000000000e+00) 
connections (connected_to_neuron, weight)=(0, -2.73980170108905851656e-01) (1, -4.89620992779460570410e-02) (2, -5.50004223227229735449e-02) (3, -1.74252314293357385422e-01) (4, -1.78235893869372857834e-01) (5, -1.53617298020077952536e-01) (6, -1.46982457138701616550e-01) (7, 1.82801918997614176732e+00) (8, 1.05712774983454577127e-01) (9, -2.18079029336865626298e-01) (10, 1.97123463934338438719e+00) (11, -8.92269024134242361157e-02) (12, -3.42342164884294863914e-01) (13, -5.99573408015771081025e-01) (0, -2.70145496940013218889e-01) (1, -1.07457080639792312837e-01) (2, -1.45781660236311755297e-01) (3, -1.06741266108942856050e-01) (4, -2.45135815515049801383e-02) (5, -5.68057607362315933330e-02) (6, -6.46772165204202997835e-02) (7, 1.96339588239735407527e+00) (8, -2.68111899941730735808e-01) (9, -1.76370498133820219344e-01) (10, 1.70168701016908907597e+00) (11, -1.23980225014742595491e-01) (12, -1.40819453398663974042e-01) (13, -5.54692287691636254365e-01) (0, 1.31639627074041920540e-01) (1, 2.43544129114517088341e-01) (2, 1.73878197949298735070e-01) (3, 7.23840197733724988183e-02) (4, 2.06063238363632217354e-01) (5, -3.16082857176395726206e-01) (6, 2.21257768384283487473e-01) (7, -2.97503764913519397339e+00) (8, 7.90229657843717081533e+00) (9, 3.19842010310781466043e-01) (10, -2.80169038263629666119e+00) (11, 2.12024221227196385531e-01) (12, 2.73530321208617199780e-01) (13, 3.87975267216538188819e-02) (0, 1.32617261521319113049e-01) (1, 8.45578551924551780061e-02) (2, 1.28673845592769536816e-01) (3, -6.77103393909079739887e-03) (4, -9.55132984754187945586e-03) (5, 2.17188665305413884654e-02) (6, 1.06339346490726960326e-01) (7, -1.70542692879018953356e+00) (8, 1.69151707434992165657e-01) (9, 1.03750014763152140218e-01) (10, -1.04044516747756166097e+00) (11, 5.25118495214610195299e-02) (12, 3.03392568152146602234e-01) (13, 1.61184463972802727305e-01) (0, 6.66023812205603471526e-01) (1, 4.89994652657358475967e-01) (2, 5.48048183410017597517e-01) (3, 5.67500405101626026472e-01) (4, 4.77946460335104295059e-01) (5, 8.60321959241355016523e-01) (6, 7.17365098396445688422e-01) (7, -2.00017901724944291431e+00) (8, 1.10729537031026414873e+00) (9, 8.72745143176114512862e-01) (10, -2.46898919848039533065e+00) (11, 6.13658909497689419865e-01) (12, 7.60611770710472145929e-01) (13, 3.19988246922788732718e+00) (0, 1.28433530601688078443e-01) (1, 7.44585329384397504038e-02) (2, 3.84346486039871017282e-03) (3, 1.17157251545865467857e-01) (4, -2.00923225193429498547e-02) (5, 2.94677999665848400213e-01) (6, 1.81505063013234990699e-01) (7, -2.00743456859245128499e+00) (8, 1.72478664724486607795e+00) (9, 1.30081528179661815026e-01) (10, -3.16569442672906387060e+00) (11, 1.56491310758762297572e-01) (12, 1.29511511939216394929e-01) (13, 1.31862860495801537120e-01) (0, 3.89838199999821222175e-01) (1, 1.98105736424671191598e-01) (2, 2.43395923425899413095e-01) (3, 2.13658868124233153329e-01) (4, 2.19808294226871397958e-01) (5, 5.35687656691068880832e-01) (6, -3.29118757983196064121e-01) (7, -3.38619544002242278680e+00) (8, 8.00566256839189804850e+00) (9, 4.00568045217150683901e-02) (10, -3.18872579690390622886e+00) (11, -2.47983354618299206562e-01) (12, -1.62231446485661928714e-01) (13, 6.93762978742032188073e-01) (0, 1.89391025022854792015e-01) (1, 5.44165679902624335740e-02) (2, 5.82346105665754315561e-02) (3, -3.78150402597671100174e-03) (4, 1.54342384049375003219e-01) (5, 1.92194346558646922407e-01) (6, 1.68452494770454624939e-01) (7, -1.14827411849442695413e+00) (8, 3.18882448721553579674e-01) (9, 1.73664958529488627770e-01) (10, -2.60958354913799661645e+00) (11, 1.46042543828002829853e-01) (12, 3.14191156547265315613e-01) (13, 7.16038386771637030970e-02) (0, 2.76082928808527139353e-01) (1, 2.95012147646054267991e-01) (2, 2.39923098604782947252e-01) (3, 2.85852582674130439866e-01) (4, 2.37139256219967731187e-01) (5, 3.70524475381273254992e-01) (6, 1.89225957208106893015e-01) (7, -4.04205217960118545761e+00) (8, 9.04703329312589055178e+00) (9, 3.14075113626389623711e-01) (10, -4.34128681576379982232e+00) (11, 1.05422214084098769815e-01) (12, 8.52314917534221616613e-01) (13, 8.49671136524075221175e-01) (0, 8.78226210941953966405e-01) (1, 2.82522660268043401821e-01) (2, 2.51816645783876247311e-01) (3, 3.05186238659118425076e-01) (4, 3.62406511378978446469e-01) (5, 1.16164226149750582362e-01) (6, 2.52107556913392150122e-01) (7, -2.19726092526176053354e+00) (8, -6.89552478548615011000e-01) (9, 1.27873959159109547301e-02) (10, -2.29063989059219830224e+00) (11, 2.67244005066875289778e-01) (12, -1.39074101647636505508e-01) (13, 5.02318073941908638247e-01) (14, 6.36549778010544686779e-01) (15, 6.46598730669632804080e-01) (16, 4.70325606203431612062e-01) (17, -1.06370849550039059395e-01) (18, -1.10399139532337209335e-01) (19, -8.55279159514852338475e-02) (20, 3.59822626642097298522e-01) (21, -7.50157360349927859744e-02) (22, 5.65072996361300261547e-01) (23, -3.57452455570684002328e-01) (24, 2.30193981759695104339e-01) 
