FANN_FLO_2.1
num_layers=3
learning_rate=0.700000
connection_rate=1.000000
network_type=0
learning_momentum=0.000000
training_algorithm=2
train_error_function=1
train_stop_function=1
cascade_output_change_fraction=0.010000
quickprop_decay=-0.000100
quickprop_mu=1.750000
rprop_increase_factor=1.200000
rprop_decrease_factor=0.500000
rprop_delta_min=0.000000
rprop_delta_max=50.000000
rprop_delta_zero=0.100000
cascade_output_stagnation_epochs=12
cascade_candidate_change_fraction=0.010000
cascade_candidate_stagnation_epochs=12
cascade_max_out_epochs=150
cascade_min_out_epochs=50
cascade_max_cand_epochs=150
cascade_min_cand_epochs=50
cascade_num_candidate_groups=2
bit_fail_limit=1.00000000000000005551e-01
cascade_candidate_limit=1.00000000000000000000e+03
cascade_weight_multiplier=4.00000000000000022204e-01
cascade_activation_functions_count=10
cascade_activation_functions=3 5 7 8 10 11 14 15 16 17 
cascade_activation_steepnesses_count=4
cascade_activation_steepnesses=2.50000000000000000000e-01 5.00000000000000000000e-01 7.50000000000000000000e-01 1.00000000000000000000e+00 
layer_sizes=14 11 2 
scale_included=0
neurons (num_inputs, activation_function, activation_steepness)=(0, 0, 0.00000000000000000000e+00) (0, 0, 0.00000000000000000000e+00) (0, 0, 0.00000000000000000000e+00) (0, 0, 0.00000000000000000000e+00) (0, 0, 0.00000000000000000000e+00) (0, 0, 0.00000000000000000000e+00) (0, 0, 0.00000000000000000000e+00) (0, 0, 0.00000000000000000000e+00) (0, 0, 0.00000000000000000000e+00) (0, 0, 0.00000000000000000000e+00) (0, 0, 0.00000000000000000000e+00) (0, 0, 0.00000000000000000000e+00) (0, 0, 0.00000000000000000000e+00) (0, 0, 0.00000000000000000000e+00) (14, 6, 5.00000000000000000000e-01) (14, 6, 5.00000000000000000000e-01) (14, 6, 5.00000000000000000000e-01) (14, 6, 5.00000000000000000000e-01) (14, 6, 5.00000000000000000000e-01) (14, 6, 5.00000000000000000000e-01) (14, 6, 5.00000000000000000000e-01) (14, 6, 5.00000000000000000000e-01) (14, 6, 5.00000000000000000000e-01) (14, 6, 5.00000000000000000000e-01) (0, 6, 0.00000000000000000000e+00) (11, 6, 5.00000000000000000000e-01) (0, 6, 0.00000000000000000000e+00) 
connections (connected_to_neuron, weight)=(0, 1.83498200318677279208e-01) (1, 3.98423410365661589960e-01) (2, 5.25665819058498295924e-01) (3, 4.88875477919658629755e-01) (4, 5.82190274605831059596e-01) (5, -2.03265844305883724985e+00) (6, -2.23823177052249144836e+00) (7, -1.94187713795478211765e+00) (8, -2.13533229028712501218e+00) (9, -2.09985497974927293185e+00) (10, -2.23875004035939406677e+00) (11, -2.07249259224067960972e+00) (12, -2.09604081531893049473e+00) (13, 3.48581196107809743179e-02) (0, -3.64774421358041944785e-01) (1, 2.03650690519882465734e-01) (2, 1.79542630815578724279e-01) (3, 2.74456478560043570791e-01) (4, 9.32943596483003928510e-02) (5, -4.33551455477939606808e-01) (6, -3.51077208856807709836e-01) (7, -3.52534378508792878293e-01) (8, -4.43197651396261216306e-01) (9, -1.94652214285365471325e-01) (10, -4.07314831952320099973e-01) (11, -3.05947999099956513547e-01) (12, -3.60156918505893708371e-01) (13, 1.32073064104861082058e-01) (0, 2.84353714725835149402e-01) (1, 4.37575369486888854365e-01) (2, 5.66918461928447636744e-01) (3, 4.31353650400718657831e-01) (4, 4.41284391442617385248e-01) (5, -2.07587176581751142734e+00) (6, -2.18977007997740980016e+00) (7, -2.08554067843730317477e+00) (8, -2.12950293740164031675e+00) (9, -1.80590054163455149272e+00) (10, -2.30881513638009217004e+00) (11, -2.08580795695911680454e+00) (12, -2.14615664651523818662e+00) (13, 1.02166396502489362219e-01) (0, 1.81359668532750806236e+00) (1, 9.31361944132693464482e-01) (2, 9.35348034554370100224e-01) (3, 9.18425948077090437138e-01) (4, 8.59749202334531004155e-01) (5, 7.09040554092117059071e+00) (6, 9.17858700290104678743e+00) (7, 7.50303488760021242143e+00) (8, 9.16735652670046619050e+00) (9, 7.94148105767330214633e+00) (10, 9.08652650400778583162e+00) (11, 9.22447164192578128450e+00) (12, 9.17054170951029590242e+00) (13, 1.03440029005693018282e-01) (0, 2.57969837925298040027e-01) (1, 4.28939051339706389765e-01) (2, 4.29731614301284758906e-01) (3, 5.05825288007339390894e-01) (4, 4.71800043592533080439e-01) (5, -2.17180596312414397886e+00) (6, -2.17282026243914838659e+00) (7, -1.99593089901978881784e+00) (8, -2.06865044703613554233e+00) (9, -2.04103602850015075632e+00) (10, -2.16286889446486707556e+00) (11, -2.01912611743341763315e+00) (12, -2.08733769526611601108e+00) (13, 1.78047542397016783644e-01) (0, 1.23002145723354244788e-01) (1, -3.58633076388436347615e-02) (2, -9.73909323651391406473e-02) (3, -1.07549050225694761695e-01) (4, -1.20006227268655868423e-01) (5, 2.76637684489149660028e-01) (6, 3.56130413026862491233e-01) (7, 2.35694759373000217728e-01) (8, 2.07332975478225101096e-01) (9, 1.36772756087830849037e-01) (10, 2.40698825503248753366e-01) (11, 1.91643718565363468942e-01) (12, 3.09594243080668796164e-01) (13, 9.33129338921034473531e-02) (0, 1.61486871830088946078e-01) (1, 3.98042618641933410029e-01) (2, 4.54756479123910872797e-01) (3, 5.82958459267696293971e-01) (4, 4.32267289022287337641e-01) (5, -2.08396794667373930210e+00) (6, -2.22121547145356368347e+00) (7, -2.00494800889069946237e+00) (8, -2.07674663534294401401e+00) (9, -2.07248141252572404269e+00) (10, -2.28227622417320397119e+00) (11, -2.16636981835495223692e+00) (12, -2.19491475058306928503e+00) (13, 2.04586450878614684035e-01) (0, 2.88164925119740789050e-01) (1, 4.12059656689247100214e-01) (2, 5.60167028913578057825e-01) (3, 4.20393466363033263544e-01) (4, 5.36619871268352421900e-01) (5, -2.15054205080400695493e+00) (6, -2.24201689643372725769e+00) (7, -1.93726378315265046481e+00) (8, -2.16766630133520354917e+00) (9, -2.08523745470816956882e+00) (10, -2.25358603877534058313e+00) (11, -2.16066817959676971128e+00) (12, -2.08676846345793043369e+00) (13, 2.25119785704558164618e-02) (0, 2.31847200832230898593e-01) (1, 3.96232582042297332148e-01) (2, 5.65626233229717167994e-01) (3, 5.56835814724048638880e-01) (4, 3.99560815999587981562e-01) (5, -2.14807333817611922910e+00) (6, -2.17020492983569379675e+00) (7, -2.07718723648364411716e+00) (8, -2.05301401039491970835e+00) (9, -2.06986608737285004977e+00) (10, -2.16353254748095746862e+00) (11, -2.15073337426315536192e+00) (12, -2.22374480945576857849e+00) (13, 2.03922782961363097121e-01) (0, 1.56557679465873095248e-01) (1, 4.17195714423736541132e-01) (2, 5.86042269477924260279e-01) (3, 4.08224351117691008906e-01) (4, 4.34540982703050582270e-01) (5, -2.02224674841295559702e+00) (6, -2.28138139454235222559e+00) (7, -1.93785448008353577976e+00) (8, -1.99376153966318447885e+00) (9, -2.00184395545298965402e+00) (10, -2.15651559067477460729e+00) (11, -1.98240056654344876108e+00) (12, -2.02693554779421170053e+00) (13, 3.96299333610480031265e-02) (14, -4.58536524966318581598e-01) (15, -7.76978866535776510616e-04) (16, -4.28561758890707467096e-01) (17, 1.16003040206348329022e+00) (18, -5.04366663964024963818e-01) (19, -4.53892825816889014523e-03) (20, -4.56887287767163752239e-01) (21, -4.22807165130932305352e-01) (22, -5.03409052015773239575e-01) (23, -4.29808710411150429742e-01) (24, 4.88288272685977076115e-01) 
